{"version": 1, "arch": "direct", "config": {"nblocks": 4, "kernel_size": 13, "dilation_growth": 10, "channel_width": 32, "causal": true, "nparams": 0, "sample_rate": 48000, "receptive_field": 13333}, "gen": [{"in_features": 0, "out_features": 16, "weight": [[], [], [], [], [], [], [], [], [], [], [], [], [], [], [], []], "bias": [0.0, 0.0, 0.0, 0.0, 0.0, 0.0, 0.0, 0.0, 0.0, 0.0, 0.0, 0.0, 0.0, 0.0, 0.0, 0.0]}, {"in_features": 16, "out_features": 32, "weight": [[0.19272145628929138, 0.03695222735404968, -0.11670997738838196, 0.0637245774269104, -0.11518415808677673, -0.02931821346282959, -0.10153958201408386, 0.16584274172782898, -0.19734254479408264, -0.11525258421897888, -0.0705936849117279, -0.15031811594963074, 0.02359578013420105, -0.24691978096961975, 0.225777268409729, -0.21236705780029297], [0.19300684332847595, 0.04160478711128235, -0.08117613196372986, 0.1544874906539917, 0.03896269202232361, 0.20199084281921387, 0.02732992172241211, -0.07884329557418823, 0.06717091798782349, -0.06779485940933228, 0.10521438717842102, 0.2232055366039276, 0.14451488852500916, -0.109293133020401, 0.144316166639328, 0.04473155736923218], [0.12695875763893127, -0.15237626433372498, -0.24747711420059204, -0.09659013152122498, -0.19175571203231812, 0.20513471961021423, 0.07200783491134644, 0.10355338454246521, 0.07906529307365417, -0.0043489933013916016, 0.1956520676612854, -0.17762839794158936, 0.015740931034088135, -0.17063504457473755, 0.07708799839019775, -0.08609557151794434], [0.07660406827926636, -0.05208536982536316, 0.20734795928001404, -0.14817547798156738, -0.14909949898719788, -0.14910849928855896, 0.22486069798469543, 0.08331277966499329, 0.24056267738342285, -0.20631906390190125, -0.24796903133392334, -0.19559094309806824, -0.16817227005958557, 0.10126003623008728, 0.0895189642906189, 0.20773109793663025], [-0.129106342792511, -0.17042794823646545, 0.13264453411102295, -0.10105112195014954, 0.1517309546470642, -0.05932515859603882, 0.14301148056983948, -0.19424200057983398, -0.12616243958473206, 0.0762191116809845, 0.05285188555717468, -0.06373968720436096, 0.1490173637866974, 0.16995230317115784, -0.1812933385372162, -0.13346704840660095], [0.2289154827594757, -0.08435812592506409, -0.0886290967464447, -0.24189865589141846, -0.14316755533218384, 0.062450915575027466, -0.03299829363822937, -0.18147149682044983, 0.005864173173904419, -0.17077037692070007, -0.21209916472434998, -0.13766565918922424, -0.2188030183315277, -0.1591845154762268, 0.24990221858024597, 0.04721873998641968], [0.0770399272441864, -0.23317107558250427, -0.16419345140457153, -0.08321395516395569, 0.0390927791595459, -0.21998032927513123, -0.10771825909614563, -0.1496671438217163, 0.0006928145885467529, -0.093025803565979, -0.017323940992355347, -0.1694074273109436, -0.17159879207611084, -0.14585044980049133, -0.08557435870170593, -0.19732022285461426], [0.2096174657344818, -0.0496160089969635, 0.21509918570518494, 0.07789552211761475, -0.2116992473602295, 0.17300879955291748, -0.06878620386123657, -0.09583151340484619, -0.2075176239013672, -0.24854016304016113, 0.07152765989303589, -0.0546109676361084, 0.09733077883720398, -0.20516586303710938, 0.18560728430747986, -0.18351343274116516], [-0.043168336153030396, 0.05221742391586304, 0.1290629506111145, 0.20182758569717407, 0.22773981094360352, -0.1982305347919464, 0.0629168152809143, -0.10753148794174194, -0.027396202087402344, -0.18712252378463745, 0.2277146577835083, -0.18348762392997742, 0.13361281156539917, 0.08785989880561829, 0.08123898506164551, -0.13516154885292053], [0.22723788022994995, 0.05493760108947754, 0.032160013914108276, -0.22031369805335999, 0.10494711995124817, -0.037505149841308594, -0.11453106999397278, 0.21473664045333862, 0.055737197399139404, -0.13831910490989685, -0.12653473019599915, -0.011938929557800293, 0.139590322971344, -0.0638834536075592, -0.14264371991157532, -0.08561071753501892], [-0.18676871061325073, 0.08915811777114868, 0.1935100555419922, -0.23536008596420288, 0.05806267261505127, 0.1291479468345642, 0.04533234238624573, -0.0890311598777771, 0.13048553466796875, 0.13137829303741455, 0.09348180890083313, -0.04393035173416138, -0.06620031595230103, 0.026745229959487915, -0.044163525104522705, -0.07450026273727417], [0.15980172157287598, 0.21484988927841187, -0.024749338626861572, -0.055974215269088745, 0.0036480724811553955, -0.014927059412002563, 0.06010282039642334, 0.07005840539932251, -0.22706419229507446, -0.09225943684577942, 0.21053236722946167, 0.09738874435424805, -0.012434393167495728, -0.15072643756866455, -0.15295127034187317, -0.22394171357154846], [-0.08149060606956482, 0.08442604541778564, 0.1594054102897644, 0.11542433500289917, -0.220986008644104, -0.15034061670303345, -0.03945416212081909, 0.24183738231658936, 0.03616437315940857, -0.06474268436431885, 0.10342881083488464, -0.09522038698196411, -0.1618139147758484, 0.18247181177139282, -0.11367544531822205, -0.05011668801307678], [-0.2487010657787323, 0.16731765866279602, 0.18940865993499756, 0.09111204743385315, -0.17431855201721191, -0.24673497676849365, -0.20304474234580994, 0.18642506003379822, 0.12002643942832947, 0.21037611365318298, 0.13096746802330017, 0.06327304244041443, -0.002448171377182007, -0.19012650847434998, -0.21419304609298706, -0.23383715748786926], [0.10234048962593079, -0.12274199724197388, -0.05031314492225647, -0.143876314163208, -0.04555588960647583, -0.17595872282981873, -0.16335391998291016, 0.08292770385742188, -0.07429909706115723, 0.15433579683303833, -0.08020219206809998, -0.18339180946350098, -0.044109731912612915, -0.12118685245513916, -0.07648539543151855, -0.23799890279769897], [0.1398727297782898, -0.17405113577842712, 0.1256544291973114, 0.11344605684280396, 0.17860817909240723, -0.1917630136013031, 0.17979919910430908, -0.11818790435791016, 0.09276729822158813, 0.23477867245674133, -0.035257965326309204, -0.001933366060256958, -0.057557642459869385, -0.20874613523483276, 0.11997571587562561, -0.24817946553230286], [0.15519997477531433, 0.1870562732219696, 0.23642659187316895, -0.0589698851108551, -0.20541048049926758, 0.0562075674533844, 0.1381068229675293, -0.24882718920707703, -0.05674591660499573, -0.14986386895179749, -0.021865934133529663, -0.12305337190628052, -0.10219189524650574, -0.07936471700668335, -0.23757600784301758, 0.20512688159942627], [0.20958280563354492, -0.0392172634601593, -0.028470516204833984, -0.10202997922897339, -0.22576570510864258, -0.2432861030101776, 0.09291461110115051, -0.1372615396976471, -0.16071924567222595, -0.019505798816680908, -0.08325278759002686, -0.08088019490242004, 0.008032798767089844, -0.053028106689453125, -0.08607810735702515, -0.11970147490501404], [-0.203456848859787, 0.20962679386138916, -0.1000467836856842, 0.06624487042427063, -0.08674147725105286, 0.020315319299697876, 0.2330751121044159, 0.11518067121505737, -0.21664991974830627, 0.09922569990158081, 0.23731070756912231, 0.06577083468437195, 0.1676061749458313, 0.24647188186645508, -0.038307249546051025, 0.051888614892959595], [-0.17375877499580383, -0.05151927471160889, 0.18514594435691833, 0.1281614601612091, -0.15819725394248962, -0.20047125220298767, -0.17084091901779175, -0.24671941995620728, -0.19290974736213684, -0.06182435154914856, 0.16871929168701172, 0.04184556007385254, -0.1901513636112213, -0.2005559802055359, 0.124368816614151, -0.1859603226184845], [-0.030781865119934082, 0.11992651224136353, -0.11570301651954651, -0.02725997567176819, -0.02176111936569214, -0.059145838022232056, -0.12675803899765015, -0.22285959124565125, -0.20208925008773804, -0.13386541604995728, 0.2414594292640686, -0.12075367569923401, -0.16788199543952942, 0.060598552227020264, 0.06890258193016052, 0.1369774341583252], [0.19003009796142578, 0.1392185389995575, -0.24787524342536926, 0.022172152996063232, 0.15143826603889465, -0.023106366395950317, -0.14731979370117188, 0.23833495378494263, -0.09350696206092834, -0.14233613014221191, -0.225388765335083, 0.011167079210281372, 0.11078327894210815, 0.055340707302093506, 0.04943743348121643, -0.18959686160087585], [-0.2334718108177185, 0.004402339458465576, 0.2279585301876068, 0.14423033595085144, -0.14555856585502625, -0.032452136278152466, -0.1842958927154541, -0.12060585618019104, 0.045274585485458374, 0.13613462448120117, 0.2070923149585724, -0.22952651977539062, 0.16715380549430847, -0.1763230264186859, 0.09361681342124939, 0.21156132221221924], [0.003510594367980957, 0.22745224833488464, -0.21301287412643433, -0.09548979997634888, 0.1458132266998291, -0.054466962814331055, -0.051175057888031006, -0.1041979193687439, 0.17232653498649597, 0.12262579798698425, 0.0801125168800354, -0.14049091935157776, -0.20293739438056946, 0.027040153741836548, 0.07406970858573914, -0.11542797088623047], [-0.06994941830635071, 0.16884192824363708, 0.01991492509841919, 0.011279582977294922, -0.0615251362323761, -0.22639742493629456, -0.23506435751914978, -0.11950376629829407, -0.12708035111427307, 0.07788839936256409, -0.07277768850326538, -0.09780552983283997, 0.23835745453834534, 0.08708071708679199, 0.178225576877594, -0.12102818489074707], [-0.10211670398712158, 0.09188511967658997, -0.166568785905838, -0.163426011800766, -0.012074917554855347, -0.09144017100334167, -0.1874144971370697, 0.1482897400856018, 0.20104071497917175, 0.04055583477020264, -0.04352831840515137, -0.23156824707984924, -0.09105968475341797, 0.06364640593528748, 0.11788272857666016, -0.031604379415512085], [-0.098838210105896, 0.13930651545524597, -0.19909992814064026, 0.158004492521286, -0.09698870778083801, 0.003826349973678589, -0.04940396547317505, 0.030309736728668213, -0.07554960250854492, 0.18178173899650574, -0.006499290466308594, 0.19514986872673035, 0.24037012457847595, -0.12179774045944214, -0.18237727880477905, 0.20057550072669983], [0.195903480052948, -0.19088682532310486, -0.019325822591781616, -0.24653157591819763, -0.20464977622032166, 0.04828563332557678, 0.06650865077972412, 0.052995264530181885, -0.06804117560386658, 0.23064443469047546, 0.03574448823928833, -0.14752119779586792, -0.014153450727462769, 0.060036301612854004, 0.087548166513443, -0.17677021026611328], [0.09369739890098572, -0.1277204155921936, -0.2077350914478302, -0.1365518569946289, 0.24110233783721924, 0.21371445059776306, 0.223871111869812, 0.14675280451774597, 0.1888623833656311, -0.03346243500709534, -0.13755697011947632, 0.12491413950920105, -0.1295456886291504, -0.1687164604663849, -0.0798335075378418, 0.052464812994003296], [0.1286991536617279, -0.09710225462913513, -0.14714157581329346, 0.033723264932632446, -0.14735829830169678, -0.16276535391807556, 0.130312979221344, -0.041996151208877563, 0.22844624519348145, 0.24319565296173096, 0.07477638125419617, 0.08603942394256592, 0.0575709342956543, 0.003915220499038696, -0.018183112144470215, 0.0034360289573669434], [0.093356192111969, 0.232442706823349, -0.0647897720336914, -0.10567894577980042, -0.06054121255874634, -0.1207810640335083, 0.04250967502593994, 0.1866120994091034, 0.19549435377120972, 0.11478137969970703, -0.18398287892341614, -0.13417619466781616, -0.05492785573005676, -0.04608103632926941, 0.020561933517456055, -0.22949287295341492], [0.07781118154525757, -0.19071802496910095, -0.1581861674785614, -0.20784562826156616, 0.21782991290092468, -0.23673495650291443, 0.18859168887138367, -0.00840422511100769, -0.02907469868659973, 0.1563696265220642, -0.023106902837753296, 0.15678852796554565, 0.18075373768806458, -0.21705251932144165, 0.0961959958076477, 0.04719474911689758]], "bias": [-0.0020923481788486242, 0.6496531367301941, 0.6739950180053711, -0.12026670575141907, -0.03198528289794922, 0.7941691875457764, 0.7226880788803101, -0.009392112493515015, -0.23513272404670715, 0.6719037294387817, -0.17024338245391846, 0.7790868878364563, -0.15177184343338013, -0.018050402402877808, -0.055485665798187256, 0.6395318508148193, 0.864559531211853, -0.0019826185889542103, 0.803852915763855, 0.7921128273010254, 0.6933549642562866, -0.0863378643989563, -0.05591416358947754, 0.789899468421936, -0.06821691989898682, 0.7431758642196655, -0.05461692810058594, -0.16956308484077454, 0.7324181795120239, 0.6115531325340271, 0.6539255380630493, 0.9052680134773254]}, {"in_features": 32, "out_features": 32, "weight": [[0.12069126963615417, 0.1675809621810913, 0.009461588226258755, -0.15206553041934967, -0.12401366233825684, -0.1098090410232544, -0.15578417479991913, -0.08860887587070465, -0.16273492574691772, -0.16309687495231628, -0.10563372075557709, -0.17427244782447815, -0.10850773751735687, 0.06740648299455643, 0.1474410891532898, -0.05258449539542198, -0.05142058804631233, 0.09439049661159515, -0.08721647411584854, -0.08358577638864517, 0.10891734063625336, -0.1540258228778839, 0.021615326404571533, 0.1561613380908966, 0.030314816161990166, 0.04807332530617714, -0.10295318067073822, -0.0024389117024838924, 0.0097199697047472, 0.04338705912232399, 0.0686858743429184, 0.15360619127750397], [-0.09200625866651535, 0.7267431020736694, 0.6083312034606934, -0.13984166085720062, -0.014155861921608448, 0.4612293839454651, 0.7542244791984558, 0.020473357290029526, -0.09527522325515747, 0.8608385920524597, -0.16730640828609467, 0.5520889759063721, -0.034439411014318466, -0.15021604299545288, -0.11241023987531662, 0.6785488128662109, 0.7564448118209839, 0.1929769217967987, 0.7652389407157898, 0.521654486656189, 0.49200326204299927, 0.15427181124687195, 0.06252899765968323, 0.6756603717803955, 0.023923562839627266, 0.5188490748405457, -0.059023160487413406, 0.1701684445142746, 0.6284626126289368, 0.7085115313529968, 0.49889078736305237, 0.5291495323181152], [0.016262874007225037, 0.7007604837417603, 0.7619529366493225, 0.07194089889526367, -0.17291894555091858, 0.7420961260795593, 0.5924734473228455, -0.08627605438232422, 0.06786628812551498, 0.9912056922912598, -0.048314597457647324, 0.622088611125946, -0.15984782576560974, -0.0911562591791153, -0.1547922044992447, 0.7562993168830872, 0.7321174144744873, -0.1632900983095169, 0.8840110301971436, 0.813880980014801, 0.5077281594276428, -0.0844343826174736, 0.05765663459897041, 0.7105972170829773, -0.019264502450823784, 0.6667143106460571, 0.14199049770832062, -0.0988178551197052, 0.9034754037857056, 0.8311513066291809, 0.7657607197761536, 0.8401906490325928], [-0.0014535264344885945, 0.4810357093811035, 0.5326960682868958, 0.14337533712387085, -0.13116607069969177, 0.5295067429542542, 0.3280094563961029, 0.09268439561128616, 0.06531328707933426, 0.6234793066978455, 0.07587134093046188, 0.49217134714126587, 0.09781988710165024, -0.1399400532245636, -0.025960097089409828, 0.6481805443763733, 0.6699866652488708, 0.10614105314016342, 0.3926340937614441, 0.6342869400978088, 0.4418227970600128, -0.03774437680840492, -0.160674050450325, 0.5079537034034729, 0.12503889203071594, 0.5552838444709778, -0.10296428203582764, 0.05441400408744812, 0.48202428221702576, 0.7458088994026184, 0.3634132742881775, 0.44470611214637756], [-0.15064571797847748, 0.532730221748352, 0.6369314193725586, 0.17016783356666565, 0.0296889990568161, 0.6747919321060181, 0.5518122315406799, 0.10209490358829498, 0.14171519875526428, 0.7829069495201111, -0.09894610941410065, 0.6675798892974854, 0.1070852130651474, -0.08265706896781921, -0.08435843139886856, 0.4436085522174835, 0.5512120723724365, -0.13351412117481232, 0.6103776097297668, 0.5687389373779297, 0.3402306139469147, 0.04817180335521698, -0.014377343468368053, 0.6303284764289856, 0.10143262892961502, 0.37543463706970215, 0.1621217131614685, 0.14825235307216644, 0.6285422444343567, 0.45309075713157654, 0.47381123900413513, 0.4622267484664917], [-0.01513824611902237, 0.5661025643348694, 0.5214300751686096, 0.14003880321979523, -0.06620696932077408, 0.465182363986969, 0.4796593487262726, -0.1471826583147049, -0.17147690057754517, 0.3938709795475006, 0.12101206928491592, 0.24163706600666046, -0.15387241542339325, 0.09903040528297424, 0.0953761488199234, 0.6051836609840393, 0.27529555559158325, -0.11349114775657654, 0.5162186622619629, 0.566422164440155, 0.5058707594871521, 0.027692439034581184, 0.05826112627983093, 0.6009566187858582, -0.11405708640813828, 0.35689958930015564, 0.12364945560693741, -0.1209576204419136, 0.3471025824546814, 0.6102888584136963, 0.48521140217781067, 0.4694477319717407], [-0.07492510229349136, -0.0024396071676164865, 0.1617918163537979, -0.10610491782426834, 0.001389855518937111, 0.08407491445541382, -0.12203889340162277, 0.17168143391609192, -0.08831950277090073, -0.04245045408606529, -0.04783051833510399, -0.11519810557365417, -0.17346471548080444, 0.09967581927776337, 0.046964991837739944, -0.16556918621063232, -0.11377821862697601, 0.17472043633460999, 0.06757024675607681, 0.07093069702386856, -0.10576515644788742, -0.07749821245670319, -0.026685170829296112, -0.032328907400369644, -0.12113594263792038, 0.01456373743712902, 0.01756948232650757, -0.022383643314242363, 0.02450687438249588, -0.07006555050611496, 0.0460064671933651, 0.06666963547468185], [-0.09556934982538223, 0.4040488004684448, 0.6667290925979614, 0.04216773062944412, -0.08990649878978729, 0.6751715540885925, 0.44320476055145264, 0.11945628374814987, 0.08968385308980942, 0.44336947798728943, 0.11401059478521347, 0.3453735411167145, -0.09793688356876373, -0.02947130985558033, -0.11915571242570877, 0.7461053133010864, 0.47102686762809753, 0.061692215502262115, 0.37000975012779236, 0.6156142950057983, 0.4445279836654663, -0.1344689428806305, 0.025848809629678726, 0.6207002401351929, 0.15298204123973846, 0.4404681622982025, -0.08699256926774979, 0.03398759663105011, 0.6053507924079895, 0.6839955449104309, 0.6384633183479309, 0.47152814269065857], [0.09821176528930664, 0.1303359717130661, -0.046177878975868225, 0.12576906383037567, 0.08636946976184845, 0.15592637658119202, -0.1004575788974762, -0.08729391545057297, -0.05111302062869072, 0.00896722637116909, 0.10610119253396988, -0.10091520845890045, 0.08850395679473877, -0.06335347890853882, 0.10679244250059128, -0.008392870426177979, -0.15487174689769745, -0.09727064520120621, -0.12794248759746552, 0.08767461031675339, -0.1185372918844223, -0.014728722162544727, 0.03814059868454933, -0.09694340080022812, 0.05099477618932724, -0.1726088970899582, -0.126485213637352, -0.16018149256706238, -0.05347094684839249, -0.06439928710460663, 0.025313248857855797, -0.03268856927752495], [0.06127388775348663, 0.10794525593519211, 0.009262632578611374, -0.0696442723274231, -0.16553115844726562, 0.0108575988560915, -0.1414765864610672, 0.08995747566223145, 0.1181725561618805, 0.014426355250179768, 0.16587147116661072, 0.11497235298156738, 0.03743067756295204, -0.1288059949874878, 0.1579395979642868, -0.1381331831216812, -0.1367797702550888, 0.14792296290397644, 0.08287816494703293, -0.00010636760271154344, -0.041253674775362015, -0.14869852364063263, -0.01835014671087265, 0.11522030830383301, 0.04501774534583092, -0.03927047923207283, -0.036707859486341476, -0.06165658310055733, 0.05085748806595802, -0.04114856943488121, 0.06069006770849228, -0.08517267554998398], [0.08976100385189056, 0.6034243702888489, 0.5406681299209595, 0.11108170449733734, 0.1107763946056366, 0.622855007648468, 0.6073383688926697, -0.04520120844244957, -0.14966271817684174, 0.5888360738754272, -0.0015429540071636438, 0.4183630645275116, -0.029602091759443283, 0.00831430871039629, 0.1289815604686737, 0.5777722001075745, 0.40161043405532837, -0.071088045835495, 0.4400055706501007, 0.400561660528183, 0.615010678768158, 0.09362895041704178, 0.15962505340576172, 0.4922964870929718, 0.03565071150660515, 0.5539728403091431, -0.16732852160930634, 0.01578555442392826, 0.48790767788887024, 0.43321356177330017, 0.34883397817611694, 0.6222940683364868], [0.14373111724853516, 0.08193045854568481, 0.16868911683559418, -0.0717373713850975, -0.03053334727883339, 0.06693094223737717, -0.02920820750296116, -0.03468974307179451, -0.14611679315567017, 0.04749304801225662, -0.10683096200227737, 0.0064287008717656136, 0.17235295474529266, -0.054414574056863785, -0.0557185560464859, 0.10665164887905121, -0.0649925246834755, -0.015181126073002815, 0.16506320238113403, -0.07247380167245865, -0.12646785378456116, -0.09893196821212769, -0.049010567367076874, -0.08388032019138336, -0.09173503518104553, 0.0714079737663269, 0.030041029676795006, -0.05657942593097687, -0.13733983039855957, -0.055659886449575424, -0.07460668683052063, -0.05752648413181305], [-0.15947431325912476, 0.03808283805847168, -0.12988200783729553, -0.1376735419034958, -0.1444324254989624, 0.07378370314836502, -0.10642428696155548, -0.07296472787857056, 0.13856476545333862, 0.09386210143566132, 0.1013621985912323, -0.16785062849521637, -0.12676653265953064, -0.0667351484298706, 0.14603480696678162, 0.01808432675898075, -0.13221079111099243, 0.0011069448664784431, -0.13729730248451233, -0.0387316457927227, -0.048609182238578796, 0.15302880108356476, 0.05475423485040665, -0.030824750661849976, 0.0298626646399498, -0.05102933943271637, 0.06945562362670898, 0.06992647051811218, 0.047472693026065826, -0.06890347599983215, 0.1508171558380127, -0.02552124485373497], [-0.06882211565971375, 0.11071772873401642, 0.14408302307128906, 0.17592105269432068, 0.052371568977832794, -0.06026209145784378, 0.08978346735239029, 0.15166635811328888, -0.17338861525058746, -0.021900324150919914, -0.12055560201406479, 0.03294406086206436, 0.07311215996742249, -0.03651992604136467, -0.014788633212447166, 0.07956909388303757, -0.029710808768868446, -0.14845344424247742, 0.14144538342952728, -0.08897427469491959, -0.019420424476265907, 0.01667470484972, -0.010623724199831486, -0.16629135608673096, 0.08110513538122177, -0.0802975445985794, -0.0916869267821312, 0.04223468154668808, -0.09225304424762726, -0.08169905096292496, -0.059564895927906036, -0.06641104072332382], [-0.0738285705447197, -0.04767417535185814, 0.04593997821211815, -0.14305086433887482, -0.10699944943189621, 0.0025794291868805885, 0.024584002792835236, 0.09763243794441223, -0.12417571991682053, 0.056426580995321274, 0.10047806054353714, 0.09815705567598343, -0.16465361416339874, -0.06745872646570206, -0.1519511640071869, -0.1118663102388382, 0.0984615907073021, -0.0263961274176836, 0.0750790685415268, -0.10376903414726257, 0.026862967759370804, -0.10692477971315384, 0.08836925029754639, -0.07731841504573822, -0.044328369200229645, -0.1533769965171814, 0.0005839867517352104, 0.1678459644317627, 0.0858035460114479, -0.09431760758161545, 0.0023774194996804, -0.019383292645215988], [-0.10888161510229111, 0.7748456597328186, 0.6259803771972656, 0.037228647619485855, -0.07138755172491074, 0.4747673571109772, 0.6025141477584839, 0.06535627692937851, 0.03965066000819206, 0.5773455500602722, 0.1716320961713791, 0.5351918339729309, -0.10826071351766586, -0.08268069475889206, 0.1740226447582245, 0.6287546157836914, 0.536771833896637, -0.059553030878305435, 0.5365587472915649, 0.41829410195350647, 0.41211017966270447, 0.10346553474664688, 0.15122352540493011, 0.7601931095123291, -0.1276225745677948, 0.6923394203186035, -0.10941886156797409, 0.10545794665813446, 0.7338014841079712, 0.7895956635475159, 0.7166368961334229, 0.6752780675888062], [0.0034407211933285, 0.08122578263282776, -0.06324555724859238, 0.07697472721338272, -0.05681637302041054, -0.0029683182947337627, -0.15386269986629486, -0.046222615987062454, -0.09296207875013351, -0.05963045731186867, -0.11288721114397049, -0.15900076925754547, 0.01151108369231224, 0.11472439765930176, 0.16099926829338074, 0.10315877199172974, -0.09162996709346771, -0.17483386397361755, 0.06705384701490402, 0.09905044734477997, -0.151764914393425, 0.06338965892791748, 0.14946067333221436, 0.010708523914217949, -0.10650067776441574, 0.1449350267648697, 0.07548645883798599, 0.11706173419952393, -0.11955151706933975, 0.10287440568208694, -0.12075150012969971, 0.17491953074932098], [-0.04873809590935707, 0.5253202319145203, 0.4405971169471741, 0.04684767499566078, -0.02710958942770958, 0.4253319501876831, 0.28958746790885925, -0.16662605106830597, -0.06791815161705017, 0.5828861594200134, -0.04653993993997574, 0.41088297963142395, -0.06535901129245758, 0.13260890543460846, 0.1057991236448288, 0.47325366735458374, 0.26629364490509033, -0.12929853796958923, 0.3819800317287445, 0.2563798129558563, 0.49227654933929443, -0.16987811028957367, 0.07899589836597443, 0.5608155727386475, 0.08853478729724884, 0.44372186064720154, -0.1700851023197174, 0.1700402945280075, 0.36013174057006836, 0.26002833247184753, 0.548047661781311, 0.28781238198280334], [-0.01250652875751257, 0.15933111310005188, -0.12501126527786255, -0.12506774067878723, 0.0287469532340765, -0.02613631635904312, 0.038262490183115005, -0.14826354384422302, 0.00528679508715868, -0.0810927152633667, -0.08690498769283295, -0.1643354743719101, 0.09373024851083755, 0.03405364230275154, -0.14945466816425323, 0.13781793415546417, 0.05086038261651993, 0.0328032486140728, -0.10626569390296936, 0.024184660986065865, 0.16785871982574463, 0.12124838680028915, -0.1376861035823822, 0.1588844507932663, 0.013701919466257095, 0.08254621177911758, 0.13729827105998993, 0.15070374310016632, -0.14028126001358032, 0.1523236781358719, -0.12254093587398529, 0.01079163234680891], [-0.12352512031793594, -0.03875533491373062, -0.008033210411667824, -0.021148739382624626, -0.027926459908485413, 0.013942472636699677, 0.17437583208084106, 0.10270930081605911, 0.09890124201774597, 0.07075442373752594, 0.13685718178749084, -0.008158070035278797, 0.014055910520255566, 0.03638012707233429, -0.15417234599590302, -0.14240367710590363, 0.021673068404197693, -0.06916392594575882, -0.003243810962885618, -0.04056296870112419, 0.027517549693584442, 0.11501366645097733, -0.058626558631658554, 0.1415734887123108, 0.13957610726356506, -0.13567578792572021, -0.13651159405708313, -0.14302557706832886, -0.09687720239162445, -0.0688149705529213, -0.013305886648595333, -0.04299071058630943], [-0.08931616693735123, -0.0561608225107193, -0.06394799798727036, 0.17342469096183777, -0.06551853567361832, -0.12657226622104645, 0.07348564267158508, -0.010210895910859108, 0.1353338658809662, 0.11045584827661514, 0.16240984201431274, -0.12946408987045288, 0.11364326626062393, 0.14835785329341888, -0.08729790151119232, 0.16248957812786102, 0.1325194090604782, 0.001935910084284842, 0.08523331582546234, -0.061804939061403275, -0.15418176352977753, 0.04468562453985214, 0.05270159989595413, -0.1155339926481247, 0.08573663234710693, -0.15100665390491486, 0.15213827788829803, 0.1711888462305069, 0.04812894016504288, -0.11091478168964386, 0.08603212982416153, 0.030125534161925316], [0.05609343200922012, 0.6381183862686157, 0.6846376657485962, -0.07598496973514557, -0.039765045046806335, 0.5352945327758789, 0.5187957882881165, 0.14254876971244812, -0.09284992516040802, 0.6158753633499146, 0.03303128480911255, 0.4467410445213318, 0.12051162123680115, 0.01933610998094082, -0.16338232159614563, 0.5491818785667419, 0.41408684849739075, 0.014837724156677723, 0.49939435720443726, 0.32351118326187134, 0.45071765780448914, -0.016931548714637756, -0.052127644419670105, 0.6943619251251221, -0.0385725200176239, 0.6387002468109131, 0.043790724128484726, -0.14922305941581726, 0.5744720101356506, 0.7114862203598022, 0.39979875087738037, 0.38229650259017944], [0.17303769290447235, 0.14204183220863342, -0.09862265735864639, 0.10637449473142624, -0.022615408524870872, -0.17428933084011078, 0.01328184176236391, 0.05711549147963524, -0.05302608758211136, 0.06149768829345703, -0.15116190910339355, 0.12250906229019165, 0.15070819854736328, 0.0974864587187767, 0.02996210940182209, 0.05822121351957321, -0.12790639698505402, -0.04417179152369499, -0.01687644049525261, -0.09837377816438675, -0.13057081401348114, 0.11890310794115067, 0.11996866017580032, -0.16054651141166687, 0.05625244975090027, 0.07191314548254013, 0.16793225705623627, 0.1022748053073883, 0.16251729428768158, -0.05787486955523491, 0.1238119900226593, 0.14379039406776428], [-0.16309787333011627, 0.4403151869773865, 0.6047810912132263, 0.09652675688266754, -0.08782497048377991, 0.5246877670288086, 0.5181581377983093, 0.04474353790283203, -0.09499087929725647, 0.6998963356018066, 0.11755815893411636, 0.3852894604206085, 0.0017125107115134597, 0.0004904839443042874, 0.05676577612757683, 0.7384678721427917, 0.5608914494514465, -0.04263327643275261, 0.6891369819641113, 0.44650137424468994, 0.44824546575546265, 0.012069487012922764, -0.13461701571941376, 0.5602854490280151, -0.11993865668773651, 0.5624065399169922, 0.016936542466282845, 0.02446955442428589, 0.4022269546985626, 0.43130427598953247, 0.6163027286529541, 0.6655919551849365], [-0.15686675906181335, 0.06547706574201584, -0.1301291286945343, 0.011082366108894348, 0.16446556150913239, 0.13410618901252747, -0.1292484700679779, 0.1093490868806839, 0.09233350306749344, -0.00027115174452774227, 0.17124831676483154, -0.07021131366491318, -0.04113873839378357, -0.08934544026851654, 0.025437602773308754, 0.04680811986327171, 0.014085602946579456, -0.09946112334728241, -0.0795789361000061, 0.06013103574514389, -0.15500247478485107, -0.027530236169695854, -0.003915884532034397, -0.0716235339641571, 0.06433223187923431, 0.011393915861845016, 0.12410866469144821, -0.015699805691838264, -0.1115705668926239, 0.12490189075469971, 0.024686651304364204, -0.05062852054834366], [-0.10020916163921356, 0.47148585319519043, 0.24561235308647156, 0.04655905440449715, 0.08740630000829697, 0.19784559309482574, 0.25140729546546936, -0.12708933651447296, 0.14858196675777435, 0.6047355532646179, 0.011066371574997902, 0.5234735012054443, -0.05909715220332146, -0.1716187447309494, 0.061747197061777115, 0.48502016067504883, 0.530760645866394, 0.011526375077664852, 0.5147460103034973, 0.4709230959415436, 0.47686710953712463, -0.17542119324207306, 0.14556817710399628, 0.2375287264585495, 0.15848226845264435, 0.3828584849834442, -0.15666252374649048, 0.049160316586494446, 0.36186790466308594, 0.28066572546958923, 0.3175389766693115, 0.3780896067619324], [0.13768193125724792, -0.05434640124440193, 0.10499968379735947, 0.022137483581900597, 0.005958763416856527, 0.033825330436229706, -0.11601301282644272, -0.14693647623062134, -0.05554528906941414, -0.16473007202148438, -0.08243990689516068, 0.008132761344313622, -0.11642676591873169, -0.07332626730203629, -0.03176437318325043, -0.020365271717309952, -0.09758331626653671, 0.008494297042489052, -0.02481245994567871, 0.05055735632777214, 0.007984551601111889, -0.0882769301533699, -0.06086137518286705, -0.0020374839659780264, -0.11030605435371399, 0.013838959857821465, -0.012481451965868473, 0.06858556717634201, 0.04183698445558548, 0.13229677081108093, -0.005827518180012703, -0.13062120974063873], [0.07902076840400696, -0.11947238445281982, -0.024298373609781265, -0.05724077299237251, -0.06707693636417389, -0.06540453433990479, 0.16244372725486755, 0.1011970266699791, 0.04899143427610397, 0.16598564386367798, -0.16019892692565918, 0.02852601930499077, 0.11316826939582825, 0.11743097752332687, -0.14068838953971863, 0.06291297823190689, -0.10070719569921494, -0.006907341536134481, -0.036888036876916885, -0.14760226011276245, -0.16862984001636505, -0.1163010224699974, 0.08021605014801025, 0.08086393028497696, -0.15375395119190216, -0.0663871243596077, 0.0028875437565147877, -0.15283803641796112, 0.09960562735795975, 0.1601123809814453, 0.03126503899693489, -0.13134770095348358], [0.04122191295027733, 0.04038276895880699, 0.11618980765342712, -0.09405755996704102, -0.15837596356868744, 0.05387694016098976, -0.012784339487552643, -0.05759851261973381, -0.07407338172197342, -0.11493844538927078, 0.14310020208358765, -0.05429086461663246, 0.12749259173870087, 0.1577996462583542, 0.022393379360437393, 0.013867014087736607, -0.03582945838570595, 0.12141294777393341, -0.1830812394618988, 0.046511102467775345, -0.05259174481034279, 0.08071911334991455, -0.0007873663562349975, -0.08924440294504166, -0.019083039835095406, 0.07166828960180283, -0.12277669459581375, -0.11174039542675018, -0.06338714063167572, -0.08791057765483856, 0.045655250549316406, 0.09517519921064377], [-0.018932532519102097, 0.13048186898231506, -0.11046981066465378, -0.09919989854097366, -0.07914187759160995, -0.15183575451374054, -0.15614384412765503, -0.15751077234745026, -0.15667350590229034, 0.009471510536968708, 0.10780797153711319, 0.13528625667095184, 0.15057791769504547, -0.010181223973631859, 0.03430292010307312, -0.14221547544002533, 0.038005530834198, -0.16950075328350067, 0.05176481977105141, 0.0013333996757864952, 0.02443896420300007, 0.06472649425268173, -0.08115902543067932, 0.12014415115118027, 0.08436711877584457, 0.08112330734729767, 0.023348405957221985, 0.11101338267326355, 0.0830124095082283, 0.0354406014084816, 0.09980036318302155, -0.06276187300682068], [0.14145499467849731, 0.6723789572715759, 0.7163040041923523, 0.17218023538589478, 0.04002879932522774, 0.4582149088382721, 0.5210586786270142, 0.04976767301559448, 0.029806187376379967, 0.6235670447349548, 0.13850779831409454, 0.6322118043899536, -0.10980550199747086, -0.014404022134840488, -0.016969459131360054, 0.5086585283279419, 0.5550247430801392, -0.039838556200265884, 0.46947312355041504, 0.4777429401874542, 0.45091181993484497, 0.16911165416240692, 0.06780658662319183, 0.751187801361084, 0.04847138375043869, 0.613714337348938, 0.07267176359891891, 0.030340630561113358, 0.44464799761772156, 0.539869487285614, 0.5125648379325867, 0.5398958325386047], [0.06659433990716934, 0.06806755810976028, 0.14023931324481964, 0.035986918956041336, -0.060332685708999634, -0.13294072449207306, -0.12947313487529755, -0.10559534281492233, 0.05331647768616676, 0.09550751745700836, 0.15466415882110596, -0.05591654032468796, -0.013944664038717747, -0.05249621719121933, -0.0006459425785578787, 0.05674556642770767, -0.0038840428460389376, 0.008183843456208706, 0.022395338863134384, 0.06583487242460251, -0.05363428592681885, -0.10541152209043503, 0.04170596972107887, -0.020931346341967583, -0.08008478581905365, 0.07423967123031616, 0.0016032028943300247, -0.025714760646224022, -0.08557473123073578, -0.023257790133357048, -0.15031765401363373, 0.040214985609054565]], "bias": [0.0026528278831392527, 0.6503472924232483, 0.6109316945075989, 0.44070208072662354, 0.4761139154434204, 0.49019142985343933, -0.08353718370199203, 0.5312819480895996, 0.04323278367519379, -0.1672835797071457, 0.4638337790966034, -0.10601890087127686, -0.055645912885665894, -0.08426394313573837, -0.12026368826627731, 0.6258876323699951, -0.1580066978931427, 0.3914133310317993, -0.16155651211738586, -0.021514786407351494, 0.010543350130319595, 0.5493423342704773, -0.06397434324026108, 0.4953365921974182, 0.027383755892515182, 0.3907623589038849, 0.010509653948247433, 0.06619308143854141, -0.1305796355009079, -0.14828208088874817, 0.6095282435417175, -0.12881134450435638]}], "blocks": [{"conv1": {"in_channels": 1, "out_channels": 32, "kernel_size": 13, "dilation": 1, "groups": 1, "weight": [[[-0.01620336063206196, 0.03370487317442894, 0.10469166934490204, -0.18284620344638824, 0.18127606809139252, 0.048234641551971436, 0.5367761850357056, 0.28494879603385925, 0.8793683648109436, 0.7447702288627625, 0.13035190105438232, -0.2059449702501297, -0.14236854016780853]], [[0.24386875331401825, 0.05756870284676552, -0.3106561005115509, -0.07661647349596024, 0.10025541484355927, -0.14466167986392975, -0.18446871638298035, -0.25681251287460327, -0.13199388980865479, 0.12682171165943146, 0.17519056797027588, -0.026820005849003792, 0.17579905688762665]], [[-0.6853533983230591, -0.8495013117790222, -1.7990906238555908, -0.7775395512580872, -0.5665571689605713, -0.4886139929294586, -0.1725279539823532, -0.10703397542238235, 0.04178754985332489, -0.0846012681722641, 0.08822175115346909, -0.1852610558271408, 0.1698240339756012]], [[-0.40880686044692993, -0.3348506689071655, -0.7088679075241089, 0.08966302871704102, 0.05232354626059532, -0.24122421443462372, -0.2766871154308319, -0.0031070495024323463, -0.10443061590194702, -0.28006184101104736, 0.14580638706684113, 0.00319473072886467, 0.4735116958618164]], [[-0.0891132652759552, -0.1688552349805832, -0.3821466565132141, 0.12027956545352936, 0.03969092294573784, 0.16227088868618011, 0.043670982122421265, 0.19809018075466156, 0.19460751116275787, 0.1753859966993332, 0.24019838869571686, -0.09135740250349045, 0.03262213245034218]], [[-0.016048934310674667, 0.5383247137069702, 0.4701428711414337, 0.22133229672908783, 0.0758250430226326, -0.15195049345493317, 0.0198174137622118, -0.21249614655971527, 0.06562653928995132, -0.26367735862731934, -0.19085006415843964, 0.0950748398900032, 0.15297268331050873]], [[-0.3527213931083679, -0.3021293878555298, -0.1064707413315773, 0.12267027050256729, 0.07903098315000534, 0.026900077238678932, -0.08784280717372894, 0.034065209329128265, 0.07590657472610474, -0.005472689401358366, 0.19065187871456146, 0.23499029874801636, 0.3376277983188629]], [[0.15132766962051392, 0.6282036900520325, 0.6198550462722778, 0.8243999481201172, 0.628799319267273, 0.3092218339443207, 0.3034246861934662, 0.3492755889892578, -0.08228112757205963, 0.09922382235527039, -0.18489186465740204, -0.01665564253926277, -0.3056086301803589]], [[-0.22023916244506836, -0.260029673576355, -0.4636399447917938, -0.23760707676410675, -0.11795159429311752, 0.1693759262561798, 0.11753354966640472, -0.1579606980085373, 0.011580471880733967, -0.1434919536113739, -0.08812279254198074, 0.2458687424659729, 0.19052225351333618]], [[-0.33496028184890747, -0.12305120378732681, -0.06570784002542496, 0.02231520041823387, -0.10516083240509033, -0.1492084115743637, 0.1625780612230301, 0.019280163571238518, 0.0794166699051857, -0.13857276737689972, 0.1617211103439331, 0.23976896703243256, 0.24393734335899353]], [[0.25021255016326904, 0.5005627870559692, 0.2765287160873413, 0.2542818486690521, 0.411562979221344, 0.13472828269004822, 0.1323706954717636, 0.06733424216508865, 0.12806017696857452, 0.083498515188694, 0.437160849571228, 0.15934300422668457, 0.4212368428707123]], [[0.27227547764778137, -0.19620102643966675, -0.16881690919399261, -0.27645158767700195, -0.049224887043237686, -0.24440382421016693, -0.07715282589197159, 0.10532598942518234, 0.22237864136695862, 0.18442247807979584, 0.1877855807542801, 0.1490851789712906, -0.1371356099843979]], [[-0.22768710553646088, -0.3640916049480438, 0.0008633038960397243, -0.4152063727378845, -0.8569795489311218, -0.5143442153930664, -0.2860493063926697, -0.10984146595001221, 0.16995571553707123, -0.1515480875968933, -0.2051994949579239, -0.015068993903696537, 0.06796988844871521]], [[-0.06135905534029007, 0.13204078376293182, 0.18198858201503754, -0.19874702394008636, -0.17838464677333832, 0.06525813043117523, -0.18763688206672668, -0.0964493378996849, 0.41746681928634644, 0.10768008232116699, -0.07656457275152206, 0.009314521215856075, -0.16046875715255737]], [[-0.06626179814338684, -0.5731351375579834, -0.5605549216270447, -0.09924834221601486, 0.11907818913459778, -0.17193014919757843, -0.1513819694519043, -0.007131355348974466, -0.18220770359039307, 0.04892392084002495, 0.2429303675889969, -0.12087266147136688, 0.1797010600566864]], [[-0.38280826807022095, -0.207999125123024, 0.18255159258842468, 0.0015764208510518074, 0.2671144902706146, -0.004916598554700613, -0.06172340735793114, -0.01897398941218853, 0.3744244873523712, -0.09286937862634659, 0.21542803943157196, 0.12919259071350098, 0.09987539052963257]], [[0.04238784313201904, -0.07921944558620453, 0.1947372704744339, 0.18109050393104553, 0.8061975836753845, 0.8136610984802246, 0.5104478001594543, 0.15245603024959564, 0.040241796523332596, -0.09514421224594116, 0.12824298441410065, -0.06895335763692856, -0.14409342408180237]], [[0.7623396515846252, 0.8100439310073853, 0.5381006598472595, 0.26438209414482117, 0.4031614661216736, 0.41463905572891235, 0.041816987097263336, -0.16466599702835083, 0.05990605801343918, 0.12710745632648468, 0.020291391760110855, 0.0715792179107666, -0.2981700599193573]], [[0.4386851191520691, 0.09251578152179718, 0.26783519983291626, 0.1704084277153015, 0.006261872593313456, 0.1065417230129242, -0.13785766065120697, -0.07730897516012192, -0.12263336032629013, 0.04539702087640762, -0.13034065067768097, -0.3692457973957062, -0.26571381092071533]], [[0.0076140244491398335, -0.3259882628917694, 0.2228710651397705, 0.2360444962978363, 0.17844358086585999, 0.4573372006416321, 0.3697504699230194, 0.13629330694675446, 0.0897083505988121, -0.030907435342669487, -0.10235056281089783, -0.3218962252140045, -0.07841508090496063]], [[-0.33824121952056885, -0.11003290861845016, -0.17720088362693787, -0.042155735194683075, -0.037135589867830276, -0.06474536657333374, 0.06476303935050964, 0.02036798559129238, 0.016626177355647087, 0.022718612104654312, 0.13774645328521729, 0.127711683511734, 0.371080607175827]], [[0.055239442735910416, 0.10555384308099747, 0.406777024269104, -0.5165759921073914, -0.2583099603652954, -0.10421650111675262, -0.1546086221933365, -0.866882860660553, -0.796557605266571, -0.46950653195381165, -0.05845962464809418, 0.25439754128456116, -0.14497420191764832]], [[0.019748853519558907, 0.12825395166873932, 0.3279455006122589, 0.2250310480594635, -0.13291797041893005, 0.09228715300559998, -0.16047829389572144, -0.0851510763168335, -0.37629517912864685, -0.24837595224380493, 0.19463525712490082, -0.32582855224609375, -0.2939854562282562]], [[0.21548670530319214, 0.12237939983606339, -9.823634172789752e-05, 0.2661544680595398, -0.04242844879627228, -0.13087789714336395, -0.18570047616958618, -0.13827262818813324, -0.2434614896774292, -0.11397478729486465, -0.19465991854667664, -0.34841519594192505, -0.41718271374702454]], [[0.2182900309562683, 0.22818143665790558, -0.26287519931793213, -0.08841659873723984, -0.25807705521583557, 0.10121893137693405, -0.25811219215393066, -0.1413193941116333, 0.27066218852996826, -0.265846312046051, 0.2087983787059784, 0.04314541071653366, 0.23367878794670105]], [[0.15129601955413818, 0.33096805214881897, 0.1176561787724495, 0.018366117030382156, 0.2272264063358307, -0.25621336698532104, -0.22769370675086975, 0.15133565664291382, -0.14422626793384552, -0.12074710428714752, -0.18386107683181763, -0.3829733729362488, -0.3499382436275482]], [[-0.544786810874939, -0.3202316462993622, -0.8363685011863708, -0.6281150579452515, -0.3096938729286194, -0.4549042880535126, -0.39244091510772705, -0.33761265873908997, -0.19993752241134644, -0.030645225197076797, -0.017883168533444405, 0.006312153302133083, 0.05197816342115402]], [[0.40541258454322815, 0.08344852924346924, 0.18993979692459106, 0.2529614269733429, 0.05024838447570801, -0.10540857166051865, -0.14270779490470886, -0.10295727103948593, 0.0665842667222023, -0.27885866165161133, -0.09365149587392807, 0.015514005906879902, 0.11282674968242645]], [[0.05731017515063286, 0.11304479092359543, 0.32583892345428467, 0.06518685817718506, -0.13450540602207184, -0.10966882109642029, -0.1137925460934639, -0.1141902282834053, -0.11729217320680618, -0.2289942353963852, -0.09710156172513962, 0.034573931246995926, -0.013405941426753998]], [[0.051272016018629074, -0.25000840425491333, -0.22666782140731812, -0.5786669850349426, -0.41017886996269226, -0.9401863217353821, -0.8997450470924377, -1.0406348705291748, -0.7634841203689575, -0.28949666023254395, -0.3373320400714874, -0.19159841537475586, -0.28273242712020874]], [[-0.10354885458946228, -0.05950412154197693, -0.09626199305057526, -0.18808716535568237, 0.056440938264131546, -0.07099811732769012, -0.09589824080467224, -0.08329524099826813, 0.11393006891012192, -0.04914393648505211, 0.42845651507377625, 0.03298423811793327, 0.06761403381824493]], [[0.0019954051822423935, 0.40082287788391113, 0.383767306804657, 0.15151548385620117, -0.0024180058389902115, 0.14850620925426483, 0.01973853074014187, -0.3796099126338959, -0.16973872482776642, 0.03530186414718628, 0.01194784790277481, 0.15200631320476532, 0.007158998865634203]]], "bias": null}, "bn": {"num_features": 32, "affine": false, "eps": 1e-05, "running_mean": [9.339510143036023e-06, -4.4864836468150315e-07, -1.128385429183254e-05, -2.04267803383118e-06, 3.204097993148025e-06, 7.324334205804917e-07, 3.7724194044130854e-06, 6.684940672130324e-06, -8.536680411452835e-07, 2.4369269340240862e-06, 1.0845235919987317e-05, 1.0172345810133265e-06, -7.844649189792108e-06, -2.884351317788969e-07, -2.030644736805698e-06, 3.527336502884282e-06, 7.0549776864936575e-06, 5.499508006323595e-06, -3.3150374747492606e-06, 1.6877340840437682e-06, 2.6831735340238083e-06, -1.0410542927274946e-05, -4.807631739822682e-06, -7.4147237683064304e-06, 6.118489750406297e-07, -5.650358161801705e-06, -9.959757335309405e-06, -2.2621767925556924e-07, -2.433070676488569e-06, -2.255033359688241e-05, 1.3899034456699155e-06, 1.1864508451253641e-06], "running_var": [0.05577058345079422, 0.0010146129643544555, 0.2804199159145355, 0.026992985978722572, 0.003360118018463254, 0.0071080089546740055, 0.003310299711301923, 0.11068405210971832, 0.010297718457877636, 0.0018669303972274065, 0.09322408586740494, 0.0006969740497879684, 0.07940153032541275, 2.6420550057082437e-05, 0.01862853579223156, 0.003557139541953802, 0.0604221485555172, 0.09091585874557495, 0.003943583462387323, 0.008223846554756165, 0.0024049347266554832, 0.06354296952486038, 0.00606587715446949, 0.01672961935400963, 0.00028684415156021714, 0.00757022388279438, 0.1514800786972046, 0.002864678855985403, 0.0018658236367627978, 0.3524934947490692, 0.0009295690688304603, 0.005759770516306162]}, "adaptor": {"in_features": 32, "out_features": 64, "weight": [[-0.09641803801059723, 0.19719929993152618, 0.23899053037166595, 0.15228776633739471, 0.19107456505298615, 0.0653584897518158, 0.06723562628030777, 0.335284948348999, 0.013996547088027, -0.1880664825439453, 0.08813980966806412, -0.06881901621818542, 0.051416099071502686, 0.0043119387701153755, 0.03214188292622566, 0.39270010590553284, 0.08210252225399017, 0.25292322039604187, -0.041195277124643326, 0.08362402766942978, 0.0646720826625824, 0.0896938368678093, -0.10442357510328293, 0.25879794359207153, 0.06707656383514404, 0.27420589327812195, -0.1052313819527626, -0.17538268864154816, -0.014371947385370731, -0.009375115856528282, 0.2726335823535919, -0.04861472547054291], [0.13514980673789978, -0.15668222308158875, -0.03224506601691246, -0.2988574802875519, -0.07834025472402573, -0.11647063493728638, -0.08841456472873688, -0.05557328462600708, -0.17395170032978058, 0.10986316949129105, -0.12862059473991394, 0.017068251967430115, 0.08174960315227509, 0.014674647711217403, 0.07577560842037201, -0.030070647597312927, -0.13796685636043549, -0.02404901012778282, -0.025229444727301598, -0.04110925644636154, 0.035581886768341064, -0.012404943816363811, -0.09609849750995636, -0.274614542722702, 0.10970889776945114, -0.21302342414855957, 0.05691327154636383, -0.02604382298886776, 0.04145662114024162, 0.1015966385602951, -0.23074305057525635, -0.08578329533338547], [0.08673030883073807, 0.3424851596355438, 0.32933300733566284, 0.19103160500526428, 0.45718008279800415, 0.2728715240955353, -0.032560043036937714, 0.23443157970905304, -0.034884799271821976, 0.06860018521547318, 0.2960270345211029, 0.1511809527873993, -0.01020615454763174, -0.0253599900752306, 0.09978188574314117, 0.29464593529701233, -0.03528338298201561, 0.343990683555603, 0.13796557486057281, 0.04411453753709793, 0.12309282273054123, 0.43779686093330383, 0.04999206215143204, 0.3917390704154968, 0.05704303830862045, 0.27839717268943787, 0.1503903567790985, 0.16318972408771515, 0.07153035700321198, -0.03810523450374603, 0.4526115357875824, -0.13758893311023712], [0.12989266216754913, 0.38567283749580383, 0.414066344499588, 0.28220489621162415, 0.1348097026348114, 0.3633987009525299, -0.07729659974575043, 0.28677165508270264, 0.10015197098255157, -0.10676021873950958, 0.260679692029953, -0.06279575079679489, 0.1254681944847107, -0.11255397647619247, 0.1073334589600563, 0.3605712652206421, 0.09753033518791199, 0.41297590732574463, 0.02513992041349411, -0.16022706031799316, 0.12619468569755554, 0.2864684462547302, 0.003508134977892041, 0.10340302437543869, -0.03973166644573212, 0.13436996936798096, 0.17313703894615173, 0.12587010860443115, 0.14494867622852325, 0.16936548054218292, 0.13635878264904022, -0.0759202092885971], [-0.06918160617351532, 0.1819273978471756, 0.4043665826320648, 0.32229378819465637, 0.38972562551498413, 0.22517459094524384, -0.157583549618721, 0.21756796538829803, 0.12423771619796753, 0.16500017046928406, 0.30226728320121765, -0.05185350030660629, -0.16499824821949005, -0.09498683363199234, 0.09216790646314621, 0.17217430472373962, 0.0845591127872467, 0.2847088575363159, -0.07331893593072891, 0.1076708436012268, -0.056804109364748, 0.25579971075057983, -0.0673365443944931, 0.09899673610925674, 0.02850315533578396, 0.2747253179550171, -0.08900377154350281, 0.10844310373067856, -0.16202473640441895, -0.15345747768878937, 0.13255006074905396, -0.06109489127993584], [-0.019632486626505852, -0.2760932743549347, -0.16420875489711761, -0.40092432498931885, -0.19059881567955017, -0.19661398231983185, 0.04669206961989403, -0.02751355990767479, 0.10879694670438766, -0.11557204276323318, -0.3517254889011383, -0.04279780760407448, -0.08867595344781876, 0.061749011278152466, 0.0016205041902139783, -0.07117584347724915, 0.06943897902965546, -0.23604415357112885, 0.011484078131616116, 0.04233554005622864, -0.021935727447271347, -0.08273787051439285, -0.13822174072265625, -0.14083760976791382, -0.11268522590398788, -0.34020552039146423, -0.036291658878326416, 0.08614414930343628, 0.12080302089452744, -0.01062569860368967, -0.2253931611776352, -0.00990998838096857], [-0.07166197150945663, -0.28667938709259033, -0.30223292112350464, -0.1259041428565979, -0.14948511123657227, -0.367125004529953, 0.000731268897652626, -0.35504454374313354, -0.02806168794631958, -0.10927698761224747, -0.19823907315731049, -0.12746979296207428, 0.1745176613330841, 0.13350220024585724, -0.12168581038713455, -0.4103589951992035, 0.006897415965795517, -0.2804262042045593, 0.051126234233379364, -0.11966263502836227, 0.07236198335886002, -0.41695812344551086, -0.09329744428396225, -0.35728925466537476, 0.08554071187973022, -0.21626126766204834, -0.1698874533176422, -0.10096070915460587, -0.07914356887340546, -0.11259569972753525, -0.21651825308799744, 0.06299223750829697], [-0.03243457153439522, -0.3825773596763611, -0.3197728991508484, -0.45360416173934937, -0.37872278690338135, -0.24381858110427856, 0.1570443958044052, -0.2883943021297455, 0.0876210406422615, -0.03905831277370453, -0.2977321445941925, -0.16828159987926483, 0.14645683765411377, 0.17213234305381775, -0.003712884383276105, -0.1483008861541748, 0.1445930153131485, -0.15853409469127655, 0.09611938148736954, -0.16828975081443787, -0.16611187160015106, -0.4157848358154297, 0.055293209850788116, -0.43118610978126526, -0.13494154810905457, -0.30206307768821716, -0.16293248534202576, 0.000238192908000201, 0.03503767028450966, -0.15133221447467804, -0.1374710649251938, -0.06711236387491226], [-0.04976741969585419, -0.09907574206590652, -0.0835001990199089, -0.2560870945453644, -0.31622275710105896, -0.2526009678840637, 0.02251061052083969, -0.05229691043496132, 0.08800733834505081, -0.0558960996568203, -0.33764374256134033, -0.15470558404922485, -0.05624260753393173, 0.002217514207586646, -0.07940377295017242, -0.31841760873794556, 0.01863008737564087, -0.30998146533966064, -0.1374017894268036, -0.14370989799499512, -0.04790179058909416, -0.03987986221909523, 0.06910542398691177, -0.2159084677696228, 0.036382634192705154, -0.07305027544498444, 0.0010299425339326262, -0.14258354902267456, -0.10048714280128479, -0.15323245525360107, -0.17624594271183014, -0.16182167828083038], [-0.032141733914613724, 0.1777120679616928, 0.41522306203842163, 0.38853052258491516, 0.32789483666419983, 0.21397994458675385, -0.0572354830801487, 0.26239776611328125, -0.12214025855064392, -0.0687950849533081, 0.17986951768398285, -0.04153451696038246, -0.16746094822883606, 0.070274218916893, 0.14557242393493652, 0.11838190257549286, 0.047653038054704666, 0.1892091929912567, -0.01009919960051775, 0.010304314084351063, 0.15319159626960754, 0.2505233585834503, -0.1118425577878952, 0.16571509838104248, 0.08636023849248886, 0.25276094675064087, 0.003435768885537982, -0.0233304500579834, -0.06206703931093216, -0.10840745270252228, 0.12170681357383728, 0.028966939076781273], [0.04964633285999298, -0.07770514488220215, -0.25986728072166443, -0.20525549352169037, -0.08617974817752838, -0.10888992995023727, 0.02271363139152527, -0.14334596693515778, 0.009175853803753853, -0.084066241979599, -0.18857671320438385, -0.03863966092467308, 0.15952537953853607, 0.15956354141235352, 0.03507083281874657, -0.03961386904120445, -0.09104334563016891, -0.03540218621492386, 0.15357361733913422, -0.006756582297384739, -0.14186495542526245, -0.26517704129219055, -0.04727491736412048, -0.20411144196987152, -0.16027480363845825, -0.14850358664989471, -0.07351995259523392, -0.045262109488248825, -0.0879988819360733, -0.037920694798231125, -0.3577253818511963, -0.09372133761644363], [0.016285542398691177, 0.1571437269449234, 0.2152467966079712, -0.09183516353368759, 0.10381071269512177, -0.0773375853896141, -0.1366761326789856, 0.012454104609787464, -0.10140735656023026, -0.19399519264698029, -0.13995234668254852, -0.11832518875598907, 0.14526373147964478, 0.09858977794647217, -0.06997653841972351, -0.09041687846183777, -0.13598401844501495, -0.08019328117370605, -0.07252418249845505, 0.1061701849102974, 0.057851310819387436, -0.031002605333924294, 0.12169862538576126, -0.07514843344688416, -0.14401784539222717, 0.05516975745558739, -0.0974748283624649, 0.050289154052734375, 0.14679521322250366, -0.04470151290297508, -0.0997326448559761, 0.06653876602649689], [-0.15965536236763, -0.07476110011339188, -0.3107626140117645, -0.15252581238746643, -0.33602383732795715, -0.2947008013725281, 0.019472770392894745, -0.1050337478518486, 0.13707178831100464, 0.10155554860830307, -0.1918785125017166, -0.022727686911821365, 0.02922150492668152, -0.04106363281607628, 0.006017621606588364, -0.3529183268547058, -0.14511731266975403, -0.05898144096136093, -0.10387994349002838, 0.1392090767621994, 0.019400130957365036, -0.15825550258159637, 0.16066837310791016, -0.3013842701911926, -0.027905596420168877, -0.12621718645095825, 0.06039430573582649, -0.17204159498214722, 0.051310792565345764, -0.13485495746135712, -0.1582004874944687, 0.11959820985794067], [-0.017609648406505585, 0.04690206050872803, 0.0469832569360733, 0.198988676071167, 0.15527622401714325, 0.08558162301778793, -0.10638690739870071, -0.02791047841310501, 0.14081232249736786, 0.07517176866531372, 0.15921123325824738, -0.13783584535121918, 0.13767240941524506, -0.016898419708013535, 0.13024146854877472, 0.2132641077041626, 0.01937667652964592, -0.018105506896972656, 0.16538618505001068, -0.09212188422679901, 0.11550849676132202, -0.10961717367172241, -0.05559854209423065, -0.09447633475065231, -0.07929781824350357, 0.13359877467155457, -0.12666545808315277, -0.15287719666957855, 0.11434979736804962, 0.13397981226444244, 0.05678291991353035, -0.12462063878774643], [-0.046834588050842285, -0.4022870659828186, -0.2406453937292099, -0.4103938341140747, -0.33612367510795593, -0.3709302544593811, -0.08325964212417603, -0.13949178159236908, 0.11389467120170593, 0.03897503763437271, -0.323688805103302, 0.16979236900806427, 0.03489217534661293, -0.06823518127202988, -0.06127030402421951, -0.2933390140533447, 0.08380940556526184, -0.19036781787872314, 0.12377482652664185, -0.00796501711010933, 0.14621073007583618, -0.3658798038959503, -0.08141506463289261, -0.3606845736503601, -0.16585330665111542, -0.33438819646835327, -0.1599607765674591, -0.01044708676636219, 0.004735979251563549, -0.07267533242702484, -0.37877213954925537, 0.16038747131824493], [-0.058573223650455475, 0.03126908093690872, 0.06869574636220932, -0.16798941791057587, -0.07139770686626434, 0.061776645481586456, 0.1713600903749466, -0.06147945672273636, 0.12809649109840393, -0.1713663786649704, -0.15903353691101074, 0.14536967873573303, -0.01673714630305767, 0.1746416836977005, 0.01285470463335514, -0.11537735164165497, 0.16788756847381592, 0.11248734593391418, 0.013996407389640808, -0.1071629747748375, -0.007653888780623674, -0.13302163779735565, 0.12881384789943695, -0.03746650367975235, 0.03721528872847557, 0.07006996870040894, 0.05855577439069748, -0.11035574972629547, 0.1278526335954666, 0.1393239051103592, -0.15049748122692108, 0.13366137444972992], [0.05015215650200844, -0.17322970926761627, -0.26012343168258667, -0.16958434879779816, -0.3029853403568268, -0.017681123688817024, 0.1280311495065689, -0.16333283483982086, 0.16388076543807983, -0.08743061870336533, -0.09383595734834671, -0.1231946274638176, -0.0074738371185958385, 0.07145842164754868, 0.07614382356405258, -0.12810257077217102, -0.08914182335138321, 0.0016946066170930862, 0.1133628562092781, 0.02836921252310276, -0.08129534870386124, -0.08797531574964523, 0.0004726979823317379, 0.035709183663129807, 0.026197027415037155, -0.10400388389825821, 0.012084364891052246, 0.09404681622982025, -0.010006464086472988, 0.18859167397022247, -0.029507093131542206, -0.13357724249362946], [-2.0230486370564904e-06, 0.21205337345600128, 0.25342270731925964, 0.4101816415786743, 0.37884244322776794, 0.2895093262195587, 0.1680196076631546, 0.25562039017677307, -0.07408458739519119, -0.08247866481542587, 0.33054375648498535, -0.014973404817283154, 0.15916776657104492, -0.07466099411249161, -0.09246746450662613, 0.34601423144340515, 0.13277381658554077, 0.353473037481308, 0.09777551144361496, 0.03422136604785919, 0.15066473186016083, 0.4654112458229065, 0.12649588286876678, 0.34291520714759827, -0.1463526338338852, 0.1994716376066208, 0.06022221967577934, 0.12401709705591202, -0.06643036752939224, 0.148165762424469, 0.3498576581478119, 0.0007021664641797543], [0.0068915365263819695, 0.3368901014328003, 0.5624605417251587, 0.3812076449394226, 0.46411535143852234, 0.17961367964744568, -0.09107906371355057, 0.3773419260978699, 0.1411561369895935, 0.04230412095785141, 0.3817557096481323, -0.17465388774871826, 0.003323320997878909, -0.11669058352708817, -0.15094465017318726, 0.37296393513679504, -0.11184755712747574, 0.4953368306159973, -0.10128355771303177, 0.05696949362754822, 0.10376134514808655, 0.23403164744377136, 0.09047078341245651, 0.34807243943214417, 0.09159909188747406, 0.4920371174812317, -0.07533612102270126, -0.07656268030405045, 0.13703712821006775, -0.004048286937177181, 0.32600507140159607, 0.13411487638950348], [-0.08540860563516617, 0.07887665927410126, 0.201752170920372, 0.15706008672714233, -0.034432195127010345, 0.11838708817958832, -0.13478104770183563, -0.030059464275836945, 0.1136694997549057, 0.01640404760837555, -0.01368508767336607, 0.012530341744422913, 0.04319898039102554, -0.10988736897706985, -0.11921172589063644, -0.09642057865858078, 0.045676182955503464, -0.03869586065411568, 0.01532357931137085, -0.03953755646944046, -0.11558720469474792, 0.020412810146808624, -0.13588647544384003, -0.01810603402554989, -0.0055103423073887825, -0.07834797352552414, -0.15503905713558197, 0.13241644203662872, 0.03289390355348587, -0.09054946154356003, 0.0685800164937973, 0.1310914307832718], [-0.14747871458530426, -0.6036719083786011, -0.6520010232925415, -0.5381368398666382, -0.4925101101398468, -0.5845681428909302, 0.1226978600025177, -0.6309230327606201, 0.16504503786563873, -0.19526873528957367, -0.4945485591888428, 0.03305492922663689, -0.07857324928045273, 0.1625712662935257, -0.12187591195106506, -0.47981685400009155, -0.1298002302646637, -0.4056318700313568, 0.1455812007188797, 0.16397559642791748, 0.02098582126200199, -0.5872256755828857, 0.17179955542087555, -0.49504294991493225, 0.11960303783416748, -0.5218438506126404, -0.08204088360071182, -0.14674821496009827, 0.16428221762180328, -0.054801296442747116, -0.5925664901733398, 0.01518314890563488], [-0.0758204311132431, 0.24076765775680542, 0.27774253487586975, 0.1487589031457901, 0.24263061583042145, 0.082609161734581, 0.03406411409378052, 0.027746813371777534, 0.028169624507427216, 0.21472260355949402, 0.3621083199977875, 0.06448480486869812, 0.13007749617099762, 0.17187252640724182, 0.050093088299036026, 0.25854378938674927, 0.022986996918916702, 0.3552705943584442, 0.15737038850784302, -0.08313107490539551, -0.0072672124952077866, 0.11548306792974472, 0.06343284249305725, 0.03943746164441109, 0.06255565583705902, 0.1428113877773285, 0.06410843133926392, 0.055173110216856, -0.0766754150390625, 0.08989088982343674, 0.27433064579963684, -0.15026739239692688], [0.17637929320335388, 0.19220714271068573, 0.13062408566474915, 0.02311800792813301, 0.09281954914331436, -0.06775712966918945, -0.06006857380270958, 0.10595226287841797, 0.07869532704353333, 0.12491701543331146, -0.14161163568496704, 0.146491140127182, -0.0738372951745987, 0.15298540890216827, 0.14565534889698029, 0.09013176709413528, 0.1761208474636078, 0.13091345131397247, 0.10290077328681946, -0.060028448700904846, 0.16395781934261322, 0.06527673453092575, 0.10444597899913788, -0.016980580985546112, 0.1280253678560257, 0.18742647767066956, -0.13545536994934082, 0.14492227137088776, -0.09877929091453552, -0.16112488508224487, -0.12030235677957535, 0.051081348210573196], [-0.13272877037525177, -0.06794895231723785, -0.088744156062603, 0.04250070080161095, -0.17823979258537292, -0.08317339420318604, 0.0012932127574458718, 0.011037475429475307, -0.07983666658401489, 0.01817410998046398, -0.12107916921377182, -0.14971037209033966, -0.025131449103355408, -0.0955740287899971, 0.11142821609973907, -0.12180276960134506, -0.014840811491012573, 0.07060692459344864, -0.1542431265115738, 0.13684634864330292, -0.08032293617725372, -0.0503452904522419, -0.10813673585653305, -0.07079227268695831, -0.06816325336694717, -0.1592884659767151, 0.06040593609213829, -0.0005663061165250838, 0.15468914806842804, 0.1427093893289566, 0.1524050235748291, 0.05201241374015808], [0.09288893640041351, 0.1719161570072174, 0.1381756067276001, -0.13048620522022247, -0.04002581164240837, -0.16741502285003662, 0.006687609013170004, -0.058651942759752274, 0.15342742204666138, 0.024739159271121025, 0.0021146745420992374, -0.12787185609340668, -0.13872213661670685, 0.027828868478536606, -0.08783716708421707, -0.0785181075334549, 0.1239972710609436, -0.08859261125326157, -0.07854145020246506, 0.13573049008846283, 0.06906644254922867, -0.10247302055358887, 0.05353652685880661, 0.08538762480020523, -0.1570131778717041, 0.03880757838487625, 0.04038816690444946, -0.006884940434247255, 0.1704922467470169, -0.07785219699144363, 0.09931012988090515, -0.0939066931605339], [-0.15133963525295258, -0.11314626783132553, -0.31763267517089844, -0.233082577586174, -0.12253257632255554, -0.34637343883514404, -0.15131890773773193, -0.1432538479566574, 0.15413616597652435, -0.03487572446465492, -0.083258256316185, 0.062119439244270325, 0.05043487623333931, -0.11270785331726074, 0.16824163496494293, -0.12835820019245148, 0.027333833277225494, -0.07808632403612137, -0.15209735929965973, 0.03809253126382828, -0.08321385085582733, -0.23469136655330658, 0.05791788175702095, -0.14575707912445068, 0.04055371880531311, -0.3306520879268646, -0.11063260585069656, 0.0030866244342178106, -0.02913558855652809, -0.14574448764324188, -0.03231300041079521, 0.022235538810491562], [-0.12560871243476868, -0.23355542123317719, -0.2599619925022125, -0.41064244508743286, -0.1936151534318924, -0.36189138889312744, 0.06124980002641678, -0.1065950021147728, 0.11669576913118362, 0.06258923560380936, -0.3105943500995636, 0.033187124878168106, 0.06168901175260544, 0.043177150189876556, -0.03581356629729271, -0.2504273056983948, -0.0716000571846962, -0.3567779064178467, -0.16474808752536774, -0.14412759244441986, -0.11096542328596115, -0.13829338550567627, 0.0353756844997406, -0.4718376696109772, -0.09036275744438171, -0.18485216796398163, -0.052910372614860535, -0.05003846436738968, -0.0733778327703476, -0.025016168132424355, -0.2468300759792328, 0.010468391701579094], [0.11357583105564117, -0.01966342329978943, -0.0018056415719911456, -0.13771161437034607, -0.20217686891555786, -0.11127487570047379, -0.11706405133008957, -0.039825696498155594, -0.02132818102836609, 0.008553998544812202, -0.26749035716056824, 0.08519159257411957, 0.09867241233587265, 0.1612604558467865, -0.06262669712305069, -0.06893462687730789, 0.006663522217422724, -0.22660291194915771, -0.11346381902694702, 0.09052468836307526, -0.10152699053287506, -0.003521230537444353, 0.06175859645009041, -0.06858523190021515, 0.11642080545425415, -0.017369670793414116, 0.07624069601297379, 0.0917191281914711, -0.05956372991204262, -0.1042807400226593, -0.1493934839963913, 0.09814081341028214], [0.12371315807104111, 0.3398577570915222, 0.18121621012687683, 0.19433234632015228, 0.08076149225234985, 0.2935161888599396, -0.11722538620233536, 0.1281404346227646, 0.14597609639167786, 0.0008132774964906275, 0.12083934992551804, -0.11903643608093262, -0.12156474590301514, 0.14266332983970642, -0.16157466173171997, 0.35071617364883423, 0.14141520857810974, 0.19738060235977173, -0.008760840632021427, 0.1374831199645996, 0.07795441150665283, 0.3835952877998352, 0.1428023874759674, 0.103617362678051, 0.1090923324227333, 0.26176971197128296, -0.12551362812519073, 0.084900863468647, -0.1088571771979332, -0.052185118198394775, 0.1963336169719696, -0.021722570061683655], [-0.04753199219703674, -0.3786257803440094, -0.17426319420337677, -0.09193907678127289, -0.28602588176727295, -0.3456483483314514, -0.009115351364016533, -0.3887484073638916, -0.14355254173278809, -0.1099662110209465, -0.12796159088611603, -0.13543112576007843, -0.028210613876581192, -0.09179486334323883, -0.16277407109737396, -0.2799830138683319, -0.010297423228621483, -0.26082396507263184, 0.1344124972820282, 0.07081007957458496, 0.11006025224924088, -0.18306457996368408, 0.018546972423791885, -0.1596357375383377, -0.11277461796998978, -0.13043807446956635, 0.08420116454362869, -0.07502522319555283, 0.0047032334841787815, -0.11084460467100143, -0.39150288701057434, -0.00019528741540852934], [0.03165280818939209, -0.06332852691411972, 0.027220772579312325, -0.1615360677242279, -0.12149877846240997, 0.10245031863451004, -0.1720341444015503, 0.011287771165370941, 0.13609552383422852, 0.10875408351421356, 0.03857744112610817, -0.1610260158777237, 0.022757695987820625, -0.062164999544620514, -0.04969364032149315, 0.11559733003377914, -0.06007622182369232, -0.14567457139492035, -0.13854500651359558, 0.1116139367222786, 0.008529932238161564, 0.14996519684791565, 0.03615143895149231, -0.18764619529247284, 0.04373591020703316, 0.14467693865299225, 0.1096421405673027, 0.05304884538054466, -0.1391957849264145, -0.0611891932785511, 0.10036245733499527, -0.11820313334465027], [0.040328674018383026, 0.20823244750499725, 0.2875787615776062, 0.24777695536613464, 0.05903478339314461, 0.10034763067960739, 0.15418307483196259, 0.18290522694587708, 0.08963551372289658, -0.06421263515949249, 0.318155437707901, -0.03784150630235672, -0.05958501994609833, 0.03585994988679886, -0.06334144622087479, 0.1113540530204773, -0.025295905768871307, 0.165824756026268, -0.09507303684949875, 0.060424670577049255, -0.1713288575410843, 0.30663788318634033, 0.163953959941864, 0.22760425508022308, -0.04130534455180168, -0.009070360101759434, 0.08301477134227753, 0.1448473334312439, 0.16066519916057587, 0.036903202533721924, 0.23495657742023468, 0.16938911378383636], [0.02638556994497776, -0.11135318875312805, -0.17923182249069214, 0.04765677452087402, 0.05293687805533409, 0.14434055984020233, -0.08999795466661453, 0.07085394114255905, -0.05848732963204384, -0.03573983535170555, 0.0928269475698471, -0.16204729676246643, 0.13030867278575897, 0.08221857249736786, -0.10506180673837662, 0.07803697139024734, -0.04446505010128021, 0.0023038422223180532, -0.0407545268535614, -0.17308439314365387, -0.018308401107788086, 0.08078891038894653, -0.020567409694194794, -0.09747560322284698, 0.005601273849606514, 0.02048841305077076, -0.049323465675115585, -0.13708750903606415, -0.10326280444860458, -0.018183181062340736, 0.0513136051595211, 0.1572028249502182], [0.0032807737588882446, 0.06356365233659744, 0.10939110815525055, -0.07600780576467514, -0.0548802949488163, 0.11751330643892288, 0.12657001614570618, 0.04857044294476509, -0.13660992681980133, 0.1406278908252716, -0.14090852439403534, 0.08835694938898087, 0.020950565114617348, 0.057101476937532425, -0.17231270670890808, -0.05940590053796768, 0.07507645338773727, 0.13572053611278534, -0.046556778252124786, 0.15764057636260986, -0.03944928199052811, -0.093443363904953, -0.07655199617147446, 0.02047719433903694, -0.03141910582780838, 0.08129534870386124, -0.0978320837020874, -0.05028776451945305, -0.16162610054016113, 0.12516111135482788, -0.03066529892385006, -0.13935519754886627], [-0.0085302060469985, 0.014995026402175426, 0.05264146253466606, -0.00020116960513405502, 0.11935298144817352, -0.049569252878427505, -0.05291113257408142, -0.034960247576236725, 0.03155994042754173, 0.07551347464323044, 0.0012406534515321255, 0.1360171139240265, 0.13886630535125732, -0.09203876554965973, -0.015188691206276417, -0.07321389764547348, 0.0735345110297203, -0.05099434778094292, 0.05258992314338684, 0.010561452247202396, -0.11604778468608856, -0.11466363072395325, -0.1726621836423874, -0.08822675794363022, 0.04938333481550217, 0.02013097144663334, 0.13295410573482513, -0.15544229745864868, -0.012568523176014423, -0.10099180787801743, 0.01076431479305029, 0.06440622359514236], [-0.1585763543844223, 0.17559458315372467, -0.015480073168873787, 0.17401903867721558, -0.0018331033643335104, 0.12246469408273697, 0.16070355474948883, -0.03613533079624176, -0.04297206178307533, 0.13600367307662964, -0.12525053322315216, 0.10463907569646835, -0.1110357865691185, 0.16418372094631195, -0.11585331708192825, -0.044813938438892365, 0.13190819323062897, -0.05244775861501694, 0.15602479875087738, 0.12162581086158752, 0.16157592833042145, -0.13890989124774933, 0.0019812812097370625, -0.028424298390746117, 0.04210885241627693, -0.10840660333633423, 0.07248798757791519, -0.008374578319489956, -0.0684262365102768, -0.1630794256925583, 0.11650767922401428, -0.06397640705108643], [0.13043932616710663, -0.004039648454636335, 0.02033444121479988, -0.06113496795296669, -0.04893402010202408, -0.08394107222557068, -0.1530710905790329, 0.09532465785741806, -0.1113235205411911, 0.14651279151439667, -0.08271091431379318, 0.11074511706829071, 0.15150153636932373, -0.10811770707368851, 0.14596903324127197, -0.023219134658575058, -0.13504520058631897, 0.04682587832212448, 0.10620228946208954, 0.1558307260274887, -0.1682773232460022, 0.13428474962711334, 0.13401567935943604, 0.14810875058174133, 0.09634438902139664, -0.10885045677423477, 0.1341048628091812, 0.16155920922756195, -0.05451866611838341, 0.006792396306991577, 0.11209230124950409, 0.14230215549468994], [0.11677630990743637, 0.152980774641037, -0.04501020908355713, -0.013669434003531933, -0.0438445508480072, 0.11623652279376984, 0.04405494034290314, -0.09309612214565277, -0.022205214947462082, -0.11738445609807968, -0.1371568888425827, 0.16115456819534302, -0.08892238885164261, 0.07890068739652634, -0.03936437517404556, -0.0055747199803590775, -0.00011417581117711961, 0.16310323774814606, -0.01848631538450718, 0.14627663791179657, 0.10343342274427414, 0.1570318192243576, -0.16032591462135315, -0.04952818900346756, -0.14402426779270172, -0.011204367503523827, -0.03661433607339859, 0.035921696573495865, 0.15262310206890106, 0.06586597114801407, -0.09545526653528214, -0.11086433380842209], [0.13348504900932312, -0.038444388657808304, -0.02243570052087307, -0.15349197387695312, -0.07418549060821533, 0.005839045625180006, -0.11600533872842789, 0.060370516031980515, 0.08809561282396317, -0.13370338082313538, -0.12248727679252625, -0.041560374200344086, 0.027511080726981163, -0.06484521925449371, 0.1691083312034607, -0.2211979329586029, -0.09991409629583359, -0.1536182314157486, 0.045185331255197525, 0.025085845962166786, -0.05037359520792961, 0.08612881600856781, -0.15260303020477295, -0.002235725289210677, -0.09727165848016739, -0.07390259951353073, -0.1702360212802887, -0.1319650411605835, -0.1560646891593933, 0.06550934910774231, -0.11521577835083008, 0.09247201681137085], [-0.09580393880605698, -0.05566614121198654, 0.009592450223863125, 0.1348354071378708, -0.06324486434459686, 0.0901198610663414, 0.04876771569252014, 0.0942460298538208, 0.11167129874229431, 0.11160097271203995, -0.06633485853672028, -0.0496152900159359, 0.06881939619779587, 0.09635081142187119, -0.009435183368623257, 0.0778360441327095, -0.10635223984718323, 0.08910141885280609, -0.014987705275416374, -0.1216527447104454, -0.08589297533035278, -0.1469506472349167, 0.035658929497003555, -0.12097109854221344, -0.05062238872051239, -0.016220171004533768, -0.107862189412117, 0.004539215471595526, -0.005679144524037838, 0.011063876561820507, 0.1142946258187294, -0.1067146360874176], [0.09665199369192123, 0.060501158237457275, -0.03493505343794823, -0.015738148242235184, 0.10141020268201828, 0.08748351782560349, -0.005709928460419178, -0.04176163673400879, 0.08914772421121597, 0.04161875322461128, -0.1168544664978981, -0.0312411617487669, -0.04796172305941582, -0.07543230056762695, -0.09805763512849808, -0.08726885914802551, 0.17410805821418762, -0.10886037349700928, 0.15939439833164215, -0.13896483182907104, -0.04288911819458008, -0.01032123900949955, -0.09461971372365952, 0.11782707273960114, 0.10245884209871292, -0.07009825110435486, -0.08233367651700974, 0.09023159742355347, -0.008236320689320564, 0.0879817008972168, 0.1471814066171646, -0.0653422623872757], [-0.09810645878314972, 0.009803485125303268, -0.12904906272888184, -0.18147580325603485, -0.14073432981967926, -0.12587903439998627, 0.1760198026895523, -0.008342868648469448, 0.0761328861117363, 0.01925823651254177, -0.16700460016727448, 0.12756876647472382, -0.02747972309589386, -0.04577295109629631, 0.14406536519527435, -0.1388653963804245, 0.03589598461985588, -0.19337229430675507, 0.08658121526241302, 0.07021768391132355, -0.14536280930042267, 0.04000270366668701, 0.019454142078757286, -0.15782591700553894, 0.15072572231292725, 0.05100429803133011, 0.062122199684381485, -0.06565939635038376, -0.09952586144208908, -0.1298074871301651, 0.017748653888702393, 0.047621216624975204], [-0.10580044984817505, 0.106700100004673, 0.02586805261671543, -0.12426188588142395, 0.03672159090638161, -0.1275109499692917, 0.055477432906627655, 0.08253832906484604, -0.15636463463306427, -0.0890989899635315, -0.06760462373495102, 0.026361925527453423, -0.1453765332698822, -0.11630167812108994, -0.01693142205476761, -0.08418354392051697, 0.0381297692656517, -0.03041582927107811, 0.03457016125321388, 0.011719142086803913, 0.02031821571290493, -0.07878401130437851, 0.06348451226949692, 0.051393866539001465, -0.08822045475244522, -0.13828599452972412, 0.0775899663567543, -0.12783318758010864, 0.10509908944368362, 0.042424872517585754, -0.028418192639946938, -0.07674597203731537], [0.0053007458336651325, -0.1051538735628128, -0.12231187522411346, 0.2016601413488388, -0.11762604117393494, -0.10337232053279877, -0.0686684250831604, 0.06252219527959824, 0.04048788547515869, -0.11437416821718216, 0.02818480134010315, -0.03947595879435539, 0.14791356027126312, 0.15343403816223145, 0.07265682518482208, 0.041565895080566406, 0.1325707584619522, -0.10006415098905563, 0.0719742625951767, -0.10275283455848694, 0.13786134123802185, -0.11115320026874542, 0.06568185985088348, -0.10227896273136139, 0.10317540168762207, 0.07870204001665115, 0.15168125927448273, -0.13332805037498474, 0.11301921308040619, -0.09702768921852112, -0.05149884894490242, 0.0672382116317749], [-0.02975563146173954, -0.1568317413330078, -0.14966906607151031, -0.0650252178311348, 0.04416254162788391, 0.1499059796333313, 0.13001160323619843, 0.00505089433863759, -0.10843374580144882, -0.12224894016981125, 0.15588141977787018, -0.09856090694665909, -0.03109014965593815, -0.1426437497138977, -0.12218999117612839, 0.030756566673517227, -0.04370290786027908, 0.014382951892912388, -0.0053605856373906136, 0.009006507694721222, -0.035027340054512024, -0.0016859592869877815, 0.07683916389942169, 0.1254807859659195, 0.14941687881946564, -0.1477874368429184, -0.1494310200214386, -0.02641998417675495, -0.0005828756256960332, 0.10439253598451614, 0.16199234127998352, 0.04539582133293152], [-0.12555721402168274, -0.33809924125671387, -0.2231258600950241, -0.2637195587158203, -0.4267994165420532, -0.2704450786113739, -0.1706894487142563, -0.3741159737110138, 0.12363822013139725, -0.11278094351291656, -0.18533743917942047, -0.14419220387935638, 0.15628904104232788, 0.084323450922966, 0.1145530492067337, -0.24955801665782928, 0.012524041347205639, -0.3719114065170288, -0.10017769038677216, -0.12139599025249481, 0.14609625935554504, -0.3782148063182831, 0.004306691233068705, -0.48909467458724976, 0.04744472727179527, -0.3330584168434143, -0.14139102399349213, 0.021878408268094063, -0.16348183155059814, -0.008927121758460999, -0.4348069727420807, 0.11175885796546936], [-0.14038971066474915, -0.002236240077763796, 0.06409953534603119, -0.1712556779384613, 0.08605699241161346, 0.11867514252662659, -0.1083635687828064, -0.001059557544067502, 0.05360632389783859, 0.09019539505243301, 0.11412728577852249, -0.14828239381313324, -0.1440848559141159, -0.15630917251110077, -0.0786198228597641, -0.057089913636446, -0.06342801451683044, 0.09099334478378296, -0.12738540768623352, -0.14109013974666595, -0.13818927109241486, -0.12150527536869049, 0.17314651608467102, -0.00192421511746943, -0.030951233580708504, -0.07499880343675613, -0.1353975236415863, -0.059977009892463684, 0.10787829011678696, 0.11805115640163422, 0.10418828576803207, 0.012585427612066269], [-0.09637854248285294, -0.3033357858657837, -0.02866866998374462, -0.35923171043395996, -0.14909878373146057, -0.19586558640003204, 0.16413171589374542, -0.07894379645586014, -0.04466056823730469, -0.10957600176334381, -0.16059844195842743, -0.12364470958709717, -0.018644079566001892, 0.04426141828298569, 0.08632500469684601, -0.2344338297843933, -0.11933020502328873, -0.331762433052063, -0.16474926471710205, 0.022173603996634483, -0.10759323090314865, -0.1838798224925995, -0.08374863117933273, -0.3130456805229187, 0.1191992312669754, -0.07555360347032547, 0.1241220235824585, 0.16957411170005798, -0.12119216471910477, -0.07745259255170822, -0.3174222707748413, 0.1187014952301979], [0.10415802896022797, -0.07652498036623001, -0.3781532049179077, -0.3289262354373932, -0.028475074097514153, -0.32155734300613403, -0.117734394967556, -0.15136830508708954, -0.15453000366687775, -0.03839278221130371, -0.12277350574731827, 0.14482153952121735, -0.020058823749423027, -0.15643687546253204, 0.10007143020629883, -0.023868748918175697, -0.13123516738414764, -0.18863628804683685, -0.1260775625705719, -0.09026558697223663, 0.05949002131819725, -0.15450772643089294, 0.07309932261705399, -0.4087959825992584, -0.04285537824034691, -0.08358456194400787, -0.01640869490802288, -0.0546509325504303, -0.0890708640217781, 0.12103470414876938, -0.3364443778991699, -0.13925014436244965], [0.12881973385810852, -0.13259361684322357, 0.0659869834780693, -0.1214834451675415, -0.05241440236568451, -0.11279549449682236, 0.14605562388896942, 0.08676119893789291, 0.008494317531585693, -0.04405851289629936, -0.09705106914043427, -0.09449083358049393, -0.06686568260192871, 0.05788587033748627, -0.03179636225104332, 0.08823218196630478, 0.025452185422182083, -0.02664533443748951, -0.1065659299492836, 0.07131390273571014, -0.1635197103023529, 0.002270439639687538, 0.06342862546443939, -0.0025332157965749502, 0.1244107335805893, 0.014531650580465794, -0.048822127282619476, -0.12370036542415619, -0.17985092103481293, 0.04338296875357628, 0.06686260551214218, -0.13484124839305878], [0.047327835112810135, -0.1330772489309311, 0.07300522923469543, -0.13069072365760803, 0.08340372890233994, 0.06921827048063278, 0.0977739617228508, 0.05789431184530258, 0.055133156478405, -0.02144777961075306, -0.20734015107154846, -0.04035773500800133, -0.020039035007357597, 0.0857732817530632, -0.06850150227546692, 0.019821111112833023, 0.12002697587013245, 0.01812487095594406, 0.08649204671382904, -0.023561984300613403, 0.0846807062625885, -0.12726804614067078, 0.15313367545604706, -0.06810907274484634, -0.010311732068657875, -0.20629896223545074, 0.16349762678146362, -0.024733245372772217, 0.11758836358785629, -0.15205301344394684, -0.2055191695690155, -0.028295455500483513], [-0.1413506716489792, -0.11176326870918274, -0.1583285927772522, -0.21176032721996307, -0.03741900622844696, -0.02445957437157631, -0.1560850590467453, -0.31784331798553467, 0.10341846197843552, -0.04183540865778923, -0.11122477799654007, -0.04708005115389824, 0.03161163255572319, -0.09755104780197144, 0.0005648941732943058, -0.20830367505550385, -0.07963478565216064, -0.22810716927051544, 0.040378548204898834, 0.11438748985528946, -0.00435640336945653, -0.1544303447008133, 0.14585287868976593, -0.00995804462581873, -0.025662604719400406, -0.28495270013809204, 0.04148389771580696, 0.05278174206614494, -0.13302740454673767, -0.15312646329402924, -0.1279638260602951, 0.17262105643749237], [-0.1581178456544876, -0.004312513861805201, 0.027146171778440475, -0.07080010324716568, -0.031308021396398544, 0.21037916839122772, 0.13520504534244537, -0.05558173730969429, 0.003789633745327592, -0.1730927973985672, 0.1488148719072342, -0.12074071168899536, -0.09008821099996567, -0.08193789422512054, 0.026057224720716476, 0.19427134096622467, -0.07398668676614761, 0.10471620410680771, 0.14337414503097534, -0.010711431503295898, 0.018253441900014877, 0.09660977125167847, -0.002258249092847109, 0.18566061556339264, 0.09565256536006927, -0.026888994500041008, 0.1687973439693451, 0.10171819478273392, -0.02551719918847084, 0.18318971991539001, 0.08454190939664841, 0.11170779913663864], [-0.15009988844394684, 0.15274234116077423, 0.17883217334747314, -0.1325625628232956, -0.15409977734088898, -0.05048844590783119, -0.10868456214666367, 0.06271934509277344, 0.0786890909075737, 0.018192773684859276, 0.12959320843219757, 0.006698714569211006, -0.05195673555135727, -0.15089142322540283, 0.05618339031934738, -0.16342990100383759, -0.0006045122281648219, 0.02691037766635418, -0.10239905118942261, 0.053107284009456635, 0.0343637578189373, 0.13104099035263062, 0.11056454479694366, -0.12902730703353882, -0.13116511702537537, -0.06782970577478409, -0.12717308104038239, 0.055426180362701416, -0.10835354775190353, -0.1537691354751587, 0.05295927822589874, 0.10668796300888062], [-0.05139293894171715, -0.4269813895225525, -0.23219791054725647, -0.16090109944343567, -0.08068197965621948, -0.17375759780406952, 0.12272350490093231, -0.3397074341773987, 0.16911840438842773, -0.0667056068778038, -0.31899917125701904, 0.12686793506145477, -0.03928189352154732, 0.10909507423639297, -0.12381867319345474, -0.07479844242334366, 0.16765417158603668, -0.1426038295030594, 0.14366236329078674, -0.12624087929725647, -0.03903457522392273, -0.17044790089130402, 0.09989475458860397, -0.3174731135368347, 0.11248911172151566, -0.23459482192993164, -0.09435545653104782, 0.0345798023045063, -0.1361234337091446, -0.20531469583511353, -0.14078211784362793, 0.06021227315068245], [0.06797928363084793, -0.22506111860275269, -0.33195337653160095, -0.3497696816921234, -0.017217423766851425, -0.3212299644947052, 0.05327926203608513, -0.02846534550189972, 0.13505306839942932, -0.06614865362644196, -0.23403826355934143, -0.1413387656211853, 0.11088652163743973, -0.16589418053627014, -0.16273830831050873, -0.2959604263305664, 0.1441965103149414, -0.05575866252183914, 0.11783115565776825, 0.1356385052204132, -0.08244527876377106, -0.2911255955696106, -0.10860011726617813, -0.13577118515968323, 0.06876363605260849, -0.12099888175725937, -0.1359977275133133, 0.015703536570072174, -0.08712836354970932, -0.04720718041062355, -0.2044854462146759, 0.008787154220044613], [-0.1550011932849884, 0.0683705285191536, -0.15960213541984558, -0.031972795724868774, 0.05446866154670715, 0.01575254090130329, 0.12380018830299377, 0.04071264714002609, 0.1294432282447815, 0.006738726980984211, 0.05086681619286537, -0.07684025913476944, -0.09525516629219055, 0.08441181480884552, 0.046383533626794815, -0.07255110889673233, -0.14911270141601562, -0.0016308095073327422, 0.11440625041723251, -0.02040967345237732, 0.04061280936002731, 0.004102775361388922, -0.17458094656467438, -0.10531890392303467, -0.06557796895503998, -0.13355828821659088, 0.10804738849401474, 0.1752718836069107, 0.02796579897403717, 0.07727422565221786, -0.19370706379413605, 0.031143400818109512], [-0.02286287397146225, -0.1186889111995697, 0.017355384305119514, 0.05010252445936203, -0.021657761186361313, 0.06315203011035919, 0.08487207442522049, 0.1413595974445343, 0.010247479192912579, -0.014649443328380585, -0.015156608074903488, 0.02439575456082821, -0.1146252453327179, -0.02175930142402649, -0.14948810636997223, -0.1374027580022812, -0.15057623386383057, 0.11884290724992752, -0.10258174687623978, -0.014266160316765308, 0.018898984417319298, 0.13912905752658844, 0.08022831380367279, -0.13514173030853271, 0.1729009747505188, -0.17887422442436218, 0.022984109818935394, 0.1615217924118042, 0.1453012079000473, -0.024776777252554893, -0.13129058480262756, 0.07762277871370316], [0.13627049326896667, -0.06731225550174713, -0.008232449181377888, -0.07996853440999985, 0.08948532491922379, 0.05746489018201828, 0.08762706816196442, -0.05238304287195206, -0.1706443727016449, -0.07199303060770035, -0.11839673668146133, -0.042587198317050934, 0.06424429267644882, -0.14706623554229736, -0.0082516148686409, -0.15379047393798828, -0.1252726912498474, -0.10348556935787201, -0.05621923878788948, -0.0895688384771347, 0.027210215106606483, 0.12501011788845062, 0.13329452276229858, 0.07399193942546844, -0.0011697435984387994, -0.01350991241633892, 0.12003186345100403, -0.10124538838863373, 0.12223517894744873, -0.1845499575138092, -0.11352039128541946, 0.04689254239201546], [-0.07280897349119186, -0.11917626857757568, -0.015782875940203667, -0.08122194558382034, 0.03878697380423546, -0.20100350677967072, -0.0844162181019783, -0.1578974425792694, -0.035602789372205734, -0.14060942828655243, -0.14665290713310242, 0.1597035974264145, -0.09690150618553162, 0.09927476942539215, 0.0821208581328392, -0.03442254289984703, 0.04769103229045868, -0.19306965172290802, 0.07661732286214828, -0.08326105773448944, -0.10850857943296432, 0.009208555333316326, 0.14652800559997559, -0.2854823172092438, 0.14358748495578766, -0.07337947934865952, 0.045312583446502686, 0.17038913071155548, -0.019665038213133812, -0.05707657337188721, -0.01942635327577591, -0.045663874596357346], [-0.04243730381131172, -0.10670468956232071, 0.14989234507083893, 0.05138743296265602, -0.049889594316482544, -0.020275475457310677, 0.012372206896543503, -0.11782150715589523, 0.0501912496984005, -0.1481480449438095, -0.024758893996477127, -0.03316948562860489, -0.072180837392807, 0.16349872946739197, 0.04950813204050064, 0.06881851702928543, -0.11636430770158768, 0.008349050767719746, 0.042312029749155045, 0.09176812320947647, -0.052162837237119675, -0.050948020070791245, -0.14352348446846008, 0.09423575550317764, 0.11800847947597504, 0.06607646495103836, 0.08984072506427765, 0.10588036477565765, 0.15291620790958405, 0.021646054461598396, 0.04734477028250694, 0.05560242012143135], [-0.09982946515083313, -0.15517598390579224, -0.172492116689682, -0.34684643149375916, -0.24977761507034302, -0.295622318983078, -0.1129530668258667, -0.08022132515907288, 0.13906779885292053, 0.03589046746492386, -0.13988184928894043, -0.041401881724596024, 0.037479907274246216, -0.029593640938401222, -0.09196178615093231, -0.2704111635684967, 0.17559444904327393, -0.15768969058990479, -0.10084027796983719, 0.020067082718014717, -0.1763620674610138, -0.21284878253936768, 0.1357032209634781, -0.19457390904426575, 0.04211883991956711, -0.33887773752212524, -0.033249709755182266, 0.10431306809186935, -0.13914746046066284, -0.1076241284608841, -0.07343439012765884, 0.050766490399837494], [0.08263839781284332, -0.1372271627187729, 0.13765867054462433, -0.009921431541442871, 0.04872378334403038, 0.14754974842071533, -0.1629103124141693, 0.047699298709630966, -0.15981020033359528, 0.1194172352552414, 0.060368072241544724, 0.019669849425554276, -0.07081878185272217, 0.06665104627609253, -0.09175672382116318, 0.042834602296352386, 0.14845412969589233, -0.12674377858638763, -0.04793361574411392, 0.04128937050700188, 0.030684612691402435, 0.018445856869220734, 0.15208451449871063, -0.031152285635471344, 0.04559991881251335, 0.08775538951158524, -0.034275542944669724, 0.11551167815923691, 0.12033388018608093, 0.09781407564878464, -0.03554796800017357, 0.153549924492836], [-0.10214552283287048, 0.03662540391087532, 0.020153846591711044, 0.1043560728430748, -0.15984779596328735, 0.018686875700950623, -0.10180400311946869, 0.08057013899087906, 0.060703955590724945, -0.139698326587677, -0.023118356242775917, 0.04945051670074463, 0.07530514150857925, 0.15726716816425323, 0.07938896119594574, 0.022738514468073845, 0.09429872781038284, -0.1785491555929184, 0.1112968921661377, -0.02078437991440296, 0.10004917532205582, 0.038961634039878845, -0.009322376921772957, 0.10646140575408936, -0.1030532568693161, 0.04146667569875717, 0.07749458402395248, -0.06291167438030243, 0.04638953134417534, -0.13508693873882294, -0.09927213191986084, 0.08594972640275955]], "bias": [0.20696796476840973, -0.24103324115276337, 0.2159467339515686, 0.1711055487394333, 0.3140100836753845, -0.3027902841567993, -0.16123327612876892, -0.25449952483177185, -0.202192023396492, 0.09619669616222382, -0.280072420835495, 0.1476256400346756, -0.1700066328048706, 0.10912720859050751, -0.2372845709323883, -0.02481522224843502, -0.21554966270923615, 0.2986445426940918, 0.359909325838089, 0.1971057951450348, -0.32150933146476746, 0.24488595128059387, -0.1220061257481575, 0.08340145647525787, -0.01357426680624485, -0.2790105640888214, -0.2784571647644043, -0.24137139320373535, 0.14387132227420807, -0.21880610287189484, -0.09552249312400818, 0.2673133611679077, -0.06288393586874008, 0.05099079757928848, -0.020722417160868645, 0.12096799910068512, 0.03130793944001198, 0.12884700298309326, 0.03255651518702507, -0.04379158094525337, 0.19226935505867004, -0.015556700527668, -0.13475441932678223, 0.07724574208259583, -0.022850196808576584, -0.28665709495544434, 0.0003222946252208203, -0.17813263833522797, -0.16423888504505157, -0.1013963371515274, -0.11118166148662567, -0.16257527470588684, 0.06553592532873154, 0.16180473566055298, -0.223772794008255, -0.1796073615550995, -0.14067727327346802, -0.015809474512934685, 0.034215737134218216, -0.19092459976673126, 0.06853777915239334, -0.2741149961948395, 0.1486787647008896, 0.030458513647317886]}, "prelu": {"num_parameters": 32, "weight": [-0.2681630551815033, 0.0006492962711490691, -0.2731308937072754, -0.44060051441192627, -0.15600091218948364, -0.1683756411075592, -0.26051196455955505, -0.324801504611969, -0.11389204859733582, -0.06673230975866318, -0.07481800019741058, 0.08050856739282608, -0.23331902921199799, 0.1267433613538742, -0.13556040823459625, 0.013695577159523964, -0.04420776292681694, -0.1434350162744522, -0.4423273205757141, -0.014725305140018463, -0.12316577136516571, -0.23939983546733856, 0.053525764495134354, 0.14102496206760406, -0.0035830633714795113, 0.002691889414563775, -0.07723776996135712, 0.010435670614242554, -0.006372676230967045, -0.10398297011852264, 0.10655007511377335, -0.12484614551067352]}, "res": {"in_channels": 1, "out_channels": 32, "kernel_size": 1, "dilation": 1, "groups": 1, "weight": [[[-0.1629534810781479]], [[-1.077495813369751]], [[0.2703614830970764]], [[1.4401206970214844]], [[-1.2310458421707153]], [[-0.399345725774765]], [[1.2696377038955688]], [[-0.37780097126960754]], [[-1.4464356899261475]], [[-1.1184840202331543]], [[-0.36725977063179016]], [[-1.0608596801757812]], [[-1.3152672052383423]], [[-1.5357555150985718]], [[0.22531558573246002]], [[1.5903254747390747]], [[1.6397409439086914]], [[0.37095701694488525]], [[1.122408151626587]], [[-1.7322243452072144]], [[0.294658362865448]], [[1.6182788610458374]], [[1.3978044986724854]], [[-1.2159171104431152]], [[1.741146206855774]], [[-1.51978600025177]], [[0.2856471538543701]], [[-0.954587996006012]], [[-1.7402452230453491]], [[-1.0373495817184448]], [[-1.5788497924804688]], [[0.4667581021785736]]], "bias": null}, "causal": true}, {"conv1": {"in_channels": 32, "out_channels": 32, "kernel_size": 13, "dilation": 10, "groups": 1, "weight": [[[-0.15617066621780396, -0.10339061915874481, -0.06572587043046951, 0.07132679969072342, 0.06722401082515717, 0.11027590185403824, 0.09269515424966812, -0.06373471021652222, -0.11839363723993301, -0.12484925240278244, -0.0146262776106596, 0.05096033960580826, 0.02281574159860611], [-0.05300227552652359, -0.03083028644323349, -0.08182426542043686, 0.05459238588809967, 0.06552918255329132, 0.019232232123613358, 0.13900525867938995, -0.004260152578353882, -0.053402941673994064, -0.13789092004299164, -0.09978559613227844, 0.08733579516410828, -0.020271141082048416], [0.00522535340860486, -0.05800913646817207, -0.0007623891578987241, 0.04844338819384575, 0.09960230439901352, 0.1345331370830536, 0.09871760755777359, 0.05036327987909317, -0.025899400934576988, -0.0756613239645958, -0.07914835959672928, -0.04298989474773407, 0.17341606318950653], [0.14569629728794098, 0.07774655520915985, 0.026112431660294533, -0.030195264145731926, -0.06312928348779678, -0.13293682038784027, -0.13315902650356293, -0.06273163855075836, 0.08001347631216049, 0.11723613739013672, 0.012425406835973263, -0.022315790876746178, -0.06160885840654373], [-0.08992137759923935, -0.089701808989048, 0.044314682483673096, 0.07528578490018845, 0.06666330993175507, 0.04308295622467995, 0.046698786318302155, -0.04410931468009949, -0.13752518594264984, -0.06910557299852371, 0.06994618475437164, 0.15176892280578613, -0.09306451678276062], [0.12839698791503906, 0.08095570653676987, 0.09351535141468048, 0.023746300488710403, -0.055011849850416183, -0.0915188267827034, -0.15728944540023804, -0.03552401810884476, -0.010628080926835537, 0.12132926285266876, 0.06434062123298645, -0.019727583974599838, -0.1284957230091095], [-0.14557909965515137, -0.0855361670255661, 0.08287542313337326, 0.10524695366621017, 0.048332709819078445, 0.08996087312698364, 0.030805528163909912, -0.07973730564117432, -0.10679472982883453, 0.1065935343503952, 0.11831934750080109, 0.10636506229639053, -0.03657306730747223], [0.10159431397914886, 0.05035299435257912, 0.04273549094796181, -0.017218710854649544, -0.06199808791279793, -0.15370316803455353, -0.1522306501865387, -0.05001509189605713, 0.04129990190267563, 0.12632475793361664, -0.013470202684402466, -0.026782529428601265, -0.07168352603912354], [-0.10877208411693573, -0.11672667413949966, -0.06241188943386078, 0.009833142161369324, 0.05373525246977806, 0.056876782327890396, 0.05321437120437622, 0.024477124214172363, -0.05448418855667114, -0.09257005155086517, -0.1005249172449112, 0.07255533337593079, 0.05858854204416275], [0.04218723624944687, -0.024826178327202797, -0.0804189071059227, -0.08761504292488098, 0.014874848537147045, 0.04403351619839668, 0.13849754631519318, 0.23724132776260376, 0.11740875989198685, 0.07843310385942459, -0.10841323435306549, -0.13563472032546997, 0.09843101352453232], [-0.058538272976875305, -0.07129577547311783, -0.0034980468917638063, 0.007107737008482218, 0.10918372124433517, 0.14506220817565918, 0.12318694591522217, 0.07771050184965134, -0.03871792182326317, -0.08884242922067642, -0.11183728277683258, 0.024866288527846336, 0.2698485851287842], [0.11977876722812653, 0.1602986603975296, 0.07889652252197266, 0.028425443917512894, -0.08351778984069824, -0.22765690088272095, -0.23101450502872467, -0.2886946499347687, -0.28576475381851196, -0.24973249435424805, -0.1587807536125183, -0.07597175985574722, -0.027247052639722824], [-0.18854524195194244, -0.0654347687959671, -0.01601775735616684, 0.062154997140169144, 0.05388735234737396, 0.0779871866106987, 0.059111498296260834, -0.009541545063257217, -0.10244408249855042, -0.10554488003253937, -0.0451386496424675, 0.04756166413426399, 0.11120734363794327], [0.12631021440029144, 0.08936140686273575, 0.07845396548509598, -0.018157867714762688, -0.011751209385693073, -0.14578600227832794, -0.15868690609931946, -0.16645315289497375, -0.1299077719449997, -0.16276955604553223, -0.1695740967988968, -0.06835117936134338, -0.059787165373563766], [-0.13155558705329895, -0.12880514562129974, -0.08882489800453186, -0.031251054257154465, 0.032563239336013794, 0.05575236678123474, 0.07412175089120865, -0.010656410828232765, -0.023306913673877716, -0.0594877265393734, -0.06635841727256775, 0.028320569545030594, 0.0035892559681087732], [-0.18335643410682678, -0.15086494386196136, 0.023467687889933586, 0.03737626597285271, 0.18763849139213562, 0.4051995575428009, 0.5193356871604919, 0.4667738676071167, 0.38033872842788696, 0.4747752547264099, 0.3804648816585541, 0.20085293054580688, 0.10758911073207855], [-0.20374217629432678, -0.31419095396995544, -0.17984923720359802, -0.011485952883958817, 0.1322898417711258, 0.29006481170654297, 0.2435174584388733, 0.1732589304447174, -0.06009170040488243, -0.22849489748477936, 0.018509909510612488, 0.19265738129615784, 0.09573876112699509], [0.11768808960914612, 0.026356028392910957, 0.014725598506629467, -0.0758044421672821, -0.059685904532670975, -0.08286404609680176, -0.06430064886808395, -0.09304337948560715, -0.006545316893607378, 0.06397343426942825, 0.08331631869077682, 0.08149585872888565, -0.0947866290807724], [0.010997251607477665, 0.0986148938536644, 0.18097709119319916, 0.10068000853061676, 0.07474667578935623, 0.006164849735796452, 0.007411395199596882, -0.05264421924948692, 0.009124455973505974, 0.16150188446044922, 0.09686463326215744, -0.08854595571756363, -0.11117974668741226], [0.4904007911682129, 0.4937974512577057, 0.3088546395301819, 0.04861568659543991, -0.28502216935157776, -0.390616238117218, -0.38861382007598877, -0.39177101850509644, -0.21064062416553497, -0.23807193338871002, -0.24089275300502777, -0.20708374679088593, 0.03884650766849518], [-0.04846379905939102, -0.07554011046886444, -0.13314925134181976, -0.15943029522895813, -0.10528843849897385, 0.019096335396170616, 0.06122027337551117, 0.06038501486182213, 0.005365871358662844, -0.055404096841812134, -0.10464759171009064, 0.04927058145403862, -0.007414289750158787], [0.0841575488448143, 0.07376797497272491, 0.051591623574495316, -0.11137548834085464, -0.15821048617362976, -0.24267402291297913, -0.1898012012243271, 0.017356395721435547, 0.1492430716753006, 0.1515611857175827, 0.10005047172307968, -0.17681442201137543, -0.021896449849009514], [-0.09366150200366974, -0.04825729504227638, -0.006374028977006674, 0.025165442377328873, 0.06269511580467224, 0.1790716052055359, 0.3210766911506653, 0.2506617307662964, 0.2584306597709656, 0.1854001134634018, 0.16373547911643982, 0.12186510115861893, 0.06111098825931549], [0.1001402735710144, 0.08856254070997238, 0.03260523080825806, 0.0054859924130141735, -0.029347365722060204, -0.0674167275428772, -0.12636889517307281, -0.05660932511091232, -0.045832399278879166, -0.07764561474323273, -0.01779634691774845, -0.008765429258346558, -0.0844879224896431], [-0.3157351016998291, -0.2238563448190689, -0.13608933985233307, 0.01389442477375269, 0.21052338182926178, 0.39200183749198914, 0.4466240108013153, 0.38511309027671814, 0.3466609716415405, 0.33524754643440247, 0.33051416277885437, 0.24781222641468048, -0.08360537141561508], [0.17560802400112152, 0.13396255671977997, -0.02483133040368557, -0.07876826077699661, -0.16813768446445465, -0.16305114328861237, -0.09763148427009583, 