{"version": 1, "arch": "direct", "config": {"nblocks": 4, "kernel_size": 13, "dilation_growth": 10, "channel_width": 32, "causal": true, "nparams": 0, "sample_rate": 48000, "receptive_field": 13333}, "gen": [{"in_features": 0, "out_features": 16, "weight": [[], [], [], [], [], [], [], [], [], [], [], [], [], [], [], []], "bias": [0.0, 0.0, 0.0, 0.0, 0.0, 0.0, 0.0, 0.0, 0.0, 0.0, 0.0, 0.0, 0.0, 0.0, 0.0, 0.0]}, {"in_features": 16, "out_features": 32, "weight": [[0.19272145628929138, 0.03695222735404968, -0.11670997738838196, 0.0637245774269104, -0.11518415808677673, -0.02931821346282959, -0.10153958201408386, 0.16584274172782898, -0.19734254479408264, -0.11525258421897888, -0.0705936849117279, -0.15031811594963074, 0.02359578013420105, -0.24691978096961975, 0.225777268409729, -0.21236705780029297], [0.19300684332847595, 0.04160478711128235, -0.08117613196372986, 0.1544874906539917, 0.03896269202232361, 0.20199084281921387, 0.02732992172241211, -0.07884329557418823, 0.06717091798782349, -0.06779485940933228, 0.10521438717842102, 0.2232055366039276, 0.14451488852500916, -0.109293133020401, 0.144316166639328, 0.04473155736923218], [0.12695875763893127, -0.15237626433372498, -0.24747711420059204, -0.09659013152122498, -0.19175571203231812, 0.20513471961021423, 0.07200783491134644, 0.10355338454246521, 0.07906529307365417, -0.0043489933013916016, 0.1956520676612854, -0.17762839794158936, 0.015740931034088135, -0.17063504457473755, 0.07708799839019775, -0.08609557151794434], [0.07660406827926636, -0.05208536982536316, 0.20734795928001404, -0.14817547798156738, -0.14909949898719788, -0.14910849928855896, 0.22486069798469543, 0.08331277966499329, 0.24056267738342285, -0.20631906390190125, -0.24796903133392334, -0.19559094309806824, -0.16817227005958557, 0.10126003623008728, 0.0895189642906189, 0.20773109793663025], [-0.129106342792511, -0.17042794823646545, 0.13264453411102295, -0.10105112195014954, 0.1517309546470642, -0.05932515859603882, 0.14301148056983948, -0.19424200057983398, -0.12616243958473206, 0.0762191116809845, 0.05285188555717468, -0.06373968720436096, 0.1490173637866974, 0.16995230317115784, -0.1812933385372162, -0.13346704840660095], [0.2289154827594757, -0.08435812592506409, -0.0886290967464447, -0.24189865589141846, -0.14316755533218384, 0.062450915575027466, -0.03299829363822937, -0.18147149682044983, 0.005864173173904419, -0.17077037692070007, -0.21209916472434998, -0.13766565918922424, -0.2188030183315277, -0.1591845154762268, 0.24990221858024597, 0.04721873998641968], [0.0770399272441864, -0.23317107558250427, -0.16419345140457153, -0.08321395516395569, 0.0390927791595459, -0.21998032927513123, -0.10771825909614563, -0.1496671438217163, 0.0006928145885467529, -0.093025803565979, -0.017323940992355347, -0.1694074273109436, -0.17159879207611084, -0.14585044980049133, -0.08557435870170593, -0.19732022285461426], [0.2096174657344818, -0.0496160089969635, 0.21509918570518494, 0.07789552211761475, -0.2116992473602295, 0.17300879955291748, -0.06878620386123657, -0.09583151340484619, -0.2075176239013672, -0.24854016304016113, 0.07152765989303589, -0.0546109676361084, 0.09733077883720398, -0.20516586303710938, 0.18560728430747986, -0.18351343274116516], [-0.043168336153030396, 0.05221742391586304, 0.1290629506111145, 0.20182758569717407, 0.22773981094360352, -0.1982305347919464, 0.0629168152809143, -0.10753148794174194, -0.027396202087402344, -0.18712252378463745, 0.2277146577835083, -0.18348762392997742, 0.13361281156539917, 0.08785989880561829, 0.08123898506164551, -0.13516154885292053], [0.22723788022994995, 0.05493760108947754, 0.032160013914108276, -0.22031369805335999, 0.10494711995124817, -0.037505149841308594, -0.11453106999397278, 0.21473664045333862, 0.055737197399139404, -0.13831910490989685, -0.12653473019599915, -0.011938929557800293, 0.139590322971344, -0.0638834536075592, -0.14264371991157532, -0.08561071753501892], [-0.18676871061325073, 0.08915811777114868, 0.1935100555419922, -0.23536008596420288, 0.05806267261505127, 0.1291479468345642, 0.04533234238624573, -0.0890311598777771, 0.13048553466796875, 0.13137829303741455, 0.09348180890083313, -0.04393035173416138, -0.06620031595230103, 0.026745229959487915, -0.044163525104522705, -0.07450026273727417], [0.15980172157287598, 0.21484988927841187, -0.024749338626861572, -0.055974215269088745, 0.0036480724811553955, -0.014927059412002563, 0.06010282039642334, 0.07005840539932251, -0.22706419229507446, -0.09225943684577942, 0.21053236722946167, 0.09738874435424805, -0.012434393167495728, -0.15072643756866455, -0.15295127034187317, -0.22394171357154846], [-0.08149060606956482, 0.08442604541778564, 0.1594054102897644, 0.11542433500289917, -0.220986008644104, -0.15034061670303345, -0.03945416212081909, 0.24183738231658936, 0.03616437315940857, -0.06474268436431885, 0.10342881083488464, -0.09522038698196411, -0.1618139147758484, 0.18247181177139282, -0.11367544531822205, -0.05011668801307678], [-0.2487010657787323, 0.16731765866279602, 0.18940865993499756, 0.09111204743385315, -0.17431855201721191, -0.24673497676849365, -0.20304474234580994, 0.18642506003379822, 0.12002643942832947, 0.21037611365318298, 0.13096746802330017, 0.06327304244041443, -0.002448171377182007, -0.19012650847434998, -0.21419304609298706, -0.23383715748786926], [0.10234048962593079, -0.12274199724197388, -0.05031314492225647, -0.143876314163208, -0.04555588960647583, -0.17595872282981873, -0.16335391998291016, 0.08292770385742188, -0.07429909706115723, 0.15433579683303833, -0.08020219206809998, -0.18339180946350098, -0.044109731912612915, -0.12118685245513916, -0.07648539543151855, -0.23799890279769897], [0.1398727297782898, -0.17405113577842712, 0.1256544291973114, 0.11344605684280396, 0.17860817909240723, -0.1917630136013031, 0.17979919910430908, -0.11818790435791016, 0.09276729822158813, 0.23477867245674133, -0.035257965326309204, -0.001933366060256958, -0.057557642459869385, -0.20874613523483276, 0.11997571587562561, -0.24817946553230286], [0.15519997477531433, 0.1870562732219696, 0.23642659187316895, -0.0589698851108551, -0.20541048049926758, 0.0562075674533844, 0.1381068229675293, -0.24882718920707703, -0.05674591660499573, -0.14986386895179749, -0.021865934133529663, -0.12305337190628052, -0.10219189524650574, -0.07936471700668335, -0.23757600784301758, 0.20512688159942627], [0.20958280563354492, -0.0392172634601593, -0.028470516204833984, -0.10202997922897339, -0.22576570510864258, -0.2432861030101776, 0.09291461110115051, -0.1372615396976471, -0.16071924567222595, -0.019505798816680908, -0.08325278759002686, -0.08088019490242004, 0.008032798767089844, -0.053028106689453125, -0.08607810735702515, -0.11970147490501404], [-0.203456848859787, 0.20962679386138916, -0.1000467836856842, 0.06624487042427063, -0.08674147725105286, 0.020315319299697876, 0.2330751121044159, 0.11518067121505737, -0.21664991974830627, 0.09922569990158081, 0.23731070756912231, 0.06577083468437195, 0.1676061749458313, 0.24647188186645508, -0.038307249546051025, 0.051888614892959595], [-0.17375877499580383, -0.05151927471160889, 0.18514594435691833, 0.1281614601612091, -0.15819725394248962, -0.20047125220298767, -0.17084091901779175, -0.24671941995620728, -0.19290974736213684, -0.06182435154914856, 0.16871929168701172, 0.04184556007385254, -0.1901513636112213, -0.2005559802055359, 0.124368816614151, -0.1859603226184845], [-0.030781865119934082, 0.11992651224136353, -0.11570301651954651, -0.02725997567176819, -0.02176111936569214, -0.059145838022232056, -0.12675803899765015, -0.22285959124565125, -0.20208925008773804, -0.13386541604995728, 0.2414594292640686, -0.12075367569923401, -0.16788199543952942, 0.060598552227020264, 0.06890258193016052, 0.1369774341583252], [0.19003009796142578, 0.1392185389995575, -0.24787524342536926, 0.022172152996063232, 0.15143826603889465, -0.023106366395950317, -0.14731979370117188, 0.23833495378494263, -0.09350696206092834, -0.14233613014221191, -0.225388765335083, 0.011167079210281372, 0.11078327894210815, 0.055340707302093506, 0.04943743348121643, -0.18959686160087585], [-0.2334718108177185, 0.004402339458465576, 0.2279585301876068, 0.14423033595085144, -0.14555856585502625, -0.032452136278152466, -0.1842958927154541, -0.12060585618019104, 0.045274585485458374, 0.13613462448120117, 0.2070923149585724, -0.22952651977539062, 0.16715380549430847, -0.1763230264186859, 0.09361681342124939, 0.21156132221221924], [0.003510594367980957, 0.22745224833488464, -0.21301287412643433, -0.09548979997634888, 0.1458132266998291, -0.054466962814331055, -0.051175057888031006, -0.1041979193687439, 0.17232653498649597, 0.12262579798698425, 0.0801125168800354, -0.14049091935157776, -0.20293739438056946, 0.027040153741836548, 0.07406970858573914, -0.11542797088623047], [-0.06994941830635071, 0.16884192824363708, 0.01991492509841919, 0.011279582977294922, -0.0615251362323761, -0.22639742493629456, -0.23506435751914978, -0.11950376629829407, -0.12708035111427307, 0.07788839936256409, -0.07277768850326538, -0.09780552983283997, 0.23835745453834534, 0.08708071708679199, 0.178225576877594, -0.12102818489074707], [-0.10211670398712158, 0.09188511967658997, -0.166568785905838, -0.163426011800766, -0.012074917554855347, -0.09144017100334167, -0.1874144971370697, 0.1482897400856018, 0.20104071497917175, 0.04055583477020264, -0.04352831840515137, -0.23156824707984924, -0.09105968475341797, 0.06364640593528748, 0.11788272857666016, -0.031604379415512085], [-0.098838210105896, 0.13930651545524597, -0.19909992814064026, 0.158004492521286, -0.09698870778083801, 0.003826349973678589, -0.04940396547317505, 0.030309736728668213, -0.07554960250854492, 0.18178173899650574, -0.006499290466308594, 0.19514986872673035, 0.24037012457847595, -0.12179774045944214, -0.18237727880477905, 0.20057550072669983], [0.195903480052948, -0.19088682532310486, -0.019325822591781616, -0.24653157591819763, -0.20464977622032166, 0.04828563332557678, 0.06650865077972412, 0.052995264530181885, -0.06804117560386658, 0.23064443469047546, 0.03574448823928833, -0.14752119779586792, -0.014153450727462769, 0.060036301612854004, 0.087548166513443, -0.17677021026611328], [0.09369739890098572, -0.1277204155921936, -0.2077350914478302, -0.1365518569946289, 0.24110233783721924, 0.21371445059776306, 0.223871111869812, 0.14675280451774597, 0.1888623833656311, -0.03346243500709534, -0.13755697011947632, 0.12491413950920105, -0.1295456886291504, -0.1687164604663849, -0.0798335075378418, 0.052464812994003296], [0.1286991536617279, -0.09710225462913513, -0.14714157581329346, 0.033723264932632446, -0.14735829830169678, -0.16276535391807556, 0.130312979221344, -0.041996151208877563, 0.22844624519348145, 0.24319565296173096, 0.07477638125419617, 0.08603942394256592, 0.0575709342956543, 0.003915220499038696, -0.018183112144470215, 0.0034360289573669434], [0.093356192111969, 0.232442706823349, -0.0647897720336914, -0.10567894577980042, -0.06054121255874634, -0.1207810640335083, 0.04250967502593994, 0.1866120994091034, 0.19549435377120972, 0.11478137969970703, -0.18398287892341614, -0.13417619466781616, -0.05492785573005676, -0.04608103632926941, 0.020561933517456055, -0.22949287295341492], [0.07781118154525757, -0.19071802496910095, -0.1581861674785614, -0.20784562826156616, 0.21782991290092468, -0.23673495650291443, 0.18859168887138367, -0.00840422511100769, -0.02907469868659973, 0.1563696265220642, -0.023106902837753296, 0.15678852796554565, 0.18075373768806458, -0.21705251932144165, 0.0961959958076477, 0.04719474911689758]], "bias": [0.2046111524105072, 0.23423081636428833, 0.30113619565963745, -0.12026670575141907, -0.03198528289794922, 0.44235941767692566, 0.30360376834869385, -0.009392112493515015, -0.23513272404670715, 0.2391836941242218, -0.17024338245391846, 0.40561383962631226, -0.15177184343338013, -0.018050402402877808, -0.055485665798187256, 0.24651865661144257, 0.45973795652389526, -0.0018934316467493773, 0.3572310209274292, 0.4220091700553894, 0.34198740124702454, -0.0863378643989563, -0.05591416358947754, 0.34958454966545105, -0.06821691989898682, 0.3613619804382324, -0.05461692810058594, -0.16956308484077454, 0.289096862077713, 0.21891237795352936, 0.3233698904514313, 0.518847644329071]}, {"in_features": 32, "out_features": 32, "weight": [[0.12069126963615417, 0.1675809621810913, 0.009461588226258755, -0.15206553041934967, -0.12401366233825684, -0.1098090410232544, -0.15578417479991913, -0.08860887587070465, -0.16273492574691772, -0.16309687495231628, -0.10563372075557709, -0.17427244782447815, -0.10850773751735687, 0.06740648299455643, 0.1474410891532898, -0.05258449539542198, -0.05142058804631233, 0.09439049661159515, -0.08721647411584854, -0.08358577638864517, 0.10891734063625336, -0.1540258228778839, 0.021615326404571533, 0.1561613380908966, 0.030314816161990166, 0.04807332530617714, -0.10295318067073822, -0.0024389117024838924, 0.0097199697047472, 0.04338705912232399, 0.0686858743429184, 0.15360619127750397], [0.027348684147000313, 0.1478341817855835, 0.0582536943256855, -0.13984166085720062, -0.014155861921608448, -0.016514908522367477, 0.2609929144382477, 0.020473357290029526, -0.09527522325515747, 0.23159590363502502, -0.16730640828609467, 0.07051195204257965, -0.034439411014318466, -0.15021604299545288, -0.11241023987531662, 0.11097721010446548, 0.2722395360469818, 0.18996720016002655, 0.25065386295318604, 0.033324114978313446, 0.020995963364839554, 0.15427181124687195, 0.06252899765968323, 0.1451822817325592, 0.023923562839627266, 0.0010980883380398154, -0.059023160487413406, 0.1701684445142746, 0.09991782158613205, 0.13768941164016724, -0.006582045461982489, 0.04032130166888237], [0.3019639551639557, 0.2271750271320343, 0.3080448508262634, 0.07194089889526367, -0.17291894555091858, 0.3654467463493347, 0.1817740947008133, -0.08627605438232422, 0.06786628812551498, 0.495032399892807, -0.048314597457647324, 0.24129968881607056, -0.15984782576560974, -0.0911562591791153, -0.1547922044992447, 0.2934272587299347, 0.35084742307662964, -0.11878327280282974, 0.47186407446861267, 0.4287877678871155, 0.13701960444450378, -0.0844343826174736, 0.05765663459897041, 0.2884289026260376, -0.019264502450823784, 0.2462000846862793, 0.14199049770832062, -0.0988178551197052, 0.46399861574172974, 0.34565168619155884, 0.35672813653945923, 0.4552237093448639], [0.1946229487657547, 0.12404832988977432, 0.20142604410648346, 0.14337533712387085, -0.13116607069969177, 0.2570997476577759, 0.03579927608370781, 0.09268439561128616, 0.06531328707933426, 0.2413354367017746, 0.07587134093046188, 0.21511779725551605, 0.09781988710165024, -0.1399400532245636, -0.025960097089409828, 0.30198246240615845, 0.3920309543609619, 0.13674010336399078, 0.08904799818992615, 0.35334596037864685, 0.17152352631092072, -0.03774437680840492, -0.160674050450325, 0.19380533695220947, 0.12503889203071594, 0.2474353164434433, -0.10296428203582764, 0.05441400408744812, 0.16908729076385498, 0.3970710337162018, 0.0661930963397026, 0.16260740160942078], [-0.09597466886043549, 0.013777140527963638, 0.13667777180671692, 0.17016783356666565, 0.0296889990568161, 0.24604801833629608, 0.10336307436227798, 0.10209490358829498, 0.14171519875526428, 0.22715821862220764, -0.09894610941410065, 0.23516425490379333, 0.1070852130651474, -0.08265706896781921, -0.08435843139886856, -0.06855243444442749, 0.11775906383991241, -0.1584845334291458, 0.14920808374881744, 0.1301153302192688, -0.08128256350755692, 0.04817180335521698, -0.014377343468368053, 0.15878987312316895, 0.10143262892961502, -0.09581544250249863, 0.1621217131614685, 0.14825235307216644, 0.147624671459198, -0.07100999355316162, 0.013444749638438225, 0.023855766281485558], [0.10646692663431168, 0.2317657172679901, 0.2048918604850769, 0.14003880321979523, -0.06620696932077408, 0.19497232139110565, 0.19641844928264618, -0.1471826583147049, -0.17147690057754517, 0.042299628257751465, 0.12101206928491592, -0.03248023986816406, -0.15387241542339325, 0.09903040528297424, 0.0953761488199234, 0.27797356247901917, 0.0013656350784003735, -0.0973951667547226, 0.22453276813030243, 0.28827735781669617, 0.23629118502140045, 0.027692439034581184, 0.05826112627983093, 0.3030756115913391, -0.11405708640813828, 0.05689267814159393, 0.12364945560693741, -0.1209576204419136, 0.04446513205766678, 0.2730180621147156, 0.19037790596485138, 0.19200274348258972], [-0.07492510229349136, -0.0024396071676164865, 0.1617918163537979, -0.10610491782426834, 0.001389855518937111, 0.08407491445541382, -0.12203889340162277, 0.17168143391609192, -0.08831950277090073, -0.04245045408606529, -0.04783051833510399, -0.11519810557365417, -0.17346471548080444, 0.09967581927776337, 0.046964991837739944, -0.16556918621063232, -0.11377821862697601, 0.17472043633460999, 0.06757024675607681, 0.07093069702386856, -0.10576515644788742, -0.07749821245670319, -0.026685170829296112, -0.032328907400369644, -0.12113594263792038, 0.01456373743712902, 0.01756948232650757, -0.022383643314242363, 0.02450687438249588, -0.07006555050611496, 0.0460064671933651, 0.06666963547468185], [0.07072975486516953, -0.03827850893139839, 0.23141653835773468, 0.04216773062944412, -0.08990649878978729, 0.3056256175041199, 0.05560414865612984, 0.11945628374814987, 0.08968385308980942, -0.014319139532744884, 0.11401059478521347, -0.025904489681124687, -0.09793688356876373, -0.02947130985558033, -0.11915571242570877, 0.30615583062171936, 0.1000465378165245, 0.10694270581007004, -0.023172050714492798, 0.23717956244945526, 0.07844951003789902, -0.1344689428806305, 0.025848809629678726, 0.22015498578548431, 0.15298204123973846, 0.031129207462072372, -0.08699256926774979, 0.03398759663105011, 0.1859959065914154, 0.20782838761806488, 0.2305353581905365, 0.09554636478424072], [0.09821176528930664, 0.1303359717130661, -0.046177878975868225, 0.12576906383037567, 0.08636946976184845, 0.15592637658119202, -0.1004575788974762, -0.08729391545057297, -0.05111302062869072, 0.00896722637116909, 0.10610119253396988, -0.10091520845890045, 0.08850395679473877, -0.06335347890853882, 0.10679244250059128, -0.008392870426177979, -0.15487174689769745, -0.09727064520120621, -0.12794248759746552, 0.08767461031675339, -0.1185372918844223, -0.014728722162544727, 0.03814059868454933, -0.09694340080022812, 0.05099477618932724, -0.1726088970899582, -0.126485213637352, -0.16018149256706238, -0.05347094684839249, -0.06439928710460663, 0.025313248857855797, -0.03268856927752495], [0.05381008982658386, 0.13275356590747833, 0.034109584987163544, -0.0696442723274231, -0.16553115844726562, 0.034705087542533875, -0.11690588295459747, 0.08995747566223145, 0.1181725561618805, 0.038873616605997086, 0.16587147116661072, 0.13857842981815338, 0.03743067756295204, -0.1288059949874878, 0.1579395979642868, -0.11319813877344131, -0.11282528191804886, 0.14792296290397644, 0.10764572024345398, 0.024089494720101357, -0.01824243739247322, -0.14869852364063263, -0.01835014671087265, 0.14022916555404663, 0.04501774534583092, -0.014186576008796692, -0.036707859486341476, -0.06165658310055733, 0.07604388892650604, -0.018405171111226082, 0.0856846496462822, -0.060613472014665604], [0.23959235846996307, 0.24366451799869537, 0.20358198881149292, 0.11108170449733734, 0.1107763946056366, 0.323042631149292, 0.28942716121673584, -0.04520120844244957, -0.14966271817684174, 0.20504949986934662, -0.0015429540071636438, 0.11120011657476425, -0.029602091759443283, 0.00831430871039629, 0.1289815604686737, 0.22259266674518585, 0.09538663923740387, -0.08242849260568619, 0.11699983477592468, 0.09111997485160828, 0.31318822503089905, 0.09362895041704178, 0.15962505340576172, 0.16620707511901855, 0.03565071150660515, 0.22734196484088898, -0.16732852160930634, 0.01578555442392826, 0.1599055528640747, 0.09182417392730713, 0.02784339338541031, 0.31685879826545715], [0.14373111724853516, 0.08193045854568481, 0.16868911683559418, -0.0717373713850975, -0.03053334727883339, 0.06693094223737717, -0.02920820750296116, -0.03468974307179451, -0.14611679315567017, 0.04749304801225662, -0.10683096200227737, 0.0064287008717656136, 0.17235295474529266, -0.054414574056863785, -0.0557185560464859, 0.10665164887905121, -0.0649925246834755, -0.015181126073002815, 0.16506320238113403, -0.07247380167245865, -0.12646785378456116, -0.09893196821212769, -0.049010567367076874, -0.08388032019138336, -0.09173503518104553, 0.0714079737663269, 0.030041029676795006, -0.05657942593097687, -0.13733983039855957, -0.055659886449575424, -0.07460668683052063, -0.05752648413181305], [-0.15947431325912476, 0.03808283805847168, -0.12988200783729553, -0.1376735419034958, -0.1444324254989624, 0.07378370314836502, -0.10642428696155548, -0.07296472787857056, 0.13856476545333862, 0.09386210143566132, 0.1013621985912323, -0.16785062849521637, -0.12676653265953064, -0.0667351484298706, 0.14603480696678162, 0.01808432675898075, -0.13221079111099243, 0.0011069448664784431, -0.13729730248451233, -0.0387316457927227, -0.048609182238578796, 0.15302880108356476, 0.05475423485040665, -0.030824750661849976, 0.0298626646399498, -0.05102933943271637, 0.06945562362670898, 0.06992647051811218, 0.047472693026065826, -0.06890347599983215, 0.1508171558380127, -0.02552124485373497], [-0.06882211565971375, 0.11071772873401642, 0.14408302307128906, 0.17592105269432068, 0.052371568977832794, -0.06026209145784378, 0.08978346735239029, 0.15166635811328888, -0.17338861525058746, -0.021900324150919914, -0.12055560201406479, 0.03294406086206436, 0.07311215996742249, -0.03651992604136467, -0.014788633212447166, 0.07956909388303757, -0.029710808768868446, -0.14845344424247742, 0.14144538342952728, -0.08897427469491959, -0.019420424476265907, 0.01667470484972, -0.010623724199831486, -0.16629135608673096, 0.08110513538122177, -0.0802975445985794, -0.0916869267821312, 0.04223468154668808, -0.09225304424762726, -0.08169905096292496, -0.059564895927906036, -0.06641104072332382], [-0.0738285705447197, -0.04767417535185814, 0.04593997821211815, -0.14305086433887482, -0.10699944943189621, 0.0025794291868805885, 0.024584002792835236, 0.09763243794441223, -0.12417571991682053, 0.056426580995321274, 0.10047806054353714, 0.09815705567598343, -0.16465361416339874, -0.06745872646570206, -0.1519511640071869, -0.1118663102388382, 0.0984615907073021, -0.0263961274176836, 0.0750790685415268, -0.10376903414726257, 0.026862967759370804, -0.10692477971315384, 0.08836925029754639, -0.07731841504573822, -0.044328369200229645, -0.1533769965171814, 0.0005839867517352104, 0.1678459644317627, 0.0858035460114479, -0.09431760758161545, 0.0023774194996804, -0.019383292645215988], [0.07102926820516586, 0.341051310300827, 0.20825453102588654, 0.037228647619485855, -0.07138755172491074, 0.11249526590108871, 0.21958687901496887, 0.06535627692937851, 0.03965066000819206, 0.12773218750953674, 0.1716320961713791, 0.16909559071063995, -0.10826071351766586, -0.08268069475889206, 0.1740226447582245, 0.20130789279937744, 0.1706436276435852, -0.0498703196644783, 0.1503560096025467, 0.047478899359703064, 0.05080360174179077, 0.10346553474664688, 0.15122352540493011, 0.3678281903266907, -0.1276225745677948, 0.29491665959358215, -0.10941886156797409, 0.10545794665813446, 0.326961874961853, 0.33876699209213257, 0.3233557343482971, 0.3070371747016907], [0.0034407211933285, 0.08122578263282776, -0.06324555724859238, 0.07697472721338272, -0.05681637302041054, -0.0029683182947337627, -0.15386269986629486, -0.046222615987062454, -0.09296207875013351, -0.05963045731186867, -0.11288721114397049, -0.15900076925754547, 0.01151108369231224, 0.11472439765930176, 0.16099926829338074, 0.10315877199172974, -0.09162996709346771, -0.17483386397361755, 0.06705384701490402, 0.09905044734477997, -0.151764914393425, 0.06338965892791748, 0.14946067333221436, 0.010708523914217949, -0.10650067776441574, 0.1449350267648697, 0.07548645883798599, 0.11706173419952393, -0.11955151706933975, 0.10287440568208694, -0.12075150012969971, 0.17491953074932098], [0.0760747566819191, 0.2467324137687683, 0.18088209629058838, 0.04684767499566078, -0.02710958942770958, 0.2109563648700714, 0.06187634542584419, -0.16662605106830597, -0.06791815161705017, 0.2836771011352539, -0.04653993993997574, 0.19340550899505615, -0.06535901129245758, 0.13260890543460846, 0.1057991236448288, 0.20268498361110687, 0.04831956699490547, -0.11033587157726288, 0.14570395648479462, 0.035280004143714905, 0.2794643044471741, -0.16987811028957367, 0.07899589836597443, 0.3168202340602875, 0.08853478729724884, 0.2020827829837799, -0.1700851023197174, 0.1700402945280075, 0.1139797642827034, -0.016355421394109726, 0.3127361536026001, 0.06755571067333221], [-0.01250652875751257, 0.1618000864982605, -0.12254172563552856, -0.12506774067878723, 0.0287469532340765, -0.023662252351641655, 0.040719058364629745, -0.14826354384422302, 0.00528679508715868, -0.07862315326929092, -0.08690498769283295, -0.1618632674217224, 0.09373024851083755, 0.03405364230275154, -0.14945466816425323, 0.14028148353099823, 0.0533195361495018, 0.0328032486140728, -0.10379202663898468, 0.02665872499346733, 0.1703314483165741, 0.12124838680028915, -0.1376861035823822, 0.16136550903320312, 0.013701919466257095, 0.0850234255194664, 0.13729827105998993, 0.15070374310016632, -0.1378035843372345, 0.15479695796966553, -0.12006229162216187, 0.013252254575490952], [-0.12352512031793594, -0.03875533491373062, -0.008033210411667824, -0.021148739382624626, -0.027926459908485413, 0.013942472636699677, 0.17437583208084106, 0.10270930081605911, 0.09890124201774597, 0.07075442373752594, 0.13685718178749084, -0.008158070035278797, 0.014055910520255566, 0.03638012707233429, -0.15417234599590302, -0.14240367710590363, 0.021673068404197693, -0.06916392594575882, -0.003243810962885618, -0.04056296870112419, 0.027517549693584442, 0.11501366645097733, -0.058626558631658554, 0.1415734887123108, 0.13957610726356506, -0.13567578792572021, -0.13651159405708313, -0.14302557706832886, -0.09687720239162445, -0.0688149705529213, -0.013305886648595333, -0.04299071058630943], [-0.08931616693735123, -0.0561608225107193, -0.06394799798727036, 0.17342469096183777, -0.06551853567361832, -0.12657226622104645, 0.07348564267158508, -0.010210895910859108, 0.1353338658809662, 0.11045584827661514, 0.16240984201431274, -0.12946408987045288, 0.11364326626062393, 0.14835785329341888, -0.08729790151119232, 0.16248957812786102, 0.1325194090604782, 0.001935910084284842, 0.08523331582546234, -0.061804939061403275, -0.15418176352977753, 0.04468562453985214, 0.05270159989595413, -0.1155339926481247, 0.08573663234710693, -0.15100665390491486, 0.15213827788829803, 0.1711888462305069, 0.04812894016504288, -0.11091478168964386, 0.08603212982416153, 0.030125534161925316], [0.14143213629722595, 0.16216571629047394, 0.23503704369068146, -0.07598496973514557, -0.039765045046806335, 0.14313235878944397, 0.10940651595592499, 0.14254876971244812, -0.09284992516040802, 0.10900179296731949, 0.03303128480911255, 0.04933637008070946, 0.12051162123680115, 0.01933610998094082, -0.16338232159614563, 0.08235649764537811, 0.014985877089202404, 0.001103307120501995, 0.076766736805439, -0.0785534679889679, 0.06127920001745224, -0.016931548714637756, -0.052127644419670105, 0.26141515374183655, -0.0385725200176239, 0.21096430718898773, 0.043790724128484726, -0.14922305941581726, 0.1378576010465622, 0.2394716739654541, -0.01859959587454796, -0.017265452072024345], [0.17303769290447235, 0.14204183220863342, -0.09862265735864639, 0.10637449473142624, -0.022615408524870872, -0.17428933084011078, 0.01328184176236391, 0.05711549147963524, -0.05302608758211136, 0.06149768829345703, -0.15116190910339355, 0.12250906229019165, 0.15070819854736328, 0.0974864587187767, 0.02996210940182209, 0.05822121351957321, -0.12790639698505402, -0.04417179152369499, -0.01687644049525261, -0.09837377816438675, -0.13057081401348114, 0.11890310794115067, 0.11996866017580032, -0.16054651141166687, 0.05625244975090027, 0.07191314548254013, 0.16793225705623627, 0.1022748053073883, 0.16251729428768158, -0.05787486955523491, 0.1238119900226593, 0.14379039406776428], [-0.027096565812826157, -0.010424763895571232, 0.16632094979286194, 0.09652675688266754, -0.08782497048377991, 0.1405443251132965, 0.11845290660858154, 0.04474353790283203, -0.09499087929725647, 0.22874820232391357, 0.11755815893411636, -0.0008286464726552367, 0.0017125107115134597, 0.0004904839443042874, 0.05676577612757683, 0.2900090217590332, 0.17232643067836761, -0.04146521911025047, 0.2802557647228241, 0.05498073995113373, 0.06824963539838791, 0.012069487012922764, -0.13461701571941376, 0.14389760792255402, -0.11993865668773651, 0.14464546740055084, 0.016936542466282845, 0.02446955442428589, -0.021466700360178947, -0.03329458087682724, 0.20527713000774384, 0.2727945148944855], [-0.15686675906181335, 0.06547706574201584, -0.1301291286945343, 0.011082366108894348, 0.16446556150913239, 0.13410618901252747, -0.1292484700679779, 0.1093490868806839, 0.09233350306749344, -0.00027115174452774227, 0.17124831676483154, -0.07021131366491318, -0.04113873839378357, -0.08934544026851654, 0.025437602773308754, 0.04680811986327171, 0.014085602946579456, -0.09946112334728241, -0.0795789361000061, 0.06013103574514389, -0.15500247478485107, -0.027530236169695854, -0.003915884532034397, -0.0716235339641571, 0.06433223187923431, 0.011393915861845016, 0.12410866469144821, -0.015699805691838264, -0.1115705668926239, 0.12490189075469971, 0.024686651304364204, -0.05062852054834366], [0.002232844242826104, 0.1550029069185257, -0.050587840378284454, 0.04655905440449715, 0.08740630000829697, -0.042335059493780136, -0.005403853487223387, -0.12708933651447296, 0.14858196675777435, 0.26715031266212463, 0.011066371574997902, 0.2774292528629303, -0.05909715220332146, -0.1716187447309494, 0.061747197061777115, 0.17793141305446625, 0.28607067465782166, 0.030758941546082497, 0.24836398661136627, 0.22104057669639587, 0.23700276017189026, -0.17542119324207306, 0.14556817710399628, -0.036707665771245956, 0.15848226845264435, 0.10845369845628738, -0.15666252374649048, 0.049160316586494446, 0.08161921799182892, -0.03623711317777634, 0.050158753991127014, 0.13114067912101746], [0.13768193125724792, -0.05434640124440193, 0.10499968379735947, 0.022137483581900597, 0.005958763416856527, 0.033825330436229706, -0.11601301282644272, -0.14693647623062134, -0.05554528906941414, -0.16473007202148438, -0.08243990689516068, 0.008132761344313622, -0.11642676591873169, -0.07332626730203629, -0.03176437318325043, -0.020365271717309952, -0.09758331626653671, 0.008494297042489052, -0.02481245994567871, 0.05055735632777214, 0.007984551601111889, -0.0882769301533699, -0.06086137518286705, -0.0020374839659780264, -0.11030605435371399, 0.013838959857821465, -0.012481451965868473, 0.06858556717634201, 0.04183698445558548, 0.13229677081108093, -0.005827518180012703, -0.13062120974063873], [0.07902076840400696, -0.11947238445281982, -0.024298373609781265, -0.05724077299237251, -0.06707693636417389, -0.06540453433990479, 0.16244372725486755, 0.1011970266699791, 0.04899143427610397, 0.16598564386367798, -0.16019892692565918, 0.02852601930499077, 0.11316826939582825, 0.11743097752332687, -0.14068838953971863, 0.06291297823190689, -0.10070719569921494, -0.006907341536134481, -0.036888036876916885, -0.14760226011276245, -0.16862984001636505, -0.1163010224699974, 0.08021605014801025, 0.08086393028497696, -0.15375395119190216, -0.0663871243596077, 0.0028875437565147877, -0.15283803641796112, 0.09960562735795975, 0.1601123809814453, 0.03126503899693489, -0.13134770095348358], [0.04122191295027733, 0.06417234987020493, 0.13997939229011536, -0.09405755996704102, -0.15837596356868744, 0.07766694575548172, 0.011005469597876072, -0.05759851261973381, -0.07407338172197342, -0.09114886075258255, 0.14310020208358765, -0.03050089441239834, 0.12749259173870087, 0.1577996462583542, 0.022393379360437393, 0.03765654191374779, -0.01203933171927929, 0.12141294777393341, -0.1592913419008255, 0.07030109316110611, -0.028802018612623215, 0.08071911334991455, -0.0007873663562349975, -0.06545441597700119, -0.019083039835095406, 0.09545814245939255, -0.12277669459581375, -0.11174039542675018, -0.039597343653440475, -0.06412124633789062, 0.06944481283426285, 0.11896537989377975], [-0.046592071652412415, 0.13948941230773926, -0.10152736306190491, -0.09919989854097366, -0.07914187759160995, -0.14946195483207703, -0.15157566964626312, -0.15751077234745026, -0.15667350590229034, 0.01847248710691929, 0.10780797153711319, 0.13829867541790009, 0.15057791769504547, -0.010181223973631859, 0.03430292010307312, -0.1334356963634491, 0.04066012054681778, -0.16950075328350067, 0.05571327731013298, 0.004755864851176739, 0.02665662206709385, 0.06472649425268173, -0.08115902543067932, 0.1240258440375328, 0.08436711877584457, 0.08845634758472443, 0.023348405957221985, 0.11101338267326355, 0.09130401909351349, 0.052456170320510864, 0.10699567943811417, -0.05973121523857117], [0.32930612564086914, 0.2718846797943115, 0.3433704078197479, 0.17218023538589478, 0.04002879932522774, 0.1524749994277954, 0.19337955117225647, 0.04976767301559448, 0.029806187376379967, 0.19542919099330902, 0.13850779831409454, 0.3203233480453491, -0.10980550199747086, -0.014404022134840488, -0.016969459131360054, 0.12071144580841064, 0.2424689084291458, -0.011724361218512058, 0.12895525991916656, 0.1614069789648056, 0.14814646542072296, 0.16911165416240692, 0.06780658662319183, 0.3990134000778198, 0.04847138375043869, 0.2654494047164917, 0.07267176359891891, 0.030340630561113358, 0.09421446919441223, 0.15061472356319427, 0.18280057609081268, 0.221432626247406], [0.06659433990716934, 0.06806755810976028, 0.14023931324481964, 0.035986918956041336, -0.060332685708999634, -0.13294072449207306, -0.12947313487529755, -0.10559534281492233, 0.05331647768616676, 0.09550751745700836, 0.15466415882110596, -0.05591654032468796, -0.013944664038717747, -0.05249621719121933, -0.0006459425785578787, 0.05674556642770767, -0.0038840428460389376, 0.008183843456208706, 0.022395338863134384, 0.06583487242460251, -0.05363428592681885, -0.10541152209043503, 0.04170596972107887, -0.020931346341967583, -0.08008478581905365, 0.07423967123031616, 0.0016032028943300247, -0.025714760646224022, -0.08557473123073578, -0.023257790133357048, -0.15031765401363373, 0.040214985609054565]], "bias": [0.0026528278831392527, 0.2398572415113449, 0.31300297379493713, 0.22164255380630493, 0.11631114035844803, 0.26525765657424927, -0.08353718370199203, 0.23699215054512024, 0.04323278367519379, -0.14725665748119354, 0.20958703756332397, -0.10601890087127686, -0.055645912885665894, -0.08426394313573837, -0.12026368826627731, 0.3253534138202667, -0.1580066978931427, 0.22122274339199066, -0.15910112857818604, -0.021514786407351494, 0.010543350130319595, 0.21488623321056366, -0.06397434324026108, 0.16567207872867584, 0.027383755892515182, 0.21198634803295135, 0.010509653948247433, 0.06619308143854141, -0.10678917169570923, -0.1505122184753418, 0.3622269630432129, -0.12881134450435638]}], "blocks": [{"conv1": {"in_channels": 1, "out_channels": 32, "kernel_size": 13, "dilation": 1, "groups": 1, "weight": [[[-0.04429374635219574, -0.11139038950204849, 0.41942670941352844, -0.13125942647457123, -0.3385276198387146, 0.15577098727226257, 0.0946684405207634, -0.044517554342746735, 0.13955816626548767, -0.09353945404291153, 0.08538256585597992, -0.24801453948020935, 0.13939565420150757]], [[0.13180796802043915, 0.21543173491954803, -0.14223666489124298, -0.04262496158480644, 0.18127848207950592, -0.16690286993980408, -0.3001006543636322, -0.3261767327785492, -0.015987670049071312, 0.20317775011062622, 0.06776078790426254, -0.10337386280298233, 0.05981580540537834]], [[-0.008678499609231949, 0.13962604105472565, 0.02410539798438549, -0.0825330913066864, 0.17951622605323792, -0.43878173828125, -0.17230825126171112, -0.4730813205242157, -0.13146506249904633, -0.11975464969873428, 0.05213630571961403, -0.18819764256477356, 0.1934462934732437]], [[-0.0888063982129097, 0.23771104216575623, -0.28602051734924316, 0.18110792338848114, -0.060513149946928024, -0.0911860466003418, -0.0844353437423706, 0.24490292370319366, 0.09441357851028442, -0.17610539495944977, 0.11549356579780579, -0.2417888641357422, 0.17088615894317627]], [[0.10939034074544907, -0.07655129581689835, -0.10770237445831299, 0.14538681507110596, -0.2726603150367737, 0.09068381786346436, 0.12608827650547028, 0.0981757715344429, 0.03293536975979805, -0.31450265645980835, 0.24445094168186188, -0.01748686097562313, -0.03150799870491028]], [[0.0691104382276535, 0.28815263509750366, 0.2803475558757782, 0.07346799224615097, 0.17968879640102386, -0.2562102973461151, -0.03201983869075775, -0.3062146008014679, 0.09681222587823868, -0.23239505290985107, -0.1825040876865387, 0.06535054743289948, 0.14574091136455536]], [[-0.2013135850429535, -0.1763029247522354, 0.015130925923585892, 0.09173229336738586, -0.06455571949481964, -0.10406717658042908, -0.20350880920886993, 0.09380920231342316, 0.24569472670555115, -0.15844959020614624, 0.10285897552967072, 0.12358630448579788, 0.2158447504043579]], [[0.14906947314739227, 0.12508782744407654, 0.24170087277889252, 0.24445441365242004, 0.3414902687072754, -0.11137720942497253, 0.032418422400951385, 0.024865200743079185, -0.26529502868652344, -0.01797926425933838, -0.17368417978286743, 0.05426941439509392, -0.23754888772964478]], [[-0.08316171169281006, 0.05616576597094536, -0.3215448558330536, -0.28011879324913025, -0.17357049882411957, 0.18851563334465027, 0.2767621576786041, -0.11190194636583328, 0.07673276215791702, -0.12689895927906036, -0.08443403244018555, 0.2948066294193268, 0.10412462055683136]], [[-0.11568757146596909, -0.024446334689855576, -0.01042820792645216, 0.013139530085027218, -0.14061887562274933, -0.20198048651218414, 0.16772185266017914, 0.03553304821252823, 0.12063705921173096, -0.043391406536102295, 0.19731023907661438, 0.10547307133674622, 0.10549701005220413]], [[-0.1684400588274002, -0.08332109451293945, -0.2983418405056, -0.0879293829202652, 0.15862514078617096, 0.6040957570075989, 0.5973260998725891, 0.36423829197883606, 0.09604460746049881, 0.001286021200940013, 0.2222122997045517, -0.27889975905418396, -0.05804289132356644]], [[0.14684844017028809, -0.2756154239177704, -0.2432195097208023, -0.25689423084259033, -0.07742851227521896, -0.3052913248538971, -0.05278457701206207, 0.15781107544898987, 0.19085268676280975, 0.1866033375263214, 0.1936216503381729, 0.17543433606624603, -0.13832460343837738]], [[-0.349465936422348, -0.19951461255550385, 0.12307451665401459, -0.07274637371301651, -0.07715564221143723, -0.228140190243721, -0.012298710644245148, 0.015277750790119171, 0.4135356843471527, 0.10071838647127151, -0.13775470852851868, 0.09477323293685913, 0.045365214347839355]], [[0.028308574110269547, 0.20807558298110962, 0.24559643864631653, -0.23993635177612305, -0.259165495634079, -0.05180584639310837, -0.3189280927181244, -0.1430438905954361, 0.15812930464744568, -0.2560771107673645, -0.0864839106798172, 0.16232068836688995, 0.009107232093811035]], [[0.09043627977371216, -0.14616136252880096, -0.19423839449882507, -0.2736600935459137, 0.20561903715133667, -0.035094019025564194, -0.016526272520422935, 0.029755888506770134, -0.103227399289608, 0.12330006062984467, 0.2960287034511566, -0.15872062742710114, 0.04040190204977989]], [[-0.25622543692588806, -0.18370649218559265, 0.18979200720787048, -0.01495450921356678, 0.2620793879032135, -0.04781337454915047, -0.11860793828964233, -0.1523442566394806, 0.27406004071235657, -0.13280442357063293, 0.21090450882911682, 0.1122538223862648, 0.14833053946495056]], [[0.2386186569929123, 0.07214683294296265, 0.3406788408756256, -0.1253587156534195, -0.06018818914890289, 0.2581362724304199, 0.07521265745162964, -0.0236616563051939, -0.09210054576396942, -0.2438616305589676, 0.14039745926856995, -0.02024099975824356, -0.025395046919584274]], [[-0.01745130680501461, 0.08817903697490692, -0.17815788090229034, -0.02335084229707718, 0.29830530285835266, 0.23364172875881195, -0.15728892385959625, -0.3018145263195038, 0.11878839135169983, 0.20047754049301147, 0.034962378442287445, 0.12918439507484436, -0.275857150554657]], [[0.25581732392311096, -0.10661489516496658, 0.1929285079240799, 0.22285380959510803, 0.08081112056970596, 0.19750982522964478, -0.19668954610824585, -0.2596142888069153, -0.2925138473510742, 0.13141556084156036, 0.030938027426600456, -0.30703073740005493, -0.0013589989393949509]], [[0.2133529633283615, -0.24296872317790985, 0.25761404633522034, 0.007471143268048763, 0.004470521118491888, 0.2521113455295563, 0.08914963155984879, -0.027709849178791046, 0.08623913675546646, -0.05371848866343498, -0.107662633061409, -0.3759281635284424, -0.07095706462860107]], [[-0.22820015251636505, 0.043605051934719086, 0.06490941345691681, 0.0280905794352293, -0.20031562447547913, -0.20024877786636353, 0.25872066617012024, 0.16302505135536194, 0.12066061794757843, -0.11477618664503098, -0.04779622331261635, -0.04613492265343666, 0.12820561230182648]], [[-0.06275219470262527, 0.22228480875492096, 0.24484266340732574, -0.23094697296619415, 0.0596122182905674, -0.030539495870471, -0.23663672804832458, -0.03870418667793274, -0.2020609825849533, 0.18575528264045715, -0.3224893808364868, 0.05876642093062401, -0.2637287676334381]], [[-0.03228138014674187, 0.12289515882730484, 0.30287981033325195, 0.19177713990211487, -0.2096591591835022, 0.026704829186201096, -0.20728135108947754, 0.02032138593494892, -0.24042584002017975, -0.16053496301174164, 0.20844325423240662, -0.07499672472476959, -0.2126527726650238]], [[-0.04577137902379036, -0.0526895709335804, -0.10824994742870331, 0.15363523364067078, -0.1929258555173874, -0.16925863921642303, -0.19015100598335266, 0.021678758785128593, 0.024350812658667564, 0.25304827094078064, 0.07400381565093994, 0.19266794621944427, -0.02191036194562912]], [[0.2964174747467041, 0.3136160969734192, -0.18420268595218658, -0.04348648712038994, -0.2316625565290451, 0.11361198872327805, -0.27004125714302063, -0.13167349994182587, 0.2652484178543091, -0.29580673575401306, 0.22613734006881714, 0.060621004551649094, 0.27296096086502075]], [[-0.05357533320784569, 0.2380562275648117, 0.08579115569591522, 0.09399185329675674, 0.23957498371601105, -0.2273876965045929, -0.17555347084999084, 0.2671641409397125, -0.1972511261701584, -0.07262755930423737, -0.1658652275800705, -0.429421067237854, -0.19171734154224396]], [[-0.08639546483755112, 0.17053018510341644, -0.22392654418945312, -0.010069787502288818, 0.1019258052110672, -0.10446961224079132, -0.2160847783088684, -0.24362242221832275, -0.1811976134777069, -0.03597056493163109, -0.10340424627065659, -0.315432071685791, -0.3825245797634125]], [[0.3660513162612915, -0.0054628136567771435, 0.17291733622550964, 0.27223336696624756, -0.003686316078528762, -0.17160283029079437, -0.18331024050712585, -0.1038375198841095, 0.05411520600318909, -0.31466546654701233, -0.11382929235696793, -0.0006516494322568178, 0.11245543509721756]], [[-0.03423357009887695, 0.011973395012319088, 0.21569932997226715, -0.017484264448285103, 0.0023005937691777945, -0.14216381311416626, -0.34825679659843445, -0.07398874312639236, -0.09231289476156235, -0.09955476224422455, -0.09543947875499725, 0.04991553723812103, 0.14713066816329956]], [[0.028398873284459114, -0.1412007212638855, 0.0004367670917417854, 0.07383590936660767, 0.34637564420700073, -0.0026405376847833395, 0.059112366288900375, -0.11086148768663406, -0.29040756821632385, 0.11772966384887695, -0.23099589347839355, -0.18752668797969818, -0.3579276204109192]], [[-0.0883062332868576, -0.1505553275346756, -0.21832221746444702, -0.1820414662361145, 0.04809067025780678, -0.03013157844543457, 0.013245726935565472, -0.008113370276987553, 0.15903156995773315, 0.02548113465309143, 0.41965529322624207, -0.031765155494213104, -0.012119055725634098]], [[-0.005815955810248852, 0.05056767165660858, -0.042541228234767914, 0.25262221693992615, -0.24400068819522858, 0.18989767134189606, 0.01879473775625229, -0.23356100916862488, -0.04291972517967224, 0.04481467232108116, -0.021630994975566864, 0.01957014389336109, 0.0046791755594313145]]], "bias": null}, "bn": {"num_features": 32, "affine": false, "eps": 1e-05, "running_mean": [-5.879081044213308e-08, 7.504446557504707e-07, 2.9656910101039102e-06, -6.492785331602136e-08, -7.812851521293851e-08, -2.6118385676454636e-07, -3.0335348810694995e-07, -6.774444614165986e-07, 2.1027560137554246e-07, -8.589994422436575e-07, -3.185083414791734e-06, 4.949908998241881e-07, 4.2791623400262324e-07, 1.6235270550168934e-06, 2.3285515737825335e-07, -1.0917160579992924e-06, -1.2369032447168138e-06, -3.655692637494212e-07, 5.123200708112563e-07, 2.1598387434096367e-07, -5.603638797424537e-08, 2.0319189388828818e-06, 1.021903017317527e-06, -7.230524801116189e-08, -1.1391221050871536e-06, 2.1532091523113195e-06, 4.854950930166524e-06, 1.1098988750291028e-07, 1.386463850394648e-06, 2.319898840141832e-06, -2.0871462425020582e-07, 7.842140803404618e-08], "running_var": [5.767098173237173e-06, 0.0008072663331404328, 0.010701018385589123, 6.8556209953385405e-06, 8.743169018998742e-06, 0.001063730102032423, 0.0008931713527999818, 0.0034622540697455406, 0.0010705845197662711, 0.0009505034540779889, 0.012597103603184223, 0.002108151325955987, 0.0016486376989632845, 0.0032367378007620573, 0.0004593998601194471, 0.0013354140101000667, 0.0030853725038468838, 0.0002724746009334922, 0.0011612664675340056, 0.0008812848245725036, 0.00016005696670617908, 0.004092046525329351, 0.0013211165787652135, 0.0005464247660711408, 0.0012846634490415454, 0.004786061123013496, 0.024688219651579857, 0.0010326876072213054, 0.0024127857759594917, 0.005203333683311939, 0.0010762965539470315, 3.16661644319538e-05]}, "adaptor": {"in_features": 32, "out_features": 64, "weight": [[-0.09641803801059723, 0.055173564702272415, 0.08968158066272736, 0.010518297553062439, 0.04528512433171272, -0.036519285291433334, 0.06723562628030777, 0.23494572937488556, 0.013996547088027, -0.15062499046325684, -0.0192013718187809, -0.06881901621818542, 0.051416099071502686, 0.0043119387701153755, 0.03214188292622566, 0.2814899981021881, 0.08210252225399017, 0.14702992141246796, -0.035765793174505234, 0.08362402766942978, 0.0646720826625824, -0.03211524710059166, -0.10442357510328293, 0.12628647685050964, 0.06707656383514404, 0.18745340406894684, -0.1052313819527626, -0.17538268864154816, -0.00920858047902584, -0.035532593727111816, 0.1655777096748352, -0.04861472547054291], [0.13514980673789978, -0.13424861431121826, -0.02646445669233799, -0.2626253068447113, -0.022740256041288376, -0.09798652678728104, -0.08841456472873688, -0.032149750739336014, -0.17395170032978058, 0.1554107367992401, -0.10444586724042892, 0.017068251967430115, 0.08174960315227509, 0.014674647711217403, 0.07577560842037201, -0.01666196808218956, -0.13796685636043549, -0.004942588973790407, -0.026470327749848366, -0.04110925644636154, 0.035581886768341064, -0.012155585922300816, -0.09609849750995636, -0.26113161444664, 0.10970889776945114, -0.1987908035516739, 0.05691327154636383, -0.02604382298886776, 0.048658303916454315, 0.1559077799320221, -0.20866212248802185, -0.08578329533338547], [0.08673030883073807, 0.040252577513456345, 0.012893734499812126, -0.1333562284708023, 0.1275007426738739, 0.009503350593149662, -0.032560043036937714, -0.0543377622961998, -0.034884799271821976, 0.06033384054899216, 0.010438152588903904, 0.1511809527873993, -0.01020615454763174, -0.0253599900752306, 0.09978188574314117, 0.018323989585042, -0.03528338298201561, 0.07612171769142151, 0.1394115686416626, 0.04411453753709793, 0.12309282273054123, 0.16574764251708984, 0.04999206215143204, 0.09538877755403519, 0.05704303830862045, 0.03312445804476738, 0.1503903567790985, 0.16318972408771515, 0.06293049454689026, -0.0334542840719223, 0.17102764546871185, -0.13758893311023712], [0.12989266216754913, 0.3389708697795868, 0.4395700693130493, 0.2946721911430359, 0.09968651831150055, 0.3855486214160919, -0.07729659974575043, 0.3088867664337158, 0.10015197098255157, -0.18859489262104034, 0.26544153690338135, -0.06279575079679489, 0.1254681944847107, -0.11255397647619247, 0.1073334589600563, 0.37082165479660034, 0.09753033518791199, 0.43545588850975037, 0.02677302621304989, -0.16022706031799316, 0.12619468569755554, 0.22826221585273743, 0.003508134977892041, 0.09063160419464111, -0.03973166644573212, 0.17597772181034088, 0.17313703894615173, 0.12587010860443115, 0.13187333941459656, 0.13855142891407013, 0.1717623621225357, -0.0759202092885971], [-0.06918160617351532, 0.1533869057893753, 0.4043757915496826, 0.3048594892024994, 0.34067532420158386, 0.19961808621883392, -0.157583549618721, 0.1580038219690323, 0.12423771619796753, 0.12248170375823975, 0.283455491065979, -0.05185350030660629, -0.16499824821949005, -0.09498683363199234, 0.09216790646314621, 0.1509726196527481, 0.0845591127872467, 0.260272353887558, -0.06789768487215042, 0.1076708436012268, -0.056804109364748, 0.2364121973514557, -0.0673365443944931, 0.07196392118930817, 0.02850315533578396, 0.24852745234966278, -0.08900377154350281, 0.10844310373067856, -0.15857850015163422, -0.18762549757957458, 0.111454539000988, -0.06109489127993584], [-0.019632486626505852, -0.2032850682735443, -0.11122745275497437, -0.32762226462364197, -0.07413772493600845, -0.1460638791322708, 0.04669206961989403, 0.021660707890987396, 0.10879694670438766, -0.11098287999629974, -0.2844686210155487, -0.04279780760407448, -0.08867595344781876, 0.061749011278152466, 0.0016205041902139783, -0.017837155610322952, 0.06943897902965546, -0.18448229134082794, 0.006075805053114891, 0.04233554005622864, -0.021935727447271347, -0.029434790834784508, -0.13822174072265625, -0.07728170603513718, -0.11268522590398788, -0.3017130196094513, -0.036291658878326416, 0.08614414930343628, 0.12490367889404297, 0.05665891617536545, -0.16735784709453583, -0.00990998838096857], [-0.07166197150945663, 0.019001176580786705, 0.014552592299878597, 0.19126471877098083, 0.13526321947574615, -0.11055620014667511, 0.000731268897652626, -0.07228594273328781, -0.02806168794631958, -0.11860435456037521, 0.06896932423114777, -0.12746979296207428, 0.1745176613330841, 0.13350220024585724, -0.12168581038713455, -0.1351834237575531, 0.006897415965795517, -0.017750073224306107, 0.05189575254917145, -0.11966263502836227, 0.07236198335886002, -0.1415882557630539, -0.09329744428396225, -0.07482898980379105, 0.08554071187973022, 0.029402680695056915, -0.1698874533176422, -0.10096070915460587, -0.0818081721663475, -0.16203530132770538, 0.05681117624044418, 0.06299223750829697], [-0.03243457153439522, -0.2318403422832489, -0.16387031972408295, -0.30852723121643066, -0.1840200126171112, -0.13715419173240662, 0.1570443958044052, -0.19854803383350372, 0.0876210406422615, -0.04802991822361946, -0.16043297946453094, -0.16828159987926483, 0.14645683765411377, 0.17213234305381775, -0.003712884383276105, -0.03031296841800213, 0.1445930153131485, -0.048447489738464355, 0.09104340523481369, -0.16828975081443787, -0.16611187160015106, -0.27294042706489563, 0.055293209850788116, -0.2902336120605469, -0.13494154810905457, -0.2191605120897293, -0.16293248534202576, 0.000238192908000201, 0.0255032479763031, -0.09156433492898941, -0.01975097693502903, -0.06711236387491226], [-0.04976741969585419, -0.0160240326076746, 0.006092404015362263, -0.1737755537033081, -0.17688225209712982, -0.20372632145881653, 0.02251061052083969, -0.01960141956806183, 0.08800733834505081, -0.06857813894748688, -0.259212851524353, -0.15470558404922485, -0.05624260753393173, 0.002217514207586646, -0.07940377295017242, -0.2618183195590973, 0.01863008737564087, -0.2592899799346924, -0.13575109839439392, -0.14370989799499512, -0.04790179058909416, 0.03367408737540245, 0.06910542398691177, -0.14406420290470123, 0.036382634192705154, -0.04535574093461037, 0.0010299425339326262, -0.14258354902267456, -0.1089143455028534, -0.10050633549690247, -0.11848874390125275, -0.16182167828083038], [-0.032141733914613724, -0.08926960825920105, 0.1387026607990265, 0.1176997721195221, 0.08064340054988861, -0.010135892778635025, -0.0572354830801487, 0.020595315843820572, -0.12214025855064392, -0.07869838923215866, -0.05675814673304558, -0.04153451696038246, -0.16746094822883606, 0.070274218916893, 0.14557242393493652, -0.11978158354759216, 0.047653038054704666, -0.04046128690242767, -0.006447477266192436, 0.010304314084351063, 0.15319159626960754, -0.0017612387891858816, -0.1118425577878952, -0.08345348387956619, 0.08636023849248886, 0.036628030240535736, 0.003435768885537982, -0.0233304500579834, -0.06877971440553665, -0.05804635211825371, -0.116873599588871, 0.028966939076781273], [0.04964633285999298, 0.007255538832396269, -0.16822607815265656, -0.10404254496097565, 0.03592425212264061, -0.023290550336241722, 0.02271363139152527, -0.05428192391991615, 0.009175853803753853, -0.14861223101615906, -0.0894930511713028, -0.03863966092467308, 0.15952537953853607, 0.15956354141235352, 0.03507083281874657, 0.047704391181468964, -0.09104334563016891, 0.05297108367085457, 0.15220211446285248, -0.006756582297384739, -0.14186495542526245, -0.18868687748908997, -0.04727491736412048, -0.11310812085866928, -0.16027480363845825, -0.06268716603517532, -0.07351995259523392, -0.045262109488248825, -0.09130378812551498, -0.01796458289027214, -0.26251938939094543, -0.09372133761644363], [0.016285542398691177, 0.2321295142173767, 0.27156123518943787, -0.020022280514240265, 0.12105415016412735, -0.011182449758052826, -0.1366761326789856, 0.08451477438211441, -0.10140735656023026, -0.17291519045829773, -0.08922529965639114, -0.11832518875598907, 0.14526373147964478, 0.09858977794647217, -0.06997653841972351, -0.023053640499711037, -0.13598401844501495, -0.013003474101424217, -0.07274331152439117, 0.1061701849102974, 0.057851310819387436, 0.03155434504151344, 0.12169862538576126, -0.013850744813680649, -0.14401784539222717, 0.12681922316551208, -0.0974748283624649, 0.050289154052734375, 0.1497715413570404, -0.09537745267152786, -0.03530137240886688, 0.06653876602649689], [-0.15965536236763, 0.03054681606590748, -0.22680960595607758, -0.04743422567844391, -0.18925084173679352, -0.2216605544090271, 0.019472770392894745, -0.045851316303014755, 0.13707178831100464, 0.16564153134822845, -0.09842376410961151, -0.022727686911821365, 0.02922150492668152, -0.04106363281607628, 0.006017621606588364, -0.2775346040725708, -0.14511731266975403, 0.014083212241530418, -0.10330063849687576, 0.1392090767621994, 0.019400130957365036, -0.06244170665740967, 0.16066837310791016, -0.2137061059474945, -0.027905596420168877, -0.07033542543649673, 0.06039430573582649, -0.17204159498214722, 0.06282971799373627, -0.08658818155527115, -0.07976491004228592, 0.11959820985794067], [-0.017609648406505585, 0.05414281785488129, 0.048754964023828506, 0.19945131242275238, 0.16426582634449005, 0.07527512311935425, -0.10638690739870071, -0.04087981581687927, 0.14081232249736786, 0.1450272500514984, 0.1372135877609253, -0.13783584535121918, 0.13767240941524506, -0.016898419708013535, 0.13024146854877472, 0.20250675082206726, 0.01937667652964592, -0.027124082669615746, 0.16628514230251312, -0.09212188422679901, 0.11550849676132202, -0.1140429824590683, -0.05559854209423065, -0.11387962847948074, -0.07929781824350357, 0.11781920492649078, -0.12666545808315277, -0.15287719666957855, 0.12640157341957092, 0.08471918851137161, 0.038495782762765884, -0.12462063878774643], [-0.046834588050842285, -0.17978040874004364, -0.010429076850414276, -0.16637229919433594, -0.12926676869392395, -0.22033058106899261, -0.08325964212417603, -0.0036183856427669525, 0.11389467120170593, 0.04413999244570732, -0.1558387279510498, 0.16979236900806427, 0.03489217534661293, -0.06823518127202988, -0.06127030402421951, -0.12907126545906067, 0.08380940556526184, -0.03347640857100487, 0.1281561255455017, -0.00796501711010933, 0.14621073007583618, -0.18768087029457092, -0.08141506463289261, -0.17292802035808563, -0.16585330665111542, -0.20627519488334656, -0.1599607765674591, -0.01044708676636219, 0.0016665495932102203, -0.03268423303961754, -0.21108850836753845, 0.16038747131824493], [-0.058573223650455475, 0.12239586561918259, 0.15519656240940094, -0.08560138940811157, 0.02770533598959446, 0.12664461135864258, 0.1713600903749466, 0.00787168275564909, 0.12809649109840393, -0.11454128473997116, -0.09359684586524963, 0.14536967873573303, -0.01673714630305767, 0.1746416836977005, 0.01285470463335514, -0.046502627432346344, 0.16788756847381592, 0.17891719937324524, 0.01640593446791172, -0.1071629747748375, -0.007653888780623674, -0.052009448409080505, 0.12881384789943695, 0.027746673673391342, 0.03721528872847557, 0.12901435792446136, 0.05855577439069748, -0.11035574972629547, 0.14685268700122833, 0.11216500401496887, -0.08756789565086365, 0.13366137444972992], [0.05015215650200844, -0.05334676057100296, -0.13651055097579956, -0.0418689101934433, -0.13629093766212463, 0.09602861851453781, 0.1280311495065689, -0.05570060387253761, 0.16388076543807983, -0.039415646344423294, 0.025851622223854065, -0.1231946274638176, -0.0074738371185958385, 0.07145842164754868, 0.07614382356405258, -0.015982724726200104, -0.08914182335138321, 0.11845199018716812, 0.1170378103852272, 0.02836921252310276, -0.08129534870386124, 0.00010165375715587288, 0.0004726979823317379, 0.1386602222919464, 0.026197027415037155, 0.008671130985021591, 0.012084364891052246, 0.09404681622982025, -0.0021842182613909245, 0.17530466616153717, 0.08844539523124695, -0.13357724249362946], [-2.0230486370564904e-06, -0.027244940400123596, -0.0016609535086899996, 0.14618408679962158, 0.1276814490556717, 0.08195455372333527, 0.1680196076631546, 0.0080622723326087, -0.07408458739519119, -0.013798002153635025, 0.10559720546007156, -0.014973404817283154, 0.15916776657104492, -0.07466099411249161, -0.09246746450662613, 0.12412113696336746, 0.13277381658554077, 0.142162024974823, 0.09523535519838333, 0.03422136604785919, 0.15066473186016083, 0.23393404483795166, 0.12649588286876678, 0.09628066420555115, -0.1463526338338852, 0.008595635183155537, 0.06022221967577934, 0.12401709705591202, -0.06906743347644806, 0.12673699855804443, 0.12365894764661789, 0.0007021664641797543], [0.0068915365263819695, 0.011480811983346939, 0.21149314939975739, 0.03125226870179176, 0.11886381357908249, -0.11918868869543076, -0.09107906371355057, 0.05338740348815918, 0.1411561369895935, 0.10584624111652374, 0.06247423589229584, -0.17465388774871826, 0.003323320997878909, -0.11669058352708817, -0.15094465017318726, 0.061815544962882996, -0.11184755712747574, 0.18967200815677643, -0.09608551859855652, 0.05696949362754822, 0.10376134514808655, -0.06117120757699013, 0.09047078341245651, 0.019169561564922333, 0.09159909188747406, 0.19721975922584534, -0.07533612102270126, -0.07656268030405045, 0.14045777916908264, -0.000662146252579987, 0.005389191210269928, 0.13411487638950348], [-0.08540860563516617, 0.014092848636209965, 0.14772363007068634, 0.08948596566915512, -0.11077497154474258, 0.06278053671121597, -0.13478104770183563, -0.08006710559129715, 0.1136694997549057, -0.06466265022754669, -0.06401676684617996, 0.012530341744422913, 0.04319898039102554, -0.10988736897706985, -0.11921172589063644, -0.15002231299877167, 0.045676182955503464, -0.09693345427513123, 0.013471860438585281, -0.03953755646944046, -0.11558720469474792, -0.00838865339756012, -0.13588647544384003, -0.059690210968256, -0.0055103423073887825, -0.13729926943778992, -0.15503905713558197, 0.13241644203662872, 0.016634348779916763, -0.0835835337638855, 0.013408157974481583, 0.1310914307832718], [-0.14747871458530426, -0.37684476375579834, -0.4716804027557373, -0.3366049528121948, -0.2128169983625412, -0.39487412571907043, 0.1226978600025177, -0.407094806432724, 0.16504503786563873, -0.13849058747291565, -0.26829299330711365, 0.03305492922663689, -0.07857324928045273, 0.1625712662935257, -0.12187591195106506, -0.28017857670783997, -0.1298002302646637, -0.21823430061340332, 0.15071752667427063, 0.16397559642791748, 0.02098582126200199, -0.34170007705688477, 0.17179955542087555, -0.25860700011253357, 0.11960303783416748, -0.34595710039138794, -0.08204088360071182, -0.14674821496009827, 0.16265682876110077, 0.03759740665555, -0.39565157890319824, 0.01518314890563488], [-0.0758204311132431, 0.08122534304857254, 0.12964919209480286, -0.02256937511265278, 0.04664041846990585, -0.05800631269812584, 0.03406411409378052, -0.113568015396595, 0.028169624507427216, 0.15033875405788422, 0.2136695235967636, 0.06448480486869812, 0.13007749617099762, 0.17187252640724182, 0.050093088299036026, 0.11990347504615784, 0.022986996918916702, 0.21182753145694733, 0.1518583595752716, -0.08313107490539551, -0.0072672124952077866, 0.002368602203205228, 0.06343284249305725, -0.09649598598480225, 0.06255565583705902, 0.003248414024710655, 0.06410843133926392, 0.055173110216856, -0.0879674032330513, 0.0666208565235138, 0.12491358816623688, -0.15026739239692688], [0.17637929320335388, 0.0841776505112648, 0.036116983741521835, -0.07674354314804077, 0.010312833823263645, -0.14617444574832916, -0.06006857380270958, 0.02356850914657116, 0.07869532704353333, 0.04658001661300659, -0.2079969048500061, 0.146491140127182, -0.0738372951745987, 0.15298540890216827, 0.14565534889698029, 0.01020555105060339, 0.1761208474636078, 0.0494464635848999, 0.10367701202630997, -0.060028448700904846, 0.16395781934261322, -0.015229825861752033, 0.10444597899913788, -0.08813585340976715, 0.1280253678560257, 0.10783623158931732, -0.13545536994934082, 0.14492227137088776, -0.11682987958192825, -0.10833331197500229, -0.19450949132442474, 0.051081348210573196], [-0.13272877037525177, 0.0897916704416275, 0.06714073568582535, 0.19830626249313354, -0.048422157764434814, 0.04358041286468506, 0.0012932127574458718, 0.14589302241802216, -0.07983666658401489, 0.08164380490779877, 0.001227222615852952, -0.14971037209033966, -0.025131449103355408, -0.0955740287899971, 0.11142821609973907, 0.012130477465689182, -0.014840811491012573, 0.20020794868469238, -0.15481023490428925, 0.13684634864330292, -0.08032293617725372, 0.08092203736305237, -0.10813673585653305, 0.06335432082414627, -0.06816325336694717, -0.03379093483090401, 0.06040593609213829, -0.0005663061165250838, 0.17292839288711548, 0.1009303405880928, 0.2781899869441986, 0.05201241374015808], [0.09288893640041351, 0.14343732595443726, 0.1221972107887268, -0.14776238799095154, -0.005269111134111881, -0.1800188273191452, 0.006687609013170004, -0.07060866057872772, 0.15342742204666138, 0.05261778086423874, -0.00710099283605814, -0.12787185609340668, -0.13872213661670685, 0.027828868478536606, -0.08783716708421707, -0.09626828879117966, 0.1239972710609436, -0.10157157480716705, -0.07868415862321854, 0.13573049008846283, 0.06906644254922867, -0.13766632974147797, 0.05353652685880661, 0.05805957317352295, -0.1570131778717041, 0.0241103395819664, 0.04038816690444946, -0.006884940434247255, 0.1694936752319336, -0.09498302638530731, 0.0883168876171112, -0.0939066931605339], [-0.15133963525295258, 0.0989212915301323, -0.10427026450634003, -0.0029795316513627768, 0.11744098365306854, -0.15537630021572113, -0.15131890773773193, 0.05177203193306923, 0.15413616597652435, 0.006132005713880062, 0.11351093649864197, 0.062119439244270325, 0.05043487623333931, -0.11270785331726074, 0.16824163496494293, 0.06717032939195633, 0.027333833277225494, 0.11648121476173401, -0.15189136564731598, 0.03809253126382828, -0.08321385085582733, -0.05350794643163681, 0.05791788175702095, 0.04891333729028702, 0.04055371880531311, -0.14440976083278656, -0.11063260585069656, 0.0030866244342178106, -0.030616186559200287, -0.12250425666570663, 0.1664413958787918, 0.022235538810491562], [-0.12560871243476868, -0.003034449415281415, -0.008007907308638096, -0.15038956701755524, 0.04815676063299179, -0.1655557006597519, 0.06124980002641678, 0.10851962864398956, 0.11669576913118362, 0.07988214492797852, -0.09302278608083725, 0.033187124878168106, 0.06168901175260544, 0.043177150189876556, -0.03581356629729271, -0.03992972522974014, -0.0716000571846962, -0.15752339363098145, -0.16313594579696655, -0.14412759244441986, -0.11096542328596115, 0.0791381448507309, 0.0353756844997406, -0.2343459576368332, -0.09036275744438171, -0.011354643851518631, -0.052910372614860535, -0.05003846436738968, -0.0663822740316391, -0.025429803878068924, -0.03261593356728554, 0.010468391701579094], [0.11357583105564117, -0.019168125465512276, 0.001107156160287559, -0.13079823553562164, -0.1467936486005783, -0.10245747864246368, -0.11706405133008957, -0.04257572442293167, -0.02132818102836609, -0.07815797626972198, -0.2339448183774948, 0.08519159257411957, 0.09867241233587265, 0.1612604558467865, -0.06262669712305069, -0.060516607016325, 0.006663522217422724, -0.21779780089855194, -0.11051173508167267, 0.09052468836307526, -0.10152699053287506, 0.009405840188264847, 0.06175859645009041, -0.04887339100241661, 0.11642080545425415, -0.015240691602230072, 0.07624069601297379, 0.0917191281914711, -0.07501816749572754, -0.07559356838464737, -0.13320785760879517, 0.09814081341028214], [0.12371315807104111, 0.11286664009094238, -0.04042031243443489, -0.022024650126695633, -0.07591423392295837, 0.1123625859618187, -0.11722538620233536, -0.06406509131193161, 0.14597609639167786, 0.0688178613781929, -0.06496153026819229, -0.11903643608093262, -0.12156474590301514, 0.14266332983970642, -0.16157466173171997, 0.15275989472866058, 0.14141520857810974, 0.01703173667192459, -0.01416951697319746, 0.1374831199645996, 0.07795441150665283, 0.15649475157260895, 0.1428023874759674, -0.11053982377052307, 0.1090923324227333, 0.09046798199415207, -0.12551362812519073, 0.084900863468647, -0.09181994199752808, -0.08183053880929947, 0.008655454963445663, -0.021722570061683655], [-0.04753199219703674, -0.15958653390407562, 0.056687090545892715, 0.1414288431406021, -0.03946661204099655, -0.14639146625995636, -0.009115351364016533, -0.18180280923843384, -0.14355254173278809, -0.033760443329811096, 0.07987162470817566, -0.13543112576007843, -0.028210613876581192, -0.09179486334323883, -0.16277407109737396, -0.0736541673541069, -0.010297423228621483, -0.058098774403333664, 0.12924769520759583, 0.07081007957458496, 0.11006025224924088, 0.010057758539915085, 0.018546972423791885, 0.04750260338187218, -0.11277461796998978, 0.06375787407159805, 0.08420116454362869, -0.07502522319555283, -0.0060670808888971806, -0.1096823513507843, -0.1797683835029602, -0.00019528741540852934], [0.03165280818939209, -0.07189328223466873, 0.026552999392151833, -0.1649276465177536, -0.07417716085910797, 0.10279034823179245, -0.1720341444015503, 0.008204867132008076, 0.13609552383422852, 0.11828671395778656, 0.041418544948101044, -0.1610260158777237, 0.022757695987820625, -0.062164999544620514, -0.04969364032149315, 0.1106804832816124, -0.06007622182369232, -0.14548707008361816, -0.14190538227558136, 0.1116139367222786, 0.008529932238161564, 0.13130326569080353, 0.03615143895149231, -0.19628340005874634, 0.04373591020703316, 0.14213351905345917, 0.1096421405673027, 0.05304884538054466, -0.13281303644180298, -0.08298953622579575, 0.09945645928382874, -0.11820313334465027], [0.040328674018383026, 0.24157868325710297, 0.3726862967014313, 0.32434678077697754, 0.06337182968854904, 0.1740928739309311, 0.15418307483196259, 0.27534952759742737, 0.08963551372289658, -0.07592519372701645, 0.3663691580295563, -0.03784150630235672, -0.05958501994609833, 0.03585994988679886, -0.06334144622087479, 0.17998525500297546, -0.025295905768871307, 0.24459314346313477, -0.10054240375757217, 0.060424670577049255, -0.1713288575410843, 0.3149835467338562, 0.163953959941864, 0.271601140499115, -0.04130534455180168, 0.08342775702476501, 0.08301477134227753, 0.1448473334312439, 0.15113089978694916, 0.023834064602851868, 0.3211950361728668, 0.16938911378383636], [0.02638556994497776, -0.09203070402145386, -0.17930953204631805, 0.07512698322534561, 0.062376800924539566, 0.15414594113826752, -0.08999795466661453, 0.07145781815052032, -0.05848732963204384, -0.024362506344914436, 0.10057738423347473, -0.16204729676246643, 0.13030867278575897, 0.08221857249736786, -0.10506180673837662, 0.08686903119087219, -0.04446505010128021, 0.009896796196699142, -0.04731578007340431, -0.17308439314365387, -0.018308401107788086, 0.0822015032172203, -0.020567409694194794, -0.0997069776058197, 0.005601273849606514, 0.032544538378715515, -0.049323465675115585, -0.13708750903606415, -0.09477762132883072, -0.032506559044122696, 0.068415068089962, 0.1572028249502182], [0.0032807737588882446, 0.12978875637054443, 0.16948720812797546, 0.00377654074691236, 0.006987853907048702, 0.1876518875360489, 0.12657001614570618, 0.11158601194620132, -0.13660992681980133, 0.09630075842142105, -0.07008461654186249, 0.08835694938898087, 0.020950565114617348, 0.057101476937532425, -0.17231270670890808, 0.009361750446259975, 0.07507645338773727, 0.20594485104084015, -0.050609491765499115, 0.15764057636260986, -0.03944928199052811, -0.0411948598921299, -0.07655199617147446, 0.07082770019769669, -0.03141910582780838, 0.1570514291524887, -0.0978320837020874, -0.05028776451945305, -0.17518800497055054, 0.14953698217868805, 0.044036850333213806, -0.13935519754886627], [-0.0085302060469985, -0.12080420553684235, -0.09791775047779083, -0.1598699390888214, -0.039521656930446625, -0.18714118003845215, -0.05291113257408142, -0.17115065455436707, 0.03155994042754173, 0.12303882092237473, -0.13546745479106903, 0.1360171139240265, 0.13886630535125732, -0.09203876554965973, -0.015188691206276417, -0.20754490792751312, 0.0735345110297203, -0.19172050058841705, 0.053925711661577225, 0.010561452247202396, -0.11604778468608856, -0.20686788856983185, -0.1726621836423874, -0.21883735060691833, 0.04938333481550217, -0.11514639854431152, 0.13295410573482513, -0.15544229745864868, -0.005165728274732828, -0.17581568658351898, -0.13295842707157135, 0.06440622359514236], [-0.1585763543844223, 0.314923495054245, 0.11433451622724533, 0.3245907127857208, 0.0940636396408081, 0.239805206656456, 0.16070355474948883, 0.08215567469596863, -0.04297206178307533, 0.06764008104801178, -0.011430756188929081, 0.10463907569646835, -0.1110357865691185, 0.16418372094631195, -0.11585331708192825, 0.06801776587963104, 0.13190819323062897, 0.068902887403965, 0.1515243649482727, 0.12162581086158752, 0.16157592833042145, -0.04470673203468323, 0.0019812812097370625, 0.09052105993032455, 0.04210885241627693, 0.0025310171768069267, 0.07248798757791519, -0.008374578319489956, -0.08356034010648727, -0.14852608740329742, 0.23049511015415192, -0.06397640705108643], [0.13043932616710663, 0.0962575227022171, 0.12333415448665619, 0.04268960282206535, -0.031938113272190094, -0.011280016973614693, -0.1530710905790329, 0.16856421530246735, -0.1113235205411911, 0.11754409968852997, -0.0303343553096056, 0.11074511706829071, 0.15150153636932373, -0.10811770707368851, 0.14596903324127197, 0.05701177939772606, -0.13504520058631897, 0.12360333651304245, 0.1000979021191597, 0.1558307260274887, -0.1682773232460022, 0.21287274360656738, 0.13401567935943604, 0.2198999971151352, 0.09634438902139664, -0.03552734851837158, 0.1341048628091812, 0.16155920922756195, -0.06759408116340637, -0.03871481120586395, 0.18282631039619446, 0.14230215549468994], [0.11677630990743637, 0.2966718077659607, 0.10031627863645554, 0.15187227725982666, 0.05377240106463432, 0.24302001297473907, 0.04405494034290314, 0.017951205372810364, -0.022205214947462082, -0.16606789827346802, -0.023152701556682587, 0.16115456819534302, -0.08892238885164261, 0.07890068739652634, -0.03936437517404556, 0.11256615072488785, -0.00011417581117711961, 0.2964799702167511, -0.024454591795802116, 0.14627663791179657, 0.10343342274427414, 0.23002640902996063, -0.16032591462135315, 0.07093434035778046, -0.14402426779270172, 0.11232275515794754, -0.03661433607339859, 0.035921696573495865, 0.1583867371082306, 0.08903826773166656, 0.026730399578809738, -0.11086433380842209], [0.13348504900932312, -0.011538192629814148, 0.03584760054945946, -0.12738050520420074, -0.035070743411779404, 0.02952132560312748, -0.11600533872842789, 0.0914578065276146, 0.08809561282396317, -0.11575419455766678, -0.08764644712209702, -0.041560374200344086, 0.027511080726981163, -0.06484521925449371, 0.1691083312034607, -0.1910124123096466, -0.09991409629583359, -0.12733964622020721, 0.04779694974422455, 0.025085845962166786, -0.05037359520792961, 0.1355527639389038, -0.15260303020477295, 0.04802212119102478, -0.09727165848016739, -0.06488524377346039, -0.1702360212802887, -0.1319650411605835, -0.14998604357242584, 0.07875986397266388, -0.09018195420503616, 0.09247201681137085], [-0.09580393880605698, 0.07072829455137253, 0.1544189751148224, 0.2781648337841034, 0.04069686308503151, 0.2100774198770523, 0.04876771569252014, 0.21816706657409668, 0.11167129874229431, 0.05132167041301727, 0.04740871861577034, -0.0496152900159359, 0.06881939619779587, 0.09635081142187119, -0.009435183368623257, 0.19345587491989136, -0.10635223984718323, 0.2131163477897644, -0.02169313095510006, -0.1216527447104454, -0.08589297533035278, -0.05806407704949379, 0.035658929497003555, 0.0030907781329005957, -0.05062238872051239, 0.09512076526880264, -0.107862189412117, 0.004539215471595526, -0.02243518829345703, 0.06882413476705551, 0.23318226635456085, -0.1067146360874176], [0.09665199369192123, 0.0758119523525238, -0.016347398981451988, 0.025515248998999596, 0.08961498737335205, 0.10122375190258026, -0.005709928460419178, -0.013428923673927784, 0.08914772421121597, 0.049059219658374786, -0.11940453946590424, -0.0312411617487669, -0.04796172305941582, -0.07543230056762695, -0.09805763512849808, -0.07460743933916092, 0.17410805821418762, -0.09521042555570602, 0.16432760655879974, -0.13896483182907104, -0.04288911819458008, -0.030585018917918205, -0.09461971372365952, 0.11675509065389633, 0.10245884209871292, -0.047024935483932495, -0.08233367651700974, 0.09023159742355347, -0.02136807329952717, 0.04800000041723251, 0.17139381170272827, -0.0653422623872757], [-0.09810645878314972, 0.0010545352706685662, -0.1323469877243042, -0.19109858572483063, -0.1353449523448944, -0.1404952108860016, 0.1760198026895523, -0.02804298885166645, 0.0761328861117363, 0.03298678621649742, -0.17448778450489044, 0.12756876647472382, -0.02747972309589386, -0.04577295109629631, 0.14406536519527435, -0.1470152884721756, 0.03589598461985588, -0.21260559558868408, 0.09058442711830139, 0.07021768391132355, -0.14536280930042267, 0.05180753767490387, 0.019454142078757286, -0.1546611338853836, 0.15072572231292725, 0.018431957811117172, 0.062122199684381485, -0.06565939635038376, -0.09693026542663574, -0.09629762917757034, 0.010791650973260403, 0.047621216624975204], [-0.10580044984817505, -0.06799235939979553, -0.18211640417575836, -0.33348721265792847, -0.12314757704734802, -0.29748204350471497, 0.055477432906627655, -0.08060623705387115, -0.15636463463306427, -0.07650215178728104, -0.23434562981128693, 0.026361925527453423, -0.1453765332698822, -0.11630167812108994, -0.01693142205476761, -0.2500847280025482, 0.0381297692656517, -0.21016208827495575, 0.0362643264234066, 0.011719142086803913, 0.02031821571290493, -0.19745178520679474, 0.06348451226949692, -0.11082800477743149, -0.08822045475244522, -0.3122813105583191, 0.0775899663567543, -0.12783318758010864, 0.11487974971532822, 0.07233543694019318, -0.20856107771396637, -0.07674597203731537], [0.0053007458336651325, 0.027105603367090225, 0.04313690587878227, 0.3649897277355194, -0.028880655765533447, 0.010291805490851402, -0.0686684250831604, 0.17333641648292542, 0.04048788547515869, -0.10774898529052734, 0.12724877893924713, -0.03947595879435539, 0.14791356027126312, 0.15343403816223145, 0.07265682518482208, 0.15579307079315186, 0.1325707584619522, 0.021269867196679115, 0.07386034727096558, -0.10275283455848694, 0.13786134123802185, -0.038162972778081894, 0.06568185985088348, 0.0062852893024683, 0.10317540168762207, 0.18980203568935394, 0.15168125927448273, -0.13332805037498474, 0.11377508193254471, -0.10832645744085312, 0.06715881824493408, 0.0672382116317749], [-0.02975563146173954, -0.04891723021864891, -0.03298202529549599, 0.06514159590005875, 0.09764686226844788, 0.22929468750953674, 0.13001160323619843, 0.08533132821321487, -0.10843374580144882, -0.13213717937469482, 0.21505838632583618, -0.09856090694665909, -0.03109014965593815, -0.1426437497138977, -0.12218999117612839, 0.11616751551628113, -0.04370290786027908, 0.09808271378278732, -0.0013519444037228823, 0.009006507694721222, -0.035027340054512024, 0.049525730311870575, 0.07683916389942169, 0.19989971816539764, 0.14941687881946564, -0.06712877005338669, -0.1494310200214386, -0.02641998417675495, -0.013485684990882874, 0.09377709031105042, 0.25334632396698, 0.04539582133293152], [-0.12555721402168274, -0.24562296271324158, -0.1582311987876892, -0.19562335312366486, -0.33493727445602417, -0.22006842494010925, -0.1706894487142563, -0.3016129434108734, 0.12363822013139725, -0.08181736618280411, -0.1335276961326599, -0.14419220387935638, 0.15628904104232788, 0.084323450922966, 0.1145530492067337, -0.18539418280124664, 0.012524041347205639, -0.32469913363456726, -0.0975441187620163, -0.12139599025249481, 0.14609625935554504, -0.25960609316825867, 0.004306691233068705, -0.4101998209953308, 0.04744472727179527, -0.2899678647518158, -0.14139102399349213, 0.021878408268094063, -0.16284921765327454, -0.02244529314339161, -0.3895995020866394, 0.11175885796546936], [-0.14038971066474915, 0.1443219929933548, 0.20565444231033325, -0.018188267946243286, 0.24136394262313843, 0.25305336713790894, -0.1083635687828064, 0.12712687253952026, 0.05360632389783859, 0.16971303522586823, 0.2526077330112457, -0.14828239381313324, -0.1440848559141159, -0.15630917251110077, -0.0786198228597641, 0.08251436799764633, -0.06342801451683044, 0.2257678359746933, -0.12182961404323578, -0.14109013974666595, -0.13818927109241486, 0.007130852434784174, 0.17314651608467102, 0.1320154070854187, -0.030951233580708504, 0.05634467303752899, -0.1353975236415863, -0.059977009892463684, 0.09313026815652847, 0.1236550435423851, 0.24967287480831146, 0.012585427612066269], [-0.09637854248285294, -0.2246120423078537, 0.0254921093583107, -0.29931947588920593, -0.08816513419151306, -0.14680887758731842, 0.16413171589374542, -0.02264980971813202, -0.04466056823730469, -0.13684648275375366, -0.11614760756492615, -0.12364470958709717, -0.018644079566001892, 0.04426141828298569, 0.08632500469684601, -0.1800415962934494, -0.11933020502328873, -0.28378596901893616, -0.1674424558877945, 0.022173603996634483, -0.10759323090314865, -0.10698641836643219, -0.08374863117933273, -0.25479966402053833, 0.1191992312669754, -0.03010120801627636, 0.1241220235824585, 0.16957411170005798, -0.12790480256080627, -0.09766406565904617, -0.27269279956817627, 0.1187014952301979], [0.10415802896022797, 0.09073975682258606, -0.2093011438846588, -0.16243967413902283, 0.0903598740696907, -0.20139652490615845, -0.117734394967556, 0.0028494626749306917, -0.15453000366687775, -0.06733059883117676, 0.01658446155488491, 0.14482153952121735, -0.020058823749423027, -0.15643687546253204, 0.10007143020629883, 0.11674898862838745, -0.13123516738414764, -0.0707453265786171, -0.1278761476278305, -0.09026558697223663, 0.05949002131819725, 0.05120817571878433, 0.07309932261705399, -0.21540389955043793, -0.04285537824034691, 0.016067013144493103, -0.01640869490802288, -0.0546509325504303, -0.09131453931331635, 0.15950413048267365, -0.2047232985496521, -0.13925014436244965], [0.12881973385810852, -0.2588842213153839, -0.08201475441455841, -0.2882535457611084, -0.16733671724796295, -0.23808859288692474, 0.14605562388896942, -0.03922051936388016, 0.008494317531585693, 0.007158574648201466, -0.21365700662136078, -0.09449083358049393, -0.06686568260192871, 0.05788587033748627, -0.03179636225104332, -0.035309210419654846, 0.025452185422182083, -0.15591467916965485, -0.10985415428876877, 0.07131390273571014, -0.1635197103023529, -0.089647077023983, 0.06342862546443939, -0.11827448755502701, 0.1244107335805893, -0.10960742831230164, -0.048822127282619476, -0.12370036542415619, -0.16406725347042084, 0.07816723734140396, -0.06753925234079361, -0.13484124839305878], [0.047327835112810135, -0.29089152812957764, -0.13751979172229767, -0.34297165274620056, -0.0553884357213974, -0.09212860465049744, 0.0977739617228508, -0.11045721918344498, 0.055133156478405, 0.07264306396245956, -0.3593819737434387, -0.04035773500800133, -0.020039035007357597, 0.0857732817530632, -0.06850150227546692, -0.1405337154865265, 0.12002697587013245, -0.1516321748495102, 0.09098578989505768, -0.023561984300613403, 0.0846807062625885, -0.22263894975185394, 0.15313367545604706, -0.22462661564350128, -0.010311732068657875, -0.3736734986305237, 0.16349762678146362, -0.024733245372772217, 0.13166487216949463, -0.12731893360614777, -0.38435691595077515, -0.028295455500483513], [-0.1413506716489792, -0.0523996502161026, -0.09848549962043762, -0.1669209897518158, 0.04640762135386467, 0.039925653487443924, -0.1560850590467453, -0.22423408925533295, 0.10341846197843552, -0.10464274138212204, -0.03537119925022125, -0.04708005115389824, 0.03161163255572319, -0.09755104780197144, 0.0005648941732943058, -0.14029434323310852, -0.07963478565216064, -0.16591571271419525, 0.039485737681388855, 0.11438748985528946, -0.00435640336945653, -0.06391230970621109, 0.14585287868976593, 0.061240024864673615, -0.025662604719400406, -0.21762706339359283, 0.04148389771580696, 0.05278174206614494, -0.13988260924816132, -0.15878254175186157, -0.05958853289484978, 0.17262105643749237], [-0.1581178456544876, 0.02050209231674671, 0.04196926951408386, -0.01846451498568058, -0.06530974060297012, 0.21814000606536865, 0.13520504534244537, -0.03270524740219116, 0.003789633745327592, -0.1195472925901413, 0.12801548838615417, -0.12074071168899536, -0.09008821099996567, -0.08193789422512054, 0.026057224720716476, 0.20333898067474365, -0.07398668676614761, 0.11592216789722443, 0.1407533586025238, -0.010711431503295898, 0.018253441900014877, 0.06092130020260811, -0.002258249092847109, 0.17428819835186005, 0.09565256536006927, -0.00880906730890274, 0.1687973439693451, 0.10171819478273392, -0.02766025997698307, 0.15424230694770813, 0.10337233543395996, 0.11170779913663864], [-0.15009988844394684, 0.20559675991535187, 0.1999453455209732, -0.09499430656433105, -0.16295959055423737, -0.020984213799238205, -0.10868456214666367, 0.07646059989929199, 0.0786890909075737, -0.03963692486286163, 0.15636853873729706, 0.006698714569211006, -0.05195673555135727, -0.15089142322540283, 0.05618339031934738, -0.12839899957180023, -0.0006045122281648219, 0.05615205317735672, -0.09900347143411636, 0.053107284009456635, 0.0343637578189373, 0.17828531563282013, 0.11056454479694366, -0.09336738288402557, -0.13116511702537537, -0.03470591455698013, -0.12717308104038239, 0.055426180362701416, -0.11582227796316147, -0.15351825952529907, 0.08045089989900589, 0.10668796300888062], [-0.05139293894171715, -0.33587726950645447, -0.18137387931346893, -0.11917497962713242, -0.0035996204242110252, -0.14690499007701874, 0.12272350490093231, -0.32979288697242737, 0.16911840438842773, -0.10302286595106125, -0.27834662795066833, 0.12686793506145477, -0.03928189352154732, 0.10909507423639297, -0.12381867319345474, -0.03128944709897041, 0.16765417158603668, -0.11738767474889755, 0.14260470867156982, -0.12624087929725647, -0.03903457522392273, -0.059849727898836136, 0.09989475458860397, -0.26070135831832886, 0.11248911172151566, -0.2230268120765686, -0.09435545653104782, 0.0345798023045063, -0.1408039927482605, -0.168582946062088, -0.1208360344171524, 0.06021227315068245], [0.06797928363084793, -0.17181925475597382, -0.30465102195739746, -0.3176174461841583, 0.05009391903877258, -0.2882823944091797, 0.05327926203608513, -0.0010890820994973183, 0.13505306839942932, -0.1341136395931244, -0.18472471833229065, -0.1413387656211853, 0.11088652163743973, -0.16589418053627014, -0.16273830831050873, -0.2624700367450714, 0.1441965103149414, -0.025648966431617737, 0.11844842880964279, 0.1356385052204132, -0.08244527876377106, -0.22030647099018097, -0.10860011726617813, -0.0794777125120163, 0.06876363605260849, -0.0990758165717125, -0.1359977275133133, 0.015703536570072174, -0.09380493313074112, -0.04266878589987755, -0.17764872312545776, 0.008787154220044613], [-0.1550011932849884, 0.02129274792969227, -0.24209769070148468, -0.11358985304832458, 0.026260489597916603, -0.05771810933947563, 0.12380018830299377, -0.04442143440246582, 0.1294432282447815, 0.029702594503760338, 0.010907144285738468, -0.07684025913476944, -0.09525516629219055, 0.08441181480884552, 0.046383533626794815, -0.1334744095802307, -0.14911270141601562, -0.07733514904975891, 0.11450767517089844, -0.02040967345237732, 0.04061280936002731, -0.007687797769904137, -0.17458094656467438, -0.13735449314117432, -0.06557796895503998, -0.22175809741020203, 0.10804738849401474, 0.1752718836069107, 0.028206482529640198, 0.10720821470022202, -0.26578882336616516, 0.031143400818109512], [-0.02286287397146225, -0.1801239252090454, -0.026994964107871056, -0.028083063662052155, -0.09145399928092957, 0.009578566066920757, 0.08487207442522049, 0.08623428642749786, 0.010247479192912579, -0.008258079178631306, -0.06618298590183258, 0.02439575456082821, -0.1146252453327179, -0.02175930142402649, -0.14948810636997223, -0.18929801881313324, -0.15057623386383057, 0.062444061040878296, -0.10159356147050858, -0.014266160316765308, 0.018898984417319298, 0.10362917184829712, 0.08022831380367279, -0.17574231326580048, 0.1729009747505188, -0.23644118010997772, 0.022984109818935394, 0.1615217924118042, 0.15330994129180908, -0.06157894805073738, -0.1897812932729721, 0.07762277871370316], [0.13627049326896667, -0.215844064950943, -0.18779154121875763, -0.2728186547756195, -0.052164945751428604, -0.09211152791976929, 0.08762706816196442, -0.1984693855047226, -0.1706443727016449, -0.07424324005842209, -0.26018860936164856, -0.042587198317050934, 0.06424429267644882, -0.14706623554229736, -0.0082516148686409, -0.301919549703598, -0.1252726912498474, -0.2588484287261963, -0.0601898729801178, -0.0895688384771347, 0.027210215106606483, 0.017138514667749405, 0.13329452276229858, -0.06781454384326935, -0.0011697435984387994, -0.16220587491989136, 0.12003186345100403, -0.10124538838863373, 0.12777581810951233, -0.17777104675769806, -0.2730083465576172, 0.04689254239201546], [-0.07280897349119186, -0.011273377574980259, 0.07998032867908478, 0.0058159418404102325, 0.10923846065998077, -0.13263629376888275, -0.0844162181019783, -0.07306353747844696, -0.035602789372205734, -0.071467824280262, -0.07937048375606537, 0.1597035974264145, -0.09690150618553162, 0.09927476942539215, 0.0821208581328392, 0.046351443976163864, 0.04769103229045868, -0.12568256258964539, 0.07295813411474228, -0.08326105773448944, -0.10850857943296432, 0.12600834667682648, 0.14652800559997559, -0.18552656471729279, 0.14358748495578766, -0.02054743468761444, 0.045312583446502686, 0.17038913071155548, -0.009282168932259083, -0.06111469864845276, 0.042591892182826996, -0.045663874596357346], [-0.04243730381131172, -0.12105555087327957, 0.13407406210899353, 0.03317330405116081, -0.030407337471842766, -0.029825571924448013, 0.012372206896543503, -0.13316594064235687, 0.0501912496984005, -0.15881481766700745, -0.024328161031007767, -0.03316948562860489, -0.072180837392807, 0.16349872946739197, 0.04950813204050064, 0.051499295979738235, -0.11636430770158768, 0.0017155591631308198, 0.047371771186590195, 0.09176812320947647, -0.052162837237119675, -0.06236235797405243, -0.14352348446846008, 0.07987353950738907, 0.11800847947597504, 0.053259462118148804, 0.08984072506427765, 0.10588036477565765, 0.16663053631782532, 0.07893670350313187, 0.03128596022725105, 0.05560242012143135], [-0.09982946515083313, -0.10701660811901093, -0.12914328277111053, -0.31997624039649963, -0.18056491017341614, -0.25348058342933655, -0.1129530668258667, -0.02830726094543934, 0.13906779885292053, -0.04216615483164787, -0.07346198707818985, -0.041401881724596024, 0.037479907274246216, -0.029593640938401222, -0.09196178615093231, -0.22262291610240936, 0.17559444904327393, -0.11962811648845673, -0.09667134284973145, 0.020067082718014717, -0.1763620674610138, -0.10886827856302261, 0.1357032209634781, -0.11290804296731949, 0.04211883991956711, -0.3120742440223694, -0.033249709755182266, 0.10431306809186935, -0.12961316108703613, -0.08984947204589844, -0.03798959031701088, 0.050766490399837494], [0.08263839781284332, -0.21495063602924347, 0.024053700268268585, -0.10657079517841339, -0.024390215054154396, 0.08450987935066223, -0.1629103124141693, -0.010632953606545925, -0.15981020033359528, 0.12677478790283203, 0.0046814000234007835, 0.019669849425554276, -0.07081878185272217, 0.06665104627609253, -0.09175672382116318, -0.019357776269316673, 0.14845412969589233, -0.19796034693717957, -0.050438690930604935, 0.04128937050700188, 0.030684612691402435, -0.007734822109341621, 0.15208451449871063, -0.10113388299942017, 0.04559991881251335, 0.03433002904057503, -0.034275542944669724, 0.11551167815923691, 0.11545281857252121, 0.061548374593257904, -0.10126034170389175, 0.153549924492836], [-0.10214552283287048, 0.09262828528881073, 0.07483531534671783, 0.17982330918312073, -0.13150866329669952, 0.060828521847724915, -0.10180400311946869, 0.1338803768157959, 0.060703955590724945, -0.11389968544244766, 0.005282063968479633, 0.04945051670074463, 0.07530514150857925, 0.15726716816425323, 0.07938896119594574, 0.06867938488721848, 0.09429872781038284, -0.13663549721240997, 0.11786197125911713, -0.02078437991440296, 0.10004917532205582, 0.0672357976436615, -0.009322376921772957, 0.1454658806324005, -0.1030532568693161, 0.08426634967327118, 0.07749458402395248, -0.06291167438030243, 0.06404034048318863, -0.17480690777301788, -0.048445820808410645, 0.08594972640275955]], "bias": [0.18594953417778015, -0.2659304738044739, 0.07342728972434998, 0.2579585909843445, 0.3519895076751709, -0.3013720214366913, -0.012301460839807987, -0.21488302946090698, -0.20832772552967072, -0.04336408153176308, -0.24724973738193512, 0.2145036906003952, -0.14795871078968048, 0.10093434154987335, -0.17850111424922943, 0.01591378077864647, -0.12852448225021362, 0.22420096397399902, 0.17193542420864105, 0.14984607696533203, -0.27664655447006226, 0.15582877397537231, -0.18744860589504242, 0.18665215373039246, -0.028600333258509636, -0.15318110585212708, -0.18768298625946045, -0.253749281167984, 0.03800157457590103, -0.08652069419622421, -0.09906136244535446, 0.3794754147529602, -0.04359244555234909, 0.1226278692483902, -0.14520272612571716, 0.21040311455726624, 0.09163772314786911, 0.23119717836380005, 0.022125916555523872, 0.040944043546915054, 0.22306527197360992, -0.0490812286734581, -0.2880198359489441, 0.18371284008026123, 0.05210374668240547, -0.33797454833984375, 0.13524146378040314, -0.1673254370689392, -0.1265507936477661, -0.2153264731168747, -0.26117920875549316, -0.12022422254085541, 0.09870050847530365, 0.19571785628795624, -0.24881459772586823, -0.2066071480512619, -0.23560164868831635, -0.05940541997551918, -0.10300284624099731, -0.17828595638275146, 0.05286513268947601, -0.2916845381259918, 0.12050049006938934, 0.07407616823911667]}, "prelu": {"num_parameters": 32, "weight": [0.20753979682922363, 0.26082536578178406, 0.06953275948762894, 0.6502132415771484, 0.2463965266942978, 0.364903062582016, -0.0068442136980593204, 0.34874749183654785, 0.5214462876319885, 0.042043931782245636, 0.07172532379627228, 0.10148531198501587, 0.365461528301239, 0.1259823739528656, 0.2793178856372833, 0.05555732548236847, 0.08469508588314056, 0.08982671797275543, 0.032156720757484436, 0.01430522371083498, 0.8137409687042236, 0.05216360092163086, 0.15392807126045227, 0.3232381045818329, 0.11719512194395065, 0.13813531398773193, 0.007442110683768988, 0.4056483209133148, 0.18911823630332947, 0.15644603967666626, 0.2806183993816376, 0.9576597213745117]}, "res": {"in_channels": 1, "out_channels": 32, "kernel_size": 1, "dilation": 1, "groups": 1, "weight": [[[-0.4433293640613556]], [[-0.6983488202095032]], [[0.8731844425201416]], [[1.0024330615997314]], [[-0.9558769464492798]], [[0.31832101941108704]], [[1.196198582649231]], [[0.15895752608776093]], [[-1.284476637840271]], [[-0.7648921608924866]], [[-0.11766508966684341]], [[0.08912056684494019]], [[-1.1292049884796143]], [[-1.0008456707000732]], [[0.005363049451261759]], [[1.117140293121338]], [[1.317108154296875]], [[-0.14064811170101166]], [[0.5784086585044861]], [[-1.226491928100586]], [[0.2761125862598419]], [[1.305482029914856]], [[0.8809454441070557]], [[-0.4067819118499756]], [[1.2011075019836426]], [[-1.34726881980896]], [[-0.4080912470817566]], [[-0.0886455699801445]], [[-1.4050047397613525]], [[-0.9359328746795654]], [[-1.1657955646514893]], [[-0.0012806343147531152]]], "bias": null}, "causal": true}, {"conv1": {"in_channels": 32, "out_channels": 32, "kernel_size": 13, "dilation": 10, "groups": 1, "weight": [[[0.04493483901023865, 0.008252889849245548, 0.021874403581023216, 0.08743800967931747, 0.029724767431616783, 0.1711161732673645, 0.01933259330689907, -0.05853797122836113, -0.12612348794937134, -0.04310286045074463, -0.11544401198625565, -0.24236276745796204, -0.08504801243543625], [0.04298388957977295, -0.03488318249583244, 0.006330557633191347, 0.0007622446864843369, -0.017132585868239403, 0.0018916764529421926, 0.002752450294792652, 0.053200189024209976, 0.04495691508054733, 0.11603903025388718, 0.15835516154766083, 0.13261908292770386, 0.045216381549835205], [-0.13164544105529785, -0.13435840606689453, 0.024571623653173447, 0.14870353043079376, 0.15753388404846191, 0.38408806920051575, 0.3374929428100586, 0.2171703577041626, -0.06318923830986023, -0.18178628385066986, -0.29524150490760803, 0.004542275331914425, -0.0699414536356926], [-0.060936033725738525, 0.03588997572660446, 0.028065918013453484, 0.013751975260674953, -0.005292591638863087, -0.08574764430522919, 0.041461631655693054, -0.06395391374826431, -0.08789341896772385, -0.021000176668167114, 0.004277150612324476, 0.09772181510925293, -0.04745475575327873], [0.007133224979043007, -0.08893522620201111, 0.021705567836761475, -0.04007310792803764, -0.012167605571448803, -0.007922343909740448, -0.025915252044796944, 0.05350279062986374, 0.023331165313720703, 0.1452525109052658, 0.19451472163200378, 0.007873659953474998, -0.01319872960448265], [0.026793833822011948, -0.02506345324218273, 0.064098060131073, -0.0139890406280756, -0.06663110107183456, 0.06971762329339981, 0.02626318484544754, 0.12497364729642868, 0.06510093063116074, 0.15454714000225067, 0.0928850844502449, -0.008477532304823399, -0.03362039476633072], [-0.0346723310649395, -0.0422564297914505, 0.12399784475564957, 0.19627748429775238, 0.1601320505142212, 0.22388684749603271, 0.1623312532901764, 0.09965962171554565, 0.09325246512889862, 0.17213939130306244, -0.00935891829431057, 0.22488346695899963, -0.06996498256921768], [-0.025267546996474266, -0.04887234419584274, 0.017430825158953667, 0.00275182886980474, 0.0334135964512825, 0.05548197031021118, 0.057471126317977905, 0.05662381649017334, 0.08897657692432404, 0.13567906618118286, 0.010365917347371578, -0.0360213965177536, -0.00633199792355299], [0.025662655010819435, -0.04174690321087837, 0.0024188756942749023, 0.002389581874012947, -0.007266595959663391, -0.04217078536748886, -0.03627919778227806, 0.02847270481288433, 0.009271424263715744, 0.10277809202671051, 0.14599114656448364, 0.06820249557495117, 0.13344809412956238], [0.02350766398012638, 0.027127239853143692, -0.11244214326143265, -0.13657329976558685, -0.10746977478265762, -0.17224401235580444, -0.13875050842761993, -0.056307632476091385, -0.07590386271476746, -0.08405411243438721, 0.03163314610719681, -0.10202255845069885, 0.048697225749492645], [-0.11843852698802948, -0.1528705656528473, -0.11989710479974747, -0.16867130994796753, -0.07453076541423798, 0.14625832438468933, 0.20385806262493134, 0.20824748277664185, -0.011776629835367203, -0.1072198748588562, -0.1622893065214157, 0.009167834185063839, -0.17095574736595154], [-0.04976094141602516, 0.009777738712728024, 0.0044399164617061615, 0.02613028697669506, 0.02848881110548973, 0.05883686989545822, 0.12151332199573517, 0.04033602401614189, 0.0584573857486248, 0.05518638342618942, 0.11072845011949539, -0.021304063498973846, -0.09267906844615936], [-0.023833317682147026, 0.07765671610832214, -0.014254756271839142, -0.04845203086733818, -0.07746732234954834, -0.10430239886045456, -0.029043130576610565, 0.01480627991259098, 0.04147914797067642, 0.17116641998291016, 0.16238753497600555, 0.09623245894908905, 0.16739940643310547], [-0.038152556866407394, -0.11355840414762497, -0.06378062069416046, -0.12879598140716553, -0.011853816919028759, 0.03514226898550987, 0.12020353972911835, 0.11326026171445847, 0.09741892665624619, 0.024689674377441406, -0.08563005924224854, -0.02983960323035717, -0.09455130994319916], [-0.021358884871006012, -0.02680821344256401, -0.01791711337864399, -0.013143341057002544, -0.01989619806408882, 0.018851816654205322, -0.002884856192395091, 0.014868765138089657, 0.026268979534506798, 0.0021042905282229185, 0.033553529530763626, 0.015980202704668045, -0.0766381174325943], [-0.023082563653588295, -0.04419858753681183, 0.08075128495693207, 0.0815172791481018, 0.1177859827876091, 0.12252133339643478, 0.043996602296829224, 0.0638125017285347, 0.09119205176830292, 0.16640152037143707, 0.05241742357611656, 0.052927467972040176, 0.03783264011144638], [-0.004803503397852182, -0.04775959998369217, 0.10736387968063354, 0.16228936612606049, 0.17423135042190552, 0.20857618749141693, 0.16591143608093262, 0.08809613436460495, 0.11675602197647095, -0.020217828452587128, -0.11319185048341751, 0.09197068214416504, 0.023047875612974167], [0.06645763665437698, -0.014126601628959179, 0.02231091447174549, -0.037623029202222824, 0.054285671561956406, -0.0315309539437294, -0.041358087211847305, -0.06017336994409561, 0.045454226434230804, 0.14552341401576996, 0.17723579704761505, -0.04020781069993973, -0.07549791783094406], [0.04930803179740906, 0.0020542547572404146, 0.14372877776622772, 0.08029665797948837, 0.15202532708644867, 0.0657959133386612, 0.07511503994464874, -0.08251331001520157, -0.1262783706188202, -0.0588429756462574, 0.025648534297943115, 0.2028733640909195, 0.13091646134853363], [0.07400448620319366, 0.03445681184530258, -0.09507711231708527, -0.1530929058790207, -0.1915256381034851, -0.20189538598060608, -0.17642942070960999, -0.1742800921201706, -0.09074550867080688, -0.15349768102169037, -0.020176474004983902, -0.20756497979164124, 0.033177901059389114], [0.025967910885810852, -0.04035993292927742, 0.09052827954292297, 0.07279589027166367, -0.005689872894436121, 0.04139192774891853, -0.013021640479564667, 0.023699596524238586, -0.005552972666919231, 0.10693498700857162, 0.1545155793428421, 0.03089551068842411, 0.12999771535396576], [-0.03860931843519211, -0.04432317242026329, 0.05031769722700119, 0.11564163863658905, 0.15585550665855408, 0.17619121074676514, 0.03292517364025116, 0.009830834344029427, -0.041304852813482285, -0.2555713355541229, -0.3257044553756714, -0.40205955505371094, -0.289107084274292], [0.007277228869497776, 0.04038679227232933, 0.029796365648508072, 0.08753978461027145, 0.022265952080488205, 0.035507477819919586, 0.056352950632572174, 0.025602081790566444, 0.071482352912426, 0.04687783867120743, 0.013250268995761871, 0.008556687273085117, 0.0890703797340393], [-0.03264395892620087, 0.04292692244052887, -0.014026612974703312, 0.019341912120580673, -0.004358149599283934, 0.10194015502929688, 0.19886372983455658, 0.2153685837984085, 0.27281689643859863, 0.13264775276184082, 0.04996539279818535, 0.01613727957010269, -0.038828592747449875], [-0.016669468954205513, 0.060428258031606674, 0.14669978618621826, 0.21893328428268433, 0.20198954641819, 0.21618056297302246, 