{"version": 1, "arch": "direct", "config": {"nblocks": 4, "kernel_size": 13, "dilation_growth": 10, "channel_width": 32, "causal": true, "nparams": 2, "sample_rate": 44100, "receptive_field": 13333}, "gen": [{"in_features": 2, "out_features": 16, "weight": [[0.6915386915206909, 1.0127307176589966], [-0.2310885787010193, 0.9362455010414124], [-0.15492962300777435, 0.14268755912780762], [-0.3991309106349945, 0.7648031115531921], [0.6432300806045532, -0.7744132876396179], [0.5437958240509033, -0.017951184883713722], [0.5433529615402222, 0.1832958310842514], [0.5548309087753296, 0.2484850436449051], [0.6154528856277466, 0.06649459153413773], [-0.33010566234588623, 0.18024031817913055], [-0.5492127537727356, -0.22741913795471191], [-0.2517695128917694, 0.8716910481452942], [-0.6752076148986816, -0.477827250957489], [-0.19966909289360046, -0.4251638352870941], [0.1043504849076271, -0.7607458233833313], [0.6857892870903015, -0.8956754803657532]], "bias": [0.9829108119010925, -0.00339063024148345, -0.22960077226161957, 0.9923636317253113, 0.10596491396427155, 0.7182536125183105, 0.32223471999168396, -0.1458112746477127, 0.40607404708862305, -0.1917528212070465, 0.5525649785995483, 0.7612334489822388, 0.6784734129905701, -0.30912765860557556, 0.6877480745315552, 0.16317562758922577]}, {"in_features": 16, "out_features": 32, "weight": [[0.14388003945350647, -0.350161612033844, -0.24747711420059204, -0.04593905061483383, -0.03828669711947441, 0.2830841839313507, 0.0886809453368187, 0.11844833940267563, 0.12026141583919525, -0.0043489933013916016, 0.521690309047699, -0.13735038042068481, 0.43203601241111755, -0.17063504457473755, 0.46247363090515137, 0.12839394807815552], [0.06014237925410271, -0.4619702398777008, 0.20734795928001404, -0.2748100757598877, 0.07776910066604614, -0.10239849239587784, 0.2564050257205963, 0.18286636471748352, 0.280992329120636, -0.20631906390190125, -0.3232601583003998, -0.28089818358421326, -0.25320348143577576, 0.10126003623008728, 0.38022199273109436, 0.4938669800758362], [-0.129106342792511, -0.17042794823646545, 0.13264453411102295, -0.10105112195014954, 0.1517309546470642, -0.05932515859603882, 0.14301148056983948, -0.19424200057983398, -0.12616243958473206, 0.0762191116809845, 0.05285188555717468, -0.06373968720436096, 0.1490173637866974, 0.16995230317115784, -0.1812933385372162, -0.13346704840660095], [0.2214338630437851, -0.06119538098573685, -0.0886290967464447, -0.22754472494125366, -0.16556891798973083, 0.05049408972263336, -0.044862400740385056, -0.20283308625221252, -0.006033565383404493, -0.17077037692070007, -0.21209916472434998, -0.13753336668014526, -0.2188030183315277, -0.1591845154762268, 0.2199321687221527, 0.022396499291062355], [0.0770399272441864, -0.23317107558250427, -0.16419345140457153, -0.08321395516395569, 0.0390927791595459, -0.21998032927513123, -0.10771825909614563, -0.1496671438217163, 0.0006928145885467529, -0.093025803565979, -0.017323940992355347, -0.1694074273109436, -0.17159879207611084, -0.14585044980049133, -0.08557435870170593, -0.19732022285461426], [0.6236567497253418, 0.34805524349212646, 0.21509918570518494, 0.7004874348640442, -0.0861310288310051, 0.5126520991325378, 0.17195649445056915, -0.03658144921064377, 0.07867257297039032, -0.24854016304016113, 0.640961766242981, 0.4958891272544861, 0.583834707736969, -0.20516586303710938, 0.4857167899608612, -0.04782193526625633], [-0.043168336153030396, 0.05221742391586304, 0.1290629506111145, 0.20182758569717407, 0.22773981094360352, -0.1982305347919464, 0.0629168152809143, -0.10753148794174194, -0.027396202087402344, -0.18712252378463745, 0.2277146577835083, -0.18348762392997742, 0.13361281156539917, 0.08785989880561829, 0.08123898506164551, -0.13516154885292053], [0.31147968769073486, 0.3383382558822632, 0.032160013914108276, -0.1152903139591217, -0.07761400192975998, -0.022805210202932358, -0.05332817882299423, 0.2555001676082611, 0.09643836319446564, -0.13831910490989685, -0.4701777994632721, 0.08151945471763611, -0.5354459285736084, -0.0638834536075592, -0.5781946778297424, -0.37565183639526367], [-0.18676871061325073, 0.08915811777114868, 0.1935100555419922, -0.23536008596420288, 0.05806267261505127, 0.1291479468345642, 0.04533234238624573, -0.0890311598777771, 0.13048553466796875, 0.13137829303741455, 0.09348180890083313, -0.04393035173416138, -0.06620031595230103, 0.026745229959487915, -0.044163525104522705, -0.07450026273727417], [0.19837574660778046, 0.36288580298423767, -0.024749338626861572, 0.03124459646642208, -0.4235909581184387, -0.06333298236131668, -0.01787015236914158, -0.5532851815223694, -0.28739434480667114, -0.09225943684577942, 0.17829902470111847, 0.17045511305332184, -0.27627265453338623, -0.15072643756866455, -1.8456826210021973, -0.34773948788642883], [-0.08149060606956482, 0.08442604541778564, 0.1594054102897644, 0.11542433500289917, -0.220986008644104, -0.15034061670303345, -0.03945416212081909, 0.24183738231658936, 0.03616437315940857, -0.06474268436431885, 0.10342881083488464, -0.09522038698196411, -0.1618139147758484, 0.18247181177139282, -0.11367544531822205, -0.05011668801307678], [-0.2487010657787323, 0.16731765866279602, 0.18940865993499756, 0.09111204743385315, -0.17431855201721191, -0.24673497676849365, -0.20304474234580994, 0.18642506003379822, 0.12002643942832947, 0.21037611365318298, 0.13096746802330017, 0.06327304244041443, -0.002448171377182007, -0.19012650847434998, -0.21419304609298706, -0.23383715748786926], [0.10234048962593079, -0.12274199724197388, -0.05031314492225647, -0.143876314163208, -0.04555588960647583, -0.17595872282981873, -0.16335391998291016, 0.08292770385742188, -0.07429909706115723, 0.15433579683303833, -0.08020219206809998, -0.18339180946350098, -0.044109731912612915, -0.12118685245513916, -0.07648539543151855, -0.23799890279769897], [0.4254433810710907, 0.06281484663486481, 0.1256544291973114, 0.5888482332229614, 0.33187660574913025, 0.04100831225514412, 0.36521658301353455, -0.07312086224555969, 0.2924287021160126, 0.23477867245674133, 0.4586535096168518, 0.40245845913887024, 0.32256805896759033, -0.20874613523483276, 0.32873597741127014, -0.08147839456796646], [0.20085428655147552, 0.432701975107193, 0.23642659187316895, 0.01993640512228012, -0.3756532073020935, 0.028144264593720436, 0.14836381375789642, -0.24804556369781494, -0.06473449617624283, -0.14986386895179749, -0.13415732979774475, -0.056556783616542816, -0.31535276770591736, -0.07936471700668335, -0.5734078884124756, -0.03451624512672424], [0.20958280563354492, -0.0392172634601593, -0.028470516204833984, -0.10202997922897339, -0.22576570510864258, -0.2432861030101776, 0.09291461110115051, -0.1372615396976471, -0.16071924567222595, -0.019505798816680908, -0.08325278759002686, -0.08088019490242004, 0.008032798767089844, -0.053028106689453125, -0.08607810735702515, -0.11970147490501404], [-0.21650955080986023, 0.20021674036979675, -0.1000467836856842, 0.05226094275712967, -0.09107450395822525, 0.0085371695458889, 0.21655717492103577, 0.07586554437875748, -0.23054412007331848, 0.09922569990158081, 0.22175678610801697, 0.05379071086645126, 0.15043559670448303, 0.24647188186645508, -0.05695893242955208, 0.047543175518512726], [-0.17375877499580383, -0.05151927471160889, 0.18514594435691833, 0.1281614601612091, -0.15819725394248962, -0.20047125220298767, -0.17084091901779175, -0.24671941995620728, -0.19290974736213684, -0.06182435154914856, 0.16871929168701172, 0.04184556007385254, -0.1901513636112213, -0.2005559802055359, 0.124368816614151, -0.1859603226184845], [-0.030781865119934082, 0.11992651224136353, -0.11570301651954651, -0.02725997567176819, -0.02176111936569214, -0.059145838022232056, -0.12675803899765015, -0.22285959124565125, -0.20208925008773804, -0.13386541604995728, 0.2414594292640686, -0.12075367569923401, -0.16788199543952942, 0.060598552227020264, 0.06890258193016052, 0.1369774341583252], [0.27612611651420593, 0.43745577335357666, -0.24787524342536926, 0.12671984732151031, -0.020912960171699524, -0.015796633437275887, -0.09533490240573883, 0.2817862331867218, -0.06248906999826431, -0.14233613014221191, -0.380767285823822, 0.10905835777521133, -0.17774155735969543, 0.055340707302093506, -0.3937929570674896, -0.4796316623687744], [-0.21667084097862244, -0.1996193528175354, 0.2279585301876068, 0.1992862969636917, -0.27349352836608887, 0.096800297498703, -0.168581023812294, -0.6886982321739197, 0.11759589612483978, 0.13613462448120117, 0.4888477921485901, -0.18666449189186096, 0.5649433732032776, -0.1763230264186859, 0.5643336176872253, 0.09191352128982544], [0.003510594367980957, 0.22745224833488464, -0.21301287412643433, -0.09548979997634888, 0.1458132266998291, -0.054466962814331055, -0.051175057888031006, -0.1041979193687439, 0.17232653498649597, 0.12262579798698425, 0.0801125168800354, -0.14049091935157776, -0.20293739438056946, 0.027040153741836548, 0.07406970858573914, -0.11542797088623047], [-0.06994941830635071, 0.16884192824363708, 0.01991492509841919, 0.011279582977294922, -0.0615251362323761, -0.22639742493629456, -0.23506435751914978, -0.11950376629829407, -0.12708035111427307, 0.07788839936256409, -0.07277768850326538, -0.09780552983283997, 0.23835745453834534, 0.08708071708679199, 0.178225576877594, -0.12102818489074707], [-0.09690304100513458, -1.0309090614318848, -0.166568785905838, -0.3051217496395111, 0.23957611620426178, -0.01222210843116045, -0.1206134557723999, 0.19704832136631012, 0.27525514364242554, 0.04055583477020264, -0.06467301398515701, -0.3245598375797272, -0.11279114335775375, 0.06364640593528748, 0.3995782136917114, 0.2767961919307709], [0.019876306876540184, 0.43644580245018005, -0.19909992814064026, 0.30409979820251465, -0.22134606540203094, 0.04406439885497093, 0.031044356524944305, 0.08240319788455963, -0.016563735902309418, 0.18178173899650574, -0.09377843886613846, 0.33032655715942383, 0.013101517222821712, -0.12179774045944214, -0.5880803465843201, -0.029309680685400963], [0.1899745613336563, -0.6767170429229736, -0.019325822591781616, -0.30373919010162354, 0.023933619260787964, 0.13019533455371857, 0.10746268928050995, 0.13495030999183655, -0.007503724191337824, 0.23064443469047546, 0.38497936725616455, -0.18993110954761505, 0.4182743430137634, 0.060036301612854004, 0.5181159377098083, 0.12762857973575592], [0.22092080116271973, 0.1313321739435196, -0.2077350914478302, 0.005980204325169325, 0.21904468536376953, 0.2790471315383911, 0.3264870345592499, 0.2597375214099884, 0.2755803167819977, -0.03346243500709534, -0.22427964210510254, 0.2561423182487488, -0.3518005907535553, -0.1687164604663849, -0.32322219014167786, -0.03448887914419174], [0.5784618854522705, 0.34438827633857727, -0.14714157581329346, 0.8221060633659363, -0.05175793915987015, 0.15920741856098175, 0.38170427083969116, 0.04458558186888695, 0.5040363073348999, 0.24319565296173096, 0.7104395031929016, 0.7675266265869141, 0.5657911896705627, 0.003915220499038696, 0.21749860048294067, 0.09173690527677536], [0.18861544132232666, 0.5483314990997314, -0.0647897720336914, 0.034842491149902344, -0.2638270854949951, -0.10559796541929245, 0.08879304677248001, 0.19216246902942657, 0.22662508487701416, 0.11478137969970703, -0.2647707462310791, -0.00979590229690075, -0.2447325885295868, -0.04608103632926941, -0.38334646821022034, -0.5454776883125305], [0.1539357751607895, -0.3534107208251953, -0.1581861674785614, -0.09457037597894669, 0.40607044100761414, -0.10334055125713348, 0.2544640600681305, 0.04018794372677803, 0.06474221497774124, 0.1563696265220642, 0.3561568856239319, 0.26238682866096497, 0.6348831653594971, -0.21705251932144165, 0.5329407453536987, 0.29677051305770874], [0.142765611410141, 0.28727251291275024, 0.06838274002075195, -0.0030959644354879856, -0.07679561525583267, 0.2594631612300873, 0.22757405042648315, 0.021080708131194115, -0.19142521917819977, 0.010956943035125732, -0.253036767244339, 0.3036503195762634, -0.34600841999053955, -0.018050402402877808, -0.2926006019115448, -0.048030830919742584], [0.4302850365638733, 0.08429794758558273, 0.14479100704193115, 0.5147421956062317, 0.38828662037849426, 0.11912474036216736, 0.0862426906824112, 0.19063839316368103, 0.10006245225667953, 0.11706599593162537, 0.44880154728889465, 0.10079548507928848, 0.5865002870559692, 0.038329511880874634, 0.4615231454372406, 0.47222575545310974]], "bias": [0.3066265285015106, 0.29539954662323, 0.013380706310272217, -0.228469118475914, -0.17538180947303772, 0.2776574492454529, -0.22031208872795105, -0.15824036300182343, -0.23014193773269653, -0.24253053963184357, -0.1493886411190033, -0.24645847082138062, -0.15345311164855957, 0.41410744190216064, 0.16485713422298431, -0.07436570525169373, -0.08470003306865692, 0.13348832726478577, -0.12334272265434265, -0.13992351293563843, 0.31375449895858765, -0.21782541275024414, 0.030568689107894897, 0.29856786131858826, 0.06717099249362946, 0.1818820983171463, -0.10248599946498871, 0.4445869028568268, 0.013625934720039368, 0.26330167055130005, 0.09851670265197754, 0.503836989402771]}, {"in_features": 32, "out_features": 32, "weight": [[-0.13493356108665466, 0.005298933479934931, -0.08832404762506485, -0.13984166085720062, -0.014155861921608448, -0.15560536086559296, 0.12337231636047363, 0.020473357290029526, -0.09527522325515747, 0.09237980097532272, -0.16730640828609467, -0.06837708503007889, -0.034439411014318466, -0.15021604299545288, -0.11241023987531662, -0.028853246942162514, 0.13413189351558685, 0.1707051694393158, 0.11247636377811432, -0.10555760562419891, -0.11565105617046356, 0.15427181124687195, 0.06252899765968323, 0.0046965498477220535, 0.023923562839627266, -0.142074853181839, -0.059023160487413406, 0.1701684445142746, -0.043598826974630356, -0.008867844007909298, -0.14678318798542023, -0.09889014065265656], [0.28703153133392334, 0.14706175029277802, -0.02192200906574726, 0.09752295166254044, -0.17291894555091858, 0.5170291662216187, -0.1168861910700798, -0.2199598103761673, 0.06786628812551498, 0.20433421432971954, -0.048314597457647324, -0.0725790411233902, -0.15984782576560974, 0.34792205691337585, -0.052380435168743134, -0.04045897349715233, 0.03001970797777176, -0.16561779379844666, 0.15434612333774567, 0.2524021565914154, -0.062024205923080444, -0.0844343826174736, 0.05765663459897041, -0.20614559948444366, 0.27816489338874817, -0.014626522548496723, 0.32240772247314453, 0.3439965844154358, 0.2553479075431824, 0.4177793860435486, 0.25839412212371826, 0.5165377855300903], [0.24658364057540894, -0.082001231610775, -0.028590841218829155, 0.1097889319062233, -0.13116607069969177, 0.24728131294250488, -0.1737346202135086, -0.4773547649383545, 0.06531328707933426, -0.556674599647522, 0.07587134093046188, 0.0001988277508644387, 0.09781988710165024, 0.02387239970266819, -0.3153766095638275, 0.0784207209944725, 0.17137086391448975, 0.09004852920770645, -0.12854748964309692, -0.21635200083255768, 0.526075541973114, -0.03774437680840492, -0.160674050450325, -0.08332595229148865, 0.1362031251192093, 0.20771363377571106, -0.16679327189922333, 0.22397908568382263, -0.45833295583724976, 0.4440228343009949, -0.18862755596637726, 0.11978160589933395], [-0.2567334473133087, -0.27957847714424133, 0.05572843924164772, 0.15518216788768768, 0.0296889990568161, 0.26254886388778687, 0.03458673506975174, 0.5018389821052551, 0.14171519875526428, 0.6029025912284851, -0.09894610941410065, 0.1625267118215561, 0.1070852130651474, 0.0026906025595963, 0.2627948224544525, -0.14827077090740204, -0.024425914511084557, -0.14328621327877045, 0.07467483729124069, 0.4745931029319763, -0.5338663458824158, 0.04817180335521698, -0.014377343468368053, -1.0915387868881226, 0.32300427556037903, -0.6552106738090515, 0.27228817343711853, 0.24444548785686493, 0.4907151162624359, -0.28411629796028137, 0.1162273958325386, -0.025874249637126923], [0.15869052708148956, 0.29482895135879517, 0.06427080184221268, 0.17538686096668243, -0.06620696932077408, 0.10114234685897827, 0.06289628893136978, -0.7190535664558411, -0.17147690057754517, -0.7756758332252502, 0.12101206928491592, -0.1664281189441681, -0.15387241542339325, 0.20261627435684204, -0.22285887598991394, 0.14537985622882843, -0.05817883834242821, -0.12938281893730164, 0.09068408608436584, -0.34850406646728516, 0.5929268598556519, 0.027692439034581184, 0.05826112627983093, 0.403451532125473, -0.3116729259490967, 0.33650070428848267, 0.11910321563482285, -0.02967609465122223, -0.6002733707427979, 0.3861733675003052, -0.004913052078336477, 0.2042134702205658], [-0.15375089645385742, -0.026837058365345, 0.1617918163537979, -0.11328952014446259, 0.001389855518937111, 0.18474599719047546, -0.12203889340162277, 0.50774085521698, -0.08831950277090073, 0.405917763710022, -0.04783051833510399, -0.11519810557365417, -0.17346471548080444, 0.17122943699359894, 0.32654380798339844, -0.16556918621063232, -0.10399086773395538, 0.17472043633460999, 0.06757024675607681, 0.4745344817638397, -0.6354212760925293, -0.07749821245670319, -0.026685170829296112, -0.2763783633708954, 0.13437554240226746, -0.309622198343277, 0.13400723040103912, 0.06370126456022263, 0.41156718134880066, -0.17700260877609253, 0.22061681747436523, 0.0962325781583786], [0.21777799725532532, -0.012043694034218788, 0.0925310030579567, 0.0730237290263176, -0.08990649878978729, 0.9069404006004333, -0.07994689792394638, 0.12394716590642929, 0.08968385308980942, -0.024992771446704865, 0.11401059478521347, -0.16254138946533203, -0.09793688356876373, 0.6596561074256897, 0.059488240629434586, 0.17269489169120789, -0.031620707362890244, 0.07021388411521912, -0.15784601867198944, 0.3277054727077484, 0.18382585048675537, -0.1344689428806305, 0.025848809629678726, -0.029745059087872505, 0.49750077724456787, 0.015112601220607758, 0.1287747025489807, 0.7383283376693726, 0.22901219129562378, 0.4680941700935364, 0.36748766899108887, 0.45066213607788086], [0.3663102984428406, 0.31769365072250366, -0.046177878975868225, 0.14838442206382751, 0.08636946976184845, 0.5007767081260681, -0.1004575788974762, -0.5396878719329834, -0.05111302062869072, -0.26382821798324585, 0.10610119253396988, -0.10091520845890045, 0.08850395679473877, 0.22003822028636932, 0.020790573209524155, -0.008392870426177979, -0.1558055281639099, -0.09727064520120621, -0.12794248759746552, -0.10096517950296402, 0.42297983169555664, -0.014728722162544727, 0.03814059868454933, 0.02639859728515148, 0.19589434564113617, 0.13269609212875366, -0.04924655705690384, 0.13966327905654907, -0.30080950260162354, 0.2790925204753876, 0.11099550127983093, 0.24040770530700684], [0.19999341666698456, 0.2518600821495056, 0.06342590600252151, -0.05549675226211548, -0.16553115844726562, 0.2078033983707428, -0.08758540451526642, 0.04482413828372955, 0.1181725561618805, 0.3313046991825104, 0.16587147116661072, 0.167901873588562, 0.03743067756295204, 0.02473588101565838, 0.14292965829372406, -0.08387979120016098, -0.09593825787305832, 0.14792296290397644, 0.13696840405464172, 0.01322095561772585, 0.15330828726291656, -0.14869852364063263, -0.01835014671087265, 0.3455425798892975, 0.07994967699050903, 0.14715835452079773, -0.03994971513748169, 0.0867481455206871, 0.06358161568641663, 0.184682235121727, 0.12291047722101212, 0.09835203737020493], [0.30241870880126953, 0.18297025561332703, 0.028189539909362793, 0.05141349509358406, 0.1107763946056366, 0.3244546353816986, 0.13590167462825775, -0.5103892683982849, -0.14966271817684174, -0.6243898272514343, -0.0015429540071636438, -0.04610785096883774, -0.029602091759443283, 0.15304408967494965, -0.10504154860973358, 0.055108584463596344, -0.068083755671978, -0.07269498705863953, -0.043775442987680435, -0.3563843369483948, 0.6060172319412231, 0.09362895041704178, 0.15962505340576172, 0.08556485176086426, 0.02984323352575302, 0.33058294653892517, -0.1793002188205719, 0.15643727779388428, -0.33767154812812805, 0.15356452763080597, -0.14930149912834167, 0.3104584515094757], [0.3347361981868744, 0.19575312733650208, 0.16868911683559418, -0.03216196224093437, -0.03053334727883339, 0.21812964975833893, -0.02920820750296116, -0.6409700512886047, -0.14611679315567017, -1.0311552286148071, -0.10683096200227737, 0.0064287008717656136, 0.17235295474529266, 0.05760221928358078, -0.3207515478134155, 0.10665164887905121, -0.05097081512212753, -0.015181126073002815, 0.16506320238113403, -0.492669939994812, 0.31092768907546997, -0.09893196821212769, -0.049010567367076874, -0.09126206487417221, -0.10912258177995682, 0.31734511256217957, 0.0016671542543917894, 0.04950705170631409, -0.5781771540641785, 0.177355095744133, -0.11416067183017731, 0.09181839972734451], [-0.20255112648010254, 0.03808283805847168, -0.12988200783729553, -0.1376735419034958, -0.1444324254989624, 0.030694980174303055, -0.10642428696155548, -0.1160433441400528, 0.13856476545333862, 0.050779253244400024, 0.1013621985912323, -0.16785062849521637, -0.12676653265953064, -0.1098213717341423, 0.10294899344444275, 0.01808432675898075, -0.13221079111099243, 0.0011069448664784431, -0.13729730248451233, -0.0818173810839653, -0.048609182238578796, 0.15302880108356476, 0.05475423485040665, -0.030824750661849976, -0.013225292786955833, -0.05102933943271637, 0.026370864361524582, 0.02683752216398716, 0.004386862739920616, -0.11197980493307114, 0.10772983729839325, -0.06861036270856857], [-0.07542353868484497, 0.11071772873401642, 0.14408302307128906, 0.17592105269432068, 0.052371568977832794, -0.06681567430496216, 0.08978346735239029, 0.15166635811328888, -0.17338861525058746, -0.02548469975590706, -0.12055560201406479, 0.03294406086206436, 0.07311215996742249, -0.04310081899166107, -0.020048007369041443, 0.07956909388303757, -0.03542414307594299, -0.14845344424247742, 0.14144538342952728, -0.09378654509782791, -0.02580040693283081, 0.01667470484972, -0.010623724199831486, -0.16629135608673096, 0.07554365694522858, -0.0802975445985794, -0.0970468670129776, 0.036131516098976135, -0.09225304424762726, -0.08948560059070587, -0.06515675783157349, -0.07255278527736664], [0.16001276671886444, 0.016713347285985947, 0.04593997821211815, -0.13236750662326813, -0.10699944943189621, 0.2959526777267456, 0.024584002792835236, -0.27647095918655396, -0.12417571991682053, -0.4324744641780853, 0.10047806054353714, 0.09815705567598343, -0.16465361416339874, 0.1621016561985016, -0.2613229751586914, -0.1118663102388382, 0.10488924384117126, -0.0263961274176836, 0.0750790685415268, -0.27680230140686035, 0.3897436857223511, -0.10692477971315384, 0.08836925029754639, -0.16410958766937256, 0.09820479154586792, -0.028385279700160027, 0.04361775517463684, 0.41767072677612305, -0.13266730308532715, 0.16203133761882782, 0.09238871186971664, 0.1966746300458908], [0.007768433075398207, 0.26521360874176025, 0.002849759068340063, 0.012167650274932384, -0.07138755172491074, 0.3168259859085083, 0.029148632660508156, 0.13711467385292053, 0.03965066000819206, 0.05107736960053444, 0.1716320961713791, -0.026022307574748993, -0.10826071351766586, 0.2801363170146942, 0.3520861566066742, 8.513663487974554e-06, -0.030273210257291794, -0.0735677033662796, -0.046341195702552795, 0.12173637747764587, -0.2011469304561615, 0.10346553474664688, 0.15122352540493011, -0.0031415168195962906, 0.1769125610589981, 0.06022634729743004, 0.05056344345211983, 0.4818984568119049, 0.3752579391002655, 0.32985836267471313, 0.34256845712661743, 0.3758750855922699], [0.28367874026298523, 0.29180917143821716, -0.06324555724859238, 0.08028209954500198, -0.05681637302041054, 0.35402530431747437, -0.15386269986629486, -0.5538596510887146, -0.09296207875013351, -0.5700404644012451, -0.11288721114397049, -0.15900076925754547, 0.01151108369231224, 0.42261648178100586, 0.03034527786076069, 0.10315877199172974, -0.09313025325536728, -0.17483386397361755, 0.06705384701490402, -0.15150746703147888, 0.2512897849082947, 0.06338965892791748, 0.14946067333221436, 0.02876165881752968, 0.05237697437405586, 0.4502481520175934, 0.1573667824268341, 0.44614264369010925, -0.4108124077320099, 0.4326625466346741, -0.028108863160014153, 0.4738277196884155], [-0.24980418384075165, -0.828812837600708, 0.03539803996682167, 0.04684767499566078, -0.02710958942770958, 0.12490762770175934, -0.07367555797100067, -0.5571064949035645, -0.06791815161705017, 0.2263970524072647, -0.04653993993997574, 0.055564168840646744, -0.06535901129245758, 0.152354434132576, 0.2082420289516449, 0.062404584139585495, -0.09171522408723831, -0.14444951713085175, 0.006655535195022821, -0.026067746803164482, 0.03241210803389549, -0.16987811028957367, 0.07899589836597443, 0.16729530692100525, 0.2593962252140045, -1.418572187423706, -0.3321428894996643, 0.22002163529396057, 0.01947808638215065, -0.28992030024528503, 0.2115587443113327, -0.0544474832713604], [0.18174585700035095, 0.2856054902076721, -0.12254172563552856, -0.08296924084424973, 0.0287469532340765, 0.10208000987768173, 0.040719058364629745, -0.5169644355773926, 0.00528679508715868, -0.5596354603767395, -0.08690498769283295, -0.1618632674217224, 0.09373024851083755, 0.15556271374225616, -0.3162962794303894, 0.14028148353099823, 0.04471472278237343, 0.0328032486140728, -0.10379202663898468, -0.23743011057376862, 0.5991232991218567, 0.12124838680028915, -0.1376861035823822, 0.2051704227924347, -0.0002507926255930215, 0.38061612844467163, 0.1464216709136963, 0.26775115728378296, -0.42573660612106323, 0.3944537937641144, -0.1282176822423935, 0.164567232131958], [-0.12352512031793594, -0.03875533491373062, -0.008033210411667824, -0.021148739382624626, -0.027926459908485413, 0.013942472636699677, 0.17437583208084106, 0.10270930081605911, 0.09890124201774597, 0.07075442373752594, 0.13685718178749084, -0.008158070035278797, 0.014055910520255566, 0.03638012707233429, -0.15417234599590302, -0.14240367710590363, 0.021673068404197693, -0.06916392594575882, -0.003243810962885618, -0.04056296870112419, 0.027517549693584442, 0.11501366645097733, -0.058626558631658554, 0.1415734887123108, 0.13957610726356506, -0.13567578792572021, -0.13651159405708313, -0.14302557706832886, -0.09687720239162445, -0.0688149705529213, -0.013305886648595333, -0.04299071058630943], [-0.1963535100221634, -0.31893181800842285, -0.06394799798727036, 0.11725831776857376, -0.06551853567361832, 0.015214045532047749, 0.07348564267158508, 0.4188674986362457, 0.1353338658809662, 0.6398371458053589, 0.16240984201431274, -0.12946408987045288, 0.11364326626062393, 0.21425069868564606, 0.2269161492586136, 0.16248957812786102, 0.06856551766395569, 0.001935910084284842, 0.08523331582546234, 0.33835381269454956, -0.5773224830627441, 0.04468562453985214, 0.05270159989595413, -1.181624412536621, 0.3461105525493622, -0.6833235025405884, 0.221798837184906, 0.2669999599456787, 0.4481712281703949, -0.284810870885849, 0.24200959503650665, 0.02698701061308384], [0.048068899661302567, 0.05809824913740158, 0.13458991050720215, -0.07598496973514557, -0.039765045046806335, 0.048208050429821014, 0.019261782988905907, 0.14254876971244812, -0.09284992516040802, -0.006437615025788546, 0.03303128480911255, -0.04694994539022446, 0.12051162123680115, 0.01933610998094082, -0.16338232159614563, -0.01915125362575054, -0.08017829060554504, 0.017177600413560867, -0.020544270053505898, -0.1753508448600769, -0.03221319243311882, -0.016931548714637756, -0.052127644419670105, 0.16241896152496338, -0.0385725200176239, 0.1135643869638443, 0.043790724128484726, -0.14922305941581726, 0.04154006019234657, 0.14650113880634308, -0.11562974750995636, -0.11426402628421783], [0.4102657735347748, 0.35905206203460693, -0.09862265735864639, 0.13543495535850525, -0.022615408524870872, 0.11472025513648987, 0.01328184176236391, -0.3454124927520752, -0.05302608758211136, -0.18787506222724915, -0.15116190910339355, 0.12250906229019165, 0.15070819854736328, 0.3390355706214905, -0.04900031536817551, 0.05822121351957321, -0.13228656351566315, -0.04417179152369499, -0.01687644049525261, -0.23928305506706238, 0.20654281973838806, 0.11890310794115067, 0.11996866017580032, -0.06950494647026062, 0.19688497483730316, 0.3541007339954376, 0.2525040805339813, 0.3688625693321228, -0.04280482232570648, 0.26765984296798706, 0.21684148907661438, 0.40089476108551025], [0.05960451066493988, 0.015049796551465988, 0.035780567675828934, 0.11406460404396057, -0.08782497048377991, 0.3539141118526459, -0.00025663216365501285, -0.30732616782188416, -0.09499087929725647, -0.3909757733345032, 0.11755815893411636, -0.12265796959400177, 0.0017125107115134597, 0.3055236339569092, 0.021619562059640884, 0.16468241810798645, 0.056342244148254395, -0.04016754776239395, 0.15876896679401398, -0.14214181900024414, 0.20974399149417877, 0.012069487012922764, -0.13461701571941376, -0.07016932964324951, 0.13852091133594513, 0.14521175622940063, 0.14614515006542206, 0.3443850874900818, -0.26115983724594116, 0.1045929491519928, 0.25645744800567627, 0.41962385177612305], [-0.224935382604599, 0.03888778015971184, -0.1301291286945343, 0.00978085771203041, 0.16446556150913239, 0.2628476917743683, -0.1292484700679779, 0.4690559506416321, 0.09233350306749344, 0.38403213024139404, 0.17124831676483154, -0.07021131366491318, -0.04113873839378357, 0.002942098304629326, 0.3216280937194824, 0.04680811986327171, 0.008263141848146915, -0.09946112334728241, -0.0795789361000061, 0.496524453163147, -0.6240628957748413, -0.027530236169695854, -0.003915884532034397, -0.35379937291145325, 0.3436294496059418, -0.35317546129226685, 0.2446485161781311, 0.09563019126653671, 0.31011080741882324, 0.0544261708855629, 0.20512549579143524, -0.010796109214425087], [-0.12469494342803955, 0.041434504091739655, -0.16860121488571167, 0.04655905440449715, 0.08740630000829697, -0.16439035534858704, -0.11573082208633423, -0.12708933651447296, 0.14858196675777435, 0.1421012282371521, 0.011066371574997902, 0.16595898568630219, -0.05909715220332146, -0.18101449310779572, 0.053127989172935486, 0.0626264214515686, 0.16492997109889984, -5.116627289680764e-05, 0.13548098504543304, 0.09890162944793701, 0.1279454529285431, -0.17542119324207306, 0.14556817710399628, -0.15069380402565002, 0.15001392364501953, -0.007325733080506325, -0.16665470600128174, 0.04004847630858421, -0.035982321947813034, -0.15817181766033173, -0.07280630618333817, 0.009328036569058895], [0.35194429755210876, 0.059781819581985474, 0.10499968379735947, 0.04973083734512329, 0.005958763416856527, 0.24874866008758545, -0.11601301282644272, -0.5503091812133789, -0.05554528906941414, -0.8143335580825806, -0.08243990689516068, 0.008132761344313622, -0.11642676591873169, 0.09843586385250092, -0.1901187300682068, -0.020365271717309952, -0.08702230453491211, 0.008494297042489052, -0.02481245994567871, -0.20612826943397522, 0.41967809200286865, -0.0882769301533699, -0.06086137518286705, 0.01404917985200882, -0.05598331615328789, 0.25565338134765625, 0.01348782703280449, 0.24152447283267975, -0.24080128967761993, 0.38161027431488037, 0.021941836923360825, 0.05843721330165863], [0.07902076840400696, -0.11947238445281982, -0.024298373609781265, -0.05724077299237251, -0.06707693636417389, -0.06540453433990479, 0.16244372725486755, 0.1011970266699791, 0.04899143427610397, 0.16598564386367798, -0.16019892692565918, 0.02852601930499077, 0.11316826939582825, 0.11743097752332687, -0.14068838953971863, 0.06291297823190689, -0.10070719569921494, -0.006907341536134481, -0.036888036876916885, -0.14760226011276245, -0.16862984001636505, -0.1163010224699974, 0.08021605014801025, 0.08086393028497696, -0.15375395119190216, -0.0663871243596077, 0.0028875437565147877, -0.15283803641796112, 0.09960562735795975, 0.1601123809814453, 0.03126503899693489, -0.13134770095348358], [0.3102342188358307, 0.299162894487381, 0.13997939229011536, -0.08427911251783371, -0.15837596356868744, 0.3861004412174225, 0.011005469597876072, -0.5259512662887573, -0.07407338172197342, -0.30173712968826294, 0.14310020208358765, -0.03050089441239834, 0.12749259173870087, 0.43105563521385193, -0.08284981548786163, 0.03765654191374779, -0.010139696300029755, 0.12141294777393341, -0.1592913419008255, -0.11893550306558609, 0.34447064995765686, 0.08071911334991455, -0.0007873663562349975, 0.07369515299797058, 0.13520734012126923, 0.3779609501361847, -0.021214496344327927, 0.17700928449630737, -0.28383708000183105, 0.24111329019069672, 0.18667113780975342, 0.38926592469215393], [0.1546802818775177, 0.5072882175445557, -0.07386083155870438, -0.05656503885984421, -0.07914187759160995, -0.018559018149971962, -0.12390875816345215, -0.49125003814697266, -0.15667350590229034, -0.22413401305675507, 0.10780797153711319, 0.16596631705760956, 0.15057791769504547, 0.14834319055080414, -0.07920286059379578, -0.10576898604631424, 0.061268240213394165, -0.16950075328350067, 0.08338077366352081, -0.1606852114200592, -0.07717380672693253, 0.06472649425268173, -0.08115902543067932, 0.30030563473701477, 0.03488074243068695, 0.33498871326446533, 0.1649762988090515, 0.23413099348545074, -0.08171502500772476, 0.3120861053466797, 0.20654742419719696, 0.137035071849823], [0.1009468138217926, 0.025859225541353226, 0.10636582970619202, 0.15807493031024933, 0.04002879932522774, -0.06561366468667984, -0.017588596791028976, 0.04976767301559448, 0.029806187376379967, -0.048290107399225235, 0.13850779831409454, 0.10620872676372528, -0.10980550199747086, -0.028993681073188782, -0.02919268049299717, -0.1107914000749588, 0.025783754885196686, -0.05426918715238571, -0.09126299619674683, -0.052327994257211685, -0.06302947551012039, 0.16911165416240692, 0.06780658662319183, 0.15684233605861664, 0.04847138375043869, 0.024040324613451958, 0.05781051889061928, 0.01476950105279684, -0.14275352656841278, -0.12045085430145264, -0.056646090000867844, -0.012200428172945976], [0.3190290033817291, 0.2415364533662796, 0.14023931324481964, 0.053103987127542496, -0.060332685708999634, 0.03328397497534752, -0.12947313487529755, -0.5617783665657043, 0.05331647768616676, -0.5376160740852356, 0.15466415882110596, -0.05591654032468796, -0.013944664038717747, 0.07903050631284714, -0.2295873612165451, 0.05674556642770767, -0.003044416895136237, 0.008183843456208706, 0.022395338863134384, -0.24857290089130402, 0.5199180841445923, -0.10541152209043503, 0.04170596972107887, 0.15900081396102905, -0.11985772848129272, 0.43522122502326965, -0.008200685493648052, 0.11432535201311111, -0.42324256896972656, 0.2604481279850006, -0.18721485137939453, 0.2106078565120697], [-0.04946025460958481, 0.10727453976869583, 0.011414546519517899, 0.014133692719042301, 0.04815627261996269, 0.08224847167730331, -0.08353718370199203, 0.05339948087930679, 0.04323278367519379, -0.11793069541454315, 0.06155132129788399, -0.10601890087127686, -0.055645912885665894, -0.13649879395961761, -0.1723521500825882, 0.13922427594661713, -0.1580066978931427, 0.08839099854230881, -0.15910112857818604, -0.07367008179426193, 0.010543350130319595, 0.12567241489887238, -0.06397434324026108, 0.050881192088127136, -0.02476295456290245, 0.10401272773742676, -0.041701074689626694, 0.013919088989496231, -0.15896397829055786, -0.1749357134103775, 0.1053488627076149, -0.1810612976551056]], "bias": [-0.030094409361481667, 0.19472792744636536, 0.351504921913147, -0.02472352795302868, -0.006858357228338718, -0.02567526325583458, 0.3237304985523224, 0.2757749855518341, 0.20427221059799194, 0.10488695651292801, 0.22423802316188812, -0.20944373309612274, 0.06224537640810013, 0.27279916405677795, 0.24138039350509644, 0.13930481672286987, -0.03662446141242981, 0.1786855161190033, -0.12562011182308197, -0.13359709084033966, -0.1700667440891266, 0.20192167162895203, 0.30996012687683105, 0.05855856090784073, 0.002072569215670228, 0.22676874697208405, -0.11108720302581787, 0.23819300532341003, 0.036182526499032974, -0.10225293785333633, 0.31188204884529114, -0.1889691799879074]}], "blocks": [{"conv1": {"in_channels": 1, "out_channels": 32, "kernel_size": 13, "dilation": 1, "groups": 1, "weight": [[[0.1328214704990387, -0.02482207864522934, -0.001012139255180955, -0.492694616317749, -0.03572583198547363, -0.18276676535606384, 0.2134426385164261, -0.16507139801979065, -0.0010048714466392994, -0.3640512526035309, 0.024594267830252647, 0.07101995497941971, 0.18397490680217743]], [[-0.06391235440969467, 0.24527540802955627, 0.11153462529182434, -0.21256689727306366, -0.03114190883934498, -0.17688319087028503, 0.03538511320948601, -0.09332861006259918, -0.02317371964454651, -0.19670236110687256, -0.052979063242673874, -0.30854976177215576, 0.03798025846481323]], [[0.09369039535522461, 0.024463631212711334, -0.16855265200138092, -0.024376986548304558, 0.0222436785697937, 0.05265172943472862, 0.034805942326784134, -0.02251099981367588, -0.0679728165268898, -0.056839555501937866, 0.29224535822868347, 0.5172520875930786, -0.03337946906685829]], [[-0.012768452987074852, 0.09064825624227524, 0.08296772092580795, -0.14512361586093903, 0.006519388407468796, -0.02505960315465927, 0.16509585082530975, -0.16257420182228088, -0.16049785912036896, 0.0655018538236618, 0.22137852013111115, -0.24540595710277557, -0.6177809238433838]], [[0.2463442087173462, -0.008050201460719109, 0.019828902557492256, 0.034304987639188766, 0.16290126740932465, 0.055213868618011475, 0.1161031424999237, 0.07133336365222931, 0.19774174690246582, 0.010118173435330391, -0.19277994334697723, 0.41852134466171265, 0.43574967980384827]], [[-0.07724689692258835, 0.08112487941980362, -0.02650356851518154, 0.061798397451639175, -0.049475040286779404, 0.01329655759036541, -0.02720293030142784, -0.06127552315592766, -0.02806166000664234, 0.043716225773096085, 0.24683286249637604, -0.6377983689308167, -0.024992913007736206]], [[0.22635406255722046, -0.13304556906223297, -0.11243961751461029, -0.04712371900677681, 0.04197552427649498, 0.08595602214336395, 0.06747154891490936, -0.02588578313589096, 0.05827781930565834, 0.26754239201545715, 0.40071725845336914, 0.06219647452235222, -0.19359925389289856]], [[0.04100475460290909, -0.04030526056885719, -0.024100378155708313, -0.04002099484205246, 0.008752496913075447, -0.03612096235156059, -0.013696938753128052, -0.019571105018258095, 0.012381845153868198, -0.10078150779008865, -0.21924211084842682, 0.5689035058021545, 0.15760789811611176]], [[-0.1936715990304947, 0.19697719812393188, 0.10278429090976715, -0.12500572204589844, 0.10835671424865723, -0.1795843243598938, 0.05447755008935928, 0.12168920040130615, -0.17947544157505035, -0.07041918486356735, -0.3806389272212982, -0.29804497957229614, -0.3083883225917816]], [[0.06161477044224739, -0.2132103145122528, 0.10654723644256592, 0.005611564964056015, 0.06936829537153244, 0.00613779341802001, 0.07468422502279282, 0.09467725455760956, 0.0035578205715864897, 0.017837926745414734, 0.058131661266088486, 0.5888867974281311, 0.004230313468724489]], [[-0.03149832785129547, 0.10498811304569244, 0.17661252617835999, 0.05093574523925781, 0.005761744454503059, 0.045627616345882416, 0.0039689503610134125, 0.003472141455858946, 0.014788098633289337, 0.15293245017528534, 0.13095974922180176, -0.6845810413360596, -0.5916555523872375]], [[-0.37592455744743347, -0.023586448282003403, 0.2514791786670685, -0.18868793547153473, -0.22027890384197235, -0.12133996188640594, -0.39329835772514343, 0.14624129235744476, 0.026454860344529152, 0.08928132802248001, -0.27300089597702026, -0.05342622473835945, 0.10493077337741852]], [[-0.00905405543744564, -0.051592450588941574, -0.015927664935588837, -0.11059433966875076, 0.00623449869453907, -0.10413365811109543, 0.0009698612266220152, -0.07472474128007889, -0.022639580070972443, -0.024402428418397903, -0.12770457565784454, 0.41126635670661926, 0.3803308308124542]], [[-0.011694657616317272, -0.17200195789337158, -0.026469124481081963, -0.05481114983558655, 0.11723807454109192, -0.012177569791674614, 0.07382708787918091, 0.08661506325006485, 0.04852336645126343, 0.1703098565340042, 0.05083543062210083, 0.07950867712497711, 0.49850916862487793]], [[-0.0026110236067324877, -0.07733003050088882, -0.05279242619872093, -0.033493418246507645, -0.011703313328325748, -0.013451769016683102, -0.016431793570518494, -0.022118179127573967, -0.00855797715485096, -0.09273661673069, -0.08956965059041977, 0.6617065072059631, 0.02938513085246086]], [[0.06302114576101303, -0.045118093490600586, -0.0028228526934981346, 0.024136364459991455, -0.046998217701911926, 0.03958979249000549, -0.05305935814976692, 0.04317646473646164, -0.14639510214328766, -0.37010860443115234, 0.4053354561328888, 0.5585370659828186, -0.11930928379297256]], [[0.005200959742069244, -0.20262664556503296, -0.09827906638383865, 0.16977141797542572, -0.042858656495809555, -0.12366016954183578, 0.12388277798891068, 0.05681237205862999, -0.4184969365596771, 0.016970934346318245, 0.16405126452445984, 0.553411602973938, 0.41666218638420105]], [[0.06375762820243835, -0.06436853110790253, 0.13575775921344757, 0.2892674505710602, 0.260699599981308, -0.1053282767534256, 0.12050174921751022, 0.009261461906135082, 0.16908174753189087, 0.24587078392505646, 0.32319146394729614, -0.08356283605098724, -0.09490828961133957]], [[0.1133391335606575, -0.05573849380016327, -0.10509660840034485, 0.05428944528102875, 0.12248776108026505, 0.055057093501091, 0.1405230313539505, 0.012537850998342037, 0.10772249102592468, 0.205791175365448, -0.3523089289665222, 0.2007410079240799, 0.16535164415836334]], [[-0.038992028683423996, 0.09967528283596039, 0.028527621179819107, 0.08450350910425186, -0.04581206664443016, 0.06366491317749023, -0.08650635927915573, 0.012244808487594128, 0.012461061589419842, 0.10815495252609253, 0.11003943532705307, -0.5847891569137573, -0.29261547327041626]], [[-0.05011153221130371, 0.07877866923809052, 0.039762649685144424, 0.02311505749821663, -0.004730151034891605, 0.02947092242538929, -0.01127847470343113, 0.02620447240769863, 0.014052965678274632, 0.05130311846733093, 0.19742156565189362, -0.7804238200187683, -0.15979570150375366]], [[-0.08473724126815796, 0.02220800332725048, -0.07110124826431274, 0.043464869260787964, -0.037314098328351974, 0.012141147628426552, -0.11272002756595612, 0.06268661469221115, 0.1654188632965088, -0.18455961346626282, -0.16147811710834503, -0.5335615873336792, -0.16179251670837402]], [[-0.24670495092868805, -0.1639338880777359, 0.14108037948608398, -0.07486061751842499, 0.05378703027963638, 0.04141257330775261, 0.007162329275161028, -0.09166295826435089, -0.025271058082580566, -0.020873432978987694, 0.34485965967178345, 0.7101216912269592, -0.0928630381822586]], [[0.004710013512521982, -0.04700690507888794, -0.14453125, -0.057915568351745605, 0.014042452909052372, -0.04389891400933266, 0.00606665201485157, 0.01544306892901659, 0.05522061511874199, -0.3067711293697357, -0.02764836885035038, 0.5842350721359253, 0.40909430384635925]], [[-0.0077325813472270966, 0.1253337860107422, 0.0397016815841198, 0.06767550110816956, -0.26170432567596436, -0.10806555300951004, -0.28785666823387146, 0.024586182087659836, -0.17932988703250885, 0.017049627378582954, 0.23212255537509918, 0.1467272937297821, -0.16737522184848785]], [[-0.15490828454494476, -0.06644684821367264, 0.1561448723077774, -0.0944003313779831, 0.1362321674823761, 0.14348891377449036, 0.1422339826822281, 0.06132226437330246, 0.14615444839000702, -0.21685642004013062, 0.1174285039305687, 0.5972357392311096, 0.015942096710205078]], [[-0.013396942988038063, 0.16917690634727478, 0.17238779366016388, -0.19445271790027618, -0.024822909384965897, -0.12975038588047028, 0.027416301891207695, -0.2494833767414093, -0.10073982924222946, -0.010791819542646408, -0.3153131604194641, 0.15080051124095917, -0.3000462055206299]], [[0.03586677089333534, -0.08765408396720886, -0.005377707537263632, 0.03916778042912483, -0.000857907289173454, -0.008920587599277496, 0.002213522791862488, 0.07140631973743439, 0.0510757677257061, -0.029981762170791626, -0.14113730192184448, 0.2834489047527313, -0.21944420039653778]], [[-0.005217369180172682, 0.006878013722598553, 0.0007973085157573223, 0.004709187895059586, -0.005965469405055046, -0.00838424451649189, 0.004693444352596998, 0.02649202011525631, -0.028205160051584244, -0.219676673412323, 0.4855298697948456, -0.30980509519577026, 0.03189926594495773]], [[0.30542120337486267, 0.1108020469546318, 0.12298145890235901, 0.1894281655550003, 0.030254654586315155, 0.11541479080915451, 0.08626177161931992, 0.06184997037053108, -0.12475105375051498, -0.07120318710803986, -0.39312443137168884, 0.0061045135371387005, -0.44233059883117676]], [[-0.004512802232056856, 0.13738222420215607, 0.032164543867111206, -0.17493051290512085, -0.10970234870910645, 0.07102563232183456, 0.3656090497970581, 0.18899813294410706, -0.012609865516424179, -0.023860054090619087, 0.16130544245243073, 0.11436084657907486, 0.07262781262397766]], [[-0.025578677654266357, 0.12243212759494781, 0.10481403768062592, -0.0368499793112278, -0.041328150779008865, -0.05898088961839676, -0.06988352537155151, -0.1865697205066681, -0.14541266858577728, -0.03369256854057312, 0.03384329378604889, -0.021783271804451942, -0.5943194627761841]]], "bias": null}, "bn": {"num_features": 32, "affine": false, "eps": 1e-05, "running_mean": [-1.0692256182665005e-05, -1.1561715837160591e-05, 1.043285010382533e-05, -1.1448111763456836e-05, 2.5310540877399035e-05, -7.616596576554002e-06, 1.1285774235147983e-05, 4.4568400880962145e-06, -1.8183276552008465e-05, 1.3992034837428946e-05, -9.051011147676036e-06, -1.720131331239827e-05, 3.661004939203849e-06, 1.3077797120786272e-05, 3.928763362637255e-06, 5.495490313478513e-06, 9.385445082443766e-06, 2.0893177861580625e-05, 1.0811012543854304e-05, -8.126716238621157e-06, -8.441445970674977e-06, -1.64311259140959e-05, 8.732955393497832e-06, 6.906956514285412e-06, -5.8810910559259355e-06, 1.5632811482646503e-05, -1.2918540960527025e-05, -1.7783901284929016e-07, -2.4253139940810797e-07, 1.1016954886144958e-06, 1.3112832675687969e-05, -1.4889593330735806e-05], "running_var": [0.013114694505929947, 0.015469418838620186, 0.013136384077370167, 0.016775721684098244, 0.06375645846128464, 0.007718131877481937, 0.014210178516805172, 0.004001381807029247, 0.037193458527326584, 0.022006431594491005, 0.01608108915388584, 0.02942950464785099, 0.004350681323558092, 0.02141408622264862, 0.0042312536388635635, 0.005509173963218927, 0.015110030770301819, 0.04346142336726189, 0.012408481910824776, 0.010005231015384197, 0.010867394506931305, 0.02977682277560234, 0.014154462143778801, 0.009515936486423016, 0.0046785976737737656, 0.02798258326947689, 0.019644634798169136, 0.0005003088153898716, 0.0011079644318670034, 0.007448419462889433, 0.018440179526805878, 0.026067933067679405]}, "adaptor": {"in_features": 32, "out_features": 64, "weight": [[0.13514980673789978, -0.13547559082508087, 0.19050833582878113, -0.42796024680137634, 0.16399146616458893, -0.26409032940864563, -0.18121635913848877, 0.06015421822667122, -0.24610088765621185, 0.19779658317565918, 0.13667352497577667, 0.05934610590338707, 0.07703221589326859, -0.0248713456094265, -0.056444235146045685, -0.0034545131493359804, -0.4807448983192444, 0.1322622150182724, -0.026470327749848366, -0.38305529952049255, 0.035581886768341064, 0.025768963620066643, -0.1873079091310501, -0.37888655066490173, 0.10871776938438416, -0.07134943455457687, 0.05691327154636383, -0.08378323912620544, -0.062407027930021286, 0.11928419768810272, -0.027521580457687378, -0.07701510190963745], [0.08673030883073807, -0.09380801767110825, -0.22155721485614777, 0.7696701884269714, -0.1682424545288086, 0.5787981748580933, -0.06769660115242004, -0.20746839046478271, -0.1309191882610321, -0.12020814418792725, -0.3295353055000305, 0.17329324781894684, -0.008952370844781399, -0.16694757342338562, 0.045132219791412354, -0.18828128278255463, 0.36608701944351196, -0.20124737918376923, 0.1394115686416626, 0.9266688227653503, 0.12309282273054123, -0.01085368450731039, -0.056816812604665756, 0.5434003472328186, 0.05068143457174301, -0.2554723918437958, 0.1503903567790985, -0.0018517285352572799, -0.07544893026351929, -0.023938532918691635, -0.10871577262878418, -0.13348230719566345], [0.12989266216754913, 0.059361785650253296, 0.044033557176589966, 0.3021414577960968, -0.3429388105869293, 0.3168110251426697, -0.06312635540962219, -0.005302881356328726, 0.07370839267969131, -0.2506193220615387, -0.19275538623332977, -0.024158913642168045, 0.1193016991019249, -0.1654670089483261, 0.08582407236099243, -0.006354278419166803, 0.2994956970214844, 0.01007799245417118, 0.02677302621304989, 0.1806638538837433, 0.12619468569755554, -0.05271138995885849, -0.037811700254678726, -0.04217499867081642, -0.039791468530893326, -0.2347646802663803, 0.17313703894615173, 0.05543887987732887, 0.016202226281166077, 0.12631283700466156, -0.2559719979763031, -0.05719209462404251], [-0.06918160617351532, -0.294603168964386, -0.006718310993164778, -0.02863672934472561, 0.04927998408675194, -0.12402228266000748, -0.39373308420181274, -0.32635635137557983, 0.06129414588212967, -0.04674249887466431, -0.09101399779319763, -0.01416180282831192, -0.1686103492975235, -0.36706942319869995, -0.09003663808107376, -0.279176265001297, -0.26063111424446106, -0.10804754495620728, -0.06789768487215042, 0.05592115968465805, -0.056804109364748, -0.18646693229675293, -0.36549410223960876, -0.36255794763565063, 0.024859661236405373, -0.16388653218746185, -0.08900377154350281, -0.1335858702659607, -0.3266506493091583, -0.17832151055335999, -0.24045632779598236, -0.04390362277626991], [-0.019632486626505852, 0.0387408547103405, 0.22005581855773926, -0.09239474684000015, 0.09881061315536499, 0.04657988250255585, 0.1860078126192093, 0.34676626324653625, 0.154372900724411, 0.0792471170425415, -0.03075433522462845, -0.08482599258422852, -0.08316411077976227, 0.2339659184217453, 0.06868057698011398, 0.22278687357902527, 0.29311603307724, 0.045126255601644516, 0.006075805053114891, 0.052286144345998764, -0.021935727447271347, 0.22001846134662628, 0.010536669753491879, 0.11518023908138275, -0.11047834903001785, -0.025775030255317688, -0.036291658878326416, 0.21464313566684723, 0.20838071405887604, 0.05539342761039734, 0.08419200778007507, -0.031786225736141205], [-0.07166197150945663, 0.1705598384141922, -0.042075421661138535, 0.39253249764442444, 0.11206712573766708, 0.07797227799892426, 0.11283240467309952, -0.02490933984518051, 0.06544677168130875, -0.15394966304302216, 0.01638057269155979, -0.1690119206905365, 0.16743417084217072, 0.15692652761936188, 0.02963671088218689, -0.022057875990867615, 0.31295955181121826, -0.04702948406338692, 0.05189575254917145, 0.012624557130038738, 0.07236198335886002, -0.0007317797862924635, 0.08182647824287415, 0.08082985132932663, 0.09246888756752014, -0.032208848744630814, -0.1698874533176422, 0.019542140886187553, 0.09483876824378967, -0.15949642658233643, 0.0327429361641407, 0.06856659799814224], [-0.03243457153439522, 0.20662255585193634, 0.016906583681702614, 0.10724984109401703, -0.06451303511857986, 0.22831952571868896, 0.35365423560142517, 0.11202321946620941, 0.15460464358329773, -0.053069502115249634, 0.007371691521257162, -0.2052282840013504, 0.14364822208881378, 0.29150545597076416, 0.21214622259140015, 0.3450048267841339, 0.4269281327724457, 0.19760121405124664, 0.09104340523481369, 0.0985543429851532, -0.16611187160015106, 0.07244442403316498, 0.28068241477012634, 0.08577007800340652, -0.14039134979248047, 0.034101422876119614, -0.16293248534202576, 0.1882276087999344, 0.2051476687192917, -0.1206994578242302, 0.16364890336990356, -0.08054295927286148], [-0.04976741969585419, 0.15305931866168976, -0.06290421634912491, 0.5298982858657837, -0.29976755380630493, 0.23047176003456116, -0.020721150562167168, -0.03694963827729225, 0.0891408771276474, -0.3220243752002716, -0.41949665546417236, -0.13533727824687958, -0.061851926147937775, -0.1943366527557373, -0.05871102958917618, -0.204740971326828, 0.2734964191913605, -0.31119850277900696, -0.13575109839439392, 0.4434511661529541, -0.04790179058909416, 0.12043379992246628, -0.012002258561551571, 0.2365378737449646, 0.040832579135894775, -0.16181059181690216, 0.0010299425339326262, -0.2573006749153137, -0.1454322338104248, -0.10853612422943115, -0.1859348714351654, -0.15388308465480804], [-0.032141733914613724, -0.00540916109457612, 0.31837400794029236, -0.4109257459640503, 0.3403574526309967, -0.2620398700237274, -0.00793289951980114, 0.14810341596603394, -0.10994033515453339, 0.09332200884819031, 0.22732436656951904, -0.07452386617660522, -0.1704326570034027, 0.193701833486557, 0.1722230762243271, 0.05595678836107254, -0.22157151997089386, 0.18818333745002747, -0.006447477266192436, -0.6049401164054871, 0.15319159626960754, 0.10045371204614639, -0.03725379332900047, -0.27393838763237, 0.08023691922426224, 0.28358978033065796, 0.003435768885537982, 0.09622076898813248, -0.0077324528247118, -0.061791133135557175, 0.0835123360157013, 0.017315268516540527], [0.04964633285999298, -0.07769747078418732, 0.20627744495868683, -0.7129160165786743, 0.3341827988624573, -0.5316686034202576, -0.10878662765026093, 0.14913158118724823, 0.005338854156434536, 0.11131714284420013, 0.26198890805244446, -0.019556785002350807, 0.15589366853237152, 0.21976670622825623, -0.16546940803527832, 0.14731106162071228, -0.4286765158176422, 0.30028849840164185, 0.15220211446285248, -0.7073739767074585, -0.14186495542526245, -0.10766781866550446, -0.043201982975006104, -0.5330253839492798, -0.15805041790008545, 0.1728283166885376, -0.07351995259523392, 0.003914902918040752, -0.07179689407348633, -0.04304458945989609, 0.09277492016553879, -0.11639891564846039], [0.016285542398691177, -0.3683021068572998, -0.3454834818840027, -0.08265192806720734, -0.30325576663017273, -0.20170164108276367, -0.6509010195732117, -0.5589916706085205, -0.33461785316467285, -0.6887755990028381, -0.6577276587486267, -0.07744114845991135, 0.14065714180469513, -0.5317469239234924, -0.4740750193595886, -0.6244384050369263, -0.3249390125274658, -0.5791907906532288, -0.07274331152439117, 0.21189646422863007, 0.057851310819387436, -0.4783085882663727, -0.40814438462257385, -0.33130237460136414, -0.13660824298858643, -0.5516318678855896, -0.0974748283624649, -0.4940212070941925, -0.19184386730194092, -0.07096400856971741, -0.5636719465255737, 0.09360376745462418], [-0.15965536236763, 0.11377201229333878, 0.021586494520306587, -0.17175985872745514, -0.15707919001579285, -0.2926260828971863, 0.0457700677216053, 0.10399895161390305, 0.10985129326581955, 0.26594269275665283, 0.032338086515665054, -0.05415838956832886, 0.032797619700431824, 0.03559451177716255, -0.03070991486310959, -0.16273978352546692, -0.2630249261856079, 0.14104577898979187, -0.10330063849687576, -0.1468714028596878, 0.019400130957365036, 0.026257699355483055, 0.18432258069515228, -0.2559482753276825, -0.031268443912267685, 0.08273851126432419, 0.06039430573582649, -0.14295978844165802, -0.018199553713202477, -0.11674056947231293, 0.0513453483581543, 0.12037646770477295], [-0.017609648406505585, -0.2415974736213684, -0.3437112867832184, 0.3907187283039093, -0.3225342333316803, 0.11702205240726471, -0.29338136315345764, -0.3814074993133545, -0.05744996666908264, -0.2594349980354309, -0.33654147386550903, -0.10244486480951309, 0.13442055881023407, -0.34220245480537415, -0.07273600995540619, -0.1635560393333435, 0.052824798971414566, -0.44134587049484253, 0.16628514230251312, 0.15783396363258362, 0.11550849676132202, -0.4204964339733124, -0.3541732728481293, -0.1532289832830429, -0.07542236894369125, -0.3234674334526062, -0.12666545808315277, -0.4397023320198059, -0.15192089974880219, 0.06962600350379944, -0.3707786202430725, -0.10473162680864334], [-0.046834588050842285, -0.020493142306804657, -0.13820908963680267, 0.88677579164505, -0.35278913378715515, 0.32723772525787354, -0.09556035697460175, -0.05168749392032623, 0.07981399446725845, -0.27623865008354187, -0.42223450541496277, 0.18707375228405, 0.028950871899724007, -0.2612772285938263, -0.030647698789834976, -0.12283583730459213, 0.3927341401576996, -0.19000518321990967, 0.1281561255455017, 0.9939014911651611, 0.14621073007583618, -0.11506833136081696, -0.16755755245685577, 0.3184962868690491, -0.15737475454807281, -0.39469555020332336, -0.1599607765674591, -0.12218020111322403, -0.06807217001914978, -0.045339491218328476, -0.3729635179042816, 0.18076705932617188], [-0.058573223650455475, 0.7146770358085632, 0.7579479217529297, 0.280678391456604, 0.4030076861381531, 0.5629478096961975, 0.8649359345436096, 0.6817471981048584, 0.5111279487609863, 0.5742682218551636, 0.43177610635757446, 0.13922491669654846, -0.013789835385978222, 0.9098582863807678, 0.5808277130126953, 0.5396581292152405, 0.5886530876159668, 0.6995497941970825, 0.01640593446791172, 0.26366037130355835, -0.007653888780623674, 0.43766772747039795, 0.8556225895881653, 0.5587365031242371, 0.029381411150097847, 0.770866870880127, 0.05855577439069748, 0.5476621389389038, 0.5193092226982117, 0.09872236102819443, 0.3985568583011627, 0.10917656123638153], [0.05015215650200844, 0.5688440203666687, -0.03637228161096573, 0.7069080471992493, -0.27502521872520447, 0.8600260019302368, 0.8466561436653137, 0.32264915108680725, 0.386273056268692, -0.00875830091536045, -0.014002553187310696, -0.16450688242912292, -0.004561547189950943, 0.46421143412590027, 0.653745174407959, 0.2758714258670807, 0.7866228222846985, 0.18737003207206726, 0.1170378103852272, 0.7373157143592834, -0.08129534870386124, 0.3350076675415039, 0.5959690809249878, 1.1529226303100586, 0.019489210098981857, 0.15458768606185913, 0.012084364891052246, 0.45393022894859314, 0.10508210211992264, 0.13433994352817535, 0.07534024119377136, -0.1445317268371582], [-2.0230486370564904e-06, 0.1425769329071045, -0.10809838771820068, 0.5473737716674805, -0.14433933794498444, 0.5856467485427856, 0.4938468635082245, 0.07334896922111511, -0.025579199194908142, -0.02528960630297661, -0.06869621574878693, -0.019844157621264458, 0.16202183067798615, 0.12581364810466766, 0.16088545322418213, 0.14638997614383698, 0.7409998774528503, 0.046282343566417694, 0.09523535519838333, 0.4951656758785248, 0.15066473186016083, 0.2716815173625946, 0.3899856209754944, 0.5527949929237366, -0.14185789227485657, -0.0333196222782135, 0.06022221967577934, 0.28251975774765015, 0.039296139031648636, 0.12708991765975952, -0.01774752326309681, -0.007868640124797821], [0.0068915365263819695, -0.12138167768716812, 0.19274379312992096, -0.210683673620224, 0.19296769797801971, -0.3316734731197357, -0.1742943823337555, -0.028874386101961136, 0.12236183136701584, 0.10186510533094406, 0.10541100800037384, -0.13194513320922852, 0.007485233247280121, -0.15674962103366852, -0.21661536395549774, -0.019110729917883873, -0.40240421891212463, 0.18164746463298798, -0.09608551859855652, -0.1158355325460434, 0.10376134514808655, -0.1870134174823761, 0.019408898428082466, -0.16379301249980927, 0.09672240167856216, 0.18674121797084808, -0.07533612102270126, -0.12344878166913986, 0.09260253608226776, 0.001173820928670466, 0.028001058846712112, 0.13879935443401337], [-0.08540860563516617, -0.2522141635417938, -0.24322079122066498, -0.013073087669909, -0.3515380620956421, 0.02604624256491661, -0.46691760420799255, -0.5562090277671814, -0.048241354525089264, -0.46473097801208496, -0.3388151228427887, 0.05270091071724892, 0.03834755718708038, -0.4783802330493927, -0.3508457839488983, -0.4797181189060211, -0.16041287779808044, -0.37609437108039856, 0.013471860438585281, -0.050191979855298996, -0.11558720469474792, -0.29701459407806396, -0.5521731376647949, -0.12300067394971848, 0.0008560396963730454, -0.46764376759529114, -0.15503905713558197, -0.23153294622898102, -0.18365095555782318, -0.063517726957798, -0.25299975275993347, 0.1524088829755783], [-0.14747871458530426, -0.053306180983781815, -0.2976778745651245, 0.7237382531166077, -0.2107129842042923, 0.29743748903274536, 0.16081349551677704, -0.22233790159225464, 0.18031828105449677, -0.3259163796901703, -0.3111437261104584, 0.056643709540367126, -0.07894749939441681, 0.012717525474727154, -0.06873544305562973, -0.07654915750026703, 0.18715733289718628, -0.14868320524692535, 0.15071752667427063, 0.9290600419044495, 0.02098582126200199, -0.11147969961166382, 0.10017924755811691, 0.36415794491767883, 0.12622538208961487, -0.328212171792984, -0.08204088360071182, -0.21438908576965332, 0.1367129534482956, 0.02882314845919609, -0.3039034307003021, 0.037912677973508835], [-0.0758204311132431, 0.5500501990318298, 0.5304126739501953, 0.09261894971132278, 0.4122845232486725, 0.1248275488615036, 0.598034143447876, 0.38422563672065735, 0.2922004163265228, 0.6925753951072693, 0.6299416422843933, 0.023975569754838943, 0.1338738650083542, 0.7554436922073364, 0.5136385560035706, 0.5705701112747192, 0.2838608920574188, 0.6174694895744324, 0.1518583595752716, 0.03438974916934967, -0.0072672124952077866, 0.3386754095554352, 0.6112446784973145, 0.1484115719795227, 0.059781696647405624, 0.5040827393531799, 0.06410843133926392, 0.6165795922279358, 0.25617077946662903, 0.08228591829538345, 0.512262761592865, -0.17755688726902008], [0.17637929320335388, 0.435578852891922, 0.1565149426460266, 0.3470613658428192, 0.04880483075976372, 0.20711787045001984, 0.2455315738916397, 0.25202053785324097, 0.10199249535799026, 0.09244371205568314, -0.14120393991470337, 0.10821554809808731, -0.07407116889953613, 0.34848785400390625, 0.3301408588886261, 0.24962550401687622, 0.3335593640804291, 0.16495317220687866, 0.10367701202630997, 0.2710329592227936, 0.16395781934261322, 0.17624616622924805, 0.28679561614990234, 0.22391483187675476, 0.12185172736644745, 0.30074241757392883, -0.13545536994934082, 0.3253440260887146, -0.038486748933792114, -0.12675602734088898, -0.12702536582946777, 0.03169824182987213], [-0.13272877037525177, -0.3797672986984253, 0.11389723420143127, -0.48518863320350647, 0.29606375098228455, -0.5471490025520325, -0.3248564302921295, -0.09150569885969162, -0.07306098937988281, 0.3139759600162506, 0.21921943128108978, -0.10903134196996689, -0.026684045791625977, -0.28043749928474426, -0.1364564150571823, -0.2362057864665985, -0.6469791531562805, 0.22652244567871094, -0.15481023490428925, -0.30522897839546204, -0.08032293617725372, -0.1884620189666748, -0.3041001260280609, -0.5125415921211243, -0.06201012432575226, -0.08602754026651382, 0.06040593609213829, -0.13214902579784393, 0.11858033388853073, 0.1285891830921173, 0.4735974073410034, 0.06409991532564163], [0.09288893640041351, -0.17259889841079712, -0.22934740781784058, -0.20061646401882172, -0.3026980459690094, -0.3606383502483368, -0.38727349042892456, -0.48001226782798767, -0.03492645174264908, -0.3493185043334961, -0.32729724049568176, -0.09086517244577408, -0.13438637554645538, -0.38176149129867554, -0.3931610584259033, -0.4123821556568146, -0.17065510153770447, -0.3940368890762329, -0.07868415862321854, 0.13908393681049347, 0.06906644254922867, -0.39115914702415466, -0.3451608121395111, -0.1584095060825348, -0.16108271479606628, -0.32333073019981384, 0.04038816690444946, -0.3788696229457855, -0.08472372591495514, -0.11586680263280869, -0.20510752499103546, -0.06294585764408112], [-0.15133963525295258, -0.03829127177596092, -0.031117737293243408, -0.1707773059606552, 0.08883194625377655, -0.38253504037857056, -0.21335703134536743, 0.02253870852291584, 0.07091748714447021, 0.02757125347852707, 0.16858892142772675, 0.10321534425020218, 0.05519856885075569, -0.13110268115997314, 0.031382106244564056, -0.03577593341469765, -0.3306692838668823, 0.09488408267498016, -0.15189136564731598, -0.16536952555179596, -0.08321385085582733, -0.13189682364463806, -0.024311501532793045, -0.16597989201545715, 0.03977922350168228, -0.1372080147266388, -0.11063260585069656, -0.07119648903608322, -0.18093715608119965, -0.16704444587230682, 0.17122676968574524, 0.0375814251601696], [-0.12560871243476868, -0.09401403367519379, 0.08070863038301468, -0.5080015063285828, 0.25514018535614014, -0.44542330503463745, -0.1326923370361328, 0.0527799017727375, 0.03623361140489578, 0.09655279666185379, 0.11557570844888687, 0.07484991103410721, 0.06663226336240768, -0.05055054649710655, -0.18538959324359894, -0.04039859399199486, -0.5304467082023621, -0.05029892176389694, -0.16313594579696655, -0.5125136375427246, -0.11096542328596115, 0.06737296283245087, -0.11692970991134644, -0.4423026442527771, -0.09739267081022263, 0.07742594182491302, -0.052910372614860535, -0.15090638399124146, -0.13762332499027252, -0.055498454719781876, 0.09654276072978973, 0.013285787776112556], [0.11357583105564117, 0.3906499445438385, 0.339108407497406, 0.2284625619649887, 0.1095704585313797, 0.20936930179595947, 0.16966727375984192, 0.3761747479438782, 0.1513327807188034, 0.15813621878623962, 0.054679665714502335, 0.04377425089478493, 0.10330218821763992, 0.42846596240997314, 0.1838083267211914, 0.29707401990890503, 0.43080827593803406, 0.09050004184246063, -0.11051173508167267, 0.24002394080162048, -0.10152699053287506, 0.36185383796691895, 0.37504860758781433, 0.2937929630279541, 0.11834704130887985, 0.33177000284194946, 0.07624069601297379, 0.3686918616294861, 0.1814575493335724, -0.08772917091846466, 0.16215334832668304, 0.07338343560695648], [0.12371315807104111, 0.010741475969552994, -0.07955417782068253, -0.23708583414554596, -0.1112823486328125, -0.07089440524578094, -0.21016864478588104, -0.1495363414287567, 0.09733866900205612, 0.00413995748385787, -0.05018334090709686, -0.07832061499357224, -0.1164817288517952, 0.09374961256980896, -0.24359972774982452, 0.0737466812133789, -0.12301719933748245, -0.010020455345511436, -0.01416951697319746, -0.07553316652774811, 0.07795441150665283, 0.09555133432149887, 0.056998204439878464, -0.24290062487125397, 0.10529474169015884, 0.06981735676527023, -0.12551362812519073, 0.01113350410014391, -0.1756809800863266, -0.11595118790864944, -0.01576955057680607, -0.03506344556808472], [-0.04753199219703674, 0.39181050658226013, 0.830033540725708, 0.06219957023859024, 0.5562493801116943, -0.0324065200984478, 0.5526703000068665, 0.5779440999031067, 0.18512114882469177, 0.776800811290741, 0.7855848073959351, -0.11782003939151764, -0.024136511608958244, 0.6586019992828369, 0.2825699746608734, 0.558110237121582, 0.3317449390888214, 0.5725648999214172, 0.12924769520759583, -0.09849191457033157, 0.11006025224924088, 0.5395082235336304, 0.7846878170967102, 0.3026770055294037, -0.10824456065893173, 0.7987325191497803, 0.08420116454362869, 0.557091474533081, 0.34721410274505615, -0.12341490387916565, 0.417721688747406, -0.03459944203495979], [0.03165280818939209, -0.1798998862504959, 0.19050025939941406, -0.5484265685081482, 0.29002803564071655, -0.20533062517642975, -0.2985316216945648, 0.03837265819311142, 0.08525094389915466, 0.2830548882484436, 0.39007389545440674, -0.1187790259718895, 0.01930856704711914, -0.09056317061185837, -0.18708190321922302, 0.08943966031074524, -0.48944079875946045, -0.008523650467395782, -0.14190538227558136, -0.3192625939846039, 0.008529932238161564, 0.10837744176387787, -0.0459122434258461, -0.48620444536209106, 0.04948582500219345, 0.23950950801372528, 0.1096421405673027, 0.02145661972463131, -0.09229636937379837, -0.08627834916114807, 0.32019171118736267, -0.14018864929676056], [0.040328674018383026, 0.03547423705458641, -0.03827695548534393, 0.30250388383865356, -0.3309549391269684, 0.16691027581691742, 0.2144227772951126, 0.04129118099808693, 0.08963208645582199, -0.19634252786636353, -0.05619006231427193, -0.08031819760799408, -0.06527289003133774, 0.013382993638515472, -0.000993268215097487, -0.05566276237368584, 0.3359633684158325, -0.12037148326635361, -0.10054240375757217, 0.29993903636932373, -0.1713288575410843, 0.14151184260845184, 0.2364768534898758, 0.20275241136550903, -0.04627050831913948, -0.2820909023284912, 0.08301477134227753, 0.1605033278465271, 0.15405946969985962, 0.020016536116600037, -0.06998268514871597, 0.17600682377815247], [0.02638556994497776, -0.13505426049232483, -0.3389323055744171, 0.629710853099823, -0.14557857811450958, 0.45739153027534485, -0.09278710186481476, -0.024479443207383156, -0.09954274445772171, -0.24941770732402802, -0.16465231776237488, -0.14624877274036407, 0.12408085912466049, -0.0337178073823452, -0.12652458250522614, -0.03963419422507286, 0.22140376269817352, -0.18506760895252228, -0.04731578007340431, 0.3811045289039612, -0.018308401107788086, 0.010415122844278812, -0.09321027994155884, 0.12596872448921204, 0.00804918259382248, -0.18952448666095734, -0.049323465675115585, -0.24567463994026184, -0.17353710532188416, -0.010462128557264805, -0.13982459902763367, 0.18485774099826813], [0.0032807737588882446, 0.0551472045481205, -0.08182162046432495, 0.15951992571353912, -0.5180184841156006, 0.28993672132492065, 0.12264404445886612, -0.09477011859416962, -0.12158714979887009, -0.10639426857233047, -0.6635990738868713, 0.04602372646331787, 0.019444022327661514, -0.020980460569262505, -0.1657017171382904, -0.13534285128116608, 0.21544642746448517, -0.0956277996301651, -0.050609491765499115, 0.42780348658561707, -0.03944928199052811, -0.1534395068883896, -0.17147383093833923, 0.2127200961112976, -0.03033701330423355, -0.11928531527519226, -0.0978320837020874, -0.17284218966960907, -0.29305893182754517, 0.13832420110702515, -0.3708922863006592, -0.10246384888887405], [-0.0085302060469985, -0.1480904221534729, -0.015977006405591965, -0.35346314311027527, 0.16486810147762299, -0.32632797956466675, -0.18401311337947845, -0.17628459632396698, -0.004831256810575724, 0.06121093034744263, 0.03486716374754906, 0.12697206437587738, 0.14276686310768127, -0.1892920583486557, -0.13695432245731354, -0.17863287031650543, -0.46671390533447266, -0.08606299757957458, 0.053925711661577225, -0.4040185511112213, -0.11604778468608856, -0.1972358673810959, -0.3525836169719696, -0.3904571533203125, 0.04633888602256775, -0.013823911547660828, 0.13295410573482513, -0.2670002579689026, -0.02382219396531582, -0.15631666779518127, -0.0010470157722011209, 0.057757582515478134], [-0.1585763543844223, 0.1995801031589508, -0.20252177119255066, 0.37484443187713623, -0.4306000769138336, 0.2998098134994507, 0.2555254399776459, -0.15029576420783997, -0.010891967453062534, -0.12059764564037323, -0.5182459950447083, 0.06502190232276917, -0.10534711927175522, 0.15025340020656586, -0.027320588007569313, -0.1946593075990677, 0.2974202036857605, -0.3105769455432892, 0.1515243649482727, 0.38121819496154785, 0.16157592833042145, -0.20568084716796875, -0.021961800754070282, 0.15057715773582458, 0.0455375574529171, -0.3125930726528168, 0.07248798757791519, -0.07658769935369492, -0.2505840063095093, -0.16021934151649475, -0.14915819466114044, -0.040888462215662], [0.13043932616710663, 0.2471349835395813, 0.39362937211990356, -0.08645019680261612, 0.2899080812931061, -0.07978251576423645, 0.05236498638987541, 0.49079614877700806, 0.17343074083328247, 0.5479444265365601, 0.27765628695487976, 0.07322222739458084, 0.14766690135002136, 0.1850067377090454, 0.35365086793899536, 0.33623945713043213, 0.09311830997467041, 0.453873872756958, 0.1000979021191597, 0.10211138427257538, -0.1682773232460022, 0.3941200375556946, 0.43693438172340393, 0.21587279438972473, 0.0916740745306015, 0.3438583016395569, 0.1341048628091812, 0.5503677129745483, 0.16623947024345398, -0.04314301162958145, 0.5536594986915588, 0.16006821393966675], [0.11677630990743637, 0.11198738217353821, -0.21866223216056824, 0.12352228164672852, -0.37469810247421265, 0.2048930525779724, 0.06099658086895943, -0.21436753869056702, 0.014733527787029743, -0.257381409406662, -0.606988251209259, 0.11894585937261581, -0.08413301408290863, 0.012435110285878181, -0.03512955456972122, -0.14730912446975708, 0.2647148668766022, -0.08676876872777939, -0.024454591795802116, 0.3117223381996155, 0.10343342274427414, 0.03916015475988388, -0.24044549465179443, 0.017775820568203926, -0.14863233268260956, -0.2685452401638031, -0.03661433607339859, -0.07039058953523636, 0.049714814871549606, 0.07449152320623398, -0.3926277756690979, -0.08395127952098846], [0.13348504900932312, -0.019128425046801567, -0.06455764174461365, 0.09148303419351578, -0.4042762815952301, 0.11561457812786102, -0.1324886679649353, 0.041814569383859634, -0.00988482590764761, -0.19545383751392365, -0.3619011342525482, -0.08194629102945328, 0.02324579656124115, -0.10942903161048889, 0.12198387086391449, -0.2550424039363861, 0.023719925433397293, -0.265056312084198, 0.04779694974422455, 0.09486964344978333, -0.05037359520792961, 0.07596611231565475, -0.18835635483264923, 0.10767808556556702, -0.09979214519262314, -0.17909809947013855, -0.1702360212802887, -0.21642550826072693, -0.3189663887023926, 0.08820920437574387, -0.31034785509109497, 0.09755612164735794], [-0.09580393880605698, 0.0968778058886528, 0.3686322271823883, 0.0390334278345108, 0.21330204606056213, 0.032680001109838486, 0.21836765110492706, 0.47869980335235596, 0.40693429112434387, 0.5040477514266968, 0.22303318977355957, -0.08607156574726105, 0.06578156352043152, 0.39699897170066833, 0.14429858326911926, 0.3741229772567749, -0.03439420089125633, 0.4270351231098175, -0.02169313095510006, -0.19876962900161743, -0.08589297533035278, 0.06352542340755463, 0.29291707277297974, -0.14186134934425354, -0.051561374217271805, 0.3944910168647766, -0.107862189412117, 0.44514763355255127, 0.16292671859264374, 0.0426245741546154, 0.5095140337944031, -0.07987822592258453], [0.09665199369192123, -0.18895085155963898, -0.21426866948604584, -0.2996993958950043, -0.015030010603368282, -0.18203169107437134, -0.19661729037761688, -0.23005421459674835, -0.010362223722040653, -0.09396298229694366, -0.25690388679504395, -0.06648683547973633, -0.04346887022256851, -0.21870288252830505, -0.2507299780845642, -0.293366402387619, 0.1003844141960144, -0.25761017203330994, 0.16432760655879974, -0.3662496507167816, -0.04288911819458008, -0.2200842648744583, -0.25937217473983765, -0.0709124356508255, 0.10586317628622055, -0.22556784749031067, -0.08233367651700974, -0.0936947762966156, -0.10605639964342117, 0.02607480064034462, -0.010167852975428104, -0.061969056725502014], [-0.09810645878314972, -0.27204248309135437, -0.2720690369606018, -0.4479463994503021, -0.18427123129367828, -0.34715965390205383, -0.12973617017269135, -0.21688368916511536, -0.007932102307677269, -0.23854127526283264, -0.2663448452949524, 0.12563525140285492, -0.030649401247501373, -0.347988486289978, -0.05700693279504776, -0.35058021545410156, -0.29910123348236084, -0.35375189781188965, 0.09058442711830139, -0.24715499579906464, -0.14536280930042267, -0.07644551992416382, -0.16359829902648926, -0.2859162390232086, 0.14557760953903198, -0.1770530641078949, 0.062122199684381485, -0.3280516564846039, -0.22996225953102112, -0.09733566641807556, -0.09820873290300369, 0.04033336415886879], [-0.10580044984817505, 0.1266767531633377, 0.12619122862815857, -0.2700005769729614, 0.19397802650928497, -0.20698706805706024, 0.010682657361030579, 0.1514715999364853, -0.19691020250320435, -0.0839272290468216, 0.12028124928474426, 0.053656600415706635, -0.14174623787403107, -0.1354362666606903, -0.05125601217150688, -0.02305803820490837, -0.08000527322292328, 0.06298017501831055, 0.0362643264234066, -0.24977447092533112, 0.02031821571290493, -0.017180779948830605, 0.07199011743068695, 0.02869272604584694, -0.08962121605873108, -0.05091068521142006, 0.0775899663567543, -0.13790956139564514, 0.0942053571343422, 0.07486173510551453, 0.08014936000108719, -0.06672367453575134], [0.0053007458336651325, -0.38742688298225403, -0.28049513697624207, 0.05016177520155907, -0.1964365690946579, -0.30772656202316284, -0.2893216013908386, -0.18227878212928772, -0.07762643694877625, -0.23313665390014648, -0.07877054065465927, -0.08016432076692581, 0.15333431959152222, -0.055577345192432404, -0.14125072956085205, -0.19487252831459045, -0.01563442125916481, -0.25319552421569824, 0.07386034727096558, -0.2448543757200241, 0.13786134123802185, -0.3180069029331207, -0.1484580934047699, -0.32855552434921265, 0.10124257206916809, -0.11528819054365158, 0.15168125927448273, -0.3855684995651245, -0.010569400154054165, -0.12601299583911896, -0.17722131311893463, 0.058526236563920975], [-0.02975563146173954, -0.15871787071228027, -0.24164047837257385, -0.09227394312620163, 0.03800347074866295, 0.12861233949661255, 0.026218242943286896, -0.12215647846460342, -0.14133670926094055, -0.26117298007011414, 0.15088483691215515, -0.10931668430566788, -0.03092055954039097, -0.23549558222293854, -0.15992999076843262, 0.013296891935169697, -0.11575181037187576, 0.008743359707295895, -0.0013519444037228823, -0.03690902143716812, -0.035027340054512024, -0.028556205332279205, 0.013219053857028484, 0.1133011057972908, 0.14289680123329163, -0.16277840733528137, -0.1494310200214386, -0.09402167052030563, -0.03865242376923561, 0.10245209187269211, 0.1381877362728119, 0.046237874776124954], [-0.12555721402168274, -0.127659410238266, 0.00831195805221796, 0.10485125333070755, -0.22799724340438843, 0.004239590838551521, -0.2837071418762207, -0.24930399656295776, -0.046006858348846436, -0.208703875541687, 0.0032990106847137213, -0.17540061473846436, 0.15357087552547455, -0.04318133369088173, -0.0010646882001310587, -0.07818412780761719, -0.006381220184266567, -0.19148273766040802, -0.0975441187620163, -0.07468798011541367, 0.14609625935554504, -0.17404451966285706, -0.2003711313009262, -0.1401762217283249, 0.04300397261977196, -0.17370690405368805, -0.14139102399349213, -0.2646751403808594, -0.2575518488883972, -0.02812860906124115, -0.2677803933620453, 0.09943322092294693], [-0.14038971066474915, -0.22510911524295807, -0.07015930116176605, -0.3956851363182068, 0.07117791473865509, -0.09145516902208328, -0.32388174533843994, -0.1972234845161438, -0.10363435745239258, -0.03373653441667557, 0.09989579766988754, -0.11252892017364502, -0.13888661563396454, -0.3385346531867981, -0.290092796087265, -0.2533750832080841, -0.31168249249458313, -0.02701820433139801, -0.12182961404323578, -0.45292261242866516, -0.13818927109241486, -0.294674813747406, -0.017835745587944984, -0.21177814900875092, -0.03822621703147888, -0.22057218849658966, -0.1353975236415863, -0.29438552260398865, -0.05450298264622688, 0.10539839416742325, -0.018795406445860863, -0.004311183001846075], [-0.09637854248285294, 0.1253444254398346, 0.27444761991500854, -0.020098784938454628, 0.08566154539585114, 0.11848630011081696, 0.3435189127922058, 0.27811649441719055, 0.08880699425935745, -0.0279903095215559, 0.1791718453168869, -0.16119232773780823, -0.015188252553343773, 0.25244560837745667, 0.2823580503463745, 0.1581917107105255, -0.019216062501072884, 0.02175140753388405, -0.1674424558877945, 0.14848141372203827, -0.10759323090314865, 0.19725102186203003, 0.11794368922710419, 0.03332126513123512, 0.12057337164878845, 0.3415745794773102, 0.1241220235824585, 0.4171960949897766, -0.023380331695079803, -0.09473012387752533, 0.03236334025859833, 0.10393095761537552], [0.10415802896022797, 0.35483625531196594, 0.3670954704284668, -0.17833468317985535, 0.4461102783679962, -0.2340787947177887, 0.17885415256023407, 0.6218422651290894, 0.1900789886713028, 0.5242446660995483, 0.384601354598999, 0.10355082899332047, -0.022954510524868965, 0.2492409646511078, 0.3273879587650299, 0.5332927107810974, 0.06494089215993881, 0.379395067691803, -0.1278761476278305, -0.22677840292453766, 0.05949002131819725, 0.34573933482170105, 0.4495450556278229, -0.2079315483570099, -0.0403280183672905, 0.5161633491516113, -0.01640869490802288, 0.4165567457675934, 0.18897831439971924, 0.15501649677753448, 0.24792663753032684, -0.11776289343833923], [0.12881973385810852, 0.15643246471881866, 0.4529400169849396, -0.09372774511575699, 0.1622321754693985, -0.044211771339178085, 0.5090040564537048, 0.6489583849906921, 0.31351467967033386, 0.45801636576652527, 0.16270571947097778, -0.056752800941467285, -0.06242183595895767, 0.5149685740470886, 0.21369138360023499, 0.48805034160614014, 0.11787428706884384, 0.3216189742088318, -0.10985415428876877, 0.09843917936086655, -0.1635197103023529, 0.30514079332351685, 0.5908457636833191, 0.05818082019686699, 0.12702105939388275, 0.5549978017807007, -0.048822127282619476, 0.8001629114151001, -0.009970043785870075, 0.09854018688201904, 0.4278196692466736, -0.10929746925830841], [0.047327835112810135, -0.08676154911518097, -0.03474065661430359, 0.12791097164154053, -0.20145241916179657, 0.26679548621177673, 0.07585588842630386, -0.013973834924399853, 0.0090158861130476, -0.16801193356513977, -0.5393811464309692, -0.08296432346105576, -0.020458487793803215, -0.029928456991910934, -0.0957259014248848, -0.003518409328535199, 0.1870577335357666, -0.13411180675029755, 0.09098578989505768, 0.19254153966903687, 0.0846807062625885, -0.11862759292125702, 0.07008333504199982, 0.09679274260997772, -0.005131026729941368, -0.39745575189590454, 0.16349762678146362, -0.15014272928237915, 0.02028214931488037, -0.10106952488422394, -0.4150121808052063, 0.013589838519692421], [-0.1413506716489792, 0.2492068111896515, 0.19435057044029236, -0.017660323530435562, 0.21235141158103943, 0.1506241261959076, 0.04783964902162552, 0.18370085954666138, 0.3324700593948364, 0.13765063881874084, 0.1704184114933014, -0.08304329216480255, 0.03527956083416939, 0.17733615636825562, 0.1910780370235443, 0.20334488153457642, 0.08598488569259644, 0.12049438059329987, 0.039485737681388855, 0.15180811285972595, -0.00435640336945653, 0.19618169963359833, 0.4497346878051758, 0.19096457958221436, -0.028711756691336632, 0.15091508626937866, 0.04148389771580696, 0.5191014409065247, -0.014737785793840885, -0.14786043763160706, 0.20820800960063934, 0.18183374404907227], [-0.1581178456544876, -0.11335016787052155, -0.09469983726739883, -0.08966066688299179, -0.19490492343902588, 0.14839255809783936, 0.13780416548252106, -0.15945735573768616, -0.06845753639936447, -0.19087530672550201, 0.0244599599391222, -0.09832410514354706, -0.09357860684394836, -0.09110375493764877, -0.019942792132496834, 0.06337733566761017, 0.2313309758901596, -0.01936359331011772, 0.1407533586025238, -0.02698870748281479, 0.018253441900014877, -0.04775155708193779, 0.018167661502957344, 0.1223563477396965, 0.09031383693218231, -0.14327193796634674, 0.1687973439693451, 0.04457756504416466, -0.13054914772510529, 0.16462142765522003, -0.07667774707078934, 0.09818790853023529], [-0.15009988844394684, 0.36199918389320374, 0.3538959324359894, -0.06826063245534897, -0.10144110023975372, 0.06214112043380737, 0.16622847318649292, 0.35124242305755615, 0.3202368915081024, 0.2322506457567215, 0.1902366280555725, -0.0350266695022583, -0.04785703122615814, 0.1259312927722931, 0.2771088182926178, 0.03787482902407646, 0.14572827517986298, 0.1820196658372879, -0.09900347143411636, 0.17978964745998383, 0.0343637578189373, 0.28924286365509033, 0.37169766426086426, -0.02663647197186947, -0.12821513414382935, 0.15854693949222565, -0.12717308104038239, 0.3661176264286041, 0.05239257216453552, -0.13824385404586792, 0.21620126068592072, 0.13639046251773834], [-0.05139293894171715, 0.2795639932155609, 0.31136268377304077, 0.17737194895744324, 0.34347185492515564, 0.14165717363357544, 0.5361584424972534, 0.2803040146827698, 0.4041023850440979, 0.23262916505336761, 0.0771779716014862, 0.08696632832288742, -0.0354236364364624, 0.5149799585342407, 0.25463464856147766, 0.5099596381187439, 0.4021068513393402, 0.31556618213653564, 0.14260470867156982, 0.00509130721911788, -0.03903457522392273, 0.34575384855270386, 0.5396599769592285, 0.08970090746879578, 0.1097305566072464, 0.2911628782749176, -0.09435545653104782, 0.5481281876564026, 0.04832233116030693, -0.1500842422246933, 0.3358905017375946, 0.051109809428453445], [0.06797928363084793, 0.2042180746793747, 0.26430854201316833, -0.18226408958435059, 0.41546693444252014, -0.19443680346012115, 0.27973490953445435, 0.5863861441612244, 0.5895975828170776, 0.38799840211868286, 0.20581787824630737, -0.1824217438697815, 0.11701202392578125, 0.19312512874603271, 0.07544665783643723, 0.2928886115550995, 0.19739140570163727, 0.5186370611190796, 0.11844842880964279, 0.0860661044716835, -0.08244527876377106, 0.21200355887413025, 0.15586046874523163, 0.027178607881069183, 0.0622003898024559, 0.5151360034942627, -0.1359977275133133, 0.5637697577476501, 0.19267262518405914, -0.027223043143749237, 0.3585270047187805, 0.04370800778269768], [-0.1550011932849884, 0.29089200496673584, 0.018827388063073158, 0.16556663811206818, 0.13459773361682892, 0.16140037775039673, 0.26311245560646057, 0.23903913795948029, 0.1630403995513916, 0.10710170120000839, 0.1361725926399231, -0.11843446642160416, -0.09923023730516434, 0.18068593740463257, 0.15026350319385529, 0.08338867872953415, -0.05197196453809738, 0.10519783198833466, 0.11450767517089844, 0.0965159684419632, 0.04061280936002731, 0.15810254216194153, -0.06240648776292801, 0.07642188668251038, -0.06282302737236023, -0.05310877412557602, 0.10804738849401474, 0.2831752598285675, 0.08094611763954163, 0.10595674812793732, -0.06611587852239609, 0.02187570184469223], [-0.02286287397146225, -0.0478549525141716, 0.18028223514556885, -0.015667099505662918, 0.12022605538368225, -0.0004991139867343009, 0.15005968511104584, 0.36442458629608154, 0.1825890988111496, 0.2028496116399765, 0.09036354720592499, -0.017781972885131836, -0.11359801143407822, 0.08683758229017258, -0.0775265023112297, 0.00937652587890625, -0.08533260226249695, 0.26599955558776855, -0.10159356147050858, -0.07606776803731918, 0.018898984417319298, 0.233551487326622, 0.18106940388679504, -0.15284420549869537, 0.17460505664348602, -0.01487034186720848, 0.022984109818935394, 0.3692915737628937, 0.2515351176261902, -0.04872824251651764, 0.056932203471660614, 0.104986272752285], [0.13627049326896667, -0.06426685303449631, -0.14536385238170624, 0.1836845874786377, -0.3875785171985626, 0.23769380152225494, 0.1189684346318245, -0.13265812397003174, -0.18318210542201996, -0.1989179402589798, -0.5907770395278931, -0.08406519144773483, 0.06654055416584015, -0.1856367141008377, 0.02178177610039711, -0.2599748373031616, 0.14775225520133972, -0.35077738761901855, -0.0601898729801178, 0.21295081079006195, 0.027210215106606483, 0.06040480360388756, 0.09638915956020355, 0.2233418971300125, 0.004499637056142092, -0.23102760314941406, 0.12003186345100403, -0.12280403077602386, -0.034089408814907074, -0.1733037531375885, -0.4443887770175934, 0.06263867020606995], [-0.07280897349119186, 0.20064140856266022, 0.3070906400680542, 0.13998378813266754, 0.2618187665939331, -0.0015761530958116055, 0.08142445236444473, 0.20340298116207123, 0.23719266057014465, 0.1234206110239029, 0.06132405623793602, 0.11796630173921585, -0.09361522644758224, 0.267362505197525, 0.26136481761932373, 0.28350475430488586, 0.25115489959716797, 0.08995717763900757, 0.07295813411474228, -0.019450992345809937, -0.10850857943296432, 0.32003703713417053, 0.313223659992218, -0.07560957968235016, 0.14570856094360352, 0.20892126858234406, 0.045312583446502686, 0.47798505425453186, 0.11279498785734177, -0.044168565422296524, 0.28739050030708313, -0.01710672676563263], [-0.04243730381131172, -0.3296295702457428, 0.08714906871318817, -0.09413473308086395, -0.16657410562038422, -0.23179616034030914, -0.26143190264701843, -0.2915230989456177, -0.08215321600437164, -0.21513190865516663, -0.1175110787153244, -0.07452142238616943, -0.07669060677289963, -0.025613177567720413, -0.17445296049118042, -0.10486579686403275, -0.17483337223529816, -0.06647143512964249, 0.047371771186590195, -0.06300696730613708, -0.052162837237119675, -0.21178828179836273, -0.42153677344322205, -0.12419731914997101, 0.1229153722524643, -0.05626288801431656, 0.08984072506427765, -0.10654149949550629, 0.02856459654867649, 0.06510913372039795, -0.02185746282339096, 0.06487008184194565], [-0.09982946515083313, 0.10557548701763153, 0.0210943054407835, -0.07707039266824722, -0.07953312247991562, -0.05636082962155342, -0.07269240915775299, 0.1074768453836441, 0.06692963093519211, -0.09323687851428986, 0.07010237872600555, -0.018281612545251846, 0.03461731597781181, 0.020389946177601814, -0.07931594550609589, -0.033262647688388824, 0.012325813993811607, 0.03601228818297386, -0.09667134284973145, 0.05539553984999657, -0.1763620674610138, 0.03227395936846733, 0.21907822787761688, 0.07560260593891144, 0.03728112205862999, -0.11772164702415466, -0.033249709755182266, 0.11508774757385254, -0.19355151057243347, -0.07359842211008072, 0.08639592677354813, 0.05263202264904976], [0.08263839781284332, -0.13486608862876892, 0.043168485164642334, 0.10045469552278519, -0.1545240730047226, 0.26047980785369873, -0.12194547057151794, 0.012537368573248386, -0.10717237740755081, 0.03312679007649422, -0.3038248121738434, -0.022708464413881302, -0.06722217053174973, 0.03592013940215111, -0.040739528834819794, 0.0187570471316576, 0.2091691941022873, -0.26654350757598877, -0.050438690930604935, 0.17223812639713287, 0.030684612691402435, 0.011614693328738213, 0.13950017094612122, 0.043307144194841385, 0.050036974251270294, -0.036656420677900314, -0.034275542944669724, 0.08959731459617615, 0.10492973774671555, 0.0692371353507042, -0.16913940012454987, 0.19205620884895325], [-0.10214552283287048, 0.04406977444887161, -0.11240815371274948, 0.29707297682762146, -0.5405356884002686, 0.14829400181770325, -0.124753437936306, 0.009019815362989902, 0.004304792266339064, -0.30363190174102783, -0.3840526342391968, 0.006955002434551716, 0.06896908581256866, 0.06446722149848938, 0.05998736992478371, -0.033356159925460815, 0.24981562793254852, -0.34782811999320984, 0.11786197125911713, 0.14808987081050873, 0.10004917532205582, 0.0014068243326619267, -0.04819990321993828, 0.18744856119155884, -0.10125403851270676, -0.13910165429115295, 0.07749458402395248, -0.13981211185455322, -0.0612899474799633, -0.1604938954114914, -0.30960267782211304, 0.1238425150513649], [0.09111419320106506, -0.19877880811691284, -0.005393884144723415, -0.05085093900561333, 0.13943599164485931, -0.18515975773334503, -0.13492394983768463, -0.20052599906921387, -0.13147766888141632, -0.07551320642232895, -0.17532585561275482, 0.17718005180358887, -0.06449230760335922, -0.011017429642379284, -0.14095792174339294, -0.02540750615298748, -0.20279072225093842, 0.11384031176567078, 0.14908935129642487, 0.08292429894208908, -0.06188495457172394, 0.08754947036504745, -0.1760568916797638, 0.059314899146556854, -0.02677067182958126, -0.18009205162525177, -0.1418723315000534, -0.23204246163368225, 0.002722951816394925, -0.05481094494462013, -0.12826205790042877, 0.15842938423156738]], "bias": [-0.09197772294282913, -0.03331077843904495, -0.06360670924186707, 0.011608379893004894, 0.10100097209215164, 0.1932162493467331, 0.1169559434056282, -0.09150491654872894, 0.17355504631996155, -0.00362819479778409, -0.3283364772796631, 0.0537046380341053, -0.16081225872039795, -0.15764464437961578, 0.3340098261833191, 0.10186063498258591, 0.006525023840367794, -0.10173274576663971, -0.14083334803581238, -0.08752884715795517, 0.24205057322978973, 0.18877947330474854, -0.13616155087947845, -0.24403375387191772, -0.158753901720047, -0.07612019032239914, 0.13548046350479126, -0.14783263206481934, 0.3427504301071167, -0.19103817641735077, 0.15317381918430328, -0.026421435177326202, -0.07605724781751633, -0.10393905639648438, 0.09608633816242218, 0.27593833208084106, -0.16209211945533752, -0.10098323225975037, 0.411814421415329, -0.14979037642478943, -0.20679114758968353, -0.053554750978946686, -0.08999285846948624, -0.05368519201874733, -0.3141883909702301, -0.21388129889965057, 0.18466335535049438, 0.3369077146053314, 0.6627690196037292, -0.08961156010627747, 0.26835477352142334, -0.17411911487579346, 0.26349127292633057, 0.3792412579059601, 0.43016570806503296, -0.004735288210213184, 0.31250977516174316, -0.1708318144083023, 0.16280119121074677, -0.10415065288543701, -0.1887262761592865, -0.10233325511217117, -0.17572443187236786, 0.008927557617425919]}, "prelu": {"num_parameters": 32, "weight": [-0.13082844018936157, 0.18495279550552368, 0.35098761320114136, 0.043382082134485245, 0.3691418170928955, -0.47971171140670776, 0.1010902002453804, 0.5443814396858215, 0.20137420296669006, -0.4865552484989166, 0.7360489964485168, 0.032431505620479584, 1.0539777278900146, 0.4958317279815674, 0.9754313826560974, 0.41617250442504883, -0.2772367298603058, -0.16663631796836853, 0.7108332514762878, 0.522270679473877, 0.8761798143386841, 0.2523438036441803, 0.017407918348908424, 0.6711543798446655, 0.08285706490278244, -0.3066273033618927, 0.5454409718513489, 0.013403503224253654, 0.6961475014686584, 0.00100631860550493, -0.2461935132741928, 0.49480369687080383]}, "res": {"in_channels": 1, "out_channels": 32, "kernel_size": 1, "dilation": 1, "groups": 1, "weight": [[[-0.1747102439403534]], [[0.8238020539283752]], [[-0.5103986263275146]], [[1.1367175579071045]], [[0.4343886077404022]], [[1.3046084642410278]], [[1.1709743738174438]], [[-1.0467119216918945]], [[-1.1201512813568115]], [[0.7369925379753113]], [[1.3522194623947144]], [[-1.2758924961090088]], [[-0.22960150241851807]], [[-0.6572045683860779]], [[1.3806483745574951]], [[1.1590700149536133]], [[1.0664831399917603]], [[0.8077066540718079]], [[-0.22657105326652527]], [[1.2683335542678833]], [[-0.830047607421875]], [[-0.2933783531188965]], [[-0.7320016026496887]], [[-0.9958987236022949]], [[-0.6005584001541138]], [[0.547082781791687]], [[-0.28615328669548035]], [[-1.0644387006759644]], [[-0.38659241795539856]], [[0.2432502955198288]], [[-1.1023566722869873]], [[1.027735948562622]]], "bias": null}, "causal": true}, {"conv1": {"in_channels": 32, "out_channels": 32, "kernel_size": 13, "dilation": 10, "groups": 1, "weight": [[[0.06929893046617508, 0.08783094584941864, 0.04321078956127167, 0.07769878953695297, 0.1140526682138443, 0.1339399218559265, 0.15443232655525208, 0.1474660187959671, 0.15340812504291534, 0.10382792353630066, 0.11983902752399445, 0.1468309611082077, 0.06944487988948822], [0.01538321003317833, 0.04631103202700615, -0.01060410961508751, 0.020324045792222023, -0.00028094559093005955, 0.04016311094164848, 0.05413243547081947, 0.022207817062735558, 0.014192521572113037, 0.06587721407413483, -0.04078720510005951, -0.10496433824300766, -0.26960644125938416], [-0.08506476134061813, -0.053352802991867065, -0.04841352626681328, -0.07114171236753464, -0.02974800206720829, -0.10140727460384369, -0.04089544713497162, -0.07208696007728577, -0.07415631413459778, -0.03167296573519707, -0.05437135323882103, -0.06403501331806183, 0.14974501729011536], [0.05668717622756958, 0.09989422559738159, 0.012511396780610085, 0.09625523537397385, 0.0912628024816513, 0.08375228196382523, 0.08017311990261078, 0.05602046102285385, 0.0678592249751091, 0.08585670590400696, 0.04225179925560951, -0.10247538238763809, -0.19724150002002716], [0.08996567875146866, 0.048005569726228714, -0.05135786160826683, 0.13668055832386017, 0.08282577991485596, 0.11513099819421768, 0.0593399852514267, 0.10019246488809586, 0.07993654161691666, 0.11770491302013397, 0.06728672981262207, -0.023788506165146828, -0.2117682695388794], [0.09686928242444992, 0.08031458407640457, 0.052350882440805435, 0.16439005732536316, 0.11771266907453537, 0.14108918607234955, 0.16534243524074554, 0.12687823176383972, 0.07760533690452576, 0.125186026096344, 0.07037652283906937, 0.01397804357111454, -0.12797723710536957], [0.1038346067070961, 0.15195468068122864, 0.11868371069431305, 0.16307179629802704, 0.1382804960012436, 0.15044187009334564, 0.12459656596183777, 0.1092667505145073, 0.13262724876403809, 0.10414701700210571, 0.08608008921146393, -0.0562090203166008, -0.18355542421340942], [-0.0809682086110115, 0.013883888721466064, -0.04641546681523323, -0.02011554129421711, -0.02568984031677246, -0.03099008835852146, 0.0060362727381289005, 0.0036833391059190035, -0.016544394195079803, 0.027075788006186485, 0.0037953697610646486, 0.0898720920085907, 0.10542760789394379], [-0.16069920361042023, -0.07054194808006287, -0.06313131004571915, -0.15182402729988098, -0.1614314168691635, -0.09181472659111023, -0.1020013615489006, -0.1525166779756546, -0.10127914696931839, -0.09866571426391602, -0.016497405245900154, 0.08679600059986115, 0.11124897748231888], [0.025331351906061172, -0.024469949305057526, -0.05163130909204483, 0.006923829670995474, 0.02113249897956848, -0.0031446758657693863, -0.05860574170947075, -0.0370517335832119, 0.026743091642856598, -0.03808470070362091, -0.08910933136940002, -0.14530600607395172, -0.23801268637180328], [-0.005582668352872133, 0.019488034769892693, -0.03555992618203163, 0.027010971680283546, 0.026484601199626923, 0.008051024749875069, 0.013057786040008068, 0.014463286846876144, -0.0015648831613361835, 0.03336617723107338, -0.06622368097305298, -0.16818839311599731, -0.39049142599105835], [-0.05354200303554535, -0.04980802163481712, 0.006664941553026438, -0.025101179257035255, -0.07930130511522293, -0.02680337242782116, -0.015654616057872772, -0.06610868126153946, -0.07248298823833466, -0.06736377626657486, -0.049193087965250015, 0.006767159793525934, 0.136943981051445], [0.02029738947749138, -0.026361428201198578, -0.03880857303738594, 0.017942434176802635, 0.009631667286157608, -0.011590654961764812, 0.032791201025247574, 0.04867361858487129, -0.017810214310884476, 0.048138637095689774, 0.0878763422369957, 0.3957242965698242, 0.4005373418331146], [-0.14229634404182434, -0.10103942453861237, -0.05288761481642723, -0.12494564801454544, -0.10532860457897186, -0.13379104435443878, -0.08141721040010452, -0.0812477245926857, -0.12424447387456894, -0.09701760113239288, -0.022884327918291092, 0.1455274522304535, 0.2264707237482071], [-0.011351808905601501, 0.006580083630979061, -0.003676267107948661, -0.05797658860683441, -0.04601334035396576, -0.04258384555578232, -0.041813481599092484, -0.030628977343440056, -0.04494326561689377, -0.031993184238672256, -0.05509873852133751, -0.1591627299785614, -0.3338717818260193], [0.014402398839592934, 0.030470479279756546, -0.035765890032052994, 0.02444324642419815, 0.03640809282660484, 0.015300710685551167, 0.022992240265011787, -0.011371095664799213, 0.02040189318358898, 0.019397662952542305, 0.0026824879460036755, -0.06893981993198395, -0.21805277466773987], [0.0849338248372078, 0.05856002867221832, -0.0316685251891613, 0.054339051246643066, 0.02866918034851551, 0.036671388894319534, 0.028681017458438873, 0.061990249902009964, 0.07040166854858398, 0.08364203572273254, 0.0076927682384848595, -0.12502427399158478, -0.32280242443084717], [0.16003713011741638, 0.1539604216814041, 0.16888169944286346, 0.22054147720336914, 0.21842652559280396, 0.19325102865695953, 0.20837771892547607, 0.1730130910873413, 0.16826555132865906, 0.21242830157279968, 0.1962219923734665, 0.05167270824313164, 0.08016842603683472], [-0.11402527987957001, -0.054742615669965744, -0.0034343674778938293, -0.057521652430295944, -0.06063369661569595, -0.07231089472770691, -0.09381316602230072, -0.08611895143985748, -0.10266383737325668, -0.0927274078130722, -0.06020380184054375, 0.10313358157873154, 0.44278937578201294], [-0.030598478391766548, -0.022445175796747208, 0.013447497971355915, 0.014352346770465374, 0.02553149126470089, -0.022658994421362877, -0.04227478429675102, -0.050331659615039825, -0.007702978327870369, -0.0374906025826931, -0.053257111459970474, -0.15366387367248535, -0.25233033299446106], [-0.0194272268563509, -0.04699339717626572, 0.01194765605032444, -0.03855137899518013, -0.03784859552979469, -0.04330398887395859, -0.029887057840824127, -0.023832131177186966, -0.044511064887046814, -0.058502763509750366, -0.005092917941510677, 0.18795792758464813, 0.3076239824295044], [-0.02533840388059616, 0.00208105705678463, 0.058036211878061295, 0.06230541318655014, 0.033754851669073105, 0.039364296942949295, 0.026599468663334846, 0.03260306268930435, 0.040354277938604355, 0.010064776986837387, 0.056374795734882355, 0.17760930955410004, 0.33266481757164], [0.0656774640083313, 0.030925989151000977, 0.13733400404453278, 0.05228416994214058, 0.08548576384782791, 0.11323697119951248, 0.09482993930578232, 0.1077912226319313, 0.08891162276268005, 0.06963114440441132, 0.06957513839006424, 0.21577554941177368, 0.42066386342048645], [-0.041643064469099045, 