{"version": 1, "arch": "direct", "config": {"nblocks": 4, "kernel_size": 13, "dilation_growth": 10, "channel_width": 32, "causal": true, "nparams": 0, "sample_rate": 48000, "receptive_field": 13333}, "gen": [{"in_features": 0, "out_features": 16, "weight": [[], [], [], [], [], [], [], [], [], [], [], [], [], [], [], []], "bias": [0.0, 0.0, 0.0, 0.0, 0.0, 0.0, 0.0, 0.0, 0.0, 0.0, 0.0, 0.0, 0.0, 0.0, 0.0, 0.0]}, {"in_features": 16, "out_features": 32, "weight": [[0.19272145628929138, 0.03695222735404968, -0.11670997738838196, 0.0637245774269104, -0.11518415808677673, -0.02931821346282959, -0.10153958201408386, 0.16584274172782898, -0.19734254479408264, -0.11525258421897888, -0.0705936849117279, -0.15031811594963074, 0.02359578013420105, -0.24691978096961975, 0.225777268409729, -0.21236705780029297], [0.19300684332847595, 0.04160478711128235, -0.08117613196372986, 0.1544874906539917, 0.03896269202232361, 0.20199084281921387, 0.02732992172241211, -0.07884329557418823, 0.06717091798782349, -0.06779485940933228, 0.10521438717842102, 0.2232055366039276, 0.14451488852500916, -0.109293133020401, 0.144316166639328, 0.04473155736923218], [0.12695875763893127, -0.15237626433372498, -0.24747711420059204, -0.09659013152122498, -0.19175571203231812, 0.20513471961021423, 0.07200783491134644, 0.10355338454246521, 0.07906529307365417, -0.0043489933013916016, 0.1956520676612854, -0.17762839794158936, 0.015740931034088135, -0.17063504457473755, 0.07708799839019775, -0.08609557151794434], [0.07660406827926636, -0.05208536982536316, 0.20734795928001404, -0.14817547798156738, -0.14909949898719788, -0.14910849928855896, 0.22486069798469543, 0.08331277966499329, 0.24056267738342285, -0.20631906390190125, -0.24796903133392334, -0.19559094309806824, -0.16817227005958557, 0.10126003623008728, 0.0895189642906189, 0.20773109793663025], [-0.129106342792511, -0.17042794823646545, 0.13264453411102295, -0.10105112195014954, 0.1517309546470642, -0.05932515859603882, 0.14301148056983948, -0.19424200057983398, -0.12616243958473206, 0.0762191116809845, 0.05285188555717468, -0.06373968720436096, 0.1490173637866974, 0.16995230317115784, -0.1812933385372162, -0.13346704840660095], [0.2289154827594757, -0.08435812592506409, -0.0886290967464447, -0.24189865589141846, -0.14316755533218384, 0.062450915575027466, -0.03299829363822937, -0.18147149682044983, 0.005864173173904419, -0.17077037692070007, -0.21209916472434998, -0.13766565918922424, -0.2188030183315277, -0.1591845154762268, 0.24990221858024597, 0.04721873998641968], [0.0770399272441864, -0.23317107558250427, -0.16419345140457153, -0.08321395516395569, 0.0390927791595459, -0.21998032927513123, -0.10771825909614563, -0.1496671438217163, 0.0006928145885467529, -0.093025803565979, -0.017323940992355347, -0.1694074273109436, -0.17159879207611084, -0.14585044980049133, -0.08557435870170593, -0.19732022285461426], [0.2096174657344818, -0.0496160089969635, 0.21509918570518494, 0.07789552211761475, -0.2116992473602295, 0.17300879955291748, -0.06878620386123657, -0.09583151340484619, -0.2075176239013672, -0.24854016304016113, 0.07152765989303589, -0.0546109676361084, 0.09733077883720398, -0.20516586303710938, 0.18560728430747986, -0.18351343274116516], [-0.043168336153030396, 0.05221742391586304, 0.1290629506111145, 0.20182758569717407, 0.22773981094360352, -0.1982305347919464, 0.0629168152809143, -0.10753148794174194, -0.027396202087402344, -0.18712252378463745, 0.2277146577835083, -0.18348762392997742, 0.13361281156539917, 0.08785989880561829, 0.08123898506164551, -0.13516154885292053], [0.22723788022994995, 0.05493760108947754, 0.032160013914108276, -0.22031369805335999, 0.10494711995124817, -0.037505149841308594, -0.11453106999397278, 0.21473664045333862, 0.055737197399139404, -0.13831910490989685, -0.12653473019599915, -0.011938929557800293, 0.139590322971344, -0.0638834536075592, -0.14264371991157532, -0.08561071753501892], [-0.18676871061325073, 0.08915811777114868, 0.1935100555419922, -0.23536008596420288, 0.05806267261505127, 0.1291479468345642, 0.04533234238624573, -0.0890311598777771, 0.13048553466796875, 0.13137829303741455, 0.09348180890083313, -0.04393035173416138, -0.06620031595230103, 0.026745229959487915, -0.044163525104522705, -0.07450026273727417], [0.15980172157287598, 0.21484988927841187, -0.024749338626861572, -0.055974215269088745, 0.0036480724811553955, -0.014927059412002563, 0.06010282039642334, 0.07005840539932251, -0.22706419229507446, -0.09225943684577942, 0.21053236722946167, 0.09738874435424805, -0.012434393167495728, -0.15072643756866455, -0.15295127034187317, -0.22394171357154846], [-0.08149060606956482, 0.08442604541778564, 0.1594054102897644, 0.11542433500289917, -0.220986008644104, -0.15034061670303345, -0.03945416212081909, 0.24183738231658936, 0.03616437315940857, -0.06474268436431885, 0.10342881083488464, -0.09522038698196411, -0.1618139147758484, 0.18247181177139282, -0.11367544531822205, -0.05011668801307678], [-0.2487010657787323, 0.16731765866279602, 0.18940865993499756, 0.09111204743385315, -0.17431855201721191, -0.24673497676849365, -0.20304474234580994, 0.18642506003379822, 0.12002643942832947, 0.21037611365318298, 0.13096746802330017, 0.06327304244041443, -0.002448171377182007, -0.19012650847434998, -0.21419304609298706, -0.23383715748786926], [0.10234048962593079, -0.12274199724197388, -0.05031314492225647, -0.143876314163208, -0.04555588960647583, -0.17595872282981873, -0.16335391998291016, 0.08292770385742188, -0.07429909706115723, 0.15433579683303833, -0.08020219206809998, -0.18339180946350098, -0.044109731912612915, -0.12118685245513916, -0.07648539543151855, -0.23799890279769897], [0.1398727297782898, -0.17405113577842712, 0.1256544291973114, 0.11344605684280396, 0.17860817909240723, -0.1917630136013031, 0.17979919910430908, -0.11818790435791016, 0.09276729822158813, 0.23477867245674133, -0.035257965326309204, -0.001933366060256958, -0.057557642459869385, -0.20874613523483276, 0.11997571587562561, -0.24817946553230286], [0.15519997477531433, 0.1870562732219696, 0.23642659187316895, -0.0589698851108551, -0.20541048049926758, 0.0562075674533844, 0.1381068229675293, -0.24882718920707703, -0.05674591660499573, -0.14986386895179749, -0.021865934133529663, -0.12305337190628052, -0.10219189524650574, -0.07936471700668335, -0.23757600784301758, 0.20512688159942627], [0.20958280563354492, -0.0392172634601593, -0.028470516204833984, -0.10202997922897339, -0.22576570510864258, -0.2432861030101776, 0.09291461110115051, -0.1372615396976471, -0.16071924567222595, -0.019505798816680908, -0.08325278759002686, -0.08088019490242004, 0.008032798767089844, -0.053028106689453125, -0.08607810735702515, -0.11970147490501404], [-0.203456848859787, 0.20962679386138916, -0.1000467836856842, 0.06624487042427063, -0.08674147725105286, 0.020315319299697876, 0.2330751121044159, 0.11518067121505737, -0.21664991974830627, 0.09922569990158081, 0.23731070756912231, 0.06577083468437195, 0.1676061749458313, 0.24647188186645508, -0.038307249546051025, 0.051888614892959595], [-0.17375877499580383, -0.05151927471160889, 0.18514594435691833, 0.1281614601612091, -0.15819725394248962, -0.20047125220298767, -0.17084091901779175, -0.24671941995620728, -0.19290974736213684, -0.06182435154914856, 0.16871929168701172, 0.04184556007385254, -0.1901513636112213, -0.2005559802055359, 0.124368816614151, -0.1859603226184845], [-0.030781865119934082, 0.11992651224136353, -0.11570301651954651, -0.02725997567176819, -0.02176111936569214, -0.059145838022232056, -0.12675803899765015, -0.22285959124565125, -0.20208925008773804, -0.13386541604995728, 0.2414594292640686, -0.12075367569923401, -0.16788199543952942, 0.060598552227020264, 0.06890258193016052, 0.1369774341583252], [0.19003009796142578, 0.1392185389995575, -0.24787524342536926, 0.022172152996063232, 0.15143826603889465, -0.023106366395950317, -0.14731979370117188, 0.23833495378494263, -0.09350696206092834, -0.14233613014221191, -0.225388765335083, 0.011167079210281372, 0.11078327894210815, 0.055340707302093506, 0.04943743348121643, -0.18959686160087585], [-0.2334718108177185, 0.004402339458465576, 0.2279585301876068, 0.14423033595085144, -0.14555856585502625, -0.032452136278152466, -0.1842958927154541, -0.12060585618019104, 0.045274585485458374, 0.13613462448120117, 0.2070923149585724, -0.22952651977539062, 0.16715380549430847, -0.1763230264186859, 0.09361681342124939, 0.21156132221221924], [0.003510594367980957, 0.22745224833488464, -0.21301287412643433, -0.09548979997634888, 0.1458132266998291, -0.054466962814331055, -0.051175057888031006, -0.1041979193687439, 0.17232653498649597, 0.12262579798698425, 0.0801125168800354, -0.14049091935157776, -0.20293739438056946, 0.027040153741836548, 0.07406970858573914, -0.11542797088623047], [-0.06994941830635071, 0.16884192824363708, 0.01991492509841919, 0.011279582977294922, -0.0615251362323761, -0.22639742493629456, -0.23506435751914978, -0.11950376629829407, -0.12708035111427307, 0.07788839936256409, -0.07277768850326538, -0.09780552983283997, 0.23835745453834534, 0.08708071708679199, 0.178225576877594, -0.12102818489074707], [-0.10211670398712158, 0.09188511967658997, -0.166568785905838, -0.163426011800766, -0.012074917554855347, -0.09144017100334167, -0.1874144971370697, 0.1482897400856018, 0.20104071497917175, 0.04055583477020264, -0.04352831840515137, -0.23156824707984924, -0.09105968475341797, 0.06364640593528748, 0.11788272857666016, -0.031604379415512085], [-0.098838210105896, 0.13930651545524597, -0.19909992814064026, 0.158004492521286, -0.09698870778083801, 0.003826349973678589, -0.04940396547317505, 0.030309736728668213, -0.07554960250854492, 0.18178173899650574, -0.006499290466308594, 0.19514986872673035, 0.24037012457847595, -0.12179774045944214, -0.18237727880477905, 0.20057550072669983], [0.195903480052948, -0.19088682532310486, -0.019325822591781616, -0.24653157591819763, -0.20464977622032166, 0.04828563332557678, 0.06650865077972412, 0.052995264530181885, -0.06804117560386658, 0.23064443469047546, 0.03574448823928833, -0.14752119779586792, -0.014153450727462769, 0.060036301612854004, 0.087548166513443, -0.17677021026611328], [0.09369739890098572, -0.1277204155921936, -0.2077350914478302, -0.1365518569946289, 0.24110233783721924, 0.21371445059776306, 0.223871111869812, 0.14675280451774597, 0.1888623833656311, -0.03346243500709534, -0.13755697011947632, 0.12491413950920105, -0.1295456886291504, -0.1687164604663849, -0.0798335075378418, 0.052464812994003296], [0.1286991536617279, -0.09710225462913513, -0.14714157581329346, 0.033723264932632446, -0.14735829830169678, -0.16276535391807556, 0.130312979221344, -0.041996151208877563, 0.22844624519348145, 0.24319565296173096, 0.07477638125419617, 0.08603942394256592, 0.0575709342956543, 0.003915220499038696, -0.018183112144470215, 0.0034360289573669434], [0.093356192111969, 0.232442706823349, -0.0647897720336914, -0.10567894577980042, -0.06054121255874634, -0.1207810640335083, 0.04250967502593994, 0.1866120994091034, 0.19549435377120972, 0.11478137969970703, -0.18398287892341614, -0.13417619466781616, -0.05492785573005676, -0.04608103632926941, 0.020561933517456055, -0.22949287295341492], [0.07781118154525757, -0.19071802496910095, -0.1581861674785614, -0.20784562826156616, 0.21782991290092468, -0.23673495650291443, 0.18859168887138367, -0.00840422511100769, -0.02907469868659973, 0.1563696265220642, -0.023106902837753296, 0.15678852796554565, 0.18075373768806458, -0.21705251932144165, 0.0961959958076477, 0.04719474911689758]], "bias": [-0.0012602523202076554, 0.6261336803436279, 0.6931008100509644, -0.12026670575141907, -0.03198528289794922, 0.6914714574813843, 0.7754978537559509, -0.009392112493515015, -0.23513272404670715, 0.46256789565086365, -0.17024338245391846, 0.5360748767852783, -0.15177184343338013, -0.018050402402877808, -0.055485665798187256, 0.7026517987251282, 0.6577381491661072, -0.00044794895802624524, 0.7600857615470886, 0.6442762613296509, 0.6694079637527466, -0.0863378643989563, -0.05591416358947754, 0.7966542840003967, -0.06821691989898682, 0.6626558303833008, -0.05461692810058594, -0.16956308484077454, 0.5042892694473267, 0.49523937702178955, 0.6956700682640076, 0.9051609039306641]}, {"in_features": 32, "out_features": 32, "weight": [[0.12069126963615417, 0.1513604074716568, -0.006793833337724209, -0.15206553041934967, -0.12401366233825684, -0.1260709911584854, -0.1720302551984787, -0.08860887587070465, -0.16273492574691772, -0.17936035990715027, -0.10563372075557709, -0.1905457228422165, -0.10850773751735687, 0.06740648299455643, 0.1474410891532898, -0.0688716396689415, -0.06767596304416656, 0.09439049661159515, -0.10349380224943161, -0.09985261410474777, 0.09267736971378326, -0.1540258228778839, 0.021615326404571533, 0.1399153172969818, 0.030314816161990166, 0.03181939572095871, -0.10295318067073822, -0.0024389117024838924, -0.006549817975610495, 0.027135508134961128, 0.05248647928237915, 0.13732142746448517], [-0.09995988756418228, 0.3383837342262268, 0.23028050363063812, -0.13984166085720062, -0.014155861921608448, 0.13136708736419678, 0.42269042134284973, 0.020473357290029526, -0.09527522325515747, 0.43884551525115967, -0.16730640828609467, 0.21305109560489655, -0.034439411014318466, -0.15021604299545288, -0.11241023987531662, 0.30303046107292175, 0.419445663690567, 0.1851930171251297, 0.41488438844680786, 0.18238471448421478, 0.17382526397705078, 0.15427181124687195, 0.06252899765968323, 0.31610143184661865, 0.023923562839627266, 0.15874303877353668, -0.059023160487413406, 0.1701684445142746, 0.25223836302757263, 0.3013216257095337, 0.15643583238124847, 0.19587884843349457], [0.025938769802451134, 0.1984776258468628, 0.27762147784233093, 0.07194089889526367, -0.17291894555091858, 0.3199455440044403, 0.165110245347023, -0.08627605438232422, 0.06786628812551498, 0.4513563811779022, -0.048314597457647324, 0.19100084900856018, -0.15984782576560974, -0.0911562591791153, -0.1547922044992447, 0.2635595500469208, 0.3014404773712158, -0.14888328313827515, 0.4363660216331482, 0.38118699193000793, 0.10046043246984482, -0.0844343826174736, 0.05765663459897041, 0.252021849155426, -0.019264502450823784, 0.20965683460235596, 0.14199049770832062, -0.0988178551197052, 0.42447179555892944, 0.3195814788341522, 0.3258557617664337, 0.4132239818572998], [-0.0005125222378410399, 0.037086453288793564, 0.10415477305650711, 0.14337533712387085, -0.13116607069969177, 0.16670311987400055, -0.042815692722797394, 0.09268439561128616, 0.06531328707933426, 0.15132834017276764, 0.07587134093046188, 0.1252204328775406, 0.09781988710165024, -0.1399400532245636, -0.025960097089409828, 0.21488188207149506, 0.30072420835494995, 0.10884761065244675, 0.0020943968556821346, 0.2630594074726105, 0.08923402428627014, -0.03774437680840492, -0.160674050450325, 0.10408637672662735, 0.12503889203071594, 0.15525953471660614, -0.10296428203582764, 0.05441400408744812, 0.07246754318475723, 0.294818252325058, -0.01970459334552288, 0.07323858886957169], [-0.13912101089954376, 0.12029477208852768, 0.23631426692008972, 0.17016783356666565, 0.0296889990568161, 0.3389049172401428, 0.20761850476264954, 0.10209490358829498, 0.14171519875526428, 0.34312453866004944, -0.09894610941410065, 0.32531529664993286, 0.1070852130651474, -0.08265706896781921, -0.08435843139886856, 0.04096312075853348, 0.21005240082740784, -0.12604397535324097, 0.24885042011737823, 0.22284188866615295, 0.015509547665715218, 0.04817180335521698, -0.014377343468368053, 0.2584691047668457, 0.10143262892961502, -0.0008769185515120625, 0.1621217131614685, 0.14825235307216644, 0.24036557972431183, 0.02186092920601368, 0.11240796744823456, 0.11982740461826324], [-0.0126572260633111, 0.49314650893211365, 0.44606560468673706, 0.14003880321979523, -0.06620696932077408, 0.40180402994155884, 0.4204165041446686, -0.1471826583147049, -0.17147690057754517, 0.321132093667984, 0.12101206928491592, 0.1727762520313263, -0.15387241542339325, 0.09903040528297424, 0.0953761488199234, 0.5348612666130066, 0.20838646590709686, -0.11453563719987869, 0.45395028591156006, 0.5004254579544067, 0.4497717320919037, 0.027692439034581184, 0.05826112627983093, 0.5361524820327759, -0.11405708640813828, 0.28376641869544983, 0.12364945560693741, -0.1209576204419136, 0.2644665837287903, 0.5136078596115112, 0.42249786853790283, 0.4074579179286957], [-0.07492510229349136, -0.0024396071676164865, 0.1617918163537979, -0.10610491782426834, 0.001389855518937111, 0.08407491445541382, -0.12203889340162277, 0.17168143391609192, -0.08831950277090073, -0.04245045408606529, -0.04783051833510399, -0.11519810557365417, -0.17346471548080444, 0.09967581927776337, 0.046964991837739944, -0.16556918621063232, -0.11377821862697601, 0.17472043633460999, 0.06757024675607681, 0.07093069702386856, -0.10576515644788742, -0.07749821245670319, -0.026685170829296112, -0.032328907400369644, -0.12113594263792038, 0.01456373743712902, 0.01756948232650757, -0.022383643314242363, 0.02450687438249588, -0.07006555050611496, 0.0460064671933651, 0.06666963547468185], [-0.10327747464179993, 0.028793616220355034, 0.2905459702014923, 0.04216773062944412, -0.08990649878978729, 0.34638112783432007, 0.10777142643928528, 0.11945628374814987, 0.08968385308980942, 0.051110245287418365, 0.11401059478521347, 0.013803213834762573, -0.09793688356876373, -0.02947130985558033, -0.11915571242570877, 0.37063518166542053, 0.14066483080387115, 0.061178360134363174, 0.03021320328116417, 0.2807638943195343, 0.1274416744709015, -0.1344689428806305, 0.025848809629678726, 0.275545209646225, 0.15298204123973846, 0.08786654472351074, -0.08699256926774979, 0.03398759663105011, 0.2337082177400589, 0.27308931946754456, 0.2921576499938965, 0.1431732475757599], [0.09821176528930664, 0.1303359717130661, -0.046177878975868225, 0.12576906383037567, 0.08636946976184845, 0.15592637658119202, -0.1004575788974762, -0.08729391545057297, -0.05111302062869072, 0.00896722637116909, 0.10610119253396988, -0.10091520845890045, 0.08850395679473877, -0.06335347890853882, 0.10679244250059128, -0.008392870426177979, -0.15487174689769745, -0.09727064520120621, -0.12794248759746552, 0.08767461031675339, -0.1185372918844223, -0.014728722162544727, 0.03814059868454933, -0.09694340080022812, 0.05099477618932724, -0.1726088970899582, -0.126485213637352, -0.16018149256706238, -0.05347094684839249, -0.06439928710460663, 0.025313248857855797, -0.03268856927752495], [0.06365545094013214, 0.1154872328042984, 0.016730014234781265, -0.0696442723274231, -0.16553115844726562, 0.023046759888529778, -0.13135941326618195, 0.08995747566223145, 0.1181725561618805, 0.021644961088895798, 0.16587147116661072, 0.12816739082336426, 0.03743067756295204, -0.1288059949874878, 0.1579395979642868, -0.13036556541919708, -0.12413033097982407, 0.14792296290397644, 0.09281764924526215, 0.011601947247982025, -0.03045043721795082, -0.14869852364063263, -0.01835014671087265, 0.12490193545818329, 0.04501774534583092, -0.0302051343023777, -0.036707859486341476, -0.06165658310055733, 0.06196412071585655, -0.03703729435801506, 0.06936921179294586, -0.07406032830476761], [0.10448917001485825, 0.279121458530426, 0.22964730858802795, 0.11108170449733734, 0.1107763946056366, 0.35094305872917175, 0.32864344120025635, -0.04520120844244957, -0.14966271817684174, 0.25248482823371887, -0.0015429540071636438, 0.13878169655799866, -0.029602091759443283, 0.00831430871039629, 0.1289815604686737, 0.26298797130584717, 0.12410345673561096, -0.05609249696135521, 0.15237277746200562, 0.12222554534673691, 0.34647658467292786, 0.09362895041704178, 0.15962505340576172, 0.19809573888778687, 0.03565071150660515, 0.25430765748023987, -0.16732852160930634, 0.01578555442392826, 0.18256834149360657, 0.10692989081144333, 0.059949733316898346, 0.34695300459861755], [0.14373111724853516, 0.08193045854568481, 0.16868911683559418, -0.0717373713850975, -0.03053334727883339, 0.06693094223737717, -0.02920820750296116, -0.03468974307179451, -0.14611679315567017, 0.04749304801225662, -0.10683096200227737, 0.0064287008717656136, 0.17235295474529266, -0.054414574056863785, -0.0557185560464859, 0.10665164887905121, -0.0649925246834755, -0.015181126073002815, 0.16506320238113403, -0.07247380167245865, -0.12646785378456116, -0.09893196821212769, -0.049010567367076874, -0.08388032019138336, -0.09173503518104553, 0.0714079737663269, 0.030041029676795006, -0.05657942593097687, -0.13733983039855957, -0.055659886449575424, -0.07460668683052063, -0.05752648413181305], [-0.15947431325912476, 0.03808283805847168, -0.12988200783729553, -0.1376735419034958, -0.1444324254989624, 0.07378370314836502, -0.10642428696155548, -0.07296472787857056, 0.13856476545333862, 0.09386210143566132, 0.1013621985912323, -0.16785062849521637, -0.12676653265953064, -0.0667351484298706, 0.14603480696678162, 0.01808432675898075, -0.13221079111099243, 0.0011069448664784431, -0.13729730248451233, -0.0387316457927227, -0.048609182238578796, 0.15302880108356476, 0.05475423485040665, -0.030824750661849976, 0.0298626646399498, -0.05102933943271637, 0.06945562362670898, 0.06992647051811218, 0.047472693026065826, -0.06890347599983215, 0.1508171558380127, -0.02552124485373497], [-0.06882211565971375, 0.11071772873401642, 0.14408302307128906, 0.17592105269432068, 0.052371568977832794, -0.06026209145784378, 0.08978346735239029, 0.15166635811328888, -0.17338861525058746, -0.021900324150919914, -0.12055560201406479, 0.03294406086206436, 0.07311215996742249, -0.03651992604136467, -0.014788633212447166, 0.07956909388303757, -0.029710808768868446, -0.14845344424247742, 0.14144538342952728, -0.08897427469491959, -0.019420424476265907, 0.01667470484972, -0.010623724199831486, -0.16629135608673096, 0.08110513538122177, -0.0802975445985794, -0.0916869267821312, 0.04223468154668808, -0.09225304424762726, -0.08169905096292496, -0.059564895927906036, -0.06641104072332382], [-0.0738285705447197, -0.04767417535185814, 0.04593997821211815, -0.14305086433887482, -0.10699944943189621, 0.0025794291868805885, 0.024584002792835236, 0.09763243794441223, -0.12417571991682053, 0.056426580995321274, 0.10047806054353714, 0.09815705567598343, -0.16465361416339874, -0.06745872646570206, -0.1519511640071869, -0.1118663102388382, 0.0984615907073021, -0.0263961274176836, 0.0750790685415268, -0.10376903414726257, 0.026862967759370804, -0.10692477971315384, 0.08836925029754639, -0.07731841504573822, -0.044328369200229645, -0.1533769965171814, 0.0005839867517352104, 0.1678459644317627, 0.0858035460114479, -0.09431760758161545, 0.0023774194996804, -0.019383292645215988], [-0.11399167776107788, 0.46165400743484497, 0.32524439692497253, 0.037228647619485855, -0.07138755172491074, 0.20651443302631378, 0.3304041922092438, 0.06535627692937851, 0.03965066000819206, 0.25089749693870544, 0.1716320961713791, 0.25809022784233093, -0.10826071351766586, -0.08268069475889206, 0.1740226447582245, 0.32555100321769714, 0.26246193051338196, -0.06333035230636597, 0.25829988718032837, 0.14477838575839996, 0.15168331563472748, 0.10346553474664688, 0.15122352540493011, 0.476490318775177, -0.1276225745677948, 0.4017449617385864, -0.10941886156797409, 0.10545794665813446, 0.4295365810394287, 0.46824926137924194, 0.43768012523651123, 0.40446674823760986], [0.0034407211933285, 0.08122578263282776, -0.06324555724859238, 0.07697472721338272, -0.05681637302041054, -0.0029683182947337627, -0.15386269986629486, -0.046222615987062454, -0.09296207875013351, -0.05963045731186867, -0.11288721114397049, -0.15900076925754547, 0.01151108369231224, 0.11472439765930176, 0.16099926829338074, 0.10315877199172974, -0.09162996709346771, -0.17483386397361755, 0.06705384701490402, 0.09905044734477997, -0.151764914393425, 0.06338965892791748, 0.14946067333221436, 0.010708523914217949, -0.10650067776441574, 0.1449350267648697, 0.07548645883798599, 0.11706173419952393, -0.11955151706933975, 0.10287440568208694, -0.12075150012969971, 0.17491953074932098], [-0.05199747905135155, 0.354302316904068, 0.2745741307735443, 0.04684767499566078, -0.02710958942770958, 0.2889139652252197, 0.15300001204013824, -0.16662605106830597, -0.06791815161705017, 0.40304234623908997, -0.04653993993997574, 0.26839688420295715, -0.06535901129245758, 0.13260890543460846, 0.1057991236448288, 0.3116697072982788, 0.12568573653697968, -0.13317012786865234, 0.235647514462471, 0.11542840301990509, 0.3630135953426361, -0.16987811028957367, 0.07899589836597443, 0.4091593623161316, 0.08853478729724884, 0.28709903359413147, -0.1700851023197174, 0.1700402945280075, 0.1942889541387558, 0.07591141015291214, 0.40187332034111023, 0.15026967227458954], [-0.01250652875751257, 0.15363608300685883, -0.13066035509109497, -0.12506774067878723, 0.0287469532340765, -0.03179224207997322, 0.032485634088516235, -0.14826354384422302, 0.00528679508715868, -0.08687902987003326, -0.08690498769283295, -0.17009194195270538, 0.09373024851083755, 0.03405364230275154, -0.14945466816425323, 0.1321212351322174, 0.04514751210808754, 0.0328032486140728, -0.11184307932853699, 0.01859087496995926, 0.16217534244060516, 0.12124838680028915, -0.1376861035823822, 0.15334440767765045, 0.013701919466257095, 0.07683663815259933, 0.13729827105998993, 0.15070374310016632, -0.14591151475906372, 0.14667923748493195, -0.12820163369178772, 0.005162643734365702], [-0.12352512031793594, -0.03875533491373062, -0.008033210411667824, -0.021148739382624626, -0.027926459908485413, 0.013942472636699677, 0.17437583208084106, 0.10270930081605911, 0.09890124201774597, 0.07075442373752594, 0.13685718178749084, -0.008158070035278797, 0.014055910520255566, 0.03638012707233429, -0.15417234599590302, -0.14240367710590363, 0.021673068404197693, -0.06916392594575882, -0.003243810962885618, -0.04056296870112419, 0.027517549693584442, 0.11501366645097733, -0.058626558631658554, 0.1415734887123108, 0.13957610726356506, -0.13567578792572021, -0.13651159405708313, -0.14302557706832886, -0.09687720239162445, -0.0688149705529213, -0.013305886648595333, -0.04299071058630943], [-0.08931616693735123, -0.0561608225107193, -0.06394799798727036, 0.17342469096183777, -0.06551853567361832, -0.12657226622104645, 0.07348564267158508, -0.010210895910859108, 0.1353338658809662, 0.11045584827661514, 0.16240984201431274, -0.12946408987045288, 0.11364326626062393, 0.14835785329341888, -0.08729790151119232, 0.16248957812786102, 0.1325194090604782, 0.001935910084284842, 0.08523331582546234, -0.061804939061403275, -0.15418176352977753, 0.04468562453985214, 0.05270159989595413, -0.1155339926481247, 0.08573663234710693, -0.15100665390491486, 0.15213827788829803, 0.1711888462305069, 0.04812894016504288, -0.11091478168964386, 0.08603212982416153, 0.030125534161925316], [0.07675379514694214, 0.5623416304588318, 0.6236235499382019, -0.07598496973514557, -0.039765045046806335, 0.48402950167655945, 0.47798246145248413, 0.14254876971244812, -0.09284992516040802, 0.5065504908561707, 0.03303128480911255, 0.3848547637462616, 0.12051162123680115, 0.01933610998094082, -0.16338232159614563, 0.4787914454936981, 0.3547210991382599, 0.021164901554584503, 0.44268327951431274, 0.26778799295425415, 0.4118439555168152, -0.016931548714637756, -0.052127644419670105, 0.6334019303321838, -0.0385725200176239, 0.5852139592170715, 0.043790724128484726, -0.14922305941581726, 0.49946147203445435, 0.6438910365104675, 0.3616400957107544, 0.33557412028312683], [0.17303769290447235, 0.14204183220863342, -0.09862265735864639, 0.10637449473142624, -0.022615408524870872, -0.17428933084011078, 0.01328184176236391, 0.05711549147963524, -0.05302608758211136, 0.06149768829345703, -0.15116190910339355, 0.12250906229019165, 0.15070819854736328, 0.0974864587187767, 0.02996210940182209, 0.05822121351957321, -0.12790639698505402, -0.04417179152369499, -0.01687644049525261, -0.09837377816438675, -0.13057081401348114, 0.11890310794115067, 0.11996866017580032, -0.16054651141166687, 0.05625244975090027, 0.07191314548254013, 0.16793225705623627, 0.1022748053073883, 0.16251729428768158, -0.05787486955523491, 0.1238119900226593, 0.14379039406776428], [-0.134490966796875, 0.3137285113334656, 0.4761764705181122, 0.09652675688266754, -0.08782497048377991, 0.4138108193874359, 0.4118962287902832, 0.04474353790283203, -0.09499087929725647, 0.5706888437271118, 0.11755815893411636, 0.2682717740535736, 0.0017125107115134597, 0.0004904839443042874, 0.05676577612757683, 0.6134737730026245, 0.44481387734413147, -0.0316447876393795, 0.5757085680961609, 0.33353978395462036, 0.3480069935321808, 0.012069487012922764, -0.13461701571941376, 0.4443266689777374, -0.11993865668773651, 0.43922311067581177, 0.016936542466282845, 0.02446955442428589, 0.2677665054798126, 0.28398728370666504, 0.5056641697883606, 0.5549924969673157], [-0.15686675906181335, 0.06547706574201584, -0.1301291286945343, 0.011082366108894348, 0.16446556150913239, 0.13410618901252747, -0.1292484700679779, 0.1093490868806839, 0.09233350306749344, -0.00027115174452774227, 0.17124831676483154, -0.07021131366491318, -0.04113873839378357, -0.08934544026851654, 0.025437602773308754, 0.04680811986327171, 0.014085602946579456, -0.09946112334728241, -0.0795789361000061, 0.06013103574514389, -0.15500247478485107, -0.027530236169695854, -0.003915884532034397, -0.0716235339641571, 0.06433223187923431, 0.011393915861845016, 0.12410866469144821, -0.015699805691838264, -0.1115705668926239, 0.12490189075469971, 0.024686651304364204, -0.05062852054834366], [-0.08317742496728897, 0.4421398639678955, 0.22201472520828247, 0.04655905440449715, 0.08740630000829697, 0.1926002949476242, 0.24910305440425873, -0.12708933651447296, 0.14858196675777435, 0.5631213784217834, 0.011066371574997902, 0.5058180689811707, -0.05909715220332146, -0.1716187447309494, 0.061747197061777115, 0.4628776013851166, 0.517953634262085, 0.011910309083759785, 0.502698540687561, 0.4576012194156647, 0.4780985414981842, -0.17542119324207306, 0.14556817710399628, 0.2257082462310791, 0.15848226845264435, 0.36014100909233093, -0.15666252374649048, 0.049160316586494446, 0.32378116250038147, 0.23163847625255585, 0.30701106786727905, 0.3747865855693817], [0.13768193125724792, -0.05434640124440193, 0.10499968379735947, 0.022137483581900597, 0.005958763416856527, 0.033825330436229706, -0.11601301282644272, -0.14693647623062134, -0.05554528906941414, -0.16473007202148438, -0.08243990689516068, 0.008132761344313622, -0.11642676591873169, -0.07332626730203629, -0.03176437318325043, -0.020365271717309952, -0.09758331626653671, 0.008494297042489052, -0.02481245994567871, 0.05055735632777214, 0.007984551601111889, -0.0882769301533699, -0.06086137518286705, -0.0020374839659780264, -0.11030605435371399, 0.013838959857821465, -0.012481451965868473, 0.06858556717634201, 0.04183698445558548, 0.13229677081108093, -0.005827518180012703, -0.13062120974063873], [0.07902076840400696, -0.11947238445281982, -0.024298373609781265, -0.05724077299237251, -0.06707693636417389, -0.06540453433990479, 0.16244372725486755, 0.1011970266699791, 0.04899143427610397, 0.16598564386367798, -0.16019892692565918, 0.02852601930499077, 0.11316826939582825, 0.11743097752332687, -0.14068838953971863, 0.06291297823190689, -0.10070719569921494, -0.006907341536134481, -0.036888036876916885, -0.14760226011276245, -0.16862984001636505, -0.1163010224699974, 0.08021605014801025, 0.08086393028497696, -0.15375395119190216, -0.0663871243596077, 0.0028875437565147877, -0.15283803641796112, 0.09960562735795975, 0.1601123809814453, 0.03126503899693489, -0.13134770095348358], [0.04122191295027733, 0.039395399391651154, 0.11526116728782654, -0.09405755996704102, -0.15837596356868744, 0.0528753288090229, -0.013725066557526588, -0.05759851261973381, -0.07407338172197342, -0.11595872789621353, 0.14310020208358765, -0.05524895340204239, 0.12749259173870087, 0.1577996462583542, 0.022393379360437393, 0.012854699976742268, -0.03676305711269379, 0.12141294777393341, -0.18403321504592896, 0.04558287560939789, -0.05352022871375084, 0.08071911334991455, -0.0007873663562349975, -0.09026474505662918, -0.019083039835095406, 0.07064828276634216, -0.12277669459581375, -0.11174039542675018, -0.06439656764268875, -0.08889812231063843, 0.04472198337316513, 0.09421008080244064], [-0.018932532519102097, 0.13898475468158722, -0.10203353315591812, -0.09919989854097366, -0.07914187759160995, -0.14997519552707672, -0.15208838880062103, -0.15751077234745026, -0.15667350590229034, 0.017977399751544, 0.10780797153711319, 0.13778865337371826, 0.15057791769504547, -0.010181223973631859, 0.03430292010307312, -0.13394330441951752, 0.04014687240123749, -0.16950075328350067, 0.055201366543769836, 0.004245559219270945, 0.026146527379751205, 0.06472649425268173, -0.08115902543067932, 0.12351328134536743, 0.08436711877584457, 0.08795342594385147, 0.023348405957221985, 0.11101338267326355, 0.0908009484410286, 0.05199172720313072, 0.10649299621582031, -0.060245830565690994], [0.10977660119533539, 0.18912620842456818, 0.2527850866317749, 0.17218023538589478, 0.04002879932522774, 0.06627512723207474, 0.11917294561862946, 0.04976767301559448, 0.029806187376379967, 0.10788532346487045, 0.13850779831409454, 0.23585639894008636, -0.10980550199747086, -0.014404022134840488, -0.016969459131360054, 0.03867178410291672, 0.15614716708660126, -0.06215368211269379, 0.048199739307165146, 0.0773124247789383, 0.07020101696252823, 0.16911165416240692, 0.06780658662319183, 0.31369292736053467, 0.04847138375043869, 0.17978882789611816, 0.07267176359891891, 0.030340630561113358, 0.002631070790812373, 0.05103995278477669, 0.09951043128967285, 0.13591748476028442], [0.06659433990716934, 0.06806755810976028, 0.14023931324481964, 0.035986918956041336, -0.060332685708999634, -0.13294072449207306, -0.12947313487529755, -0.10559534281492233, 0.05331647768616676, 0.09550751745700836, 0.15466415882110596, -0.05591654032468796, -0.013944664038717747, -0.05249621719121933, -0.0006459425785578787, 0.05674556642770767, -0.0038840428460389376, 0.008183843456208706, 0.022395338863134384, 0.06583487242460251, -0.05363428592681885, -0.10541152209043503, 0.04170596972107887, -0.020931346341967583, -0.08008478581905365, 0.07423967123031616, 0.0016032028943300247, -0.025714760646224022, -0.08557473123073578, -0.023257790133357048, -0.15031765401363373, 0.040214985609054565]], "bias": [-0.013641945086419582, 0.3703218400478363, 0.2545079290866852, 0.1330692321062088, 0.20227985084056854, 0.44354692101478577, -0.08353718370199203, 0.2638759911060333, 0.04323278367519379, -0.15507274866104126, 0.23385073244571686, -0.10601890087127686, -0.055645912885665894, -0.08426394313573837, -0.12026368826627731, 0.4012977182865143, -0.1580066978931427, 0.2844420075416565, -0.16720083355903625, -0.021514786407351494, 0.010543350130319595, 0.5207343101501465, -0.06397434324026108, 0.40596386790275574, 0.027383755892515182, 0.42097318172454834, 0.010509653948247433, 0.06619308143854141, -0.1315186619758606, -0.1510317325592041, 0.27297452092170715, -0.12881134450435638]}], "blocks": [{"conv1": {"in_channels": 1, "out_channels": 32, "kernel_size": 13, "dilation": 1, "groups": 1, "weight": [[[-0.11676143109798431, -0.031702857464551926, 0.22179709374904633, -0.02659130096435547, -0.1282760351896286, -0.020353112369775772, 0.14527957141399384, 0.20278814435005188, 0.21453814208507538, 0.22490248084068298, 0.4944339096546173, 0.20384861528873444, 0.45983317494392395]], [[0.18645749986171722, 0.23673853278160095, -0.09152328222990036, -0.04396076872944832, 0.06124421954154968, -0.2014908790588379, -0.23798562586307526, -0.27049413323402405, -0.01557507086545229, 0.14329788088798523, 0.054320078343153, 0.04850941523909569, 0.16858290135860443]], [[0.07900814712047577, 0.09551273286342621, -0.15298104286193848, -0.28480130434036255, -0.19438406825065613, -0.2768913209438324, -0.3375367820262909, -0.24276120960712433, -0.20641830563545227, -0.2688460648059845, -0.01688259281218052, -0.08982784301042557, 0.28422343730926514]], [[-0.24401725828647614, 0.06493095308542252, -0.17326724529266357, 0.189740389585495, 0.01781533658504486, 0.10941913723945618, 0.09329716116189957, 0.06009151041507721, -0.007124361582100391, -0.38446345925331116, -0.19131162762641907, -0.37640368938446045, 0.09259001910686493]], [[0.03998755291104317, -0.08025114983320236, -0.14737820625305176, 0.09327946603298187, -0.1548200398683548, 0.1396046280860901, 0.1690203696489334, 0.17865215241909027, 0.08001094311475754, -0.21760743856430054, 0.2232213169336319, -0.07404594123363495, -0.09245339781045914]], [[-0.006586633622646332, 0.23872412741184235, 0.23969082534313202, 0.053462184965610504, 0.1276213824748993, -0.2604006230831146, -0.01983947679400444, -0.26243889331817627, 0.06707735359668732, -0.2121230512857437, -0.11137169599533081, 0.18842639029026031, 0.24543678760528564]], [[-0.11015553772449493, -0.137710303068161, 0.002452064538374543, 0.17806987464427948, 0.06043586879968643, -0.02545495145022869, -0.17992965877056122, 0.170705184340477, 0.14587369561195374, 0.0757552832365036, 0.4616025388240814, 0.4577557146549225, 0.7725755572319031]], [[0.03304840996861458, -0.09232746809720993, -0.1344892680644989, 0.1721496731042862, 0.3173796236515045, 0.16383834183216095, 0.08973024040460587, 0.08168348670005798, 0.07247714698314667, 0.23769976198673248, 0.05445361137390137, -0.0011035505449399352, -0.30753573775291443]], [[-0.03432242572307587, 0.10140860825777054, -0.27336159348487854, -0.17207765579223633, -0.043557848781347275, 0.22890326380729675, 0.21583710610866547, -0.07883792370557785, 0.04972563311457634, -0.03583131730556488, 0.018337693065404892, 0.33299028873443604, 0.6170862317085266]], [[-0.15954609215259552, -0.024949895218014717, 0.01251643244177103, 0.02069835178554058, -0.13569065928459167, -0.21681536734104156, 0.12238407880067825, -0.03551490977406502, 0.05532344430685043, -0.16033515334129333, 0.10635784268379211, 0.20198337733745575, 0.24004676938056946]], [[-0.16905127465724945, 0.08199791610240936, -0.09376534074544907, -0.01501916442066431, 0.21504458785057068, 0.17388255894184113, -0.08484058082103729, 0.2712980806827545, 0.1581128090620041, 0.2089223712682724, 0.7888777852058411, 0.2735426723957062, 0.39330264925956726]], [[0.1946539580821991, -0.2578347623348236, -0.21632476150989532, -0.2909480035305023, -0.07578972727060318, -0.262631356716156, -0.1158481016755104, 0.06166696920990944, 0.1900797337293625, 0.1731303632259369, 0.21978206932544708, 0.2245638221502304, -0.01234063133597374]], [[-0.11744576692581177, 0.06344901770353317, 0.2950749695301056, -0.026771996170282364, -0.2532338798046112, -0.20827718079090118, -0.2246333509683609, -0.328194797039032, -0.16879698634147644, -0.3688724637031555, -0.42199841141700745, -0.005472560413181782, -0.05142327770590782]], [[0.04426305368542671, 0.1529552936553955, 0.20094919204711914, -0.20498809218406677, -0.14275041222572327, 0.028337722644209862, -0.19163796305656433, -0.21478821337223053, 0.23025701940059662, -0.021324507892131805, -0.25438567996025085, -0.4107319414615631, -0.5657115578651428]], [[0.12045742571353912, -0.1299864500761032, -0.10129676014184952, -0.29038944840431213, -0.06939730048179626, -0.11921219527721405, -0.12741851806640625, -0.11035127937793732, -0.20940658450126648, 0.04406943544745445, 0.28237679600715637, 0.02739099971950054, 0.16645438969135284]], [[-0.24111196398735046, -0.12032047659158707, 0.2420792281627655, 0.000491429353132844, 0.21775588393211365, -0.05767306312918663, -0.1734841763973236, -0.03321656212210655, 0.2576208710670471, -0.056697189807891846, 0.43282219767570496, 0.3731517195701599, 0.24998469650745392]], [[0.23173372447490692, 0.0378996841609478, 0.22211192548274994, -0.14462760090827942, -0.07455742359161377, 0.20679664611816406, 0.07969675213098526, -0.01966152712702751, -0.08761896938085556, -0.17603200674057007, 0.10128466784954071, -0.12322445958852768, -0.21860788762569427]], [[0.05881451442837715, 0.18247590959072113, -0.15414586663246155, -0.11675827950239182, 0.18674679100513458, 0.16041989624500275, -0.13752956688404083, -0.2718193829059601, 0.05626205727458, 0.15598465502262115, 0.08114990592002869, 0.20189158618450165, -0.20355124771595]], [[0.1863243132829666, -0.163278266787529, 0.10988356918096542, 0.14743159711360931, 0.025287676602602005, 0.185572549700737, -0.21092744171619415, -0.2574925124645233, -0.2926141917705536, 0.07096526771783829, -0.0836709514260292, -0.4364407956600189, -0.05061755329370499]], [[0.10265987366437912, -0.3783598840236664, 0.10668323189020157, -0.003580859862267971, -0.000655525189358741, 0.31581684947013855, 0.34658291935920715, 0.43251582980155945, 0.7051445841789246, 0.3757247030735016, 0.23645858466625214, -0.1094571202993393, 0.09188776463270187]], [[-0.21329942345619202, 0.05693638697266579, 0.01169288344681263, 0.08054046332836151, -0.06064353138208389, -0.018635060638189316, 0.300825834274292, 0.3346198797225952, 0.2976868152618408, 0.2599608898162842, 0.33574485778808594, 0.048254746943712234, 0.16200703382492065]], [[-0.08602209389209747, 0.14078174531459808, 0.1891656070947647, -0.24796098470687866, -0.017384666949510574, -0.10609234124422073, -0.13585543632507324, 0.09019164741039276, 0.07977220416069031, 0.3467032313346863, -0.049644410610198975, 0.06872781366109848, -0.4312467873096466]], [[-0.16529999673366547, 0.016205469146370888, 0.2526825964450836, 0.17681047320365906, -0.16462528705596924, 0.07525680214166641, -0.11240699142217636, 0.0018646670505404472, -0.2961360216140747, -0.26440829038619995, -0.24695822596549988, -0.48150500655174255, -0.24386486411094666]], [[0.014386973343789577, -0.0623181015253067, -0.1854635328054428, -0.07285935431718826, -0.4132412075996399, -0.3794475793838501, -0.4717053174972534, -0.7248901724815369, -0.2452152520418167, -0.04096769168972969, -0.15289455652236938, 0.05917513743042946, 0.01315061654895544]], [[-0.07986823469400406, 0.047365669161081314, -0.28839585185050964, -0.03516643866896629, -0.09814836829900742, 0.22565658390522003, -0.06911376118659973, 0.0039970846846699715, 0.38922515511512756, -0.05065577104687691, 0.4407314658164978, 0.616680920124054, 0.9169754385948181]], [[-0.040360864251852036, 0.19869688153266907, 0.014798308722674847, -0.13931940495967865, 0.0033999918960034847, -0.4077833592891693, -0.37298497557640076, -0.11029785126447678, -0.3616728186607361, -0.6102846264839172, -0.22905290126800537, -0.05763670429587364, 0.18526127934455872]], [[-0.05083561688661575, 0.18097475171089172, -0.18775923550128937, 0.02817663736641407, 0.14870820939540863, 0.07363930344581604, 0.07562261074781418, 0.04176687076687813, 0.006897938437759876, -0.041211992502212524, -0.15667477250099182, -0.36019715666770935, -0.5255963802337646]], [[0.2999352216720581, 0.011159704066812992, 0.17081785202026367, 0.2719920575618744, 0.054774314165115356, -0.06684348732233047, -0.10283486545085907, -0.019224591553211212, 0.1740453541278839, -0.1717485934495926, 0.01156733836978674, 0.1317073404788971, 0.23272445797920227]], [[-0.05092193931341171, -0.03582556173205376, 0.0816720649600029, 0.06220036372542381, 0.057805344462394714, -0.06532640755176544, -0.2123318612575531, -0.03681652992963791, -0.07509496808052063, 0.008076255209743977, -0.00546008488163352, 0.22317101061344147, 0.6024203300476074]], [[0.10808499902486801, -0.06186405196785927, 0.08766286075115204, -0.011947973631322384, 0.32608479261398315, -0.1964396983385086, -0.16923782229423523, -0.29799002408981323, -0.38859739899635315, -0.018919462338089943, -0.16910341382026672, 0.004896538332104683, -0.12795715034008026]], [[0.07114808261394501, 0.10094524919986725, 0.0570346936583519, -0.03862229734659195, 0.19566981494426727, -0.007583110127598047, -0.0873655155301094, -0.26274925470352173, -0.09244971722364426, -0.3066963851451874, 0.1314273625612259, -0.18912643194198608, 0.03989650309085846]], [[-0.03426146134734154, 0.012409687973558903, -0.07323168218135834, 0.15655048191547394, -0.15150140225887299, 0.0986941009759903, -0.01080652978271246, -0.23404474556446075, -0.07562346756458282, 0.1356315016746521, 0.13635453581809998, 0.24980764091014862, 0.1950129270553589]]], "bias": null}, "bn": {"num_features": 32, "affine": false, "eps": 1e-05, "running_mean": [3.894876499543898e-06, -1.3907508034094462e-08, -4.33250443165889e-06, -1.630971610211418e-06, 4.2792052568074723e-07, 7.301763957912044e-07, 3.516362767186365e-06, 2.034219278357341e-06, 1.6112113598865108e-06, -4.2332766270192224e-07, 4.90660204377491e-06, -1.0192441095568938e-06, -4.414364411786664e-06, -2.5828928755800007e-06, -1.8447353795636445e-06, 2.139668595191324e-06, 6.081565402382694e-07, 5.666785796165641e-07, -1.475283511354064e-06, 5.399921974458266e-06, 3.677665290524601e-06, -2.1187682364143257e-07, -3.03822776004381e-06, -7.1681838562653866e-06, 3.779530743486248e-06, -4.8871515900827944e-06, -1.1863227200592519e-06, 2.6926034024654655e-06, 8.335771894962818e-07, -2.0099093944736524e-06, -7.630459890606289e-07, 6.479888838839543e-07], "running_var": [0.037415049970149994, 0.00022260082187131047, 0.02913954108953476, 0.0057638161815702915, 0.0003762052219826728, 0.0008964279550127685, 0.03981710225343704, 0.005672689061611891, 0.010401517152786255, 0.0008124189916998148, 0.053590431809425354, 0.0021218217443674803, 0.036059144884347916, 0.020716242492198944, 0.0038365107029676437, 0.013975193724036217, 0.0009767357259988785, 0.00040373438969254494, 0.007484273985028267, 0.05494062229990959, 0.028562242165207863, 0.0003034991677850485, 0.02365547977387905, 0.07696965336799622, 0.048071879893541336, 0.041069768369197845, 0.007272596471011639, 0.009762835688889027, 0.0037419272121042013, 0.0098438560962677, 0.0022864367347210646, 0.002061421750113368]}, "adaptor": {"in_features": 32, "out_features": 64, "weight": [[-0.12036282569169998, 0.12386183440685272, 0.15558451414108276, 0.07122103869915009, 0.13069580495357513, 0.02807411551475525, 0.06723562628030777, 0.2856617569923401, 0.013996547088027, -0.11604058742523193, 0.03867625817656517, -0.06881901621818542, 0.051416099071502686, 0.0043119387701153755, 0.03214188292622566, 0.34126797318458557, 0.08210252225399017, 0.21598991751670837, -0.0331437923014164, 0.08362402766942978, 0.0646720826625824, 0.03213267773389816, -0.10442357510328293, 0.18929684162139893, 0.06707656383514404, 0.26683688163757324, -0.1052313819527626, -0.17538268864154816, 0.03495371341705322, 0.0036663846112787724, 0.19659847021102905, -0.04861472547054291], [0.1556532233953476, -0.0419304296374321, 0.07626024633646011, -0.1793014407157898, 0.023950742557644844, -0.024506675079464912, -0.08841456472873688, 0.047848623245954514, -0.17395170032978058, 0.1050369068980217, -0.031111987307667732, 0.017068251967430115, 0.08174960315227509, 0.014674647711217403, 0.07577560842037201, 0.06716002523899078, -0.13796685636043549, 0.07202533632516861, -0.03677629679441452, -0.04110925644636154, 0.035581886768341064, 0.0900285616517067, -0.09609849750995636, -0.1681343913078308, 0.10970889776945114, -0.12814290821552277, 0.05691327154636383, -0.02604382298886776, 0.08844082057476044, 0.15752457082271576, -0.12459994107484818, -0.08578329533338547], [0.12036024034023285, 0.3141591250896454, 0.2757575511932373, 0.10289021581411362, 0.41313108801841736, 0.28465765714645386, -0.032560043036937714, 0.24715334177017212, -0.034884799271821976, 0.052844297140836716, 0.2610996961593628, 0.1511809527873993, -0.01020615454763174, -0.0253599900752306, 0.09978188574314117, 0.28743889927864075, -0.03528338298201561, 0.3376480042934418, 0.1241820678114891, 0.04411453753709793, 0.12309282273054123, 0.428803950548172, 0.04999206215143204, 0.37055933475494385, 0.05704303830862045, 0.30700409412384033, 0.1503903567790985, 0.16318972408771515, 0.02322329767048359, -0.03363901376724243, 0.43050649762153625, -0.13758893311023712], [0.12466925382614136, 0.18289127945899963, 0.2020842283964157, 0.0679062157869339, -0.04948331043124199, 0.20652414858341217, -0.07729659974575043, 0.1301119327545166, 0.10015197098255157, -0.16970941424369812, 0.08973271399736404, -0.06279575079679489, 0.1254681944847107, -0.11255397647619247, 0.1073334589600563, 0.19507600367069244, 0.09753033518791199, 0.25356751680374146, 0.012792653404176235, -0.16022706031799316, 0.12619468569755554, 0.10954441875219345, 0.003508134977892041, -0.07628373801708221, -0.03973166644573212, -0.0006821398856118321, 0.17313703894615173, 0.12587010860443115, 0.13607262074947357, 0.09811384230852127, -0.0320611447095871, -0.0759202092885971], [-0.05554061010479927, -0.06002134457230568, 0.1591532826423645, 0.060388606041669846, 0.16104423999786377, 0.01938072219491005, -0.157583549618721, -0.015156622044742107, 0.12423771619796753, 0.08818770200014114, 0.07443923503160477, -0.05185350030660629, -0.16499824821949005, -0.09498683363199234, 0.09216790646314621, -0.04356325790286064, 0.0845591127872467, 0.07389223575592041, -0.0857260450720787, 0.1076708436012268, -0.056804109364748, 0.028594601899385452, -0.0673365443944931, -0.14119914174079895, 0.02850315533578396, 0.08043389767408371, -0.08900377154350281, 0.10844310373067856, -0.1285587102174759, -0.17369388043880463, -0.09029451757669449, -0.06109489127993584], [-0.01217130571603775, -0.03601118177175522, 0.07498936355113983, -0.14522777497768402, 0.026410747319459915, -0.005100548733025789, 0.04669206961989403, 0.15959687530994415, 0.10879694670438766, -0.12547414004802704, -0.1449793577194214, -0.04279780760407448, -0.08867595344781876, 0.061749011278152466, 0.0016205041902139783, 0.1352611780166626, 0.06943897902965546, -0.034991659224033356, -0.03038952499628067, 0.04233554005622864, -0.021935727447271347, 0.1298781782388687, -0.13822174072265625, 0.07746477425098419, -0.11268522590398788, -0.16150398552417755, -0.036291658878326416, 0.08614414930343628, 0.12242961674928665, 0.045390013605356216, -0.022137481719255447, -0.00990998838096857], [-0.047471560537815094, -0.3383006453514099, -0.3166661560535431, -0.12465589493513107, -0.17884685099124908, -0.4268818497657776, 0.000731268897652626, -0.376495361328125, -0.02806168794631958, -0.17103810608386993, -0.22232599556446075, -0.12746979296207428, 0.1745176613330841, 0.13350220024585724, -0.12168581038713455, -0.45599937438964844, 0.006897415965795517, -0.3362281024456024, 0.03567977994680405, -0.11966263502836227, 0.07236198335886002, -0.4778900444507599, -0.09329744428396225, -0.4067550599575043, 0.08554071187973022, -0.300052285194397, -0.1698874533176422, -0.10096070915460587, -0.12017840147018433, -0.16134287416934967, -0.23338422179222107, 0.06299223750829697], [-0.004596652463078499, -0.292154997587204, -0.22330331802368164, -0.3448631167411804, -0.30947786569595337, -0.20839311182498932, 0.1570443958044052, -0.2752648591995239, 0.0876210406422615, -0.11039423197507858, -0.24226710200309753, -0.16828159987926483, 0.14645683765411377, 0.17213234305381775, -0.003712884383276105, -0.09746797382831573, 0.1445930153131485, -0.11813677102327347, 0.08985710144042969, -0.16828975081443787, -0.16611187160015106, -0.36259251832962036, 0.055293209850788116, -0.3704550266265869, -0.13494154810905457, -0.29663509130477905, -0.16293248534202576, 0.000238192908000201, -0.01718469150364399, -0.12842261791229248, -0.08091600239276886, -0.06711236387491226], [-0.02250760979950428, -0.13141131401062012, -0.09950575977563858, -0.25280797481536865, -0.3591788113117218, -0.3209664225578308, 0.02251061052083969, -0.10216014087200165, 0.08800733834505081, -0.1211785078048706, -0.3879540264606476, -0.15470558404922485, -0.05624260753393173, 0.002217514207586646, -0.07940377295017242, -0.37366703152656555, 0.01863008737564087, -0.37268927693367004, -0.16793371737003326, -0.14370989799499512, -0.04790179058909416, -0.10497944802045822, 0.06910542398691177, -0.2757287919521332, 0.036382634192705154, -0.16799741983413696, 0.0010299425339326262, -0.14258354902267456, -0.12778747081756592, -0.14293883740901947, -0.21618850529193878, -0.16182167828083038], [-0.04654022306203842, -0.12834541499614716, 0.10900498181581497, 0.08636932820081711, 0.04503015801310539, -0.052474893629550934, -0.0572354830801487, -0.019529273733496666, -0.12214025855064392, -0.04901149496436119, -0.09197063744068146, -0.04153451696038246, -0.16746094822883606, 0.070274218916893, 0.14557242393493652, -0.15892545878887177, 0.047653038054704666, -0.07972942292690277, -0.03223615884780884, 0.010304314084351063, 0.15319159626960754, -0.041081931442022324, -0.1118425577878952, -0.12858107686042786, 0.08636023849248886, -0.006236719433218241, 0.003435768885537982, -0.0233304500579834, -0.10249778628349304, -0.04369203746318817, -0.14921732246875763, 0.028966939076781273], [0.04020342230796814, -0.11331053078174591, -0.27993983030319214, -0.19922640919685364, -0.10329446941614151, -0.16366462409496307, 0.02271363139152527, -0.194199338555336, 0.009175853803753853, -0.11156976968050003, -0.21184714138507843, -0.03863966092467308, 0.15952537953853607, 0.15956354141235352, 0.03507083281874657, -0.08022719621658325, -0.09104334563016891, -0.07381860166788101, 0.1429058164358139, -0.006756582297384739, -0.14186495542526245, -0.31198421120643616, -0.04727491736412048, -0.24955540895462036, -0.16027480363845825, -0.2034444361925125, -0.07351995259523392, -0.045262109488248825, -0.05337556451559067, -0.012085570953786373, -0.38278618454933167, -0.09372133761644363], [0.043110594153404236, 0.24058647453784943, 0.27379733324050903, -0.0200134739279747, 0.17711496353149414, 0.005404461640864611, -0.1366761326789856, 0.0840781182050705, -0.10140735656023026, -0.18944604694843292, -0.06501893699169159, -0.11832518875598907, 0.14526373147964478, 0.09858977794647217, -0.06997653841972351, -0.012081167660653591, -0.13598401844501495, -0.0015854480443522334, -0.07714952528476715, 0.1061701849102974, 0.057851310819387436, 0.047475386410951614, 0.12169862538576126, 0.009230479598045349, -0.14401784539222717, 0.1438966691493988, -0.0974748283624649, 0.050289154052734375, 0.1755618005990982, -0.10877031832933426, -0.03379379212856293, 0.06653876602649689], [-0.13306039571762085, -0.011831761337816715, -0.24834471940994263, -0.07191359996795654, -0.2924373149871826, -0.2744152545928955, 0.019472770392894745, -0.08741246908903122, 0.13707178831100464, 0.10886164009571075, -0.16058968007564545, -0.022727686911821365, 0.02922150492668152, -0.04106363281607628, 0.006017621606588364, -0.32309335470199585, -0.14511731266975403, -0.03670265153050423, -0.11626697331666946, 0.1392090767621994, 0.019400130957365036, -0.13021957874298096, 0.16066837310791016, -0.2626505494117737, -0.027905596420168877, -0.12983489036560059, 0.06039430573582649, -0.17204159498214722, 0.02015446126461029, -0.12782862782478333, -0.10681702196598053, 0.11959820985794067], [-0.012236453592777252, -0.11419329047203064, -0.11198057979345322, 0.046940527856349945, 0.009162764064967632, -0.06248898059129715, -0.10638690739870071, -0.16617536544799805, 0.14081232249736786, 0.16577082872390747, 0.015134880319237709, -0.13783584535121918, 0.13767240941524506, -0.016898419708013535, 0.13024146854877472, 0.06114780902862549, 0.01937667652964592, -0.16333942115306854, 0.18107931315898895, -0.09212188422679901, 0.11550849676132202, -0.271923691034317, -0.05559854209423065, -0.2569250762462616, -0.07929781824350357, -0.019477441906929016, -0.12666545808315277, -0.15287719666957855, 0.13623635470867157, 0.10048083961009979, -0.07917037606239319, -0.12462063878774643], [-0.02446216531097889, -0.13422104716300964, 0.02997584082186222, -0.13841143250465393, -0.11816857755184174, -0.19570481777191162, -0.08325964212417603, 0.028080010786652565, 0.11389467120170593, -0.0191468708217144, -0.13654854893684387, 0.16979236900806427, 0.03489217534661293, -0.06823518127202988, -0.06127030402421951, -0.09332413971424103, 0.08380940556526184, -0.006596327293664217, 0.11290766298770905, -0.00796501711010933, 0.14621073007583618, -0.14619223773479462, -0.08141506463289261, -0.13873475790023804, -0.16585330665111542, -0.1877274066209793, -0.1599607765674591, -0.01044708676636219, 0.03783508390188217, -0.022782711312174797, -0.17831403017044067, 0.16038747131824493], [-0.0768638551235199, -0.056263744831085205, -0.011415869928896427, -0.2450890988111496, -0.1467658132314682, -0.0255430955439806, 0.1713600903749466, -0.13608931005001068, 0.12809649109840393, -0.17905575037002563, -0.23752330243587494, 0.14536967873573303, -0.01673714630305767, 0.1746416836977005, 0.01285470463335514, -0.2001107931137085, 0.16788756847381592, 0.02725129947066307, -0.014926131814718246, -0.1071629747748375, -0.007653888780623674, -0.22187434136867523, 0.12881384789943695, -0.1279040277004242, 0.03721528872847557, -0.02268420346081257, 0.05855577439069748, -0.11035574972629547, 0.10500265657901764, 0.1004558801651001, -0.22289177775382996, 0.13366137444972992], [0.0775836631655693, -0.1619807928800583, -0.24982494115829468, -0.1408243030309677, -0.28186625242233276, -0.018933236598968506, 0.1280311495065689, -0.1678631603717804, 0.16388076543807983, -0.038303546607494354, -0.08058571815490723, -0.1231946274638176, -0.0074738371185958385, 0.07145842164754868, 0.07614382356405258, -0.1255282312631607, -0.08914182335138321, 0.0070673618465662, 0.12754033505916595, 0.02836921252310276, -0.08129534870386124, -0.0889010801911354, 0.0004726979823317379, 0.032149747014045715, 0.026197027415037155, -0.10357437282800674, 0.012084364891052246, 0.09404681622982025, 0.0409436970949173, 0.17390626668930054, -0.024412579834461212, -0.13357724249362946], [0.011432671919465065, -0.12828083336353302, -0.11746273934841156, 0.057922836393117905, 0.05359603837132454, -0.0035722055472433567, 0.1680196076631546, -0.08788088709115982, -0.07408458739519119, -0.014914015308022499, 0.014701716601848602, -0.014973404817283154, 0.15916776657104492, -0.07466099411249161, -0.09246746450662613, 0.029171301051974297, 0.13277381658554077, 0.05517562851309776, 0.05235808342695236, 0.03422136604785919, 0.15066473186016083, 0.11744657903909683, 0.12649588286876678, -0.009028282947838306, -0.1463526338338852, -0.07165098935365677, 0.06022221967577934, 0.12401709705591202, -0.0884607583284378, 0.1669735610485077, 0.04163374379277229, 0.0007021664641797543], [0.009901287034153938, 0.057414308190345764, 0.24025265872478485, 0.0613219290971756, 0.17635346949100494, -0.0680936723947525, -0.09107906371355057, 0.08615519106388092, 0.1411561369895935, 0.051242709159851074, 0.10061280429363251, -0.17465388774871826, 0.003323320997878909, -0.11669058352708817, -0.15094465017318726, 0.10713076591491699, -0.11184755712747574, 0.23268161714076996, -0.11061045527458191, 0.05696949362754822, 0.10376134514808655, -0.04229513183236122, 0.09047078341245651, 0.06744430959224701, 0.09159909188747406, 0.2495395541191101, -0.07533612102270126, -0.07656268030405045, 0.11614824086427689, -0.0015800390392541885, 0.04943012073636055, 0.13411487638950348], [-0.05327397957444191, 0.15957731008529663, 0.2793254852294922, 0.21500563621520996, 0.030388209968805313, 0.19885419309139252, -0.13478104770183563, 0.045042186975479126, 0.1136694997549057, -0.09214356541633606, 0.05221283435821533, 0.012530341744422913, 0.04319898039102554, -0.10988736897706985, -0.11921172589063644, -0.016410453245043755, 0.045676182955503464, 0.03476642817258835, -0.011881624348461628, -0.03953755646944046, -0.11558720469474792, 0.11153901368379593, -0.13588647544384003, 0.07333444803953171, -0.0055103423073887825, 0.0021522254683077335, -0.15503905713558197, 0.13241644203662872, -0.02750261127948761, -0.102740079164505, 0.12984395027160645, 0.1310914307832718], [-0.1273227035999298, -0.34276217222213745, -0.3665763735771179, -0.23469462990760803, -0.2276691347360611, -0.35793739557266235, 0.1226978600025177, -0.3377634286880493, 0.16504503786563873, -0.14863750338554382, -0.23525366187095642, 0.03305492922663689, -0.07857324928045273, 0.1625712662935257, -0.12187591195106506, -0.23455746471881866, -0.1298002302646637, -0.17171187698841095, 0.1274050772190094, 0.16397559642791748, 0.02098582126200199, -0.33709031343460083, 0.17179955542087555, -0.22907839715480804, 0.11960303783416748, -0.3184674084186554, -0.08204088360071182, -0.14674821496009827, 0.13143765926361084, 0.00525113008916378, -0.32762008905410767, 0.01518314890563488], [-0.10047643631696701, 0.09858071058988571, 0.1480962485074997, 8.63365494296886e-05, 0.11447861045598984, -0.030325690284371376, 0.03406411409378052, -0.08264243602752686, 0.028169624507427216, 0.21797983348369598, 0.242839053273201, 0.06448480486869812, 0.13007749617099762, 0.17187252640724182, 0.050093088299036026, 0.14252322912216187, 0.022986996918916702, 0.23989029228687286, 0.16493545472621918, -0.08313107490539551, -0.0072672124952077866, 0.000808127922937274, 0.06343284249305725, -0.08390523493289948, 0.06255565583705902, 0.03764690086245537, 0.06410843133926392, 0.055173110216856, -0.05909610912203789, 0.07197985798120499, 0.15143419802188873, -0.15026739239692688], [0.17500220239162445, 0.27106836438179016, 0.2316904217004776, 0.10457447171211243, 0.17683649063110352, 0.022294551134109497, -0.06006857380270958, 0.19915051758289337, 0.07869532704353333, 0.08379559218883514, -0.05276232957839966, 0.146491140127182, -0.0738372951745987, 0.15298540890216827, 0.14565534889698029, 0.1818111687898636, 0.1761208474636078, 0.21892495453357697, 0.1218353807926178, -0.060028448700904846, 0.16395781934261322, 0.16530835628509521, 0.10444597899913788, 0.07880335301160812, 0.1280253678560257, 0.2744705379009247, -0.13545536994934082, 0.14492227137088776, -0.07955870777368546, -0.10831724852323532, -0.03579804301261902, 0.051081348210573196], [-0.1525641232728958, -0.19466443359851837, -0.20986635982990265, -0.06361361593008041, -0.2849234938621521, -0.20058615505695343, 0.0012932127574458718, -0.09859003871679306, -0.07983666658401489, 0.10271845757961273, -0.2256360799074173, -0.14971037209033966, -0.025131449103355408, -0.0955740287899971, 0.11142821609973907, -0.24242393672466278, -0.014840811491012573, -0.039542220532894135, -0.15614314377307892, 0.13684634864330292, -0.08032293617725372, -0.1723879724740982, -0.10813673585653305, -0.19409596920013428, -0.06816325336694717, -0.2732301652431488, 0.06040593609213829, -0.0005663061165250838, 0.21256819367408752, 0.14065857231616974, 0.027408026158809662, 0.05201241374015808], [0.06150311604142189, -0.1732444018125534, -0.17502029240131378, -0.42170199751853943, -0.33627966046333313, -0.48837530612945557, 0.006687609013170004, -0.36467814445495605, 0.15342742204666138, 0.0697191059589386, -0.2923678755760193, -0.12787185609340668, -0.13872213661670685, 0.027828868478536606, -0.08783716708421707, -0.4014597535133362, 0.1239972710609436, -0.3979473412036896, -0.06911210715770721, 0.13573049008846283, 0.06906644254922867, -0.4434534013271332, 0.05353652685880661, -0.2514543831348419, -0.1570131778717041, -0.28354018926620483, 0.04038816690444946, -0.006884940434247255, 0.20999623835086823, -0.09541088342666626, -0.1973389983177185, -0.0939066931605339], [-0.17746223509311676, -0.0989314615726471, -0.29018479585647583, -0.1794116497039795, -0.09930525720119476, -0.34669917821884155, -0.15131890773773193, -0.13494612276554108, 0.15413616597652435, 0.024052096530795097, -0.06194788217544556, 0.062119439244270325, 0.05043487623333931, -0.11270785331726074, 0.16824163496494293, -0.12273239344358444, 0.027333833277225494, -0.06760585308074951, -0.1566513627767563, 0.03809253126382828, -0.08321385085582733, -0.23165550827980042, 0.05791788175702095, -0.13844221830368042, 0.04055371880531311, -0.33475562930107117, -0.11063260585069656, 0.0030866244342178106, 0.010473323054611683, -0.16464214026927948, -0.025316879153251648, 0.022235538810491562], [-0.1455727517604828, -0.02537948079407215, -0.02041250467300415, -0.17045170068740845, -0.0003793074283748865, -0.20569752156734467, 0.06124980002641678, 0.07020331174135208, 0.11669576913118362, 0.09849535673856735, -0.1234966292977333, 0.033187124878168106, 0.06168901175260544, 0.043177150189876556, -0.03581356629729271, -0.07379000633955002, -0.0716000571846962, -0.19009901583194733, -0.15933147072792053, -0.14412759244441986, -0.11096542328596115, 0.06776764988899231, 0.0353756844997406, -0.26473450660705566, -0.09036275744438171, -0.05159960687160492, -0.052910372614860535, -0.05003846436738968, -0.02679775282740593, -0.06679396331310272, -0.08514227718114853, 0.010468391701579094], [0.11716607213020325, 0.07478827983140945, 0.11680447310209274, -0.03399355709552765, -0.10261048376560211, -0.02631785161793232, -0.11706405133008957, 0.06097467243671417, -0.02132818102836609, -0.016588440164923668, -0.17226243019104004, 0.08519159257411957, 0.09867241233587265, 0.1612604558467865, -0.06262669712305069, 0.027364982292056084, 0.006663522217422724, -0.13535910844802856, -0.10739511996507645, 0.09052468836307526, -0.10152699053287506, 0.09977973252534866, 0.06175859645009041, 0.025353088974952698, 0.11642080545425415, 0.06349647045135498, 0.07624069601297379, 0.0917191281914711, -0.03324301913380623, -0.07234987616539001, -0.05144499987363815, 0.09814081341028214], [0.1593245267868042, 0.21987050771713257, 0.03483524173498154, 0.06309127807617188, -0.037885602563619614, 0.19271452724933624, -0.11722538620233536, 0.017374323680996895, 0.14597609639167786, 0.0828225240111351, 0.007831591181457043, -0.11903643608093262, -0.12156474590301514, 0.14266332983970642, -0.16157466173171997, 0.2368393987417221, 0.14141520857810974, 0.09597960859537125, 0.0027523022145032883, 0.1374831199645996, 0.07795441150665283, 0.2595943808555603, 0.1428023874759674, -0.025663213804364204, 0.1090923324227333, 0.17696507275104523, -0.12551362812519073, 0.084900863468647, -0.049001581966876984, -0.08323580771684647, 0.07664864510297775, -0.021722570061683655], [-0.03432052209973335, -0.1894790381193161, 0.02545783296227455, 0.10976649075746536, -0.10252789407968521, -0.18295398354530334, -0.009115351364016533, -0.20489968359470367, -0.14355254173278809, -0.04924347996711731, 0.05223904177546501, -0.13543112576007843, -0.028210613876581192, -0.09179486334323883, -0.16277407109737396, -0.1044415757060051, -0.010297423228621483, -0.09336047619581223, 0.1324978768825531, 0.07081007957458496, 0.11006025224924088, -0.0056235166266560555, 0.018546972423791885, 0.024952374398708344, -0.11277461796998978, 0.022386785596609116, 0.08420116454362869, -0.07502522319555283, 0.02502300776541233, -0.13717399537563324, -0.20307661592960358, -0.00019528741540852934], [0.03712857887148857, -0.09573770314455032, 0.001192698604427278, -0.18867917358875275, -0.14570660889148712, 0.07644113898277283, -0.1720341444015503, -0.01333987433463335, 0.13609552383422852, 0.15624277293682098, 0.015099856071174145, -0.1610260158777237, 0.022757695987820625, -0.062164999544620514, -0.04969364032149315, 0.08781112730503082, -0.06007622182369232, -0.1750790774822235, -0.10674663633108139, 0.1116139367222786, 0.008529932238161564, 0.11815421283245087, 0.03615143895149231, -0.2165730595588684, 0.04373591020703316, 0.11198006570339203, 0.1096421405673027, 0.05304884538054466, -0.17476196587085724, -0.09532501548528671, 0.08608313649892807, -0.11820313334465027], [0.01478281244635582, -0.016391336917877197, 0.06319046020507812, 0.02039729617536068, -0.13049744069576263, -0.0712113007903099, 0.15418307483196259, 0.002152705565094948, 0.08963551372289658, -0.06823641061782837, 0.14136555790901184, -0.03784150630235672, -0.05958501994609833, 0.03585994988679886, -0.06334144622087479, -0.07247891277074814, -0.025295905768871307, -0.007359526585787535, -0.06464139372110367, 0.060424670577049255, -0.1713288575410843, 0.11036695539951324, 0.163953959941864, 0.029842214658856392, -0.04130534455180168, -0.16014717519283295, 0.08301477134227753, 0.1448473334312439, 0.15576724708080292, 0.03770773112773895, 0.05166101083159447, 0.16938911378383636], [-0.00401122123003006, -0.10934840887784958, -0.18509545922279358, 0.04794071987271309, 0.044307366013526917, 0.12878328561782837, -0.08999795466661453, 0.051468849182128906, -0.05848732963204384, -0.03402519226074219, 0.07726112008094788, -0.16204729676246643, 0.13030867278575897, 0.08221857249736786, -0.10506180673837662, 0.06334645301103592, -0.04446505010128021, -0.004473478067666292, -0.032617535442113876, -0.17308439314365387, -0.018308401107788086, 0.058924600481987, -0.020567409694194794, -0.11497507989406586, 0.005601273849606514, 0.00981372781097889, -0.049323465675115585, -0.13708750903606415, -0.0861479789018631, -0.0556572824716568, 0.024814067408442497, 0.1572028249502182], [0.006030815187841654, 0.04743942618370056, 0.08998315036296844, -0.0920279324054718, -0.07147832214832306, 0.10818058997392654, 0.12657001614570618, 0.03511792793869972, -0.13660992681980133, 0.1431189775466919, -0.1550867110490799, 0.08835694938898087, 0.020950565114617348, 0.057101476937532425, -0.17231270670890808, -0.07060907781124115, 0.07507645338773727, 0.12626412510871887, -0.020735695958137512, 0.15764057636260986, -0.03944928199052811, -0.11525770276784897, -0.07655199617147446, -0.0011165232863277197, -0.03141910582780838, 0.07565243542194366, -0.0978320837020874, -0.05028776451945305, -0.2190399467945099, 0.12486930936574936, -0.039436519145965576, -0.13935519754886627], [0.011681769974529743, 0.027539171278476715, 0.07286058366298676, -0.003089162055402994, 0.13053935766220093, -0.024862121790647507, -0.05291113257408142, -0.016176998615264893, 0.03155994042754173, 0.13962450623512268, 0.019446061924099922, 0.1360171139240265, 0.13886630535125732, -0.09203876554965973, -0.015188691206276417, -0.05220554769039154, 0.0735345110297203, -0.03584383800625801, 0.05788987874984741, 0.010561452247202396, -0.11604778468608856, -0.086334727704525, -0.1726621836423874, -0.059541843831539154, 0.04938333481550217, 0.037052229046821594, 0.13295410573482513, -0.15544229745864868, -0.04667762294411659, -0.18501253426074982, 0.04169832170009613, 0.06440622359514236], [-0.12872600555419922, 0.21362413465976715, -0.0028424784541130066, 0.20690205693244934, 0.02315106987953186, 0.14372408390045166, 0.16070355474948883, -0.03067529760301113, -0.04297206178307533, 0.06038961187005043, -0.10235539823770523, 0.10463907569646835, -0.1110357865691185, 0.16418372094631195, -0.11585331708192825, -0.02557786926627159, 0.13190819323062897, -0.02536463364958763, 0.13912640511989594, 0.12162581086158752, 0.16157592833042145, -0.1144159585237503, 0.0019812812097370625, -0.006327347829937935, 0.04210885241627693, -0.08216104656457901, 0.07248798757791519, -0.008374578319489956, -0.04209044948220253, -0.13535334169864655, 0.12502828240394592, -0.06397640705108643], [0.1487853080034256, -0.03329658508300781, -4.079458085470833e-05, -0.0699881762266159, -0.07092598080635071, -0.10915371030569077, -0.1530710905790329, 0.06735319644212723, -0.1113235205411911, 0.11510507017374039, -0.102199025452137, 0.11074511706829071, 0.15150153636932373, -0.10811770707368851, 0.14596903324127197, -0.04662309214472771, -0.13504520058631897, 0.02409750036895275, 0.10114715248346329, 0.1558307260274887, -0.1682773232460022, 0.09894706308841705, 0.13401567935943604, 0.11511154472827911, 0.09634438902139664, -0.13694927096366882, 0.1341048628091812, 0.16155920922756195, -0.02971704863011837, -0.037848860025405884, 0.09897851198911667, 0.14230215549468994], [0.10306964069604874, 0.05145007744431496, -0.17078834772109985, -0.10430791229009628, -0.13854794204235077, 0.016877977177500725, 0.04405494034290314, -0.22138004004955292, -0.022205214947462082, -0.16304434835910797, -0.23370179533958435, 0.16115456819534302, -0.08892238885164261, 0.07890068739652634, -0.03936437517404556, -0.11171796172857285, -0.00011417581117711961, 0.06643954664468765, 0.010621141642332077, 0.14627663791179657, 0.10343342274427414, 0.03632372245192528, -0.16032591462135315, -0.16441398859024048, -0.14402426779270172, -0.11165283620357513, -0.03661433607339859, 0.035921696573495865, 0.16696523129940033, 0.08341003209352493, -0.19136562943458557, -0.11086433380842209], [0.14572098851203918, 0.02742336504161358, 0.059032488614320755, -0.061319317668676376, -0.009921391494572163, 0.04785958305001259, -0.11600533872842789, 0.09483136236667633, 0.08809561282396317, -0.05499069392681122, -0.060950711369514465, -0.041560374200344086, 0.027511080726981163, -0.06484521925449371, 0.1691083312034607, -0.16051140427589417, -0.09991409629583359, -0.09423284232616425, 0.03589480742812157, 0.025085845962166786, -0.05037359520792961, 0.14807647466659546, -0.15260303020477295, 0.05910424143075943, -0.09727165848016739, -0.03096776269376278, -0.1702360212802887, -0.1319650411605835, -0.11072205007076263, 0.10458642989397049, -0.07004150748252869, 0.09247201681137085], [-0.062177665531635284, -0.03202522546052933, 0.03172621130943298, 0.1503722369670868, -0.035577163100242615, 0.10790710896253586, 0.04876771569252014, 0.11657342314720154, 0.11167129874229431, 0.0804082602262497, -0.04295901581645012, -0.0496152900159359, 0.06881939619779587, 0.09635081142187119, -0.009435183368623257, 0.09260346740484238, -0.10635223984718323, 0.10856950283050537, 0.007055538706481457, -0.1216527447104454, -0.08589297533035278, -0.12221022695302963, 0.035658929497003555, -0.09623488038778305, -0.05062238872051239, -0.001832157839089632, -0.107862189412117, 0.004539215471595526, 0.013391583226621151, 0.030233705416321754, 0.11838719993829727, -0.1067146360874176], [0.09947153925895691, 0.053548507392406464, -0.04016925022006035, -0.008738851174712181, 0.10183045268058777, 0.08308758586645126, -0.005709928460419178, -0.030425433069467545, 0.08914772421121597, 0.036404892802238464, -0.11273269355297089, -0.0312411617487669, -0.04796172305941582, -0.07543230056762695, -0.09805763512849808, -0.0868307501077652, 0.17410805821418762, -0.10047560930252075, 0.13895408809185028, -0.13896483182907104, -0.04288911819458008, -0.014364219270646572, -0.09461971372365952, 0.11222080886363983, 0.10245884209871292, -0.05715956911444664, -0.08233367651700974, 0.09023159742355347, 0.01613440364599228, 0.06790677458047867, 0.12240692228078842, -0.0653422623872757], [-0.08334779739379883, -0.03205502778291702, -0.16733433306217194, -0.21985186636447906, -0.18452252447605133, -0.1792108416557312, 0.1760198026895523, -0.07505635172128677, 0.0761328861117363, 0.004402835853397846, -0.21960413455963135, 0.12756876647472382, -0.02747972309589386, -0.04577295109629631, 0.14406536519527435, -0.18878880143165588, 0.03589598461985588, -0.2517085373401642, 0.11174226552248001, 0.07021768391132355, -0.14536280930042267, 0.0014210670487955213, 0.019454142078757286, -0.18952690064907074, 0.15072572231292725, -0.022094883024692535, 0.062122199684381485, -0.06565939635038376, -0.051524508744478226, -0.11071799695491791, -0.04003927856683731, 0.047621216624975204], [-0.0792655199766159, 0.12349437922239304, 0.0638151615858078, -0.08892946690320969, 0.053742267191410065, -0.10729940980672836, 0.055477432906627655, 0.0961599349975586, -0.15636463463306427, -0.11014097183942795, -0.04002859443426132, 0.026361925527453423, -0.1453765332698822, -0.11630167812108994, -0.01693142205476761, -0.06266620755195618, 0.0381297692656517, -0.014404785819351673, 0.04071919992566109, 0.011719142086803913, 0.02031821571290493, -0.053480904549360275, 0.06348451226949692, 0.08366455882787704, -0.08822045475244522, -0.1288788914680481, 0.0775899663567543, -0.12783318758010864, 0.11972643435001373, 0.05582321435213089, -0.008883464150130749, -0.07674597203731537], [0.03309987485408783, -0.12379050254821777, -0.15408527851104736, 0.18255123496055603, -0.1542910784482956, -0.14668041467666626, -0.0686684250831604, -0.006173628382384777, 0.04048788547515869, -0.10678374767303467, -0.016806641593575478, -0.03947595879435539, 0.14791356027126312, 0.15343403816223145, 0.07265682518482208, -0.0008025176357477903, 0.1325707584619522, -0.14329135417938232, 0.04751931503415108, -0.10275283455848694, 0.13786134123802185, -0.15509213507175446, 0.06568185985088348, -0.13776327669620514, 0.10317540168762207, 0.03135073557496071, 0.15168125927448273, -0.13332805037498474, 0.1238001361489296, -0.1393442451953888, -0.10689380764961243, 0.0672382116317749], [-0.06525349617004395, -0.14673829078674316, -0.15323738753795624, -0.04604950547218323, 0.04451723396778107, 0.13551326096057892, 0.13001160323619843, -0.0061422185972332954, -0.10843374580144882, -0.2027565985918045, 0.1422082930803299, -0.09856090694665909, -0.03109014965593815, -0.1426437497138977, -0.12218999117612839, 0.020720310509204865, -0.04370290786027908, 0.010931173339486122, -0.0007573619950562716, 0.009006507694721222, -0.035027340054512024, -0.01866736263036728, 0.07683916389942169, 0.10806242376565933, 0.14941687881946564, -0.15129423141479492, -0.1494310200214386, -0.02641998417675495, 0.02418237179517746, 0.07512453943490982, 0.13393254578113556, 0.04539582133293152], [-0.1360897272825241, -0.06931889802217484, 0.07288108021020889, 0.02017037943005562, -0.1650620996952057, -0.020756114274263382, -0.1706894487142563, -0.09437664598226547, 0.12363822013139725, -0.09733586013317108, 0.07287590950727463, -0.14419220387935638, 0.15628904104232788, 0.084323450922966, 0.1145530492067337, 0.014814176596701145, 0.012524041347205639, -0.12337926030158997, -0.11313643306493759, -0.12139599025249481, 0.14609625935554504, -0.09685230255126953, 0.004306691233068705, -0.20498552918434143, 0.04744472727179527, -0.09447427839040756, -0.14139102399349213, 0.021878408268094063, -0.1674717217683792, -0.016446854919195175, -0.16907216608524323, 0.11175885796546936], [-0.15924899280071259, -0.0007364231860265136, 0.06250598281621933, -0.16498814523220062, 0.0944175198674202, 0.11423470079898834, -0.1083635687828064, -0.0005320292548276484, 0.05360632389783859, 0.16243895888328552, 0.11072707176208496, -0.14828239381313324, -0.1440848559141159, -0.15630917251110077, -0.0786198228597641, -0.05864869803190231, -0.06342801451683044, 0.09368248283863068, -0.1253010630607605, -0.14109013974666595, -0.13818927109241486, -0.12538979947566986, 0.17314651608467102, -0.009175420738756657, -0.030951233580708504, -0.0718483254313469, -0.1353975236415863, -0.059977009892463684, 0.13190264999866486, 0.1303277164697647, 0.09368199110031128, 0.012585427612066269], [-0.07172878831624985, -0.1832701861858368, 0.10339425504207611, -0.22705240547657013, -0.025845080614089966, -0.07961434125900269, 0.16413171589374542, 0.04701464623212814, -0.04466056823730469, -0.1188393384218216, -0.038655344396829605, -0.12364470958709717, -0.018644079566001892, 0.04426141828298569, 0.08632500469684601, -0.11554750055074692, -0.11933020502328873, -0.2175879329442978, -0.13964948058128357, 0.022173603996634483, -0.10759323090314865, -0.06995067745447159, -0.08374863117933273, -0.1941402405500412, 0.1191992312669754, 0.032644711434841156, 0.1241220235824585, 0.16957411170005798, -0.08517026156187057, -0.09219493716955185, -0.18898165225982666, 0.1187014952301979], [0.08336278796195984, 0.12982188165187836, -0.13343538343906403, -0.10438121110200882, 0.1551276594400406, -0.1433451771736145, -0.117734394967556, 0.05185570567846298, -0.15453000366687775, -0.019803084433078766, 0.0650920495390892, 0.14482153952121735, -0.020058823749423027, -0.15643687546253204, 0.10007143020629883, 0.1647910475730896, -0.13123516738414764, -0.01882348582148552, -0.12978726625442505, -0.09026558697223663, 0.05949002131819725, 0.07017016410827637, 0.07309932261705399, -0.17126424610614777, -0.04285537824034691, 0.06380757689476013, -0.01640869490802288, -0.0546509325504303, -0.13548119366168976, 0.14349564909934998, -0.1363406926393509, -0.13925014436244965], [0.09902528673410416, -0.1257932186126709, 0.08399586379528046, -0.1022479310631752, -0.038069844245910645, -0.10748907923698425, 0.14605562388896942, 0.07577037066221237, 0.008494317531585693, 0.022941740229725838, -0.08162540197372437, -0.09449083358049393, -0.06686568260192871, 0.05788587033748627, -0.03179636225104332, 0.09727365523576736, 0.025452185422182083, -0.017141610383987427, -0.09514685720205307, 0.07131390273571014, -0.1635197103023529, 0.007244047708809376, 0.06342862546443939, 0.0037726867012679577, 0.1244107335805893, 0.01969991996884346, -0.048822127282619476, -0.12370036542415619, -0.129989355802536, 0.11075489223003387, 0.0767134353518486, -0.13484124839305878], [0.03192172199487686, -0.07703189551830292, 0.13119538128376007, -0.06217164173722267, 0.13159547746181488, 0.1145472526550293, 0.0977739617228508, 0.09049747884273529, 0.055133156478405, 0.08289021998643875, -0.1588553637266159, -0.04035773500800133, -0.020039035007357597, 0.0857732817530632, -0.06850150227546692, 0.06820786744356155, 0.12002697587013245, 0.06068321317434311, 0.07680398970842361, -0.023561984300613403, 0.0846807062625885, -0.07560773193836212, 0.15313367545604706, -0.01755272038280964, -0.010311732068657875, -0.16901235282421112, 0.16349762678146362, -0.024733245372772217, 0.13958951830863953, -0.09015805274248123, -0.14963652193546295, -0.028295455500483513], [-0.1664441078901291, 0.003970400430262089, -0.028718547895550728, -0.09286964684724808, 0.07894371449947357, 0.08751937001943588, -0.1560850590467453, -0.16547401249408722, 0.10341846197843552, -0.1515210121870041, 0.003843446495011449, -0.04708005115389824, 0.03161163255572319, -0.09755104780197144, 0.0005648941732943058, -0.0912516638636589, -0.07963478565216064, -0.11763502657413483, 0.038761336356401443, 0.11438748985528946, -0.00435640336945653, -0.03222697973251343, 0.14585287868976593, 0.11293655633926392, -0.025662604719400406, -0.17464610934257507, 0.04148389771580696, 0.05278174206614494, -0.17997732758522034, -0.1794402003288269, -0.009313351474702358, 0.17262105643749237], [-0.12410502135753632, -0.08259158581495285, -0.055928781628608704, -0.13290193676948547, -0.09982682764530182, 0.1307242065668106, 0.13520504534244537, -0.1022067591547966, 0.003789633745327592, -0.13447363674640656, 0.07291121780872345, -0.12074071168899536, -0.09008821099996567, -0.08193789422512054, 0.026057224720716476, 0.11234335601329803, -0.07398668676614761, 0.03482893481850624, 0.12850245833396912, -0.010711431503295898, 0.018253441900014877, 0.010774971917271614, -0.002258249092847109, 0.0990201011300087, 0.09565256536006927, -0.09149038791656494, 0.1687973439693451, 0.10171819478273392, 0.012189132161438465, 0.18065008521080017, -0.00040421824087388813, 0.11170779913663864], [-0.176934614777565, 0.1899387091398239, 0.19842855632305145, -0.10050221532583237, -0.1260783076286316, -0.019073033705353737, -0.10868456214666367, 0.08879995346069336, 0.0786890909075737, 0.02091481164097786, 0.15894757211208344, 0.006698714569211006, -0.05195673555135727, -0.15089142322540283, 0.05618339031934738, -0.13226060569286346, -0.0006045122281648219, 0.061336904764175415, -0.10751165449619293, 0.053107284009456635, 0.0343637578189373, 0.15409179031848907, 0.11056454479694366, -0.11025777459144592, -0.13116511702537537, -0.02919026091694832, -0.12717308104038239, 0.055426180362701416, -0.0832723006606102, -0.11974542587995529, 0.07876681536436081, 0.10668796300888062], [-0.035270605236291885, -0.211177259683609, -0.0053683132864534855, 0.08219368755817413, 0.11708547174930573, -0.010246718302369118, 0.12272350490093231, -0.18673080205917358, 0.16911840438842773, -0.14133228361606598, -0.13693469762802124, 0.12686793506145477, -0.03928189352154732, 0.10909507423639297, -0.12381867319345474, 0.10311926156282425, 0.16765417158603668, 0.0268230177462101, 0.15783584117889404, -0.12624087929725647, -0.03903457522392273, 0.010202757082879543, 0.09989475458860397, -0.13237594068050385, 0.11248911172151566, -0.0887690931558609, -0.09435545653104782, 0.0345798023045063, -0.10045229643583298, -0.1603696495294571, 0.04398433864116669, 0.06021227315068245], [0.0397019200026989, -3.1825875339563936e-05, -0.10341930389404297, -0.12036639451980591, 0.18477383255958557, -0.12267454713582993, 0.05327926203608513, 0.13046227395534515, 0.13505306839942932, -0.10227043926715851, -0.031917620450258255, -0.1413387656211853, 0.11088652163743973, -0.16589418053627014, -0.16273830831050873, -0.08589158952236176, 0.1441965103149414, 0.13322660326957703, 0.11749497801065445, 0.1356385052204132, -0.08244527876377106, -0.06835158914327621, -0.10860011726617813, 0.09014419466257095, 0.06876363605260849, 0.0603373646736145, -0.1359977275133133, 0.015703536570072174, -0.12904873490333557, -0.061247073113918304, 0.007176538463681936, 0.008787154220044613], [-0.12869003415107727, 0.11146923154592514, -0.11320769786834717, 0.013440986163914204, 0.07958000898361206, 0.03902642801403999, 0.12380018830299377, 0.04298140108585358, 0.1294432282447815, 0.0371461920440197, 0.0786270946264267, -0.07684025913476944, -0.09525516629219055, 0.08441181480884552, 0.046383533626794815, -0.03891928121447563, -0.14911270141601562, 0.018384726718068123, 0.11181753873825073, -0.02040967345237732, 0.04061280936002731, 0.04007183760404587, -0.17458094656467438, -0.0594966784119606, -0.06557796895503998, -0.12594373524188995, 0.10804738849401474, 0.1752718836069107, -0.003534573595970869, 0.13352127373218536, -0.14236588776111603, 0.031143400818109512], [-0.008547567762434483, -0.10401086509227753, 0.032617077231407166, 0.05008244886994362, -0.012508240528404713, 0.07585389167070389, 0.08487207442522049, 0.1297077089548111, 0.010247479192912579, 0.024589044973254204, -0.002289402997121215, 0.02439575456082821, -0.1146252453327179, -0.02175930142402649, -0.14948810636997223, -0.11612848192453384, -0.15057623386383057, 0.12576155364513397, -0.05205254256725311, -0.014266160316765308, 0.018898984417319298, 0.1486683189868927, 0.08022831380367279, -0.11990773677825928, 0.1729009747505188, -0.16434155404567719, 0.022984109818935394, 0.1615217924118042, 0.12049348652362823, -0.022412657737731934, -0.09623604267835617, 0.07762277871370316], [0.12800580263137817, -0.0624404214322567, -0.0034839229192584753, -0.08378724753856659, 0.08686540275812149, 0.06737055629491806, 0.08762706816196442, -0.04448038339614868, -0.1706443727016449, -0.10783669352531433, -0.11371009796857834, -0.042587198317050934, 0.06424429267644882, -0.14706623554229736, -0.0082516148686409, -0.14316661655902863, -0.1252726912498474, -0.10265960544347763, -0.037848684936761856, -0.0895688384771347, 0.027210215106606483, 0.13086490333080292, 0.13329452276229858, 0.08658705651760101, -0.0011697435984387994, -0.008883100934326649, 0.12003186345100403, -0.10124538838863373, 0.08709776401519775, -0.14485545456409454, -0.08905862271785736, 0.04689254239201546], [-0.10246787220239639, -0.04770494997501373, 0.07280252873897552, 0.01999296434223652, 0.10809819400310516, -0.1486044079065323, -0.0844162181019783, -0.11847224831581116, -0.035602789372205734, -0.09863107651472092, -0.07472015172243118, 0.1597035974264145, -0.09690150618553162, 0.09927476942539215, 0.0821208581328392, 0.02465776354074478, 0.04769103229045868, -0.1373683512210846, 0.06491287797689438, -0.08326105773448944, -0.10850857943296432, 0.07137023657560349, 0.14652800559997559, -0.2117159515619278, 0.14358748495578766, -0.040108177810907364, 0.045312583446502686, 0.17038913071155548, 0.028015732765197754, -0.07725279033184052, 0.03602902963757515, -0.045663874596357346], [-0.07691354304552078, -0.07480525225400925, 0.1747821867465973, 0.0864800438284874, -0.031523894518613815, -0.007989936508238316, 0.012372206896543503, -0.10053574293851852, 0.0501912496984005, -0.15769870579242706, -0.012197239324450493, -0.03316948562860489, -0.072180837392807, 0.16349872946739197, 0.04950813204050064, 0.0808117613196373, -0.11636430770158768, 0.02753700688481331, 0.032301902770996094, 0.09176812320947647, -0.052162837237119675, -0.04322546720504761, -0.14352348446846008, 0.10008670389652252, 0.11800847947597504, 0.08114339411258698, 0.08984072506427765, 0.10588036477565765, 0.17732754349708557, 0.06260526925325394, 0.06842692941427231, 0.05560242012143135], [-0.12411957234144211, -0.06977084279060364, -0.058316707611083984, -0.26591768860816956, -0.16212891042232513, -0.21465665102005005, -0.1129530668258667, 0.007528748828917742, 0.13906779885292053, -0.027818748727440834, -0.05596574768424034, -0.041401881724596024, 0.037479907274246216, -0.029593640938401222, -0.09196178615093231, -0.1809532642364502, 0.17559444904327393, -0.0767720639705658, -0.10137328505516052, 0.020067082718014717, -0.1763620674610138, -0.10496340692043304, 0.1357032209634781, -0.0882289931178093, 0.04211883991956711, -0.27130159735679626, -0.033249709755182266, 0.10431306809186935, -0.15692536532878876, -0.08741053193807602, 0.010478305630385876, 0.050766490399837494], [0.07070260494947433, -0.2523401975631714, 0.02041158825159073, -0.13018040359020233, -0.04684677720069885, 0.05171357840299606, -0.1629103124141693, -0.06393048912286758, -0.15981020033359528, 0.12221913784742355, -0.03613678365945816, 0.019669849425554276, -0.07081878185272217, 0.06665104627609253, -0.09175672382116318, -0.05849158763885498, 0.14845412969589233, -0.2203620970249176, -0.032065536826848984, 0.04128937050700188, 0.030684612691402435, -0.0857434868812561, 0.15208451449871063, -0.13492153584957123, 0.04559991881251335, 0.0035204673185944557, -0.034275542944669724, 0.11551167815923691, 0.1537298709154129, 0.07020584493875504, -0.14002108573913574, 0.153549924492836], [-0.07343670725822449, 0.001685013878159225, -0.01389321032911539, 0.08235306292772293, -0.18721862137317657, -0.01738271676003933, -0.10180400311946869, 0.037898413836956024, 0.060703955590724945, -0.121473528444767, -0.052502263337373734, 0.04945051670074463, 0.07530514150857925, 0.15726716816425323, 0.07938896119594574, -0.014384941197931767, 0.09429872781038284, -0.21151721477508545, 0.1120104268193245, -0.02078437991440296, 0.10004917532205582, -0.004457481205463409, -0.009322376921772957, 0.07019847631454468, -0.1030532568693161, 0.0027541478630155325, 0.07749458402395248, -0.06291167438030243, 0.049367696046829224, -0.15346737205982208, -0.1338406801223755, 0.08594972640275955]], "bias": [0.22134320437908173, -0.19647905230522156, 0.2605412006378174, 0.07344534993171692, 0.18355967104434967, -0.1677968055009842, -0.25102439522743225, -0.241102933883667, -0.28037747740745544, -0.06841669231653214, -0.33666226267814636, 0.20747250318527222, -0.17337772250175476, -0.003491673618555069, -0.15264731645584106, -0.09383328258991241, -0.2128565013408661, 0.14902155101299286, 0.19762103259563446, 0.2499958872795105, -0.2227465659379959, 0.16727711260318756, -0.06339722126722336, -0.012667357921600342, -0.25947192311286926, -0.29672515392303467, -0.21140162646770477, -0.18215040862560272, 0.08761779218912125, -0.10434766858816147, -0.11237097531557083, 0.16965889930725098, -0.07194896042346954, 0.04700697213411331, -0.003700082655996084, 0.143416628241539, 0.024173561483621597, 0.0734357163310051, 0.04811665415763855, -0.030551858246326447, 0.19702307879924774, -0.08889777958393097, -0.13046912848949432, 0.054174475371837616, -0.03193012624979019, -0.15671154856681824, 0.0013148544821888208, -0.09594891220331192, -0.07715906202793121, -0.08917084336280823, -0.08326558768749237, -0.09526009112596512, 0.01509155984967947, 0.1940624862909317, -0.10556004196405411, -0.06086748093366623, -0.14892272651195526, -0.005699053406715393, 0.03520618751645088, -0.1498851627111435, 0.08102307468652725, -0.2470698207616806, 0.10015784949064255, 0.004734945949167013]}, "prelu": {"num_parameters": 32, "weight": [-0.3569607138633728, 0.1368286907672882, -0.11077772825956345, -0.13527721166610718, 0.11396521329879761, 0.05489601567387581, -0.09895607084035873, -0.1314796656370163, -0.07488855719566345, -0.012676283717155457, -0.10127391666173935, -0.0034249555319547653, -0.2653356194496155, -0.08077433705329895, -0.16450969874858856, -0.060273073613643646, -0.09755771607160568, 0.08408018201589584, 0.03410019353032112, -0.14063423871994019, -0.14657799899578094, -0.026194540783762932, -0.08429267257452011, -0.13029177486896515, -0.06576316058635712, -0.1899968683719635, -0.04402516409754753, 0.06870566308498383, -0.2716640532016754, 0.04623469337821007, 0.22965651750564575, 0.040274836122989655]}, "res": {"in_channels": 1, "out_channels": 32, "kernel_size": 1, "dilation": 1, "groups": 1, "weight": [[[-0.5058979392051697]], [[-0.4408297538757324]], [[0.2995288670063019]], [[1.1308966875076294]], [[-0.8494571447372437]], [[-0.4195278286933899]], [[1.0511764287948608]], [[0.02500614896416664]], [[-0.45505714416503906]], [[-0.5265727639198303]], [[-0.11585924029350281]], [[-0.11886116117238998]], [[-0.9602876305580139]], [[-0.7291692495346069]], [[0.11350484937429428]], [[0.8426576852798462]], [[1.0189201831817627]], [[-0.08965900540351868]], [[0.2348177433013916]], [[-0.7313195466995239]], [[0.8208124041557312]], [[1.360015630722046]], [[0.6053541302680969]], [[-0.24278903007507324]], [[0.5961070656776428]], [[-0.8522255420684814]], [[0.0114810261875391]], [[-0.39937111735343933]], [[-1.2883843183517456]], [[-0.7754126787185669]], [[-0.9340680241584778]], [[0.22458776831626892]]], "bias": null}, "causal": true}, {"conv1": {"in_channels": 32, "out_channels": 32, "kernel_size": 13, "dilation": 10, "groups": 1, "weight": [[[0.0006078233127482235, 0.0016141649102792144, -0.033144835382699966, 0.027097022160887718, 0.00339898350648582, 0.008570762351155281, 0.0075869495049119, -0.07376518100500107, -0.08678463846445084, -0.03902968391776085, 0.017874956130981445, 0.13867828249931335, 0.20436042547225952], [-0.04948032274842262, 0.011448122560977936, 0.007623955141752958, -0.010212819091975689, -0.043854426592588425, 0.01733068749308586, 0.03380321338772774, -0.018871713429689407, 0.017731033265590668, 0.004323888104408979, -0.03516070917248726, -0.02684592828154564, -0.018085110932588577], [0.02062765508890152, -0.006059317849576473, -0.011628520675003529, -0.04005281254649162, -0.024737557396292686, 0.015810301527380943, -0.03244805335998535, -0.048307087272405624, -0.08939355611801147, -0.12578053772449493, -0.05861536040902138, 0.12289410829544067, 0.4945297837257385], [-0.032532092183828354, -0.010113826021552086, -0.012684516608715057, -0.019867515191435814, -0.011998622678220272, -0.010123572312295437, -0.022802231833338737, -0.011674863286316395, -0.061890859156847, -0.15074416995048523, -0.16607876121997833, -0.18926005065441132, -0.0826798602938652], [-0.006769458297640085, -0.05029575154185295, 0.014075025916099548, -0.018059106543660164, -0.028273679316043854, 0.04447271302342415, 0.04452107846736908, -0.001448614988476038, -0.06262002885341644, -0.0531654991209507, 0.06856025755405426, 0.07317960262298584, -0.011418068781495094], [0.0157939326018095, 0.01959085650742054, 0.04981284588575363, -0.004323587287217379, -0.10811012983322144, -0.01684209145605564, -0.059200089424848557, 0.024793388321995735, -0.03137696906924248, 0.08931400626897812, 0.11109285056591034, 0.1445978879928589, 0.18685922026634216], [0.02167336642742157, 0.03564935922622681, 0.024162862449884415, 0.0490989163517952, 0.022396814078092575, 0.028956783935427666, 0.01386529952287674, 0.03216834366321564, 0.07956080883741379, 0.113826684653759, 0.0023713912814855576, -0.14374865591526031, -0.4620732069015503], [-0.01773471012711525, -0.005122760310769081, 0.009106178767979145, 0.02326199784874916, 0.011547774076461792, -0.02581489458680153, -0.02206069976091385, -0.00849946215748787, -0.0041522011160850525, 0.09090928733348846, 0.02580115757882595, -0.05804640054702759, -0.2943550944328308], [0.02166653238236904, 0.015081175602972507, 0.02513335645198822, 0.01315905712544918, 0.03530896082520485, -0.008609586395323277, -0.00332341599278152, 0.034503329545259476, 0.06633725762367249, 0.07985779643058777, 0.002103678183630109, -0.05249420925974846, -0.2640782296657562], [-0.0030654824804514647, 0.037655092775821686, -0.050360094755887985, -0.015180971473455429, 0.010535950772464275, 0.007104671560227871, -0.004712719935923815, -0.008561236783862114, 0.0394115149974823, -0.05278825759887695, 0.0630355104804039, 0.0931110605597496, 0.16245247423648834], [-0.015946272760629654, -0.035661350935697556, 0.008411179296672344, -0.11577809602022171, -0.03723091632127762, -0.006749824620783329, 0.02502007782459259, 0.06964834034442902, -0.012345357798039913, -0.027144940569996834, -0.015455659478902817, 0.13304978609085083, 0.4340112805366516], [0.02008851431310177, 0.05431655794382095, 0.011098595336079597, 0.031493328511714935, -0.012085952796041965, -0.020158246159553528, 0.08749696612358093, -0.05464949086308479, -0.05354049801826477, 0.0888112485408783, -0.025731904432177544, -0.011207382194697857, -0.15014120936393738], [0.0281229168176651, 0.007554293144494295, -0.015522265806794167, -0.032034095376729965, -0.0076628318056464195, -0.008220084011554718, -0.01655867137014866, -0.022580241784453392, -0.05079182982444763, -0.04668436571955681, -0.04952537640929222, 0.1232471838593483, 0.3324933350086212], [0.012013617902994156, -0.02374236471951008, 0.014665604569017887, -0.0030220267362892628, 0.024446584284305573, -0.005744720809161663, 0.051844075322151184, -0.007459776010364294, -0.0008031301549635828, 0.0051885684952139854, -0.003069269238039851, 0.01555304042994976, 0.010710280388593674], [0.016885224729776382, -0.008535020984709263, -0.022227276116609573, -0.03501002490520477, -0.01587330549955368, 0.01711399108171463, 0.007626709993928671, -0.020680813118815422, 0.02745925821363926, -0.022986263036727905, -0.04142000526189804, -0.017550962045788765, 0.08556109666824341], [0.01169413048774004, -0.00040997887845151126, 0.05595121905207634, -0.02613537386059761, 0.0621858686208725, 0.05761672928929329, -0.01631464622914791, 0.026538265869021416, 0.012655298225581646, 0.031300585716962814, -0.05122595652937889, -0.1520659625530243, 0.003943991847336292], [-0.05526448413729668, -0.03164968267083168, 0.017859408631920815, -0.05042782053351402, -0.0354645662009716, -0.0097024692222476, -0.0036947790067642927, -0.030790358781814575, -0.03656821697950363, -0.08089616149663925, -0.08892052620649338, -0.024475539103150368, 0.015040704049170017], [0.05922644957900047, -0.0118001913651824, 0.02037149667739868, -0.024155082181096077, 0.004160539712756872, -0.040829140692949295, 0.007505910005420446, -0.04785129800438881, 0.016380077227950096, 0.045296624302864075, 0.10190198570489883, -0.015501114539802074, 0.023641014471650124], [-0.06659059971570969, -0.04608450084924698, -0.02697763219475746, -0.019757844507694244, -0.0018387635936960578, -0.03962341696023941, 0.02827063575387001, -0.02709236368536949, -0.023423131555318832, -0.0089197913184762, 0.037388961762189865, 0.04982944205403328, 0.2584388256072998], [0.020224975422024727, -0.015173157677054405, -0.048573557287454605, -0.018492180854082108, -0.07195151597261429, -0.03558235615491867, -0.0061287349089980125, -0.05156292766332626, -0.02882487326860428, -0.076136514544487, -0.02618672512471676, -0.03334001451730728, -0.0022776515688747168], [-0.01583741046488285, -0.0007855561561882496, 0.02210523746907711, 0.04604136571288109, -0.013326337561011314, 0.009120102040469646, 0.016808174550533295, 0.023422004655003548, 0.06049463152885437, 0.05317140743136406, 0.03144071623682976, -0.13402405381202698, -0.33100107312202454], [-0.048891644924879074, -0.05169852823019028, -0.005004970822483301, 0.001145800924859941, 0.012244456447660923, 0.007422028109431267, -0.00976654700934887, -0.02328275889158249, -0.019761767238378525, 0.008529015816748142, 0.0030766534619033337, -0.12515921890735626, -0.15833954513072968], [-0.0091761015355587, 0.006545666605234146, 0.018219944089651108, 0.03180908039212227, 0.012930127792060375, 0.036653660237789154, 0.06475447118282318, 0.05135472118854523, 0.07268377393484116, 0.0004904018132947385, -0.045934345573186874, -0.1473952680826187, -0.013871517963707447], [-0.028795134276151657, -0.022963955998420715, 0.01387330237776041, 0.03265087679028511, 0.028285112231969833, 0.006348264403641224, -0.03524528443813324, 0.04458428919315338, 0.05629061907529831, 0.03622322157025337, 0.022814402356743813, -0.057215653359889984, -0.2921067476272583], 