{"version": 1, "arch": "direct", "config": {"nblocks": 4, "kernel_size": 13, "dilation_growth": 10, "channel_width": 32, "causal": true, "nparams": 0, "sample_rate": 48000, "receptive_field": 13333}, "gen": [{"in_features": 0, "out_features": 16, "weight": [[], [], [], [], [], [], [], [], [], [], [], [], [], [], [], []], "bias": [0.0, 0.0, 0.0, 0.0, 0.0, 0.0, 0.0, 0.0, 0.0, 0.0, 0.0, 0.0, 0.0, 0.0, 0.0, 0.0]}, {"in_features": 16, "out_features": 32, "weight": [[0.19272145628929138, 0.03695222735404968, -0.11670997738838196, 0.0637245774269104, -0.11518415808677673, -0.02931821346282959, -0.10153958201408386, 0.16584274172782898, -0.19734254479408264, -0.11525258421897888, -0.0705936849117279, -0.15031811594963074, 0.02359578013420105, -0.24691978096961975, 0.225777268409729, -0.21236705780029297], [0.19300684332847595, 0.04160478711128235, -0.08117613196372986, 0.1544874906539917, 0.03896269202232361, 0.20199084281921387, 0.02732992172241211, -0.07884329557418823, 0.06717091798782349, -0.06779485940933228, 0.10521438717842102, 0.2232055366039276, 0.14451488852500916, -0.109293133020401, 0.144316166639328, 0.04473155736923218], [0.12695875763893127, -0.15237626433372498, -0.24747711420059204, -0.09659013152122498, -0.19175571203231812, 0.20513471961021423, 0.07200783491134644, 0.10355338454246521, 0.07906529307365417, -0.0043489933013916016, 0.1956520676612854, -0.17762839794158936, 0.015740931034088135, -0.17063504457473755, 0.07708799839019775, -0.08609557151794434], [0.07660406827926636, -0.05208536982536316, 0.20734795928001404, -0.14817547798156738, -0.14909949898719788, -0.14910849928855896, 0.22486069798469543, 0.08331277966499329, 0.24056267738342285, -0.20631906390190125, -0.24796903133392334, -0.19559094309806824, -0.16817227005958557, 0.10126003623008728, 0.0895189642906189, 0.20773109793663025], [-0.129106342792511, -0.17042794823646545, 0.13264453411102295, -0.10105112195014954, 0.1517309546470642, -0.05932515859603882, 0.14301148056983948, -0.19424200057983398, -0.12616243958473206, 0.0762191116809845, 0.05285188555717468, -0.06373968720436096, 0.1490173637866974, 0.16995230317115784, -0.1812933385372162, -0.13346704840660095], [0.2289154827594757, -0.08435812592506409, -0.0886290967464447, -0.24189865589141846, -0.14316755533218384, 0.062450915575027466, -0.03299829363822937, -0.18147149682044983, 0.005864173173904419, -0.17077037692070007, -0.21209916472434998, -0.13766565918922424, -0.2188030183315277, -0.1591845154762268, 0.24990221858024597, 0.04721873998641968], [0.0770399272441864, -0.23317107558250427, -0.16419345140457153, -0.08321395516395569, 0.0390927791595459, -0.21998032927513123, -0.10771825909614563, -0.1496671438217163, 0.0006928145885467529, -0.093025803565979, -0.017323940992355347, -0.1694074273109436, -0.17159879207611084, -0.14585044980049133, -0.08557435870170593, -0.19732022285461426], [0.2096174657344818, -0.0496160089969635, 0.21509918570518494, 0.07789552211761475, -0.2116992473602295, 0.17300879955291748, -0.06878620386123657, -0.09583151340484619, -0.2075176239013672, -0.24854016304016113, 0.07152765989303589, -0.0546109676361084, 0.09733077883720398, -0.20516586303710938, 0.18560728430747986, -0.18351343274116516], [-0.043168336153030396, 0.05221742391586304, 0.1290629506111145, 0.20182758569717407, 0.22773981094360352, -0.1982305347919464, 0.0629168152809143, -0.10753148794174194, -0.027396202087402344, -0.18712252378463745, 0.2277146577835083, -0.18348762392997742, 0.13361281156539917, 0.08785989880561829, 0.08123898506164551, -0.13516154885292053], [0.22723788022994995, 0.05493760108947754, 0.032160013914108276, -0.22031369805335999, 0.10494711995124817, -0.037505149841308594, -0.11453106999397278, 0.21473664045333862, 0.055737197399139404, -0.13831910490989685, -0.12653473019599915, -0.011938929557800293, 0.139590322971344, -0.0638834536075592, -0.14264371991157532, -0.08561071753501892], [-0.18676871061325073, 0.08915811777114868, 0.1935100555419922, -0.23536008596420288, 0.05806267261505127, 0.1291479468345642, 0.04533234238624573, -0.0890311598777771, 0.13048553466796875, 0.13137829303741455, 0.09348180890083313, -0.04393035173416138, -0.06620031595230103, 0.026745229959487915, -0.044163525104522705, -0.07450026273727417], [0.15980172157287598, 0.21484988927841187, -0.024749338626861572, -0.055974215269088745, 0.0036480724811553955, -0.014927059412002563, 0.06010282039642334, 0.07005840539932251, -0.22706419229507446, -0.09225943684577942, 0.21053236722946167, 0.09738874435424805, -0.012434393167495728, -0.15072643756866455, -0.15295127034187317, -0.22394171357154846], [-0.08149060606956482, 0.08442604541778564, 0.1594054102897644, 0.11542433500289917, -0.220986008644104, -0.15034061670303345, -0.03945416212081909, 0.24183738231658936, 0.03616437315940857, -0.06474268436431885, 0.10342881083488464, -0.09522038698196411, -0.1618139147758484, 0.18247181177139282, -0.11367544531822205, -0.05011668801307678], [-0.2487010657787323, 0.16731765866279602, 0.18940865993499756, 0.09111204743385315, -0.17431855201721191, -0.24673497676849365, -0.20304474234580994, 0.18642506003379822, 0.12002643942832947, 0.21037611365318298, 0.13096746802330017, 0.06327304244041443, -0.002448171377182007, -0.19012650847434998, -0.21419304609298706, -0.23383715748786926], [0.10234048962593079, -0.12274199724197388, -0.05031314492225647, -0.143876314163208, -0.04555588960647583, -0.17595872282981873, -0.16335391998291016, 0.08292770385742188, -0.07429909706115723, 0.15433579683303833, -0.08020219206809998, -0.18339180946350098, -0.044109731912612915, -0.12118685245513916, -0.07648539543151855, -0.23799890279769897], [0.1398727297782898, -0.17405113577842712, 0.1256544291973114, 0.11344605684280396, 0.17860817909240723, -0.1917630136013031, 0.17979919910430908, -0.11818790435791016, 0.09276729822158813, 0.23477867245674133, -0.035257965326309204, -0.001933366060256958, -0.057557642459869385, -0.20874613523483276, 0.11997571587562561, -0.24817946553230286], [0.15519997477531433, 0.1870562732219696, 0.23642659187316895, -0.0589698851108551, -0.20541048049926758, 0.0562075674533844, 0.1381068229675293, -0.24882718920707703, -0.05674591660499573, -0.14986386895179749, -0.021865934133529663, -0.12305337190628052, -0.10219189524650574, -0.07936471700668335, -0.23757600784301758, 0.20512688159942627], [0.20958280563354492, -0.0392172634601593, -0.028470516204833984, -0.10202997922897339, -0.22576570510864258, -0.2432861030101776, 0.09291461110115051, -0.1372615396976471, -0.16071924567222595, -0.019505798816680908, -0.08325278759002686, -0.08088019490242004, 0.008032798767089844, -0.053028106689453125, -0.08607810735702515, -0.11970147490501404], [-0.203456848859787, 0.20962679386138916, -0.1000467836856842, 0.06624487042427063, -0.08674147725105286, 0.020315319299697876, 0.2330751121044159, 0.11518067121505737, -0.21664991974830627, 0.09922569990158081, 0.23731070756912231, 0.06577083468437195, 0.1676061749458313, 0.24647188186645508, -0.038307249546051025, 0.051888614892959595], [-0.17375877499580383, -0.05151927471160889, 0.18514594435691833, 0.1281614601612091, -0.15819725394248962, -0.20047125220298767, -0.17084091901779175, -0.24671941995620728, -0.19290974736213684, -0.06182435154914856, 0.16871929168701172, 0.04184556007385254, -0.1901513636112213, -0.2005559802055359, 0.124368816614151, -0.1859603226184845], [-0.030781865119934082, 0.11992651224136353, -0.11570301651954651, -0.02725997567176819, -0.02176111936569214, -0.059145838022232056, -0.12675803899765015, -0.22285959124565125, -0.20208925008773804, -0.13386541604995728, 0.2414594292640686, -0.12075367569923401, -0.16788199543952942, 0.060598552227020264, 0.06890258193016052, 0.1369774341583252], [0.19003009796142578, 0.1392185389995575, -0.24787524342536926, 0.022172152996063232, 0.15143826603889465, -0.023106366395950317, -0.14731979370117188, 0.23833495378494263, -0.09350696206092834, -0.14233613014221191, -0.225388765335083, 0.011167079210281372, 0.11078327894210815, 0.055340707302093506, 0.04943743348121643, -0.18959686160087585], [-0.2334718108177185, 0.004402339458465576, 0.2279585301876068, 0.14423033595085144, -0.14555856585502625, -0.032452136278152466, -0.1842958927154541, -0.12060585618019104, 0.045274585485458374, 0.13613462448120117, 0.2070923149585724, -0.22952651977539062, 0.16715380549430847, -0.1763230264186859, 0.09361681342124939, 0.21156132221221924], [0.003510594367980957, 0.22745224833488464, -0.21301287412643433, -0.09548979997634888, 0.1458132266998291, -0.054466962814331055, -0.051175057888031006, -0.1041979193687439, 0.17232653498649597, 0.12262579798698425, 0.0801125168800354, -0.14049091935157776, -0.20293739438056946, 0.027040153741836548, 0.07406970858573914, -0.11542797088623047], [-0.06994941830635071, 0.16884192824363708, 0.01991492509841919, 0.011279582977294922, -0.0615251362323761, -0.22639742493629456, -0.23506435751914978, -0.11950376629829407, -0.12708035111427307, 0.07788839936256409, -0.07277768850326538, -0.09780552983283997, 0.23835745453834534, 0.08708071708679199, 0.178225576877594, -0.12102818489074707], [-0.10211670398712158, 0.09188511967658997, -0.166568785905838, -0.163426011800766, -0.012074917554855347, -0.09144017100334167, -0.1874144971370697, 0.1482897400856018, 0.20104071497917175, 0.04055583477020264, -0.04352831840515137, -0.23156824707984924, -0.09105968475341797, 0.06364640593528748, 0.11788272857666016, -0.031604379415512085], [-0.098838210105896, 0.13930651545524597, -0.19909992814064026, 0.158004492521286, -0.09698870778083801, 0.003826349973678589, -0.04940396547317505, 0.030309736728668213, -0.07554960250854492, 0.18178173899650574, -0.006499290466308594, 0.19514986872673035, 0.24037012457847595, -0.12179774045944214, -0.18237727880477905, 0.20057550072669983], [0.195903480052948, -0.19088682532310486, -0.019325822591781616, -0.24653157591819763, -0.20464977622032166, 0.04828563332557678, 0.06650865077972412, 0.052995264530181885, -0.06804117560386658, 0.23064443469047546, 0.03574448823928833, -0.14752119779586792, -0.014153450727462769, 0.060036301612854004, 0.087548166513443, -0.17677021026611328], [0.09369739890098572, -0.1277204155921936, -0.2077350914478302, -0.1365518569946289, 0.24110233783721924, 0.21371445059776306, 0.223871111869812, 0.14675280451774597, 0.1888623833656311, -0.03346243500709534, -0.13755697011947632, 0.12491413950920105, -0.1295456886291504, -0.1687164604663849, -0.0798335075378418, 0.052464812994003296], [0.1286991536617279, -0.09710225462913513, -0.14714157581329346, 0.033723264932632446, -0.14735829830169678, -0.16276535391807556, 0.130312979221344, -0.041996151208877563, 0.22844624519348145, 0.24319565296173096, 0.07477638125419617, 0.08603942394256592, 0.0575709342956543, 0.003915220499038696, -0.018183112144470215, 0.0034360289573669434], [0.093356192111969, 0.232442706823349, -0.0647897720336914, -0.10567894577980042, -0.06054121255874634, -0.1207810640335083, 0.04250967502593994, 0.1866120994091034, 0.19549435377120972, 0.11478137969970703, -0.18398287892341614, -0.13417619466781616, -0.05492785573005676, -0.04608103632926941, 0.020561933517456055, -0.22949287295341492], [0.07781118154525757, -0.19071802496910095, -0.1581861674785614, -0.20784562826156616, 0.21782991290092468, -0.23673495650291443, 0.18859168887138367, -0.00840422511100769, -0.02907469868659973, 0.1563696265220642, -0.023106902837753296, 0.15678852796554565, 0.18075373768806458, -0.21705251932144165, 0.0961959958076477, 0.04719474911689758]], "bias": [-0.002220572903752327, 0.1338692307472229, 0.1986226886510849, -0.12026670575141907, -0.03198528289794922, 0.3691665232181549, 0.24808081984519958, -0.009392112493515015, -0.23513272404670715, 0.16343136131763458, -0.17024338245391846, 0.3178936541080475, -0.15177184343338013, -0.018050402402877808, -0.055485665798187256, 0.15282972157001495, 0.39703369140625, -0.0012023160234093666, 0.29371321201324463, 0.35960817337036133, 0.2704632580280304, -0.0863378643989563, -0.05591416358947754, 0.2525217533111572, -0.06821691989898682, 0.14463162422180176, -0.05461692810058594, -0.16956308484077454, 0.18205444514751434, 0.14745855331420898, 0.17976593971252441, 0.3549819886684418]}, {"in_features": 32, "out_features": 32, "weight": [[0.12069126963615417, 0.1675809621810913, 0.009461588226258755, -0.15206553041934967, -0.12401366233825684, -0.1098090410232544, -0.15578417479991913, -0.08860887587070465, -0.16273492574691772, -0.16309687495231628, -0.10563372075557709, -0.17427244782447815, -0.10850773751735687, 0.06740648299455643, 0.1474410891532898, -0.05258449539542198, -0.05142058804631233, 0.09439049661159515, -0.08721647411584854, -0.08358577638864517, 0.10891734063625336, -0.1540258228778839, 0.021615326404571533, 0.1561613380908966, 0.030314816161990166, 0.04807332530617714, -0.10295318067073822, -0.0024389117024838924, 0.0097199697047472, 0.04338705912232399, 0.0686858743429184, 0.15360619127750397], [-0.08270404487848282, 0.1777394562959671, 0.09192945063114166, -0.13984166085720062, -0.014155861921608448, 0.017727689817547798, 0.2928883731365204, 0.020473357290029526, -0.09527522325515747, 0.2622789442539215, -0.16730640828609467, 0.10400095582008362, -0.034439411014318466, -0.15021604299545288, -0.11241023987531662, 0.14277127385139465, 0.3067309558391571, 0.1973189264535904, 0.2846738398075104, 0.06790909171104431, 0.052793633192777634, 0.15427181124687195, 0.06252899765968323, 0.17768670618534088, 0.023923562839627266, 0.024050047621130943, -0.059023160487413406, 0.1701684445142746, 0.13038966059684753, 0.17046990990638733, 0.0214909166097641, 0.0729263573884964], [0.03732134401798248, 0.1470946967601776, 0.23509098589420319, 0.07194089889526367, -0.17291894555091858, 0.2993776798248291, 0.1292993724346161, -0.08627605438232422, 0.06786628812551498, 0.3965863585472107, -0.048314597457647324, 0.1727156788110733, -0.15984782576560974, -0.0911562591791153, -0.1547922044992447, 0.21524593234062195, 0.28281134366989136, -0.14051401615142822, 0.4022544324398041, 0.35832083225250244, 0.06870211660861969, -0.0844343826174736, 0.05765663459897041, 0.21407566964626312, -0.019264502450823784, 0.1591077446937561, 0.14199049770832062, -0.0988178551197052, 0.3939136266708374, 0.2837413251399994, 0.27750736474990845, 0.3803463280200958], [0.033245690166950226, 0.12759263813495636, 0.20781050622463226, 0.14337533712387085, -0.13116607069969177, 0.2662591338157654, 0.05049500614404678, 0.09268439561128616, 0.06531328707933426, 0.23402801156044006, 0.07587134093046188, 0.22474393248558044, 0.09781988710165024, -0.1399400532245636, -0.025960097089409828, 0.3018571734428406, 0.401466965675354, 0.11467204242944717, 0.09767726808786392, 0.3614450991153717, 0.18093723058700562, -0.03774437680840492, -0.160674050450325, 0.20035085082054138, 0.12503889203071594, 0.2373165786266327, -0.10296428203582764, 0.05441400408744812, 0.17143100500106812, 0.39734792709350586, 0.06694015115499496, 0.16796666383743286], [-0.15304338932037354, 0.10296279937028885, 0.21342678368091583, 0.17016783356666565, 0.0296889990568161, 0.3288372755050659, 0.18832524120807648, 0.10209490358829498, 0.14171519875526428, 0.31899940967559814, -0.09894610941410065, 0.31973937153816223, 0.1070852130651474, -0.08265706896781921, -0.08435843139886856, 0.02197655849158764, 0.20354656875133514, -0.1461004614830017, 0.2361394166946411, 0.216186985373497, 0.0023700862657278776, 0.04817180335521698, -0.014377343468368053, 0.24289128184318542, 0.10143262892961502, -0.022059021517634392, 0.1621217131614685, 0.14825235307216644, 0.22405007481575012, 0.01467257272452116, 0.09333688765764236, 0.10607461631298065], [0.025884168222546577, 0.22028382122516632, 0.20590026676654816, 0.14003880321979523, -0.06620696932077408, 0.19791218638420105, 0.19982904195785522, -0.1471826583147049, -0.17147690057754517, 0.01756274327635765, 0.12101206928491592, -0.03211468085646629, -0.15387241542339325, 0.09903040528297424, 0.0953761488199234, 0.26895949244499207, 0.002649653470143676, -0.08101756870746613, 0.22458650171756744, 0.2890002131462097, 0.2376176118850708, 0.027692439034581184, 0.05826112627983093, 0.30031800270080566, -0.11405708640813828, 0.041813500225543976, 0.12364945560693741, -0.1209576204419136, 0.04299064353108406, 0.28022173047065735, 0.1833827942609787, 0.19061803817749023], [-0.07492510229349136, -0.0024396071676164865, 0.1617918163537979, -0.10610491782426834, 0.001389855518937111, 0.08407491445541382, -0.12203889340162277, 0.17168143391609192, -0.08831950277090073, -0.04245045408606529, -0.04783051833510399, -0.11519810557365417, -0.17346471548080444, 0.09967581927776337, 0.046964991837739944, -0.16556918621063232, -0.11377821862697601, 0.17472043633460999, 0.06757024675607681, 0.07093069702386856, -0.10576515644788742, -0.07749821245670319, -0.026685170829296112, -0.032328907400369644, -0.12113594263792038, 0.01456373743712902, 0.01756948232650757, -0.022383643314242363, 0.02450687438249588, -0.07006555050611496, 0.0460064671933651, 0.06666963547468185], [-0.10897517949342728, -0.20458100736141205, 0.0645139068365097, 0.04216773062944412, -0.08990649878978729, 0.1411561220884323, -0.10701554268598557, 0.11945628374814987, 0.08968385308980942, -0.17839807271957397, 0.11401059478521347, -0.19257821142673492, -0.09793688356876373, -0.02947130985558033, -0.11915571242570877, 0.14018289744853973, -0.06608003377914429, 0.06420174986124039, -0.18779097497463226, 0.07076283544301987, -0.08449314534664154, -0.1344689428806305, 0.025848809629678726, 0.05333423614501953, 0.15298204123973846, -0.13266883790493011, -0.08699256926774979, 0.03398759663105011, 0.023359674960374832, 0.050274621695280075, 0.06843224912881851, -0.06951385736465454], [0.09821176528930664, 0.1303359717130661, -0.046177878975868225, 0.12576906383037567, 0.08636946976184845, 0.15592637658119202, -0.1004575788974762, -0.08729391545057297, -0.05111302062869072, 0.00896722637116909, 0.10610119253396988, -0.10091520845890045, 0.08850395679473877, -0.06335347890853882, 0.10679244250059128, -0.008392870426177979, -0.15487174689769745, -0.09727064520120621, -0.12794248759746552, 0.08767461031675339, -0.1185372918844223, -0.014728722162544727, 0.03814059868454933, -0.09694340080022812, 0.05099477618932724, -0.1726088970899582, -0.126485213637352, -0.16018149256706238, -0.05347094684839249, -0.06439928710460663, 0.025313248857855797, -0.03268856927752495], [0.08309955149888992, 0.14039821922779083, 0.0417548269033432, -0.0696442723274231, -0.16553115844726562, 0.04235462471842766, -0.10925853997468948, 0.08995747566223145, 0.1181725561618805, 0.04651698097586632, 0.16587147116661072, 0.14622780680656433, 0.03743067756295204, -0.1288059949874878, 0.1579395979642868, -0.10555052757263184, -0.10517556965351105, 0.14792296290397644, 0.11529450118541718, 0.03173891827464104, -0.010592960752546787, -0.14869852364063263, -0.01835014671087265, 0.14787785708904266, 0.04501774534583092, -0.006534275598824024, -0.036707859486341476, -0.06165658310055733, 0.08369254320859909, -0.01076651643961668, 0.09333430975675583, -0.05296356603503227], [0.06654524058103561, 0.12388623505830765, 0.08751750737428665, 0.11108170449733734, 0.1107763946056366, 0.21984097361564636, 0.19155697524547577, -0.04520120844244957, -0.14966271817684174, 0.0727815255522728, -0.0015429540071636438, 0.008734971284866333, -0.029602091759443283, 0.00831430871039629, 0.1289815604686737, 0.10836143046617508, -0.007283712271600962, -0.08143351227045059, 0.010857542976737022, -0.01336581725627184, 0.2115689516067505, 0.09362895041704178, 0.15962505340576172, 0.05568995326757431, 0.03565071150660515, 0.11628860235214233, -0.16732852160930634, 0.01578555442392826, 0.0517037995159626, -0.019468484446406364, -0.0798393040895462, 0.21003268659114838], [0.14373111724853516, 0.08193045854568481, 0.16868911683559418, -0.0717373713850975, -0.03053334727883339, 0.06693094223737717, -0.02920820750296116, -0.03468974307179451, -0.14611679315567017, 0.04749304801225662, -0.10683096200227737, 0.0064287008717656136, 0.17235295474529266, -0.054414574056863785, -0.0557185560464859, 0.10665164887905121, -0.0649925246834755, -0.015181126073002815, 0.16506320238113403, -0.07247380167245865, -0.12646785378456116, -0.09893196821212769, -0.049010567367076874, -0.08388032019138336, -0.09173503518104553, 0.0714079737663269, 0.030041029676795006, -0.05657942593097687, -0.13733983039855957, -0.055659886449575424, -0.07460668683052063, -0.05752648413181305], [-0.15947431325912476, 0.03808283805847168, -0.12988200783729553, -0.1376735419034958, -0.1444324254989624, 0.07378370314836502, -0.10642428696155548, -0.07296472787857056, 0.13856476545333862, 0.09386210143566132, 0.1013621985912323, -0.16785062849521637, -0.12676653265953064, -0.0667351484298706, 0.14603480696678162, 0.01808432675898075, -0.13221079111099243, 0.0011069448664784431, -0.13729730248451233, -0.0387316457927227, -0.048609182238578796, 0.15302880108356476, 0.05475423485040665, -0.030824750661849976, 0.0298626646399498, -0.05102933943271637, 0.06945562362670898, 0.06992647051811218, 0.047472693026065826, -0.06890347599983215, 0.1508171558380127, -0.02552124485373497], [-0.06882211565971375, 0.11071772873401642, 0.14408302307128906, 0.17592105269432068, 0.052371568977832794, -0.06026209145784378, 0.08978346735239029, 0.15166635811328888, -0.17338861525058746, -0.021900324150919914, -0.12055560201406479, 0.03294406086206436, 0.07311215996742249, -0.03651992604136467, -0.014788633212447166, 0.07956909388303757, -0.029710808768868446, -0.14845344424247742, 0.14144538342952728, -0.08897427469491959, -0.019420424476265907, 0.01667470484972, -0.010623724199831486, -0.16629135608673096, 0.08110513538122177, -0.0802975445985794, -0.0916869267821312, 0.04223468154668808, -0.09225304424762726, -0.08169905096292496, -0.059564895927906036, -0.06641104072332382], [-0.0738285705447197, -0.04767417535185814, 0.04593997821211815, -0.14305086433887482, -0.10699944943189621, 0.0025794291868805885, 0.024584002792835236, 0.09763243794441223, -0.12417571991682053, 0.056426580995321274, 0.10047806054353714, 0.09815705567598343, -0.16465361416339874, -0.06745872646570206, -0.1519511640071869, -0.1118663102388382, 0.0984615907073021, -0.0263961274176836, 0.0750790685415268, -0.10376903414726257, 0.026862967759370804, -0.10692477971315384, 0.08836925029754639, -0.07731841504573822, -0.044328369200229645, -0.1533769965171814, 0.0005839867517352104, 0.1678459644317627, 0.0858035460114479, -0.09431760758161545, 0.0023774194996804, -0.019383292645215988], [-0.10116560012102127, 0.21953511238098145, 0.10786034166812897, 0.037228647619485855, -0.07138755172491074, 0.017228880897164345, 0.12743176519870758, 0.06535627692937851, 0.03965066000819206, -0.005622567608952522, 0.1716320961713791, 0.06901127845048904, -0.10826071351766586, -0.08268069475889206, 0.1740226447582245, 0.08792821317911148, 0.07291340827941895, -0.05168025940656662, 0.04956626519560814, -0.05242697894573212, -0.046620339155197144, 0.10346553474664688, 0.15122352540493011, 0.26247793436050415, -0.1276225745677948, 0.18106208741664886, -0.10941886156797409, 0.10545794665813446, 0.2245696783065796, 0.2406381219625473, 0.21506544947624207, 0.205572247505188], [0.0034407211933285, 0.08122578263282776, -0.06324555724859238, 0.07697472721338272, -0.05681637302041054, -0.0029683182947337627, -0.15386269986629486, -0.046222615987062454, -0.09296207875013351, -0.05963045731186867, -0.11288721114397049, -0.15900076925754547, 0.01151108369231224, 0.11472439765930176, 0.16099926829338074, 0.10315877199172974, -0.09162996709346771, -0.17483386397361755, 0.06705384701490402, 0.09905044734477997, -0.151764914393425, 0.06338965892791748, 0.14946067333221436, 0.010708523914217949, -0.10650067776441574, 0.1449350267648697, 0.07548645883798599, 0.11706173419952393, -0.11955151706933975, 0.10287440568208694, -0.12075150012969971, 0.17491953074932098], [-0.039713237434625626, 0.16930446028709412, 0.11861716955900192, 0.04684767499566078, -0.02710958942770958, 0.15036307275295258, 0.003869142383337021, -0.16662605106830597, -0.06791815161705017, 0.18683189153671265, -0.04653993993997574, 0.13076817989349365, -0.06535901129245758, 0.13260890543460846, 0.1057991236448288, 0.12797506153583527, -0.013739991933107376, -0.1192399188876152, 0.0811479315161705, -0.02783558890223503, 0.21786485612392426, -0.16987811028957367, 0.07899589836597443, 0.24973781406879425, 0.08853478729724884, 0.12712566554546356, -0.1700851023197174, 0.1700402945280075, 0.04840617999434471, -0.07587315142154694, 0.24303032457828522, 0.0033498057164251804], [-0.01250652875751257, 0.1618000864982605, -0.12254172563552856, -0.12506774067878723, 0.0287469532340765, -0.023662252351641655, 0.040719058364629745, -0.14826354384422302, 0.00528679508715868, -0.07862315326929092, -0.08690498769283295, -0.1618632674217224, 0.09373024851083755, 0.03405364230275154, -0.14945466816425323, 0.14028148353099823, 0.0533195361495018, 0.0328032486140728, -0.10379202663898468, 0.02665872499346733, 0.1703314483165741, 0.12124838680028915, -0.1376861035823822, 0.16136550903320312, 0.013701919466257095, 0.0850234255194664, 0.13729827105998993, 0.15070374310016632, -0.1378035843372345, 0.15479695796966553, -0.12006229162216187, 0.013252254575490952], [-0.12352512031793594, -0.03875533491373062, -0.008033210411667824, -0.021148739382624626, -0.027926459908485413, 0.013942472636699677, 0.17437583208084106, 0.10270930081605911, 0.09890124201774597, 0.07075442373752594, 0.13685718178749084, -0.008158070035278797, 0.014055910520255566, 0.03638012707233429, -0.15417234599590302, -0.14240367710590363, 0.021673068404197693, -0.06916392594575882, -0.003243810962885618, -0.04056296870112419, 0.027517549693584442, 0.11501366645097733, -0.058626558631658554, 0.1415734887123108, 0.13957610726356506, -0.13567578792572021, -0.13651159405708313, -0.14302557706832886, -0.09687720239162445, -0.0688149705529213, -0.013305886648595333, -0.04299071058630943], [-0.08931616693735123, -0.0561608225107193, -0.06394799798727036, 0.17342469096183777, -0.06551853567361832, -0.12657226622104645, 0.07348564267158508, -0.010210895910859108, 0.1353338658809662, 0.11045584827661514, 0.16240984201431274, -0.12946408987045288, 0.11364326626062393, 0.14835785329341888, -0.08729790151119232, 0.16248957812786102, 0.1325194090604782, 0.001935910084284842, 0.08523331582546234, -0.061804939061403275, -0.15418176352977753, 0.04468562453985214, 0.05270159989595413, -0.1155339926481247, 0.08573663234710693, -0.15100665390491486, 0.15213827788829803, 0.1711888462305069, 0.04812894016504288, -0.11091478168964386, 0.08603212982416153, 0.030125534161925316], [0.02707717940211296, 0.03302101790904999, 0.11252842843532562, -0.07598496973514557, -0.039765045046806335, 0.024707628414034843, -0.0037609566934406757, 0.14254876971244812, -0.09284992516040802, -0.02961890771985054, 0.03303128480911255, -0.07100662589073181, 0.12051162123680115, 0.01933610998094082, -0.16338232159614563, -0.04447171464562416, -0.10447321832180023, -0.004102073144167662, -0.045233409851789474, -0.1998366117477417, -0.056569915264844894, -0.016931548714637756, -0.052127644419670105, 0.13909558951854706, -0.0385725200176239, 0.09033548831939697, 0.043790724128484726, -0.14922305941581726, 0.01964491233229637, 0.1248001977801323, -0.13922828435897827, -0.1372566521167755], [0.17303769290447235, 0.14204183220863342, -0.09862265735864639, 0.10637449473142624, -0.022615408524870872, -0.17428933084011078, 0.01328184176236391, 0.05711549147963524, -0.05302608758211136, 0.06149768829345703, -0.15116190910339355, 0.12250906229019165, 0.15070819854736328, 0.0974864587187767, 0.02996210940182209, 0.05822121351957321, -0.12790639698505402, -0.04417179152369499, -0.01687644049525261, -0.09837377816438675, -0.13057081401348114, 0.11890310794115067, 0.11996866017580032, -0.16054651141166687, 0.05625244975090027, 0.07191314548254013, 0.16793225705623627, 0.1022748053073883, 0.16251729428768158, -0.05787486955523491, 0.1238119900226593, 0.14379039406776428], [-0.16647247970104218, -0.0012819357216358185, 0.17440083622932434, 0.09652675688266754, -0.08782497048377991, 0.1484071910381317, 0.12853805720806122, 0.04474353790283203, -0.09499087929725647, 0.23509494960308075, 0.11755815893411636, 0.005269187968224287, 0.0017125107115134597, 0.0004904839443042874, 0.05676577612757683, 0.296572744846344, 0.17929010093212128, -0.04864395037293434, 0.2865641713142395, 0.060076359659433365, 0.07325305044651031, 0.012069487012922764, -0.13461701571941376, 0.1514163762331009, -0.11993865668773651, 0.1461503952741623, 0.016936542466282845, 0.02446955442428589, -0.009924006648361683, -0.014393388293683529, 0.21098606288433075, 0.27721238136291504], [-0.15686675906181335, 0.06547706574201584, -0.1301291286945343, 0.011082366108894348, 0.16446556150913239, 0.13410618901252747, -0.1292484700679779, 0.1093490868806839, 0.09233350306749344, -0.00027115174452774227, 0.17124831676483154, -0.07021131366491318, -0.04113873839378357, -0.08934544026851654, 0.025437602773308754, 0.04680811986327171, 0.014085602946579456, -0.09946112334728241, -0.0795789361000061, 0.06013103574514389, -0.15500247478485107, -0.027530236169695854, -0.003915884532034397, -0.0716235339641571, 0.06433223187923431, 0.011393915861845016, 0.12410866469144821, -0.015699805691838264, -0.1115705668926239, 0.12490189075469971, 0.024686651304364204, -0.05062852054834366], [-0.07897089421749115, 0.10433192551136017, -0.08173055201768875, 0.04655905440449715, 0.08740630000829697, -0.07404042780399323, -0.034731823951005936, -0.12708933651447296, 0.14858196675777435, 0.1987067610025406, 0.011066371574997902, 0.24042828381061554, -0.05909715220332146, -0.1716187447309494, 0.061747197061777115, 0.1290188729763031, 0.25026369094848633, 0.027064235880970955, 0.21059218049049377, 0.18429560959339142, 0.20178155601024628, -0.17542119324207306, 0.14556817710399628, -0.07570932060480118, 0.15848226845264435, 0.05888146907091141, -0.15666252374649048, 0.049160316586494446, 0.047472160309553146, -0.059470221400260925, 0.007585554383695126, 0.09325980395078659], [0.13768193125724792, -0.05434640124440193, 0.10499968379735947, 0.022137483581900597, 0.005958763416856527, 0.033825330436229706, -0.11601301282644272, -0.14693647623062134, -0.05554528906941414, -0.16473007202148438, -0.08243990689516068, 0.008132761344313622, -0.11642676591873169, -0.07332626730203629, -0.03176437318325043, -0.020365271717309952, -0.09758331626653671, 0.008494297042489052, -0.02481245994567871, 0.05055735632777214, 0.007984551601111889, -0.0882769301533699, -0.06086137518286705, -0.0020374839659780264, -0.11030605435371399, 0.013838959857821465, -0.012481451965868473, 0.06858556717634201, 0.04183698445558548, 0.13229677081108093, -0.005827518180012703, -0.13062120974063873], [0.07902076840400696, -0.11947238445281982, -0.024298373609781265, -0.05724077299237251, -0.06707693636417389, -0.06540453433990479, 0.16244372725486755, 0.1011970266699791, 0.04899143427610397, 0.16598564386367798, -0.16019892692565918, 0.02852601930499077, 0.11316826939582825, 0.11743097752332687, -0.14068838953971863, 0.06291297823190689, -0.10070719569921494, -0.006907341536134481, -0.036888036876916885, -0.14760226011276245, -0.16862984001636505, -0.1163010224699974, 0.08021605014801025, 0.08086393028497696, -0.15375395119190216, -0.0663871243596077, 0.0028875437565147877, -0.15283803641796112, 0.09960562735795975, 0.1601123809814453, 0.03126503899693489, -0.13134770095348358], [0.04122191295027733, 0.06417234987020493, 0.13997939229011536, -0.09405755996704102, -0.15837596356868744, 0.07766694575548172, 0.011005469597876072, -0.05759851261973381, -0.07407338172197342, -0.09114886075258255, 0.14310020208358765, -0.03050089441239834, 0.12749259173870087, 0.1577996462583542, 0.022393379360437393, 0.03765654191374779, -0.01203933171927929, 0.12141294777393341, -0.1592913419008255, 0.07030109316110611, -0.028802018612623215, 0.08071911334991455, -0.0007873663562349975, -0.06545441597700119, -0.019083039835095406, 0.09545814245939255, -0.12277669459581375, -0.11174039542675018, -0.039597343653440475, -0.06412124633789062, 0.06944481283426285, 0.11896537989377975], [-0.018932532519102097, 0.15956147015094757, -0.0813402608036995, -0.09919989854097366, -0.07914187759160995, -0.12939615547657013, -0.13144905865192413, -0.15751077234745026, -0.15667350590229034, 0.03856777027249336, 0.10780797153711319, 0.1583644300699234, 0.15057791769504547, -0.010181223973631859, 0.03430292010307312, -0.11331038922071457, 0.060697395354509354, -0.16950075328350067, 0.07577059417963028, 0.024875734001398087, 0.04670426994562149, 0.06472649425268173, -0.08115902543067932, 0.14411628246307373, 0.08436711877584457, 0.10855032503604889, 0.023348405957221985, 0.11101338267326355, 0.11139965802431107, 0.07265223562717438, 0.12719157338142395, -0.039668790996074677], [0.13894599676132202, 0.17139798402786255, 0.24631495773792267, 0.17218023538589478, 0.04002879932522774, 0.06987039744853973, 0.11653496325016022, 0.04976767301559448, 0.029806187376379967, 0.08974284678697586, 0.13850779831409454, 0.2346297651529312, -0.10980550199747086, -0.014404022134840488, -0.016969459131360054, 0.02466743253171444, 0.15698035061359406, -0.03254151716828346, 0.04180530086159706, 0.07485272735357285, 0.06536635756492615, 0.16911165416240692, 0.06780658662319183, 0.30637258291244507, 0.04847138375043869, 0.16126421093940735, 0.07267176359891891, 0.030340630561113358, 0.004051908850669861, 0.06581185013055801, 0.0887880027294159, 0.13172271847724915], [0.06659433990716934, 0.06806755810976028, 0.14023931324481964, 0.035986918956041336, -0.060332685708999634, -0.13294072449207306, -0.12947313487529755, -0.10559534281492233, 0.05331647768616676, 0.09550751745700836, 0.15466415882110596, -0.05591654032468796, -0.013944664038717747, -0.05249621719121933, -0.0006459425785578787, 0.05674556642770767, -0.0038840428460389376, 0.008183843456208706, 0.022395338863134384, 0.06583487242460251, -0.05363428592681885, -0.10541152209043503, 0.04170596972107887, -0.020931346341967583, -0.08008478581905365, 0.07423967123031616, 0.0016032028943300247, -0.025714760646224022, -0.08557473123073578, -0.023257790133357048, -0.15031765401363373, 0.040214985609054565]], "bias": [0.0026528278831392527, 0.2737627625465393, 0.24788542091846466, 0.2325672209262848, 0.19919252395629883, 0.2693924307823181, -0.08353718370199203, 0.07581912726163864, 0.04323278367519379, -0.1396060287952423, 0.11367402970790863, -0.10601890087127686, -0.055645912885665894, -0.08426394313573837, -0.12026368826627731, 0.23468178510665894, -0.1580066978931427, 0.16336823999881744, -0.15910112857818604, -0.021514786407351494, 0.010543350130319595, 0.10147687047719955, -0.06397434324026108, 0.17129838466644287, 0.027383755892515182, 0.1809130758047104, 0.010509653948247433, 0.06619308143854141, -0.10678917169570923, -0.1303979903459549, 0.2844129800796509, -0.12881134450435638]}], "blocks": [{"conv1": {"in_channels": 1, "out_channels": 32, "kernel_size": 13, "dilation": 1, "groups": 1, "weight": [[[-0.094932422041893, 0.10354261100292206, 0.2612448036670685, -0.2130737006664276, -0.1459539383649826, 0.02012120932340622, 0.14419129490852356, 0.062296707183122635, 0.3097035884857178, 0.041629817336797714, 0.1353841871023178, -0.3915928900241852, -0.0567111112177372]], [[0.08307311683893204, 0.13136108219623566, -0.10904829949140549, -0.019699759781360626, 0.030763814225792885, -0.26357483863830566, -0.2628300189971924, -0.23829998075962067, -0.04196348786354065, 0.22651761770248413, 0.22298593819141388, 0.05916431546211243, 0.18030297756195068]], [[-0.08370538055896759, -0.07019098848104477, -0.13427864015102386, -0.3492162823677063, -0.053849365562200546, -0.591035008430481, -0.13684231042861938, -0.3322073817253113, -0.0345294326543808, -0.06911319494247437, 0.13509634137153625, -0.12069811671972275, 0.21372179687023163]], [[-0.040675390511751175, 0.17277666926383972, -0.3882778584957123, 0.19259242713451385, -0.0030473407823592424, 0.009603617712855339, -0.08108380436897278, 0.15947511792182922, 0.1687799096107483, -0.2621423006057739, -0.005592494271695614, -0.1971094310283661, 0.23211367428302765]], [[0.06107926741242409, -0.06079155206680298, -0.22694601118564606, 0.06799517571926117, -0.113028384745121, 0.1764160543680191, 0.13823306560516357, 0.1454850137233734, 0.18908537924289703, -0.22876623272895813, 0.20862296223640442, -0.10109390318393707, -0.10857388377189636]], [[-0.08823888748884201, 0.16585734486579895, 0.24062256515026093, 0.10280051827430725, 0.09926268458366394, -0.26960939168930054, -0.024230940267443657, -0.24142883718013763, 0.07974261790513992, -0.29952552914619446, -0.1182621493935585, 0.1544923633337021, 0.19009052217006683]], [[-0.2519737482070923, -0.21955475211143494, -0.011509888805449009, 0.05991370603442192, -0.12437094002962112, -0.13740754127502441, -0.23445668816566467, 0.06896933913230896, 0.21650074422359467, -0.18067803978919983, 0.08341076225042343, 0.1267959177494049, 0.20721270143985748]], [[0.11267338693141937, -0.1209864467382431, 0.20212511718273163, 0.4191480576992035, 0.2094268500804901, -0.21474047005176544, -0.0013406819198280573, 0.10585431754589081, -0.1752908080816269, -0.023729495704174042, -0.14707575738430023, 0.13854242861270905, -0.2087363451719284]], [[0.05628759786486626, 0.17648139595985413, -0.3177347183227539, -0.21371956169605255, -0.05161406099796295, 0.25602462887763977, 0.21191884577274323, -0.15970765054225922, 0.10953351855278015, -0.11829552054405212, -0.18442833423614502, 0.17893235385417938, 0.0394265316426754]], [[-0.143964484333992, -0.03377486392855644, -0.020003624260425568, -0.01299541350454092, -0.17123840749263763, -0.22403371334075928, 0.12713061273097992, 0.007314805407077074, 0.09271426498889923, -0.1203392893075943, 0.16403307020664215, 0.16104160249233246, 0.14244788885116577]], [[0.2935420870780945, 0.44066280126571655, 0.010864835232496262, 0.04937667399644852, 0.28928300738334656, 0.1696104258298874, -0.29167601466178894, 0.12471792846918106, 0.1064675897359848, 0.02383967489004135, 0.29995277523994446, -0.19743560254573822, 0.20211195945739746]], [[0.10083676129579544, -0.3092304468154907, -0.18268080055713654, -0.2886340618133545, -0.07670938223600388, -0.21911831200122833, -0.03583167493343353, 0.14049097895622253, 0.23150895535945892, 0.22220134735107422, 0.20118823647499084, 0.19750577211380005, -0.11413262039422989]], [[-0.2961459457874298, 0.01754489727318287, 0.3644961416721344, -0.18209706246852875, -0.19127635657787323, -0.1945561319589615, 0.004449927713721991, -0.08407839387655258, 0.39654678106307983, 0.03926508128643036, -0.24183033406734467, 0.043641284108161926, 0.02574850060045719]], [[-0.18371480703353882, 0.047358088195323944, 0.055483128875494, -0.2796386480331421, -0.26836302876472473, 0.04276736080646515, -0.10492819547653198, 0.16827647387981415, 0.3790915608406067, -0.4159759283065796, -0.5899509191513062, 0.31951454281806946, -0.20795780420303345]], [[0.15285402536392212, -0.03233153745532036, -0.2592679560184479, -0.14081017673015594, 0.2647290825843811, 0.06764763593673706, -0.031016260385513306, 0.030890783295035362, -0.19672389328479767, 0.05829087644815445, 0.18635764718055725, -0.1991884857416153, 0.07104112207889557]], [[-0.1365121454000473, -0.11480584740638733, 0.27535280585289, 0.004830645397305489, 0.3259870409965515, -0.06758938729763031, -0.13824309408664703, -0.15772268176078796, 0.27627190947532654, -0.18315468728542328, 0.15679393708705902, -0.005486064124852419, -0.003971245139837265]], [[0.2825681269168854, 0.26847386360168457, 0.3588055372238159, -0.04292173311114311, -0.004549168981611729, 0.3084634840488434, 0.1191113069653511, -0.0052237967029213905, -0.0720914751291275, -0.21558168530464172, 0.14014111459255219, -0.017203327268362045, -0.02396133914589882]], [[0.2409922480583191, 0.31791386008262634, -0.06971430033445358, -0.04572693258523941, 0.3116808533668518, 0.23686078190803528, -0.06022161990404129, -0.1828690767288208, 0.1397482007741928, 0.2130768895149231, 0.13395801186561584, 0.2679208219051361, -0.11730149388313293]], [[0.3128531575202942, -0.05971844121813774, 0.1929776519536972, 0.20374853909015656, 0.06520772725343704, 0.16444705426692963, -0.23501341044902802, -0.31957030296325684, -0.33054259419441223, 0.09156958758831024, 0.048361584544181824, -0.24415026605129242, 0.10830346494913101]], [[0.040173400193452835, -0.1761145144701004, 0.22693945467472076, 0.09344519674777985, 0.28422197699546814, 0.9677342772483826, 0.5308646559715271, 0.216108039021492, 0.23320581018924713, 0.0252499058842659, -0.03143830969929695, -0.2659248113632202, 0.005022015888243914]], [[-0.299007385969162, 0.029040684923529625, 0.12760403752326965, 0.007444512564688921, -0.24104037880897522, -0.17629486322402954, 0.20850493013858795, 0.14455373585224152, 0.10124287009239197, -0.009472100995481014, 0.03905884921550751, -0.12333614379167557, 0.14715205132961273]], [[-0.25894492864608765, 0.003572831628844142, 0.2232235223054886, -0.2647947371006012, -0.10601827502250671, -0.23455309867858887, -0.1878286898136139, 0.036333102732896805, -0.19654050469398499, 0.25326359272003174, -0.25669482350349426, 0.1060987338423729, -0.22590433061122894]], [[-0.26935842633247375, -0.007736981380730867, 0.2171906679868698, 0.13841858506202698, -0.31970885396003723, 0.10980828106403351, -0.08241746574640274, 0.1741209477186203, -0.07092835754156113, -0.2347370684146881, 0.031026098877191544, 0.14294953644275665, -0.15080158412456512]], [[0.10165756195783615, 0.09567293524742126, -0.07110270857810974, 0.10222383588552475, -0.32100963592529297, -0.20113791525363922, -0.13555988669395447, 0.06792304664850235, 0.029513265937566757, 0.21895970404148102, 0.04495132714509964, 0.09174741059541702, -0.11928954720497131]], [[0.1814589500427246, 0.27967268228530884, -0.23061935603618622, -0.058764517307281494, -0.23099465668201447, 0.16016827523708344, -0.21098940074443817, -0.07521796971559525, 0.2977462112903595, -0.23047588765621185, 0.35125240683555603, 0.16907961666584015, 0.446127325296402]], [[-0.03897273913025856, 0.2289341539144516, 0.10398648679256439, 0.11552862823009491, 0.24411675333976746, -0.31123974919319153, -0.3699178099632263, -0.007718741428107023, -0.4669860899448395, 0.04697749763727188, 0.1358100175857544, -0.09108181297779083, -0.06619933247566223]], [[-0.16893193125724792, 0.09268348664045334, -0.24953635036945343, -0.03723980858922005, 0.041250959038734436, -0.12812824547290802, -0.18516874313354492, -0.22325514256954193, -0.3893250823020935, -0.20136260986328125, -0.19299662113189697, -0.23385454714298248, -0.23741814494132996]], [[0.41348862648010254, 0.01179049164056778, 0.11102303117513657, 0.23957769572734833, 0.005234319716691971, -0.15864020586013794, -0.20915383100509644, -0.11717596650123596, 0.05943146347999573, -0.2909112870693207, -0.11313878744840622, 0.006833118386566639, 0.11217084527015686]], [[0.2112746685743332, 0.31506556272506714, 0.2665286362171173, -0.14243954420089722, -0.04240495711565018, -0.07727570831775665, -0.2197551131248474, -0.09354895353317261, -0.1162409707903862, -0.042847033590078354, -0.07810436189174652, 0.023869361728429794, 0.11487431824207306]], [[0.018764078617095947, -0.3276669383049011, -0.10093387216329575, -0.07659155130386353, 0.1483382284641266, -0.4892098605632782, -0.4149477779865265, -0.283283531665802, -0.21149581670761108, 0.22295698523521423, -0.04179612174630165, 0.0728859081864357, -0.09396754205226898]], [[-0.12565356492996216, -0.27737686038017273, -0.16506916284561157, -0.18766683340072632, -0.034194573760032654, -0.19174477458000183, -0.05680418387055397, -0.08982956409454346, 0.0972781777381897, -0.04146541655063629, 0.3401576578617096, -0.11926852911710739, -0.09125284105539322]], [[-0.0574650801718235, 0.0503457672894001, 0.06583271920681, 0.3570629358291626, -0.06482893973588943, 0.07866763323545456, -0.055867839604616165, -0.2736499011516571, -0.16091498732566833, 0.00730219017714262, 0.010034111328423023, 0.11423882842063904, 0.06056908890604973]]], "bias": null}, "bn": {"num_features": 32, "affine": false, "eps": 1e-05, "running_mean": [1.6662738744344097e-07, -5.468680441822471e-08, -1.4810939319431782e-06, -4.712359569225555e-08, 1.400068896373341e-07, 1.2292512785450072e-08, -4.446406478564313e-07, 3.273163144967839e-07, -2.4857103042563722e-08, -9.264942946174415e-08, 1.3516912531486014e-06, -2.127315354982784e-07, -2.862664985059382e-07, -9.371076430397807e-07, -1.919509884373838e-08, 2.0544192125271366e-07, 1.1094684850831982e-06, 1.2944589116159477e-06, 5.7678917642078886e-08, 2.034832732533687e-06, -8.144478869098748e-08, -9.29194300169911e-07, -2.8525280981739343e-07, -8.817142571615477e-08, 6.730888912898081e-07, -4.1475911416455347e-07, -1.8127570911019575e-06, 1.0899064051272944e-07, 1.4340299969717307e-07, -1.5296845958800986e-06, -9.573982424626593e-07, 1.389613117908084e-07], "running_var": [0.00046569594996981323, 0.00048651787801645696, 0.025113584473729134, 2.619719634822104e-05, 0.00033467402681708336, 0.0002279778418596834, 0.0026975353248417377, 0.001634438056498766, 3.287111030658707e-05, 0.0008262688643299043, 0.019710538908839226, 0.001976913772523403, 0.0008575708488933742, 0.009050911292433739, 1.0936738362943288e-05, 0.0005270014517009258, 0.011470736935734749, 0.01634945347905159, 0.001210494665428996, 0.04446261003613472, 0.00034401140874251723, 0.010538080707192421, 0.0008164086611941457, 0.00019371385860722512, 0.006281865295022726, 0.0028123033698648214, 0.03909384086728096, 0.0011356710456311703, 0.0008265302749350667, 0.022586625069379807, 0.008355888538062572, 0.00021482593729160726]}, "adaptor": {"in_features": 32, "out_features": 64, "weight": [[-0.09641803801059723, 0.046297043561935425, 0.048050835728645325, -0.001289066975004971, 0.048757221549749374, -0.05467896908521652, 0.06723562628030777, 0.1473975032567978, 0.013996547088027, -0.10941294580698013, -0.044542018324136734, -0.06881901621818542, 0.051416099071502686, 0.0043119387701153755, 0.03214188292622566, 0.24457256495952606, 0.08210252225399017, 0.12554103136062622, -0.035765793174505234, 0.08362402766942978, 0.0646720826625824, -0.1373460739850998, -0.10442357510328293, 0.11582952737808228, 0.06707656383514404, 0.16524791717529297, -0.1052313819527626, -0.17538268864154816, -0.00920858047902584, -0.02591894194483757, 0.13118787109851837, -0.04861472547054291], [0.13514980673789978, -0.08928325772285461, 0.04134412109851837, -0.2292545586824417, -0.01785370521247387, -0.0548286996781826, -0.08841456472873688, 0.0725671648979187, -0.17395170032978058, 0.12282827496528625, -0.06684325635433197, 0.017068251967430115, 0.08174960315227509, 0.014674647711217403, 0.07577560842037201, 0.04401112347841263, -0.13796685636043549, 0.04296589642763138, -0.026470327749848366, -0.04110925644636154, 0.035581886768341064, 0.12543253600597382, -0.09609849750995636, -0.22523726522922516, 0.10970889776945114, -0.15000204741954803, 0.05691327154636383, -0.02604382298886776, 0.048658303916454315, 0.1169443428516388, -0.15946297347545624, -0.08578329533338547], [0.08673030883073807, 0.0353609174489975, -0.007996621541678905, -0.13023246824741364, 0.16486598551273346, -0.0006128423265181482, -0.032560043036937714, -0.08270576596260071, -0.034884799271821976, 0.10658949613571167, 0.022886740043759346, 0.1511809527873993, -0.01020615454763174, -0.0253599900752306, 0.09978188574314117, -0.0034887876827269793, -0.03528338298201561, 0.06507547944784164, 0.1394115686416626, 0.04411453753709793, 0.12309282273054123, 0.10681387037038803, 0.04999206215143204, 0.11018763482570648, 0.05704303830862045, 0.019793232902884483, 0.1503903567790985, 0.16318972408771515, 0.06293049454689026, 0.0067037795670330524, 0.1611231416463852, -0.13758893311023712], [0.12989266216754913, 0.14862258732318878, 0.15772905945777893, 0.04154975712299347, -0.06930858641862869, 0.17716987431049347, -0.07729659974575043, 0.07614664733409882, 0.10015197098255157, -0.18510331213474274, 0.0435405932366848, -0.06279575079679489, 0.1254681944847107, -0.11255397647619247, 0.1073334589600563, 0.14608561992645264, 0.09753033518791199, 0.21348728239536285, 0.02677302621304989, -0.16022706031799316, 0.12619468569755554, 0.04729937016963959, 0.003508134977892041, -0.11634085327386856, -0.03973166644573212, -0.03222405165433884, 0.17313703894615173, 0.12587010860443115, 0.13187333941459656, 0.11359191685914993, -0.058456361293792725, -0.0759202092885971], [-0.06918160617351532, 0.006750589702278376, 0.22685223817825317, 0.13980092108249664, 0.21041357517242432, 0.07313123345375061, -0.157583549618721, -0.0265280082821846, 0.12423771619796753, 0.12616215646266937, 0.12531603872776031, -0.05185350030660629, -0.16499824821949005, -0.09498683363199234, 0.09216790646314621, 0.004879278596490622, 0.0845591127872467, 0.12373140454292297, -0.06789768487215042, 0.1076708436012268, -0.056804109364748, 0.018781429156661034, -0.0673365443944931, -0.060405731201171875, 0.02850315533578396, 0.12784074246883392, -0.08900377154350281, 0.10844310373067856, -0.15857850015163422, -0.1469094604253769, -0.029423972591757774, -0.06109489127993584], [-0.019632486626505852, -0.10631508380174637, 0.0008437128853984177, -0.2255236655473709, -0.048743024468421936, -0.06959239393472672, 0.04669206961989403, 0.18379971385002136, 0.10879694670438766, -0.1133618876338005, -0.197774738073349, -0.04279780760407448, -0.08867595344781876, 0.061749011278152466, 0.0016205041902139783, 0.06950203329324722, 0.06943897902965546, -0.09753230959177017, 0.006075805053114891, 0.04233554005622864, -0.021935727447271347, 0.14735744893550873, -0.13822174072265625, 0.013928594999015331, -0.11268522590398788, -0.2262708842754364, -0.036291658878326416, 0.08614414930343628, 0.12490367889404297, 0.0137191042304039, -0.09024355560541153, -0.00990998838096857], [-0.07166197150945663, -0.03855817764997482, -0.028048397973179817, 0.12906308472156525, 0.07784271985292435, -0.15031440556049347, 0.000731268897652626, -0.08215130120515823, -0.02806168794631958, -0.15243346989154816, 0.02516336552798748, -0.12746979296207428, 0.1745176613330841, 0.13350220024585724, -0.12168581038713455, -0.1667233407497406, 0.006897415965795517, -0.060355834662914276, 0.05189575254917145, -0.11966263502836227, 0.07236198335886002, -0.13528086245059967, -0.09329744428396225, -0.10837779939174652, 0.08554071187973022, -0.006877068895846605, -0.1698874533176422, -0.10096070915460587, -0.0818081721663475, -0.13481712341308594, 0.023933548480272293, 0.06299223750829697], [-0.03243457153439522, -0.15611562132835388, -0.05869351699948311, -0.21313712000846863, -0.1688578873872757, -0.06832428276538849, 0.1570443958044052, -0.10132846981287003, 0.0876210406422615, -0.08913013339042664, -0.10114623606204987, -0.16828159987926483, 0.14645683765411377, 0.17213234305381775, -0.003712884383276105, 0.05670318752527237, 0.1445930153131485, 0.028942910954356194, 0.09104340523481369, -0.16828975081443787, -0.16611187160015106, -0.1782453954219818, 0.055293209850788116, -0.21878448128700256, -0.13494154810905457, -0.14121147990226746, -0.16293248534202576, 0.000238192908000201, 0.0255032479763031, -0.1145852580666542, 0.05610803887248039, -0.06711236387491226], [-0.04976741969585419, 0.032744862139225006, 0.06488572806119919, -0.11481095850467682, -0.20237204432487488, -0.18091189861297607, 0.02251061052083969, 0.049578823149204254, 0.08800733834505081, -0.06420768052339554, -0.21227054297924042, -0.15470558404922485, -0.05624260753393173, 0.002217514207586646, -0.07940377295017242, -0.22332152724266052, 0.01863008737564087, -0.22293272614479065, -0.13575109839439392, -0.14370989799499512, -0.04790179058909416, 0.10644982010126114, 0.06910542398691177, -0.08151452988386154, 0.036382634192705154, -0.020225506275892258, 0.0010299425339326262, -0.14258354902267456, -0.1089143455028534, -0.15234887599945068, -0.0905090942978859, -0.16182167828083038], [-0.032141733914613724, -0.08746979385614395, 0.13439346849918365, 0.11445621401071548, 0.08014628291130066, -0.01382082886993885, -0.0572354830801487, 0.05035709962248802, -0.12214025855064392, -0.0731332078576088, -0.04740580543875694, -0.04153451696038246, -0.16746094822883606, 0.070274218916893, 0.14557242393493652, -0.12129735946655273, 0.047653038054704666, -0.04232190549373627, -0.006447477266192436, 0.010304314084351063, 0.15319159626960754, 0.03222871944308281, -0.1118425577878952, -0.07584179937839508, 0.08636023849248886, 0.03247058019042015, 0.003435768885537982, -0.0233304500579834, -0.06877971440553665, -0.10938997566699982, -0.11701168119907379, 0.028966939076781273], [0.04964633285999298, 0.036121539771556854, -0.11468802392482758, -0.08005279302597046, 0.020840393379330635, 0.007459381129592657, 0.02271363139152527, 0.045690637081861496, 0.009175853803753853, -0.1716940850019455, -0.0763837918639183, -0.03863966092467308, 0.15952537953853607, 0.15956354141235352, 0.03507083281874657, 0.0937659963965416, -0.09104334563016891, 0.0867651179432869, 0.15220211446285248, -0.006756582297384739, -0.14186495542526245, -0.06489818543195724, -0.04727491736412048, -0.09309747070074081, -0.16027480363845825, -0.027425391599535942, -0.07351995259523392, -0.045262109488248825, -0.09130378812551498, -0.04089545086026192, -0.23090040683746338, -0.09372133761644363], [0.016285542398691177, 0.19505245983600616, 0.20785659551620483, -0.062448590993881226, 0.13414481282234192, -0.046135906130075455, -0.1366761326789856, 0.010994327254593372, -0.10140735656023026, -0.13150905072689056, -0.10395990312099457, -0.11832518875598907, 0.14526373147964478, 0.09858977794647217, -0.06997653841972351, -0.07251519709825516, -0.13598401844501495, -0.054330796003341675, -0.07274331152439117, 0.1061701849102974, 0.057851310819387436, -0.04967235028743744, 0.12169862538576126, -0.037009816616773605, -0.14401784539222717, 0.08125956356525421, -0.0974748283624649, 0.050289154052734375, 0.1497715413570404, -0.07072610408067703, -0.07511499524116516, 0.06653876602649689], [-0.15965536236763, 0.10911034792661667, -0.11015257239341736, 0.035296082496643066, -0.18112587928771973, -0.14856776595115662, 0.019472770392894745, 0.04647158086299896, 0.13707178831100464, 0.1271791309118271, -0.04659567400813103, -0.022727686911821365, 0.02922150492668152, -0.04106363281607628, 0.006017621606588364, -0.18343442678451538, -0.14511731266975403, 0.09589705616235733, -0.10330063849687576, 0.1392090767621994, 0.019400130957365036, 0.02491760067641735, 0.16066837310791016, -0.16129934787750244, -0.027905596420168877, 0.008105111308395863, 0.06039430573582649, -0.17204159498214722, 0.06282971799373627, -0.10928060114383698, -0.0012377981329336762, 0.11959820985794067], [-0.017609648406505585, 0.049965694546699524, 0.03263796493411064, 0.20121082663536072, 0.16070298850536346, 0.07362666726112366, -0.10638690739870071, -0.07441685348749161, 0.14081232249736786, 0.14705003798007965, 0.14588116109371185, -0.13783584535121918, 0.13767240941524506, -0.016898419708013535, 0.13024146854877472, 0.19153012335300446, 0.01937667652964592, -0.032690051943063736, 0.16628514230251312, -0.09212188422679901, 0.11550849676132202, -0.1580895334482193, -0.05559854209423065, -0.1183352842926979, -0.07929781824350357, 0.11034880578517914, -0.12666545808315277, -0.15287719666957855, 0.12640157341957092, 0.08362627029418945, 0.04037214443087578, -0.12462063878774643], [-0.046834588050842285, -0.14760200679302216, 0.010903843678534031, -0.14700795710086823, -0.1314043551683426, -0.21759159862995148, -0.08325964212417603, 0.06965775787830353, 0.11389467120170593, 0.04451287165284157, -0.11422305554151535, 0.16979236900806427, 0.03489217534661293, -0.06823518127202988, -0.06127030402421951, -0.11381357908248901, 0.08380940556526184, -0.020185036584734917, 0.1281561255455017, -0.00796501711010933, 0.14621073007583618, -0.0929868295788765, -0.08141506463289261, -0.11384118348360062, -0.16585330665111542, -0.2107507735490799, -0.1599607765674591, -0.01044708676636219, 0.0016665495932102203, -0.06324868649244308, -0.21239040791988373, 0.16038747131824493], [-0.058573223650455475, 0.0931226834654808, 0.1510777324438095, -0.10203097760677338, -0.010229500010609627, 0.12208786606788635, 0.1713600903749466, -0.02191317081451416, 0.12809649109840393, -0.1578163504600525, -0.11541855335235596, 0.14536967873573303, -0.01673714630305767, 0.1746416836977005, 0.01285470463335514, -0.04525904729962349, 0.16788756847381592, 0.17617252469062805, 0.01640593446791172, -0.1071629747748375, -0.007653888780623674, -0.08518514782190323, 0.12881384789943695, -0.004428768530488014, 0.03721528872847557, 0.12976114451885223, 0.05855577439069748, -0.11035574972629547, 0.14685268700122833, 0.07419972866773605, -0.08657211065292358, 0.13366137444972992], [0.05015215650200844, -0.06577542424201965, -0.13754744827747345, -0.056616608053445816, -0.19308890402317047, 0.09003948420286179, 0.1280311495065689, -0.05346595495939255, 0.16388076543807983, -0.08640974760055542, -0.0025003175251185894, -0.1231946274638176, -0.0074738371185958385, 0.07145842164754868, 0.07614382356405258, -0.010703305713832378, -0.08914182335138321, 0.11269250512123108, 0.1170378103852272, 0.02836921252310276, -0.08129534870386124, 0.03396640717983246, 0.0004726979823317379, 0.10598181188106537, 0.026197027415037155, 0.007769083604216576, 0.012084364891052246, 0.09404681622982025, -0.0021842182613909245, 0.13845817744731903, 0.084622822701931, -0.13357724249362946], [-2.0230486370564904e-06, -0.07518279552459717, -0.07753662765026093, 0.1057371199131012, 0.10848402976989746, 0.03329536318778992, 0.1680196076631546, -0.09522337466478348, -0.07408458739519119, -0.00820931140333414, 0.0595548190176487, -0.014973404817283154, 0.15916776657104492, -0.07466099411249161, -0.09246746450662613, 0.056665174663066864, 0.13277381658554077, 0.08865658193826675, 0.09523535519838333, 0.03422136604785919, 0.15066473186016083, 0.10670200735330582, 0.12649588286876678, 0.060452476143836975, -0.1463526338338852, -0.043818581849336624, 0.06022221967577934, 0.12401709705591202, -0.06906743347644806, 0.15638156235218048, 0.06855510920286179, 0.0007021664641797543], [0.0068915365263819695, -0.00774563429877162, 0.17354851961135864, 0.027483703568577766, 0.12778718769550323, -0.14420990645885468, -0.09107906371355057, 0.018647799268364906, 0.1411561369895935, 0.10533548891544342, 0.06056926026940346, -0.17465388774871826, 0.003323320997878909, -0.11669058352708817, -0.15094465017318726, 0.018774978816509247, -0.11184755712747574, 0.16368025541305542, -0.09608551859855652, 0.05696949362754822, 0.10376134514808655, -0.13063958287239075, 0.09047078341245651, 0.021995477378368378, 0.09159909188747406, 0.16668522357940674, -0.07533612102270126, -0.07656268030405045, 0.14045777916908264, 0.029484650120139122, -0.019160307943820953, 0.13411487638950348], [-0.08540860563516617, 0.0313454307615757, 0.1455552577972412, 0.10704031586647034, -0.08198114484548569, 0.06666921824216843, -0.13478104770183563, -0.08628571778535843, 0.1136694997549057, -0.026456519961357117, -0.047422900795936584, 0.012530341744422913, 0.04319898039102554, -0.10988736897706985, -0.11921172589063644, -0.15560491383075714, 0.045676182955503464, -0.094804547727108, 0.013471860438585281, -0.03953755646944046, -0.11558720469474792, -0.045600775629282, -0.13588647544384003, -0.02642383612692356, -0.0055103423073887825, -0.1347609907388687, -0.15503905713558197, 0.13241644203662872, 0.016634348779916763, -0.07271259278059006, 0.01463257148861885, 0.1310914307832718], [-0.14747871458530426, -0.18615999817848206, -0.19526802003383636, -0.10349191725254059, -0.07592429220676422, -0.20996162295341492, 0.1226978600025177, -0.16618196666240692, 0.16504503786563873, -0.14104533195495605, -0.07284456491470337, 0.03305492922663689, -0.07857324928045273, 0.1625712662935257, -0.12187591195106506, -0.07153324782848358, -0.1298002302646637, -0.017418375238776207, 0.15071752667427063, 0.16397559642791748, 0.02098582126200199, -0.11264535784721375, 0.17179955542087555, -0.05693834275007248, 0.11960303783416748, -0.1546332687139511, -0.08204088360071182, -0.14674821496009827, 0.16265682876110077, -0.0020295290742069483, -0.18552140891551971, 0.01518314890563488], [-0.0758204311132431, 0.04353374242782593, 0.07719223946332932, -0.050775058567523956, 0.058382999151945114, -0.09571973234415054, 0.03406411409378052, -0.1608457714319229, 0.028169624507427216, 0.1970365196466446, 0.19401247799396515, 0.06448480486869812, 0.13007749617099762, 0.17187252640724182, 0.050093088299036026, 0.06333164870738983, 0.022986996918916702, 0.17049413919448853, 0.1518583595752716, -0.08313107490539551, -0.0072672124952077866, -0.07713339477777481, 0.06343284249305725, -0.10265940427780151, 0.06255565583705902, -0.03882560878992081, 0.06410843133926392, 0.055173110216856, -0.0879674032330513, 0.10242235660552979, 0.08550464361906052, -0.15026739239692688], [0.17637929320335388, 0.0926676094532013, 0.0701562687754631, -0.07300712913274765, 0.008648128248751163, -0.13636654615402222, -0.06006857380270958, 0.08954547345638275, 0.07869532704353333, 0.051189154386520386, -0.20683623850345612, 0.146491140127182, -0.0738372951745987, 0.15298540890216827, 0.14565534889698029, 0.03294931352138519, 0.1761208474636078, 0.05979100614786148, 0.10367701202630997, -0.060028448700904846, 0.16395781934261322, 0.04275350272655487, 0.10444597899913788, -0.0756724625825882, 0.1280253678560257, 0.12541981041431427, -0.13545536994934082, 0.14492227137088776, -0.11682987958192825, -0.12067272514104843, -0.17769823968410492, 0.051081348210573196], [-0.13272877037525177, -0.021419061347842216, -0.027277804911136627, 0.09689830988645554, -0.12242327630519867, -0.030584653839468956, 0.0012932127574458718, 0.019154276698827744, -0.07983666658401489, 0.04371647909283638, -0.08398746699094772, -0.14971037209033966, -0.025131449103355408, -0.0955740287899971, 0.11142821609973907, -0.06479677557945251, -0.014840811491012573, 0.12385872006416321, -0.15481023490428925, 0.13684634864330292, -0.08032293617725372, -0.046051084995269775, -0.10813673585653305, -0.050765037536621094, -0.06816325336694717, -0.10434669256210327, 0.06040593609213829, -0.0005663061165250838, 0.17292839288711548, 0.10989675670862198, 0.20633353292942047, 0.05201241374015808], [0.09288893640041351, 0.1268407702445984, 0.13572753965854645, -0.1707390993833542, -0.06272494047880173, -0.18582598865032196, 0.006687609013170004, -0.06832697242498398, 0.15342742204666138, 0.00751774525269866, -0.032024968415498734, -0.12787185609340668, -0.13872213661670685, 0.027828868478536606, -0.08783716708421707, -0.09065695852041245, 0.1239972710609436, -0.10644914209842682, -0.07868415862321854, 0.13573049008846283, 0.06906644254922867, -0.10335756093263626, 0.05353652685880661, 0.03341776132583618, -0.1570131778717041, 0.021726228296756744, 0.04038816690444946, -0.006884940434247255, 0.1694936752319336, -0.12873373925685883, 0.08281790465116501, -0.0939066931605339], [-0.15133963525295258, 0.09113787859678268, -0.10048771649599075, -0.016187598928809166, 0.06833165138959885, -0.15644598007202148, -0.15131890773773193, 0.06087728589773178, 0.15413616597652435, -0.03965206816792488, 0.08948798477649689, 0.062119439244270325, 0.05043487623333931, -0.11270785331726074, 0.16824163496494293, 0.07891849428415298, 0.027333833277225494, 0.11718715727329254, -0.15189136564731598, 0.03809253126382828, -0.08321385085582733, -0.01885688491165638, 0.05791788175702095, 0.014516836032271385, 0.04055371880531311, -0.14063705503940582, -0.11063260585069656, 0.0030866244342178106, -0.030616186559200287, -0.15636411309242249, 0.16596075892448425, 0.022235538810491562], [-0.12560871243476868, 0.017553871497511864, 0.04193766787648201, -0.1395735889673233, 0.03744223341345787, -0.14203722774982452, 0.06124980002641678, 0.18778109550476074, 0.11669576913118362, 0.06704375147819519, -0.09090378880500793, 0.033187124878168106, 0.06168901175260544, 0.043177150189876556, -0.03581356629729271, -0.003007244784384966, -0.0716000571846962, -0.13342393934726715, -0.16313594579696655, -0.14412759244441986, -0.11096542328596115, 0.17853115499019623, 0.0353756844997406, -0.2264043688774109, -0.09036275744438171, 0.016514737159013748, -0.052910372614860535, -0.05003846436738968, -0.0663822740316391, -0.04880071431398392, -0.008807686157524586, 0.010468391701579094], [0.11357583105564117, 0.05981734022498131, 0.10232850164175034, -0.050711922347545624, -0.12753669917583466, -0.03498165309429169, -0.11706405133008957, 0.06560663878917694, -0.02132818102836609, -0.0770622193813324, -0.19532345235347748, 0.08519159257411957, 0.09867241233587265, 0.1612604558467865, -0.06262669712305069, 0.02427978254854679, 0.006663522217422724, -0.1442299634218216, -0.11051173508167267, 0.09052468836307526, -0.10152699053287506, 0.1288992166519165, 0.06175859645009041, 0.004862348549067974, 0.11642080545425415, 0.06193258985877037, 0.07624069601297379, 0.0917191281914711, -0.07501816749572754, -0.11110810190439224, -0.06405416876077652, 0.09814081341028214], [0.12371315807104111, 0.13012634217739105, -0.06436770409345627, -0.023097330704331398, -0.12175093591213226, 0.09499508142471313, -0.11722538620233536, -0.08472637832164764, 0.14597609639167786, 0.06434554606676102, -0.06589794903993607, -0.11903643608093262, -0.12156474590301514, 0.14266332983970642, -0.16157466173171997, 0.13053002953529358, 0.14141520857810974, -0.003657137043774128, -0.01416951697319746, 0.1374831199645996, 0.07795441150665283, 0.1549268513917923, 0.1428023874759674, -0.0833878144621849, 0.1090923324227333, 0.07017084956169128, -0.12551362812519073, 0.084900863468647, -0.09181994199752808, -0.09558269381523132, -0.012881939299404621, -0.021722570061683655], [-0.04753199219703674, -0.15171483159065247, 0.06904404610395432, 0.13779927790164948, -0.07214714586734772, -0.1376112401485443, -0.009115351364016533, -0.15301382541656494, -0.14355254173278809, -0.0796879231929779, 0.07066527009010315, -0.13543112576007843, -0.028210613876581192, -0.09179486334323883, -0.16277407109737396, -0.05164447799324989, -0.010297423228621483, -0.04732529819011688, 0.12924769520759583, 0.07081007957458496, 0.11006025224924088, 0.0687541663646698, 0.018546972423791885, 0.026164012029767036, -0.11277461796998978, 0.07554306834936142, 0.08420116454362869, -0.07502522319555283, -0.0060670808888971806, -0.1403212696313858, -0.17200128734111786, -0.00019528741540852934], [0.03165280818939209, -0.05798838660120964, 0.055489733815193176, -0.15504133701324463, -0.10045779496431351, 0.12370823323726654, -0.1720341444015503, 0.006429302040487528, 0.13609552383422852, 0.1113804504275322, 0.04804702475667, -0.1610260158777237, 0.022757695987820625, -0.062164999544620514, -0.04969364032149315, 0.145700603723526, -0.06007622182369232, -0.12409573793411255, -0.14190538227558136, 0.1116139367222786, 0.008529932238161564, 0.15452462434768677, 0.03615143895149231, -0.20527254045009613, 0.04373591020703316, 0.1673407405614853, 0.1096421405673027, 0.05304884538054466, -0.13281303644180298, -0.11143165826797485, 0.12591707706451416, -0.11820313334465027], [0.040328674018383026, 0.10726422071456909, 0.17115560173988342, 0.13095484673976898, -0.020367251709103584, 0.0447143018245697, 0.15418307483196259, 0.04044058173894882, 0.08963551372289658, -0.10640986263751984, 0.21539512276649475, -0.03784150630235672, -0.05958501994609833, 0.03585994988679886, -0.06334144622087479, 0.04212914779782295, -0.025295905768871307, 0.1011742502450943, -0.10054240375757217, 0.060424670577049255, -0.1713288575410843, 0.1336088329553604, 0.163953959941864, 0.09865071624517441, -0.04130534455180168, -0.048369523137807846, 0.08301477134227753, 0.1448473334312439, 0.15113089978694916, 0.018141625449061394, 0.16803668439388275, 0.16938911378383636], [0.02638556994497776, -0.04105576127767563, -0.11164198070764542, 0.12575456500053406, 0.1304021179676056, 0.20501597225666046, -0.08999795466661453, 0.09612122178077698, -0.05848732963204384, -0.06368044763803482, 0.1350737065076828, -0.16204729676246643, 0.13030867278575897, 0.08221857249736786, -0.10506180673837662, 0.13521254062652588, -0.04446505010128021, 0.05477850139141083, -0.04731578007340431, -0.17308439314365387, -0.018308401107788086, 0.1012633889913559, -0.020567409694194794, -0.0463482104241848, 0.005601273849606514, 0.07581924647092819, -0.049323465675115585, -0.13708750903606415, -0.09477762132883072, -0.03449947386980057, 0.11468514055013657, 0.1572028249502182], [0.0032807737588882446, 0.1380244642496109, 0.17795923352241516, 0.0024835732765495777, 0.009656944312155247, 0.19262166321277618, 0.12657001614570618, 0.0776711031794548, -0.13660992681980133, 0.08210001140832901, -0.09535054117441177, 0.08835694938898087, 0.020950565114617348, 0.057101476937532425, -0.17231270670890808, 0.016262900084257126, 0.07507645338773727, 0.20992130041122437, -0.050609491765499115, 0.15764057636260986, -0.03944928199052811, -0.0860334113240242, -0.07655199617147446, 0.062225036323070526, -0.03141910582780838, 0.1647738665342331, -0.0978320837020874, -0.05028776451945305, -0.17518800497055054, 0.1161206066608429, 0.04337230324745178, -0.13935519754886627], [-0.0085302060469985, -0.1492571234703064, -0.12176689505577087, -0.17718587815761566, -0.04921957105398178, -0.21563470363616943, -0.05291113257408142, -0.09071381390094757, 0.03155994042754173, 0.15468768775463104, -0.12538088858127594, 0.1360171139240265, 0.13886630535125732, -0.09203876554965973, -0.015188691206276417, -0.233017235994339, 0.0735345110297203, -0.21137960255146027, 0.053925711661577225, 0.010561452247202396, -0.11604778468608856, -0.15668022632598877, -0.1726621836423874, -0.21650536358356476, 0.04938333481550217, -0.14406204223632812, 0.13295410573482513, -0.15544229745864868, -0.005165728274732828, -0.13983584940433502, -0.15319393575191498, 0.06440622359514236], [-0.1585763543844223, 0.17656783759593964, -0.04847227409482002, 0.18135200440883636, -0.032981425523757935, 0.11002840846776962, 0.16070355474948883, -0.07443998754024506, -0.04297206178307533, 0.11082766950130463, -0.1360486000776291, 0.10463907569646835, -0.1110357865691185, 0.16418372094631195, -0.11585331708192825, -0.05782681331038475, 0.13190819323062897, -0.059057317674160004, 0.1515243649482727, 0.12162581086158752, 0.16157592833042145, -0.18768711388111115, 0.0019812812097370625, -0.03209581971168518, 0.04210885241627693, -0.12147727608680725, 0.07248798757791519, -0.008374578319489956, -0.08356034010648727, -0.1597222536802292, 0.10073894262313843, -0.06397640705108643], [0.13043932616710663, 0.09552033990621567, 0.11781506985425949, 0.03611455485224724, 0.018345918506383896, 0.0030204039067029953, -0.1530710905790329, 0.1700732409954071, -0.1113235205411911, 0.08819424360990524, -0.029957063496112823, 0.11074511706829071, 0.15150153636932373, -0.10811770707368851, 0.14596903324127197, 0.06465215981006622, -0.13504520058631897, 0.13019192218780518, 0.1000979021191597, 0.1558307260274887, -0.1682773232460022, 0.19011738896369934, 0.13401567935943604, 0.20509833097457886, 0.09634438902139664, -0.022309718653559685, 0.1341048628091812, 0.16155920922756195, -0.06759408116340637, -0.05003686249256134, 0.19740751385688782, 0.14230215549468994], [0.11677630990743637, 0.2688123881816864, 0.048614371567964554, 0.1158033162355423, 0.03603716194629669, 0.21395596861839294, 0.04405494034290314, -0.07943831384181976, -0.022205214947462082, -0.13372838497161865, -0.08105802536010742, 0.16115456819534302, -0.08892238885164261, 0.07890068739652634, -0.03936437517404556, 0.08409881591796875, -0.00011417581117711961, 0.259906530380249, -0.024454591795802116, 0.14627663791179657, 0.10343342274427414, 0.14931796491146088, -0.16032591462135315, 0.014466363936662674, -0.14402426779270172, 0.0888175219297409, -0.03661433607339859, 0.035921696573495865, 0.1583867371082306, 0.0709569975733757, -0.008607500232756138, -0.11086433380842209], [0.13348504900932312, 0.020962130278348923, 0.058999285101890564, -0.08976351469755173, -0.018785644322633743, 0.05517248809337616, -0.11600533872842789, 0.10056944936513901, 0.08809561282396317, -0.08958315849304199, -0.06954266130924225, -0.041560374200344086, 0.027511080726981163, -0.06484521925449371, 0.1691083312034607, -0.1624308079481125, -0.09991409629583359, -0.09608053416013718, 0.04779694974422455, 0.025085845962166786, -0.05037359520792961, 0.14158980548381805, -0.15260303020477295, 0.05214615538716316, -0.09727165848016739, -0.03397367522120476, -0.1702360212802887, -0.1319650411605835, -0.14998604357242584, 0.07332954555749893, -0.06538036465644836, 0.09247201681137085], [-0.09580393880605698, -0.005715569481253624, 0.0705798789858818, 0.1973852813243866, -0.022820595651865005, 0.1488199532032013, 0.04876771569252014, 0.11770127713680267, 0.11167129874229431, 0.05868817865848541, -0.02215791493654251, -0.0496152900159359, 0.06881939619779587, 0.09635081142187119, -0.009435183368623257, 0.14311033487319946, -0.10635223984718323, 0.1536584049463272, -0.02169313095510006, -0.1216527447104454, -0.08589297533035278, -0.1363975554704666, 0.035658929497003555, -0.07774147391319275, -0.05062238872051239, 0.045008402317762375, -0.107862189412117, 0.004539215471595526, -0.02243518829345703, 0.05139812082052231, 0.17358176410198212, -0.1067146360874176], [0.09665199369192123, 0.1089085191488266, 0.0008359195198863745, 0.03122689388692379, 0.14880405366420746, 0.12915314733982086, -0.005709928460419178, -0.043323300778865814, 0.08914772421121597, 0.00659411633387208, -0.10778209567070007, -0.0312411617487669, -0.04796172305941582, -0.07543230056762695, -0.09805763512849808, -0.05525461584329605, 0.17410805821418762, -0.08156151324510574, 0.16432760655879974, -0.13896483182907104, -0.04288911819458008, -0.03853585571050644, -0.09461971372365952, 0.13259468972682953, 0.10245884209871292, -0.029985252767801285, -0.08233367651700974, 0.09023159742355347, -0.02136807329952717, 0.04276927188038826, 0.18535615503787994, -0.0653422623872757], [-0.09810645878314972, 0.05023200064897537, -0.08193274587392807, -0.13643527030944824, -0.09421218186616898, -0.09573841094970703, 0.1760198026895523, 0.03256417438387871, 0.0761328861117363, 0.02014189213514328, -0.13066430389881134, 0.12756876647472382, -0.02747972309589386, -0.04577295109629631, 0.14406536519527435, -0.10439305007457733, 0.03589598461985588, -0.16879379749298096, 0.09058442711830139, 0.07021768391132355, -0.14536280930042267, 0.10638438910245895, 0.019454142078757286, -0.10708008706569672, 0.15072572231292725, 0.05761260539293289, 0.062122199684381485, -0.06565939635038376, -0.09693026542663574, -0.09133546054363251, 0.05630450323224068, 0.047621216624975204], [-0.10580044984817505, 0.03636632487177849, -0.05550500750541687, -0.20946313440799713, -0.03681580349802971, -0.20759649574756622, 0.055477432906627655, 0.12105154246091843, -0.15636463463306427, -0.06973711401224136, -0.10485397279262543, 0.026361925527453423, -0.1453765332698822, -0.11630167812108994, -0.01693142205476761, -0.15541784465312958, 0.0381297692656517, -0.10704328119754791, 0.0362643264234066, 0.011719142086803913, 0.02031821571290493, -0.025733597576618195, 0.06348451226949692, 0.013073734939098358, -0.08822045475244522, -0.22801223397254944, 0.0775899663567543, -0.12783318758010864, 0.11487974971532822, 0.0858951210975647, -0.10507082939147949, -0.07674597203731537], [0.0053007458336651325, -0.06110447272658348, -0.10357116907835007, 0.2304394245147705, -0.09334353357553482, -0.08811736106872559, -0.0686684250831604, 0.01277952454984188, 0.04048788547515869, -0.06759238243103027, 0.049538858234882355, -0.03947595879435539, 0.14791356027126312, 0.15343403816223145, 0.07265682518482208, 0.05490117147564888, 0.1325707584619522, -0.08543204516172409, 0.07386034727096558, -0.10275283455848694, 0.13786134123802185, -0.1429360806941986, 0.06568185985088348, -0.07189594954252243, 0.10317540168762207, 0.0835784375667572, 0.15168125927448273, -0.13332805037498474, 0.11377508193254471, -0.10364629328250885, -0.03623555973172188, 0.0672382116317749], [-0.02975563146173954, -0.09800955653190613, -0.12072452157735825, -0.009067777544260025, 0.09439938515424728, 0.18742099404335022, 0.13001160323619843, 0.022772224619984627, -0.10843374580144882, -0.14731958508491516, 0.17505574226379395, -0.09856090694665909, -0.03109014965593815, -0.1426437497138977, -0.12218999117612839, 0.06034652143716812, -0.04370290786027908, 0.04149724915623665, -0.0013519444037228823, 0.009006507694721222, -0.035027340054512024, 0.014610258862376213, 0.07683916389942169, 0.1565929651260376, 0.14941687881946564, -0.12073950469493866, -0.1494310200214386, -0.02641998417675495, -0.013485684990882874, 0.09846434742212296, 0.19836176931858063, 0.04539582133293152], [-0.12555721402168274, -0.14639925956726074, -0.041198886930942535, -0.0747959315776825, -0.24917219579219818, -0.1181178092956543, -0.1706894487142563, -0.08106065541505814, 0.12363822013139725, -0.05804026499390602, 0.0031197271309792995, -0.14419220387935638, 0.15628904104232788, 0.084323450922966, 0.1145530492067337, -0.08637245744466782, 0.012524041347205639, -0.21581359207630157, -0.0975441187620163, -0.12139599025249481, 0.14609625935554504, -0.07015915215015411, 0.004306691233068705, -0.29127949476242065, 0.04744472727179527, -0.19575928151607513, -0.14139102399349213, 0.021878408268094063, -0.16284921765327454, -0.020823776721954346, -0.2726868689060211, 0.11175885796546936], [-0.14038971066474915, 0.04485814645886421, 0.10298620909452438, -0.13086889684200287, 0.12581288814544678, 0.15713532269001007, -0.1083635687828064, 0.03218204528093338, 0.05360632389783859, 0.1280597746372223, 0.13190220296382904, -0.14828239381313324, -0.1440848559141159, -0.15630917251110077, -0.0786198228597641, -0.01814073882997036, -0.06342801451683044, 0.12374002486467361, -0.12182961404323578, -0.14109013974666595, -0.13818927109241486, -0.09547063708305359, 0.17314651608467102, 0.01706664264202118, -0.030951233580708504, -0.04188181832432747, -0.1353975236415863, -0.059977009892463684, 0.09313026815652847, 0.12152998894453049, 0.14621058106422424, 0.012585427612066269], [-0.09637854248285294, -0.2313929796218872, 0.0396161824464798, -0.28685495257377625, -0.08914145827293396, -0.14256514608860016, 0.16413171589374542, 0.03516954183578491, -0.04466056823730469, -0.1399088054895401, -0.08902502804994583, -0.12364470958709717, -0.018644079566001892, 0.04426141828298569, 0.08632500469684601, -0.16867287456989288, -0.11933020502328873, -0.26834818720817566, -0.1674424558877945, 0.022173603996634483, -0.10759323090314865, -0.06337255984544754, -0.08374863117933273, -0.22862938046455383, 0.1191992312669754, -0.0235676821321249, 0.1241220235824585, 0.16957411170005798, -0.12790480256080627, -0.1064060777425766, -0.25767070055007935, 0.1187014952301979], [0.10415802896022797, 0.01179253589361906, -0.2815336585044861, -0.2402469962835312, 0.02833874337375164, -0.27539339661598206, -0.117734394967556, 0.021076999604701996, -0.15453000366687775, -0.037487491965293884, -0.020490862429142, 0.14482153952121735, -0.020058823749423027, -0.15643687546253204, 0.10007143020629883, 0.045437321066856384, -0.13123516738414764, -0.13671700656414032, -0.1278761476278305, -0.09026558697223663, 0.05949002131819725, 0.045655712485313416, 0.07309932261705399, -0.26391687989234924, -0.04285537824034691, -0.05998561158776283, -0.01640869490802288, -0.0546509325504303, -0.09131453931331635, 0.18943193554878235, -0.2757318317890167, -0.13925014436244965], [0.12881973385810852, -0.2192370742559433, -0.03274023160338402, -0.22335174679756165, -0.1418972909450531, -0.20651376247406006, 0.14605562388896942, 0.06948143243789673, 0.008494317531585693, 0.02130894921720028, -0.15862734615802765, -0.09449083358049393, -0.06686568260192871, 0.05788587033748627, -0.03179636225104332, -0.0014352616854012012, 0.025452185422182083, -0.11565668135881424, -0.10985415428876877, 0.07131390273571014, -0.1635197103023529, 0.004846909083425999, 0.06342862546443939, -0.05767522379755974, 0.1244107335805893, -0.08217728137969971, -0.048822127282619476, -0.12370036542415619, -0.16406725347042084, 0.09822145104408264, -0.02638108842074871, -0.13484124839305878], [0.047327835112810135, -0.06365098804235458, 0.1272272914648056, -0.06946861743927002, 0.14356382191181183, 0.11490647494792938, 0.0977739617228508, 0.12624336779117584, 0.055133156478405, 0.07961970567703247, -0.14086100459098816, -0.04035773500800133, -0.020039035007357597, 0.0857732817530632, -0.06850150227546692, 0.05451001971960068, 0.12002697587013245, 0.05944709852337837, 0.09098578989505768, -0.023561984300613403, 0.0846807062625885, -0.04786286875605583, 0.15313367545604706, 0.0025944740045815706, -0.010311732068657875, -0.1730770766735077, 0.16349762678146362, -0.024733245372772217, 0.13166487216949463, -0.09767582267522812, -0.16393668949604034, -0.028295455500483513], [-0.1413506716489792, -0.08440250158309937, -0.13815610110759735, -0.19435971975326538, -0.012419670820236206, -0.007299025077372789, -0.1560850590467453, -0.18850788474082947, 0.10341846197843552, -0.09411977976560593, -0.04641216620802879, -0.04708005115389824, 0.03161163255572319, -0.09755104780197144, 0.0005648941732943058, -0.18086549639701843, -0.07963478565216064, -0.20486314594745636, 0.039485737681388855, 0.11438748985528946, -0.00435640336945653, -0.03758930414915085, 0.14585287868976593, 0.06406773626804352, -0.025662604719400406, -0.26642951369285583, 0.04148389771580696, 0.05278174206614494, -0.13988260924816132, -0.15641999244689941, -0.09910898655653, 0.17262105643749237], [-0.1581178456544876, 0.05827151611447334, 0.0731847956776619, -0.009199549444019794, 0.0212093573063612, 0.26002201437950134, 0.13520504534244537, -0.07015042006969452, 0.003789633745327592, -0.16407617926597595, 0.15734833478927612, -0.12074071168899536, -0.09008821099996567, -0.08193789422512054, 0.026057224720716476, 0.23437562584877014, -0.07398668676614761, 0.1405678391456604, 0.1407533586025238, -0.010711431503295898, 0.018253441900014877, 0.05265919864177704, -0.002258249092847109, 0.20188400149345398, 0.09565256536006927, 0.020265337079763412, 0.1687973439693451, 0.10171819478273392, -0.02766025997698307, 0.15215171873569489, 0.13061170279979706, 0.11170779913663864], [-0.15009988844394684, 0.18221431970596313, 0.19852039217948914, -0.09552302211523056, -0.13867932558059692, -0.027417801320552826, -0.10868456214666367, 0.0666051134467125, 0.0786890909075737, -0.004225242882966995, 0.15235544741153717, 0.006698714569211006, -0.05195673555135727, -0.15089142322540283, 0.05618339031934738, -0.14185082912445068, -0.0006045122281648219, 0.04915659874677658, -0.09900347143411636, 0.053107284009456635, 0.0343637578189373, 0.1205514520406723, 0.11056454479694366, -0.0805266872048378, -0.13116511702537537, -0.039926379919052124, -0.12717308104038239, 0.055426180362701416, -0.11582227796316147, -0.13274191319942474, 0.0790456086397171, 0.10668796300888062], [-0.05139293894171715, -0.23713673651218414, -0.07266298681497574, 0.013026119209825993, 0.062492672353982925, -0.05823034793138504, 0.12272350490093231, -0.18100866675376892, 0.16911840438842773, -0.09686212241649628, -0.17647364735603333, 0.12686793506145477, -0.03928189352154732, 0.10909507423639297, -0.12381867319345474, 0.053606074303388596, 0.16765417158603668, -0.016604119911789894, 0.14260470867156982, -0.12624087929725647, -0.03903457522392273, 0.05215736851096153, 0.09989475458860397, -0.1681310385465622, 0.11248911172151566, -0.14030198752880096, -0.09435545653104782, 0.0345798023045063, -0.1408039927482605, -0.15483997762203217, -0.02507735975086689, 0.06021227315068245], [0.06797928363084793, -0.07790474593639374, -0.1751192808151245, -0.18955212831497192, 0.10989517718553543, -0.1980528086423874, 0.05327926203608513, 0.12562459707260132, 0.13505306839942932, -0.09368754923343658, -0.08935404568910599, -0.1413387656211853, 0.11088652163743973, -0.16589418053627014, -0.16273830831050873, -0.1574476957321167, 0.1441965103149414, 0.08034788817167282, 0.11844842880964279, 0.1356385052204132, -0.08244527876377106, -0.11806435883045197, -0.10860011726617813, 0.023863429203629494, 0.06876363605260849, -0.0002263926580781117, -0.1359977275133133, 0.015703536570072174, -0.09380493313074112, -0.03639852628111839, -0.07259418815374374, 0.008787154220044613], [-0.1550011932849884, 0.011476442217826843, -0.248581662774086, -0.08974016457796097, -0.022615447640419006, -0.07062466442584991, 0.12380018830299377, 0.04008515179157257, 0.1294432282447815, 0.039996884763240814, 0.021179620176553726, -0.07684025913476944, -0.09525516629219055, 0.08441181480884552, 0.046383533626794815, -0.14061066508293152, -0.14911270141601562, -0.0760706439614296, 0.11450767517089844, -0.02040967345237732, 0.04061280936002731, 0.041190579533576965, -0.17458094656467438, -0.13976426422595978, -0.06557796895503998, -0.22917914390563965, 0.10804738849401474, 0.1752718836069107, 0.028206482529640198, 0.13545654714107513, -0.26514357328414917, 0.031143400818109512], [-0.02286287397146225, -0.1843002289533615, -0.057863425463438034, -0.03026195615530014, -0.08909129351377487, -0.007846923545002937, 0.08487207442522049, 0.12587997317314148, 0.010247479192912579, 0.022292358800768852, -0.043108586221933365, 0.02439575456082821, -0.1146252453327179, -0.02175930142402649, -0.14948810636997223, -0.2073676884174347, -0.15057623386383057, 0.05333193764090538, -0.10159356147050858, -0.014266160316765308, 0.018898984417319298, 0.12930160760879517, 0.08022831380367279, -0.15995556116104126, 0.1729009747505188, -0.24973022937774658, 0.022984109818935394, 0.1615217924118042, 0.15330994129180908, -0.04277905076742172, -0.19935567677021027, 0.07762277871370316], [0.13627049326896667, -0.2226879745721817, -0.1939690262079239, -0.25389257073402405, -0.0684051513671875, -0.10046418756246567, 0.08762706816196442, -0.12205323576927185, -0.1706443727016449, -0.05751755088567734, -0.23382647335529327, -0.042587198317050934, 0.06424429267644882, -0.14706623554229736, -0.0082516148686409, -0.30690425634384155, -0.1252726912498474, -0.2548517882823944, -0.0601898729801178, -0.0895688384771347, 0.027210215106606483, 0.07092643529176712, 0.13329452276229858, -0.05058874934911728, -0.0011697435984387994, -0.17239788174629211, 0.12003186345100403, -0.10124538838863373, 0.12777581810951233, -0.16271810233592987, -0.26925942301750183, 0.04689254239201546], [-0.07280897349119186, 0.0034501145128160715, 0.116358682513237, 0.0386589877307415, 0.14458158612251282, -0.10987040400505066, -0.0844162181019783, -0.020970720797777176, -0.035602789372205734, -0.06003792956471443, -0.04189705103635788, 0.1597035974264145, -0.09690150618553162, 0.09927476942539215, 0.0821208581328392, 0.05847860872745514, 0.04769103229045868, -0.10355710238218307, 0.07295813411474228, -0.08326105773448944, -0.10850857943296432, 0.15972496569156647, 0.14652800559997559, -0.1542452722787857, 0.14358748495578766, -0.0038884354289621115, 0.045312583446502686, 0.17038913071155548, -0.009282168932259083, -0.029499970376491547, 0.07352717965841293, -0.045663874596357346], [-0.04243730381131172, -0.13241791725158691, 0.11386359483003616, 0.02677445486187935, -0.0965125560760498, -0.05846094712615013, 0.012372206896543503, -0.13057354092597961, 0.0501912496984005, -0.11656305938959122, -0.05237933620810509, -0.03316948562860489, -0.072180837392807, 0.16349872946739197, 0.04950813204050064, 0.03449110686779022, -0.11636430770158768, -0.01870972290635109, 0.047371771186590195, 0.09176812320947647, -0.052162837237119675, -0.05971682071685791, -0.14352348446846008, 0.0766032263636589, 0.11800847947597504, 0.03216077387332916, 0.08984072506427765, 0.10588036477565765, 0.16663053631782532, 0.05998571962118149, 0.007654712535440922, 0.05560242012143135], [-0.09982946515083313, -0.08207017928361893, -0.062925785779953, -0.26379525661468506, -0.16978541016578674, -0.2208746373653412, -0.1129530668258667, 0.07682377845048904, 0.13906779885292053, -0.0093587227165699, -0.011014042422175407, -0.041401881724596024, 0.037479907274246216, -0.029593640938401222, -0.09196178615093231, -0.17763975262641907, 0.17559444904327393, -0.07018484175205231, -0.09667134284973145, 0.020067082718014717, -0.1763620674610138, -0.030760383233428, 0.1357032209634781, -0.04607648029923439, 0.04211883991956711, -0.2728228271007538, -0.033249709755182266, 0.10431306809186935, -0.12961316108703613, -0.085501529276371, 0.011067084036767483, 0.050766490399837494], [0.08263839781284332, -0.11073780059814453, 0.15562063455581665, 0.011854179203510284, 0.08823235332965851, 0.18827266991138458, -0.1629103124141693, 0.08298564702272415, -0.15981020033359528, 0.1168271005153656, 0.06670697033405304, 0.019669849425554276, -0.07081878185272217, 0.06665104627609253, -0.09175672382116318, 0.07099404186010361, 0.14845412969589233, -0.09912239015102386, -0.050438690930604935, 0.04128937050700188, 0.030684612691402435, 0.03734811022877693, 0.15208451449871063, -0.020981553941965103, 0.04559991881251335, 0.13135723769664764, -0.034275542944669724, 0.11551167815923691, 0.11545281857252121, 0.07234146445989609, -0.0009042955352924764, 0.153549924492836], [-0.10214552283287048, 0.1300402581691742, 0.10392175614833832, 0.1946648210287094, -0.06701651215553284, 0.09808828681707382, -0.10180400311946869, 0.1443583071231842, 0.060703955590724945, -0.15756841003894806, 0.029296234250068665, 0.04945051670074463, 0.07530514150857925, 0.15726716816425323, 0.07938896119594574, 0.09528477489948273, 0.09429872781038284, -0.11351347714662552, 0.11786197125911713, -0.02078437991440296, 0.10004917532205582, 0.0893174260854721, -0.009322376921772957, 0.16344662010669708, -0.1030532568693161, 0.11002161353826523, 0.07749458402395248, -0.06291167438030243, 0.06404034048318863, -0.17667517066001892, -0.021869128569960594, 0.08594972640275955]], "bias": [0.16755570471286774, -0.22631192207336426, 0.06211091950535774, 0.06943019479513168, 0.24607259035110474, -0.23600400984287262, -0.04369315132498741, -0.1562885344028473, -0.1957470178604126, -0.04661696404218674, -0.22218602895736694, 0.182652086019516, -0.08987971395254135, 0.10093274712562561, -0.19043463468551636, 0.01817159913480282, -0.13173739612102509, 0.18094533681869507, 0.1499188244342804, 0.15630772709846497, -0.1260804980993271, 0.12167385965585709, -0.17893216013908386, 0.128402978181839, -0.032833538949489594, -0.15175306797027588, -0.1654244214296341, -0.19339711964130402, 0.017060458660125732, -0.07879973202943802, -0.07720325887203217, 0.27235040068626404, 0.0009362267446704209, 0.13164106011390686, -0.1742609292268753, 0.10310886055231094, 0.11588907241821289, 0.21254879236221313, 0.044508591294288635, -0.005123580805957317, 0.2518249750137329, -0.015369569882750511, -0.22778305411338806, 0.1037687435746193, 0.019909266382455826, -0.2505648732185364, 0.04381676763296127, -0.16879917681217194, -0.19592605531215668, -0.19982783496379852, -0.0833815485239029, -0.18412673473358154, 0.13872289657592773, 0.19229523837566376, -0.17608606815338135, -0.13448941707611084, -0.25225692987442017, -0.08824700862169266, -0.11759882420301437, -0.15473628044128418, 0.020314062014222145, -0.2683512568473816, 0.2143641710281372, 0.10936877131462097]}, "prelu": {"num_parameters": 32, "weight": [0.5738181471824646, 0.6148741841316223, 0.11640660464763641, 0.14297015964984894, 0.7841248512268066, 0.7607651948928833, 0.39335277676582336, 0.45310112833976746, 0.5678341388702393, 0.10864417254924774, 0.11649931222200394, 0.430058091878891, 0.18813678622245789, 0.16952486336231232, 0.3167814612388611, 0.2137969434261322, 0.2195495069026947, 0.07131098955869675, 0.23464956879615784, 0.1441711187362671, 0.6560084819793701, 0.022973379120230675, 0.22346410155296326, 0.24660824239253998, 0.15420058369636536, 0.23272760212421417, 0.04058044031262398, 0.40189453959465027, 0.03856511041522026, 0.16193275153636932, 0.5342647433280945, 0.8320082426071167]}, "res": {"in_channels": 1, "out_channels": 32, "kernel_size": 1, "dilation": 1, "groups": 1, "weight": [[[-0.20953021943569183]], [[-0.5614355802536011]], [[0.8073967695236206]], [[1.2394310235977173]], [[-0.8353435397148132]], [[-0.0007775840349495411]], [[1.0061335563659668]], [[-0.28899985551834106]], [[-1.0591130256652832]], [[-0.6727397441864014]], [[0.02775462530553341]], [[-0.1552312821149826]], [[-1.0366382598876953]], [[-0.9459457993507385]], [[0.06752318143844604]], [[1.0443726778030396]], [[1.2256054878234863]], [[-0.22168850898742676]], [[0.5444203019142151]], [[-1.125491738319397]], [[0.3824775815010071]], [[1.2937928438186646]], [[0.786771297454834]], [[-0.7569528222084045]], [[1.1062195301055908]], [[-1.2609286308288574]], [[-0.29251182079315186]], [[-0.12128704786300659]], [[-1.3952099084854126]], [[-0.9160760641098022]], [[-1.068319320678711]], [[0.2600976228713989]]], "bias": null}, "causal": true}, {"conv1": {"in_channels": 32, "out_channels": 32, "kernel_size": 13, "dilation": 10, "groups": 1, "weight": [[[-0.16233301162719727, -0.06293599307537079, 0.006671778857707977, 0.047060780227184296, 0.03949559107422829, 0.0425993837416172, 0.2432831972837448, -0.008338416926562786, 0.004451477434486151, 0.08417557179927826, 0.12536902725696564, 0.01820014975965023, 0.15362229943275452], [-0.08161093294620514, 0.015271347016096115, -0.03195151314139366, 0.017104143276810646, -0.18265552818775177, -0.0772513896226883, 0.16693593561649323, -0.1290329247713089, -0.17655593156814575, 0.1510348618030548, -0.05076518654823303, -0.01441875472664833, 0.26138225197792053], [-0.011207859963178635, 0.08680368214845657, 0.06978562474250793, 0.02044699527323246, -0.021861853078007698, 0.042264342308044434, -0.193307027220726, -0.14865443110466003, -0.08405650407075882, -0.06288854032754898, 0.09055279195308685, 0.3733189105987549, -0.028803763911128044], [0.1563159078359604, 0.12123560160398483, 0.0791795626282692, 0.03319317847490311, 0.11334357410669327, -0.0574708990752697, -0.12430693209171295, -0.15151093900203705, 0.09802578389644623, -0.04020003229379654, -0.08808715641498566, 0.11010349541902542, -0.11145564913749695], [-0.16259941458702087, -0.020626025274395943, 0.07286497205495834, -0.0732288733124733, 0.12326699495315552, -0.09801827371120453, 0.15436972677707672, -0.13273055851459503, -0.03336070105433464, 0.05098288506269455, 0.043528586626052856, 0.009886790066957474, 0.2650551199913025], [-0.014813619665801525, 0.15379758179187775, 0.019851142540574074, 0.05808963254094124, 0.08744090795516968, -0.1301802694797516, -0.03271093964576721, -0.13310478627681732, -0.057934924960136414, 0.10201707482337952, 0.026017434895038605, -0.02407923899590969, 0.25147998332977295], [-0.10839159041643143, 0.02177809365093708, 0.09347967803478241, 0.0807485282421112, 0.0079472241923213, 0.18534670770168304, 0.11281435936689377, -0.02637067437171936, -0.05011379346251488, 0.06789165735244751, 0.044390641152858734, 0.20167112350463867, 0.03177749365568161], [0.14529164135456085, 0.02697145752608776, 0.051688674837350845, 0.05822077393531799, 0.13055981695652008, -0.029863649979233742, -0.14653712511062622, -0.05309006944298744, 0.07351234555244446, -0.02927057258784771, 0.00679961871355772, 0.02005152776837349, -0.017945144325494766], [-0.03978961333632469, -0.0562235563993454, 0.06085756793618202, 0.03753405809402466, -0.025932153686881065, 0.0043310425244271755, 0.1315821409225464, 0.0777888223528862, -0.056079037487506866, 0.12058399617671967, -0.02851494774222374, 0.05539388209581375, 0.07645583152770996], [0.020745769143104553, -0.1162770614027977, -0.12897059321403503, -0.053596675395965576, -0.0498645193874836, -0.17935746908187866, -0.029412616044282913, 0.09446640312671661, -0.010233946144580841, -0.039159201085567474, -0.1127370223402977, -0.3819216191768646, -0.0013284861342981458], [0.04764804616570473, -0.03148584067821503, -0.04681854322552681, -0.10695089399814606, -0.10075477510690689, -0.1019248515367508, -0.09367866069078445, 0.06210188567638397, -0.0048971702344715595, 0.009713195264339447, 0.028278717771172523, 0.09183477610349655, -0.03238081932067871], [0.08141764998435974, 0.1173086166381836, -0.020136456936597824, 0.018850745633244514, 0.14562933146953583, -0.0527227483689785, -0.04281575232744217, -0.06910359859466553, 0.042899928987026215, -0.034156281501054764, 0.06972707808017731, 0.09697442501783371, 0.026749523356556892], [-0.15568846464157104, -0.09594129770994186, -0.052894964814186096, -0.04837483912706375, -0.09041848033666611, 0.037662796676158905, 0.24774663150310516, 0.14169032871723175, 0.009513147175312042, 0.17589151859283447, 0.11184778064489365, 0.01751876063644886, 0.12986436486244202], [0.07258820533752441, -0.12939471006393433, -0.04797403886914253, -0.10898544639348984, -0.06616029888391495, -0.12805333733558655, -0.017848610877990723, 0.06556068360805511, 0.0349636971950531, 0.0330415703356266, -0.03675886243581772, -0.09891800582408905, 0.0069401804357767105], [0.017391802743077278, 0.008492309600114822, 0.020640341565012932, -0.005875779315829277, -0.02412836253643036, 0.008219447918236256, 0.03510509058833122, 0.027841316536068916, 0.05898566544055939, 0.06447143107652664, 0.062237534672021866, -0.06970543414354324, 0.062237516045570374], [-0.1024807021021843, 0.04270969703793526, 0.03443385288119316, -0.03919589892029762, 0.036331161856651306, 0.13838273286819458, -0.006077170372009277, -0.12276127189397812, -0.07043217122554779, -0.007078000344336033, 0.05682217702269554, 0.16115005314350128, 0.05210833251476288], [0.0151803744956851, 0.11331478506326675, 0.07398779690265656, 0.009224733337759972, 0.023730237036943436, 0.05050718039274216, -0.11984627693891525, -0.18130387365818024, -0.0007820916944183409, -0.07082713395357132, 0.08143292367458344, 0.2955019176006317, 0.0064882091246545315], [-0.04626601189374924, -0.09542787820100784, -0.049245644360780716, -0.08665181696414948, -0.03376084566116333, 0.010301739908754826, 0.09360422939062119, -0.04410881921648979, -0.084709033370018, -0.09001462906599045, -0.060874052345752716, -0.16268396377563477, -0.0048875934444367886], [-0.0056015495210886, -0.003423643996939063, 0.07544588297605515, 0.019956273958086967, -0.04762915149331093, 0.05197402834892273, 0.08487791568040848, 0.0333809070289135, -0.0626077651977539, 0.07669716328382492, 0.01773669943213463, 0.007700915914028883, 0.02814280427992344], [-0.003873391542583704, -0.19648443162441254, -0.1748191863298416, -0.09609652310609818, -0.16631589829921722, -0.1888611614704132, 0.011460968293249607, 0.019942540675401688, -0.0026013990864157677, -0.07588009536266327, -0.17637547850608826, -0.5081498622894287, -0.04154235124588013], [-0.12925225496292114, -0.09403850138187408, 0.03407656401395798, 0.010295173153281212, -0.16322067379951477, 0.03624780848622322, 0.08409055322408676, 0.13615866005420685, -0.10309676080942154, 0.0818522572517395, 0.04745973274111748, 0.061000894755125046, 0.0789780467748642], [0.1798522174358368, 0.21975752711296082, 0.20909516513347626, 0.18662315607070923, 0.07645537704229355, -0.019537227228283882, -0.28633376955986023, -0.06150273606181145, 0.01186143048107624, 0.008281023241579533, 0.06214667484164238, 0.07451290637254715, -0.1483048051595688], [-0.08516768366098404, 0.041702233254909515, 0.004043804481625557, 0.0381011962890625, 0.02246430516242981, 0.10704030096530914, 0.06643351167440414, -0.0571681372821331, -0.010966654866933823, -0.06598898768424988, -0.00041797597077675164, 0.06562703102827072, -0.027084089815616608], [0.005035290960222483, -0.14670749008655548, -0.1244312971830368, -0.08388756960630417, -0.05085938051342964, -0.17365200817584991, -0.11750275641679764, 0.09127229452133179, 0.04291994124650955, -0.06600529700517654, -0.08385887742042542, -0.20685791969299316, -0.11609385907649994], [-0.08847037702798843, 0.14306339621543884, 