{"version": 1, "arch": "direct", "config": {"nblocks": 4, "kernel_size": 13, "dilation_growth": 10, "channel_width": 32, "causal": true, "nparams": 0, "sample_rate": 48000, "receptive_field": 13333}, "gen": [{"in_features": 0, "out_features": 16, "weight": [[], [], [], [], [], [], [], [], [], [], [], [], [], [], [], []], "bias": [0.0, 0.0, 0.0, 0.0, 0.0, 0.0, 0.0, 0.0, 0.0, 0.0, 0.0, 0.0, 0.0, 0.0, 0.0, 0.0]}, {"in_features": 16, "out_features": 32, "weight": [[0.19272145628929138, 0.03695222735404968, -0.11670997738838196, 0.0637245774269104, -0.11518415808677673, -0.02931821346282959, -0.10153958201408386, 0.16584274172782898, -0.19734254479408264, -0.11525258421897888, -0.0705936849117279, -0.15031811594963074, 0.02359578013420105, -0.24691978096961975, 0.225777268409729, -0.21236705780029297], [0.19300684332847595, 0.04160478711128235, -0.08117613196372986, 0.1544874906539917, 0.03896269202232361, 0.20199084281921387, 0.02732992172241211, -0.07884329557418823, 0.06717091798782349, -0.06779485940933228, 0.10521438717842102, 0.2232055366039276, 0.14451488852500916, -0.109293133020401, 0.144316166639328, 0.04473155736923218], [0.12695875763893127, -0.15237626433372498, -0.24747711420059204, -0.09659013152122498, -0.19175571203231812, 0.20513471961021423, 0.07200783491134644, 0.10355338454246521, 0.07906529307365417, -0.0043489933013916016, 0.1956520676612854, -0.17762839794158936, 0.015740931034088135, -0.17063504457473755, 0.07708799839019775, -0.08609557151794434], [0.07660406827926636, -0.05208536982536316, 0.20734795928001404, -0.14817547798156738, -0.14909949898719788, -0.14910849928855896, 0.22486069798469543, 0.08331277966499329, 0.24056267738342285, -0.20631906390190125, -0.24796903133392334, -0.19559094309806824, -0.16817227005958557, 0.10126003623008728, 0.0895189642906189, 0.20773109793663025], [-0.129106342792511, -0.17042794823646545, 0.13264453411102295, -0.10105112195014954, 0.1517309546470642, -0.05932515859603882, 0.14301148056983948, -0.19424200057983398, -0.12616243958473206, 0.0762191116809845, 0.05285188555717468, -0.06373968720436096, 0.1490173637866974, 0.16995230317115784, -0.1812933385372162, -0.13346704840660095], [0.2289154827594757, -0.08435812592506409, -0.0886290967464447, -0.24189865589141846, -0.14316755533218384, 0.062450915575027466, -0.03299829363822937, -0.18147149682044983, 0.005864173173904419, -0.17077037692070007, -0.21209916472434998, -0.13766565918922424, -0.2188030183315277, -0.1591845154762268, 0.24990221858024597, 0.04721873998641968], [0.0770399272441864, -0.23317107558250427, -0.16419345140457153, -0.08321395516395569, 0.0390927791595459, -0.21998032927513123, -0.10771825909614563, -0.1496671438217163, 0.0006928145885467529, -0.093025803565979, -0.017323940992355347, -0.1694074273109436, -0.17159879207611084, -0.14585044980049133, -0.08557435870170593, -0.19732022285461426], [0.2096174657344818, -0.0496160089969635, 0.21509918570518494, 0.07789552211761475, -0.2116992473602295, 0.17300879955291748, -0.06878620386123657, -0.09583151340484619, -0.2075176239013672, -0.24854016304016113, 0.07152765989303589, -0.0546109676361084, 0.09733077883720398, -0.20516586303710938, 0.18560728430747986, -0.18351343274116516], [-0.043168336153030396, 0.05221742391586304, 0.1290629506111145, 0.20182758569717407, 0.22773981094360352, -0.1982305347919464, 0.0629168152809143, -0.10753148794174194, -0.027396202087402344, -0.18712252378463745, 0.2277146577835083, -0.18348762392997742, 0.13361281156539917, 0.08785989880561829, 0.08123898506164551, -0.13516154885292053], [0.22723788022994995, 0.05493760108947754, 0.032160013914108276, -0.22031369805335999, 0.10494711995124817, -0.037505149841308594, -0.11453106999397278, 0.21473664045333862, 0.055737197399139404, -0.13831910490989685, -0.12653473019599915, -0.011938929557800293, 0.139590322971344, -0.0638834536075592, -0.14264371991157532, -0.08561071753501892], [-0.18676871061325073, 0.08915811777114868, 0.1935100555419922, -0.23536008596420288, 0.05806267261505127, 0.1291479468345642, 0.04533234238624573, -0.0890311598777771, 0.13048553466796875, 0.13137829303741455, 0.09348180890083313, -0.04393035173416138, -0.06620031595230103, 0.026745229959487915, -0.044163525104522705, -0.07450026273727417], [0.15980172157287598, 0.21484988927841187, -0.024749338626861572, -0.055974215269088745, 0.0036480724811553955, -0.014927059412002563, 0.06010282039642334, 0.07005840539932251, -0.22706419229507446, -0.09225943684577942, 0.21053236722946167, 0.09738874435424805, -0.012434393167495728, -0.15072643756866455, -0.15295127034187317, -0.22394171357154846], [-0.08149060606956482, 0.08442604541778564, 0.1594054102897644, 0.11542433500289917, -0.220986008644104, -0.15034061670303345, -0.03945416212081909, 0.24183738231658936, 0.03616437315940857, -0.06474268436431885, 0.10342881083488464, -0.09522038698196411, -0.1618139147758484, 0.18247181177139282, -0.11367544531822205, -0.05011668801307678], [-0.2487010657787323, 0.16731765866279602, 0.18940865993499756, 0.09111204743385315, -0.17431855201721191, -0.24673497676849365, -0.20304474234580994, 0.18642506003379822, 0.12002643942832947, 0.21037611365318298, 0.13096746802330017, 0.06327304244041443, -0.002448171377182007, -0.19012650847434998, -0.21419304609298706, -0.23383715748786926], [0.10234048962593079, -0.12274199724197388, -0.05031314492225647, -0.143876314163208, -0.04555588960647583, -0.17595872282981873, -0.16335391998291016, 0.08292770385742188, -0.07429909706115723, 0.15433579683303833, -0.08020219206809998, -0.18339180946350098, -0.044109731912612915, -0.12118685245513916, -0.07648539543151855, -0.23799890279769897], [0.1398727297782898, -0.17405113577842712, 0.1256544291973114, 0.11344605684280396, 0.17860817909240723, -0.1917630136013031, 0.17979919910430908, -0.11818790435791016, 0.09276729822158813, 0.23477867245674133, -0.035257965326309204, -0.001933366060256958, -0.057557642459869385, -0.20874613523483276, 0.11997571587562561, -0.24817946553230286], [0.15519997477531433, 0.1870562732219696, 0.23642659187316895, -0.0589698851108551, -0.20541048049926758, 0.0562075674533844, 0.1381068229675293, -0.24882718920707703, -0.05674591660499573, -0.14986386895179749, -0.021865934133529663, -0.12305337190628052, -0.10219189524650574, -0.07936471700668335, -0.23757600784301758, 0.20512688159942627], [0.20958280563354492, -0.0392172634601593, -0.028470516204833984, -0.10202997922897339, -0.22576570510864258, -0.2432861030101776, 0.09291461110115051, -0.1372615396976471, -0.16071924567222595, -0.019505798816680908, -0.08325278759002686, -0.08088019490242004, 0.008032798767089844, -0.053028106689453125, -0.08607810735702515, -0.11970147490501404], [-0.203456848859787, 0.20962679386138916, -0.1000467836856842, 0.06624487042427063, -0.08674147725105286, 0.020315319299697876, 0.2330751121044159, 0.11518067121505737, -0.21664991974830627, 0.09922569990158081, 0.23731070756912231, 0.06577083468437195, 0.1676061749458313, 0.24647188186645508, -0.038307249546051025, 0.051888614892959595], [-0.17375877499580383, -0.05151927471160889, 0.18514594435691833, 0.1281614601612091, -0.15819725394248962, -0.20047125220298767, -0.17084091901779175, -0.24671941995620728, -0.19290974736213684, -0.06182435154914856, 0.16871929168701172, 0.04184556007385254, -0.1901513636112213, -0.2005559802055359, 0.124368816614151, -0.1859603226184845], [-0.030781865119934082, 0.11992651224136353, -0.11570301651954651, -0.02725997567176819, -0.02176111936569214, -0.059145838022232056, -0.12675803899765015, -0.22285959124565125, -0.20208925008773804, -0.13386541604995728, 0.2414594292640686, -0.12075367569923401, -0.16788199543952942, 0.060598552227020264, 0.06890258193016052, 0.1369774341583252], [0.19003009796142578, 0.1392185389995575, -0.24787524342536926, 0.022172152996063232, 0.15143826603889465, -0.023106366395950317, -0.14731979370117188, 0.23833495378494263, -0.09350696206092834, -0.14233613014221191, -0.225388765335083, 0.011167079210281372, 0.11078327894210815, 0.055340707302093506, 0.04943743348121643, -0.18959686160087585], [-0.2334718108177185, 0.004402339458465576, 0.2279585301876068, 0.14423033595085144, -0.14555856585502625, -0.032452136278152466, -0.1842958927154541, -0.12060585618019104, 0.045274585485458374, 0.13613462448120117, 0.2070923149585724, -0.22952651977539062, 0.16715380549430847, -0.1763230264186859, 0.09361681342124939, 0.21156132221221924], [0.003510594367980957, 0.22745224833488464, -0.21301287412643433, -0.09548979997634888, 0.1458132266998291, -0.054466962814331055, -0.051175057888031006, -0.1041979193687439, 0.17232653498649597, 0.12262579798698425, 0.0801125168800354, -0.14049091935157776, -0.20293739438056946, 0.027040153741836548, 0.07406970858573914, -0.11542797088623047], [-0.06994941830635071, 0.16884192824363708, 0.01991492509841919, 0.011279582977294922, -0.0615251362323761, -0.22639742493629456, -0.23506435751914978, -0.11950376629829407, -0.12708035111427307, 0.07788839936256409, -0.07277768850326538, -0.09780552983283997, 0.23835745453834534, 0.08708071708679199, 0.178225576877594, -0.12102818489074707], [-0.10211670398712158, 0.09188511967658997, -0.166568785905838, -0.163426011800766, -0.012074917554855347, -0.09144017100334167, -0.1874144971370697, 0.1482897400856018, 0.20104071497917175, 0.04055583477020264, -0.04352831840515137, -0.23156824707984924, -0.09105968475341797, 0.06364640593528748, 0.11788272857666016, -0.031604379415512085], [-0.098838210105896, 0.13930651545524597, -0.19909992814064026, 0.158004492521286, -0.09698870778083801, 0.003826349973678589, -0.04940396547317505, 0.030309736728668213, -0.07554960250854492, 0.18178173899650574, -0.006499290466308594, 0.19514986872673035, 0.24037012457847595, -0.12179774045944214, -0.18237727880477905, 0.20057550072669983], [0.195903480052948, -0.19088682532310486, -0.019325822591781616, -0.24653157591819763, -0.20464977622032166, 0.04828563332557678, 0.06650865077972412, 0.052995264530181885, -0.06804117560386658, 0.23064443469047546, 0.03574448823928833, -0.14752119779586792, -0.014153450727462769, 0.060036301612854004, 0.087548166513443, -0.17677021026611328], [0.09369739890098572, -0.1277204155921936, -0.2077350914478302, -0.1365518569946289, 0.24110233783721924, 0.21371445059776306, 0.223871111869812, 0.14675280451774597, 0.1888623833656311, -0.03346243500709534, -0.13755697011947632, 0.12491413950920105, -0.1295456886291504, -0.1687164604663849, -0.0798335075378418, 0.052464812994003296], [0.1286991536617279, -0.09710225462913513, -0.14714157581329346, 0.033723264932632446, -0.14735829830169678, -0.16276535391807556, 0.130312979221344, -0.041996151208877563, 0.22844624519348145, 0.24319565296173096, 0.07477638125419617, 0.08603942394256592, 0.0575709342956543, 0.003915220499038696, -0.018183112144470215, 0.0034360289573669434], [0.093356192111969, 0.232442706823349, -0.0647897720336914, -0.10567894577980042, -0.06054121255874634, -0.1207810640335083, 0.04250967502593994, 0.1866120994091034, 0.19549435377120972, 0.11478137969970703, -0.18398287892341614, -0.13417619466781616, -0.05492785573005676, -0.04608103632926941, 0.020561933517456055, -0.22949287295341492], [0.07781118154525757, -0.19071802496910095, -0.1581861674785614, -0.20784562826156616, 0.21782991290092468, -0.23673495650291443, 0.18859168887138367, -0.00840422511100769, -0.02907469868659973, 0.1563696265220642, -0.023106902837753296, 0.15678852796554565, 0.18075373768806458, -0.21705251932144165, 0.0961959958076477, 0.04719474911689758]], "bias": [-0.001139721367508173, 0.3133890926837921, 0.2899434566497803, -0.12026670575141907, -0.03198528289794922, 0.4395889341831207, 0.3938407599925995, -0.009392112493515015, -0.23513272404670715, 0.260852187871933, -0.17024338245391846, 0.37361541390419006, -0.15177184343338013, -0.018050402402877808, -0.055485665798187256, 0.3397195637226105, 0.47467538714408875, -0.0007970908191055059, 0.4195791482925415, 0.38284432888031006, 0.3819144666194916, -0.0863378643989563, -0.05591416358947754, 0.43523624539375305, -0.06821691989898682, 0.33393892645835876, -0.05461692810058594, -0.16956308484077454, 0.2753464877605438, 0.20792318880558014, 0.27482086420059204, 0.5368686318397522]}, {"in_features": 32, "out_features": 32, "weight": [[0.12069126963615417, 0.1675809621810913, 0.009461588226258755, -0.15206553041934967, -0.12401366233825684, -0.1098090410232544, -0.15578417479991913, -0.08860887587070465, -0.16273492574691772, -0.16309687495231628, -0.10563372075557709, -0.17427244782447815, -0.10850773751735687, 0.06740648299455643, 0.1474410891532898, -0.05258449539542198, -0.05142058804631233, 0.09439049661159515, -0.08721647411584854, -0.08358577638864517, 0.10891734063625336, -0.1540258228778839, 0.021615326404571533, 0.1561613380908966, 0.030314816161990166, 0.04807332530617714, -0.10295318067073822, -0.0024389117024838924, 0.0097199697047472, 0.04338705912232399, 0.0686858743429184, 0.15360619127750397], [-0.1036519855260849, 0.20304225385189056, 0.09516426175832748, -0.13984166085720062, -0.014155861921608448, 0.016666844487190247, 0.2974076569080353, 0.020473357290029526, -0.09527522325515747, 0.2978561222553253, -0.16730640828609467, 0.10072513669729233, -0.034439411014318466, -0.15021604299545288, -0.11241023987531662, 0.16862955689430237, 0.3058229386806488, 0.18405979871749878, 0.29186511039733887, 0.065266452729702, 0.056078433990478516, 0.15427181124687195, 0.06252899765968323, 0.18993178009986877, 0.023923562839627266, 0.03371339663863182, -0.059023160487413406, 0.1701684445142746, 0.12985485792160034, 0.1651838719844818, 0.027520280331373215, 0.0775323137640953], [0.02396557107567787, 0.03718498349189758, 0.11311908811330795, 0.07194089889526367, -0.17291894555091858, 0.1795409470796585, 0.014652938582003117, -0.08627605438232422, 0.06786628812551498, 0.28690105676651, -0.048314597457647324, 0.053037986159324646, -0.15984782576560974, -0.0911562591791153, -0.1547922044992447, 0.10320986062288284, 0.164391428232193, -0.1491481065750122, 0.28653261065483093, 0.23703527450561523, -0.044379256665706635, -0.0844343826174736, 0.05765663459897041, 0.1001882329583168, -0.019264502450823784, 0.05270630121231079, 0.14199049770832062, -0.0988178551197052, 0.2716546654701233, 0.14344874024391174, 0.16656751930713654, 0.26876670122146606], [0.0026068587321788073, 0.0726751908659935, 0.13143567740917206, 0.14337533712387085, -0.13116607069969177, 0.1947554647922516, -0.016088414937257767, 0.09268439561128616, 0.06531328707933426, 0.18538208305835724, 0.07587134093046188, 0.15373624861240387, 0.09781988710165024, -0.1399400532245636, -0.025960097089409828, 0.24712015688419342, 0.33065712451934814, 0.10754749923944473, 0.031519219279289246, 0.2889513075351715, 0.1156633123755455, -0.03774437680840492, -0.160674050450325, 0.13521558046340942, 0.12503889203071594, 0.18071171641349792, -0.10296428203582764, 0.05441400408744812, 0.0997273251414299, 0.31098541617393494, 0.004699574317783117, 0.10239225625991821], [-0.14098629355430603, 0.10896328836679459, 0.217329740524292, 0.17016783356666565, 0.0296889990568161, 0.32746621966362, 0.19327181577682495, 0.10209490358829498, 0.14171519875526428, 0.32770437002182007, -0.09894610941410065, 0.31557977199554443, 0.1070852130651474, -0.08265706896781921, -0.08435843139886856, 0.027381641790270805, 0.2017538696527481, -0.12641286849975586, 0.23631785809993744, 0.2110043168067932, 0.0031138856429606676, 0.04817180335521698, -0.014377343468368053, 0.24601930379867554, 0.10143262892961502, -0.014837365597486496, 0.1621217131614685, 0.14825235307216644, 0.22594062983989716, 0.0031001458410173655, 0.09578908234834671, 0.10819537192583084], [-0.005973066668957472, 0.34644147753715515, 0.29759570956230164, 0.14003880321979523, -0.06620696932077408, 0.28119468688964844, 0.28745418787002563, -0.1471826583147049, -0.17147690057754517, 0.17157632112503052, 0.12101206928491592, 0.055897392332553864, -0.15387241542339325, 0.09903040528297424, 0.0953761488199234, 0.39173460006713867, 0.09197213500738144, -0.11541707068681717, 0.32182151079177856, 0.37503960728645325, 0.3252776563167572, 0.027692439034581184, 0.05826112627983093, 0.403483510017395, -0.11405708640813828, 0.14607533812522888, 0.12364945560693741, -0.1209576204419136, 0.13025689125061035, 0.35973960161209106, 0.2742331624031067, 0.2829202115535736], [-0.07492510229349136, -0.0024396071676164865, 0.1617918163537979, -0.10610491782426834, 0.001389855518937111, 0.08407491445541382, -0.12203889340162277, 0.17168143391609192, -0.08831950277090073, -0.04245045408606529, -0.04783051833510399, -0.11519810557365417, -0.17346471548080444, 0.09967581927776337, 0.046964991837739944, -0.16556918621063232, -0.11377821862697601, 0.17472043633460999, 0.06757024675607681, 0.07093069702386856, -0.10576515644788742, -0.07749821245670319, -0.026685170829296112, -0.032328907400369644, -0.12113594263792038, 0.01456373743712902, 0.01756948232650757, -0.022383643314242363, 0.02450687438249588, -0.07006555050611496, 0.0460064671933651, 0.06666963547468185], [-0.10618942230939865, -0.1973457634449005, 0.0714639350771904, 0.04216773062944412, -0.08990649878978729, 0.14992167055606842, -0.09928908199071884, 0.11945628374814987, 0.08968385308980942, -0.1789897084236145, 0.11401059478521347, -0.18198613822460175, -0.09793688356876373, -0.02947130985558033, -0.11915571242570877, 0.14835937321186066, -0.055643871426582336, 0.06040728837251663, -0.1788274198770523, 0.08120720088481903, -0.07419360429048538, -0.1344689428806305, 0.025848809629678726, 0.0640626847743988, 0.15298204123973846, -0.12615525722503662, -0.08699256926774979, 0.03398759663105011, 0.02682366408407688, 0.047562375664711, 0.07802343368530273, -0.06037097051739693], [0.09821176528930664, 0.1303359717130661, -0.046177878975868225, 0.12576906383037567, 0.08636946976184845, 0.15592637658119202, -0.1004575788974762, -0.08729391545057297, -0.05111302062869072, 0.00896722637116909, 0.10610119253396988, -0.10091520845890045, 0.08850395679473877, -0.06335347890853882, 0.10679244250059128, -0.008392870426177979, -0.15487174689769745, -0.09727064520120621, -0.12794248759746552, 0.08767461031675339, -0.1185372918844223, -0.014728722162544727, 0.03814059868454933, -0.09694340080022812, 0.05099477618932724, -0.1726088970899582, -0.126485213637352, -0.16018149256706238, -0.05347094684839249, -0.06439928710460663, 0.025313248857855797, -0.03268856927752495], [0.05971265956759453, 0.13867932558059692, 0.04003719612956047, -0.0696442723274231, -0.16553115844726562, 0.040640056133270264, -0.11097422242164612, 0.08995747566223145, 0.1181725561618805, 0.04479777067899704, 0.16587147116661072, 0.1445130556821823, 0.03743067756295204, -0.1288059949874878, 0.1579395979642868, -0.1072685718536377, -0.10688992589712143, 0.14792296290397644, 0.11357957869768143, 0.030024519190192223, -0.012307780794799328, -0.14869852364063263, -0.01835014671087265, 0.14616236090660095, 0.04501774534583092, -0.008253497071564198, -0.036707859486341476, -0.06165658310055733, 0.08197414875030518, -0.012486997991800308, 0.09161758422851562, -0.05467803403735161], [0.10370214283466339, 0.23188790678977966, 0.17482100427150726, 0.11108170449733734, 0.1107763946056366, 0.30468809604644775, 0.2781897783279419, -0.04520120844244957, -0.14966271817684174, 0.2014600932598114, -0.0015429540071636438, 0.09515731781721115, -0.029602091759443283, 0.00831430871039629, 0.1289815604686737, 0.21433167159557343, 0.0814952477812767, -0.05543269217014313, 0.1049007773399353, 0.07401096075773239, 0.29895925521850586, 0.09362895041704178, 0.15962505340576172, 0.15103977918624878, 0.03565071150660515, 0.2039957046508789, -0.16732852160930634, 0.01578555442392826, 0.13401606678962708, 0.05302148312330246, 0.005399033892899752, 0.30056288838386536], [0.14373111724853516, 0.08193045854568481, 0.16868911683559418, -0.0717373713850975, -0.03053334727883339, 0.06693094223737717, -0.02920820750296116, -0.03468974307179451, -0.14611679315567017, 0.04749304801225662, -0.10683096200227737, 0.0064287008717656136, 0.17235295474529266, -0.054414574056863785, -0.0557185560464859, 0.10665164887905121, -0.0649925246834755, -0.015181126073002815, 0.16506320238113403, -0.07247380167245865, -0.12646785378456116, -0.09893196821212769, -0.049010567367076874, -0.08388032019138336, -0.09173503518104553, 0.0714079737663269, 0.030041029676795006, -0.05657942593097687, -0.13733983039855957, -0.055659886449575424, -0.07460668683052063, -0.05752648413181305], [-0.15947431325912476, 0.03808283805847168, -0.12988200783729553, -0.1376735419034958, -0.1444324254989624, 0.07378370314836502, -0.10642428696155548, -0.07296472787857056, 0.13856476545333862, 0.09386210143566132, 0.1013621985912323, -0.16785062849521637, -0.12676653265953064, -0.0667351484298706, 0.14603480696678162, 0.01808432675898075, -0.13221079111099243, 0.0011069448664784431, -0.13729730248451233, -0.0387316457927227, -0.048609182238578796, 0.15302880108356476, 0.05475423485040665, -0.030824750661849976, 0.0298626646399498, -0.05102933943271637, 0.06945562362670898, 0.06992647051811218, 0.047472693026065826, -0.06890347599983215, 0.1508171558380127, -0.02552124485373497], [-0.06882211565971375, 0.11071772873401642, 0.14408302307128906, 0.17592105269432068, 0.052371568977832794, -0.06026209145784378, 0.08978346735239029, 0.15166635811328888, -0.17338861525058746, -0.021900324150919914, -0.12055560201406479, 0.03294406086206436, 0.07311215996742249, -0.03651992604136467, -0.014788633212447166, 0.07956909388303757, -0.029710808768868446, -0.14845344424247742, 0.14144538342952728, -0.08897427469491959, -0.019420424476265907, 0.01667470484972, -0.010623724199831486, -0.16629135608673096, 0.08110513538122177, -0.0802975445985794, -0.0916869267821312, 0.04223468154668808, -0.09225304424762726, -0.08169905096292496, -0.059564895927906036, -0.06641104072332382], [-0.0738285705447197, -0.04767417535185814, 0.04593997821211815, -0.14305086433887482, -0.10699944943189621, 0.0025794291868805885, 0.024584002792835236, 0.09763243794441223, -0.12417571991682053, 0.056426580995321274, 0.10047806054353714, 0.09815705567598343, -0.16465361416339874, -0.06745872646570206, -0.1519511640071869, -0.1118663102388382, 0.0984615907073021, -0.0263961274176836, 0.0750790685415268, -0.10376903414726257, 0.026862967759370804, -0.10692477971315384, 0.08836925029754639, -0.07731841504573822, -0.044328369200229645, -0.1533769965171814, 0.0005839867517352104, 0.1678459644317627, 0.0858035460114479, -0.09431760758161545, 0.0023774194996804, -0.019383292645215988], [-0.11420683562755585, 0.36710816621780396, 0.22823499143123627, 0.037228647619485855, -0.07138755172491074, 0.1250096559524536, 0.24057401716709137, 0.06535627692937851, 0.03965066000819206, 0.16091209650039673, 0.1716320961713791, 0.1769678145647049, -0.10826071351766586, -0.08268069475889206, 0.1740226447582245, 0.2327100932598114, 0.18479004502296448, -0.06374580413103104, 0.16964897513389587, 0.05905939266085625, 0.0655793696641922, 0.10346553474664688, 0.15122352540493011, 0.38876909017562866, -0.1276225745677948, 0.3075062334537506, -0.10941886156797409, 0.10545794665813446, 0.33677908778190613, 0.3648335933685303, 0.333621621131897, 0.3206845819950104], [0.0034407211933285, 0.08122578263282776, -0.06324555724859238, 0.07697472721338272, -0.05681637302041054, -0.0029683182947337627, -0.15386269986629486, -0.046222615987062454, -0.09296207875013351, -0.05963045731186867, -0.11288721114397049, -0.15900076925754547, 0.01151108369231224, 0.11472439765930176, 0.16099926829338074, 0.10315877199172974, -0.09162996709346771, -0.17483386397361755, 0.06705384701490402, 0.09905044734477997, -0.151764914393425, 0.06338965892791748, 0.14946067333221436, 0.010708523914217949, -0.10650067776441574, 0.1449350267648697, 0.07548645883798599, 0.11706173419952393, -0.11955151706933975, 0.10287440568208694, -0.12075150012969971, 0.17491953074932098], [-0.05386212840676308, 0.2555496394634247, 0.1757408231496811, 0.04684767499566078, -0.02710958942770958, 0.20294612646102905, 0.060744669288396835, -0.16662605106830597, -0.06791815161705017, 0.3005773425102234, -0.04653993993997574, 0.18456818163394928, -0.06535901129245758, 0.13260890543460846, 0.1057991236448288, 0.2142266482114792, 0.042766913771629333, -0.13241812586784363, 0.14509925246238708, 0.027463283389806747, 0.2739231288433075, -0.16987811028957367, 0.07899589836597443, 0.3171902000904083, 0.08853478729724884, 0.19246427714824677, -0.1700851023197174, 0.1700402945280075, 0.10211417824029922, -0.023613659664988518, 0.30107688903808594, 0.061987023800611496], [-0.01250652875751257, 0.1618000864982605, -0.12254172563552856, -0.12506774067878723, 0.0287469532340765, -0.023662252351641655, 0.040719058364629745, -0.14826354384422302, 0.00528679508715868, -0.07862315326929092, -0.08690498769283295, -0.1618632674217224, 0.09373024851083755, 0.03405364230275154, -0.14945466816425323, 0.14028148353099823, 0.0533195361495018, 0.0328032486140728, -0.10379202663898468, 0.02665872499346733, 0.1703314483165741, 0.12124838680028915, -0.1376861035823822, 0.16136550903320312, 0.013701919466257095, 0.0850234255194664, 0.13729827105998993, 0.15070374310016632, -0.1378035843372345, 0.15479695796966553, -0.12006229162216187, 0.013252254575490952], [-0.12352512031793594, -0.03875533491373062, -0.008033210411667824, -0.021148739382624626, -0.027926459908485413, 0.013942472636699677, 0.17437583208084106, 0.10270930081605911, 0.09890124201774597, 0.07075442373752594, 0.13685718178749084, -0.008158070035278797, 0.014055910520255566, 0.03638012707233429, -0.15417234599590302, -0.14240367710590363, 0.021673068404197693, -0.06916392594575882, -0.003243810962885618, -0.04056296870112419, 0.027517549693584442, 0.11501366645097733, -0.058626558631658554, 0.1415734887123108, 0.13957610726356506, -0.13567578792572021, -0.13651159405708313, -0.14302557706832886, -0.09687720239162445, -0.0688149705529213, -0.013305886648595333, -0.04299071058630943], [-0.08931616693735123, -0.0561608225107193, -0.06394799798727036, 0.17342469096183777, -0.06551853567361832, -0.12657226622104645, 0.07348564267158508, -0.010210895910859108, 0.1353338658809662, 0.11045584827661514, 0.16240984201431274, -0.12946408987045288, 0.11364326626062393, 0.14835785329341888, -0.08729790151119232, 0.16248957812786102, 0.1325194090604782, 0.001935910084284842, 0.08523331582546234, -0.061804939061403275, -0.15418176352977753, 0.04468562453985214, 0.05270159989595413, -0.1155339926481247, 0.08573663234710693, -0.15100665390491486, 0.15213827788829803, 0.1711888462305069, 0.04812894016504288, -0.11091478168964386, 0.08603212982416153, 0.030125534161925316], [0.071108877658844, 0.24559082090854645, 0.3082291781902313, -0.07598496973514557, -0.039765045046806335, 0.212361678481102, 0.1886698603630066, 0.14254876971244812, -0.09284992516040802, 0.1786395013332367, 0.03303128480911255, 0.11724969744682312, 0.12051162123680115, 0.01933610998094082, -0.16338232159614563, 0.16452404856681824, 0.0864962711930275, 0.018906686455011368, 0.15042096376419067, -0.009954615496098995, 0.13516384363174438, -0.016931548714637756, -0.052127644419670105, 0.33741113543510437, -0.0385725200176239, 0.28635478019714355, 0.043790724128484726, -0.14922305941581726, 0.20724022388458252, 0.32113397121429443, 0.0577055960893631, 0.055179186165332794], [0.17303769290447235, 0.14204183220863342, -0.09862265735864639, 0.10637449473142624, -0.022615408524870872, -0.17428933084011078, 0.01328184176236391, 0.05711549147963524, -0.05302608758211136, 0.06149768829345703, -0.15116190910339355, 0.12250906229019165, 0.15070819854736328, 0.0974864587187767, 0.02996210940182209, 0.05822121351957321, -0.12790639698505402, -0.04417179152369499, -0.01687644049525261, -0.09837377816438675, -0.13057081401348114, 0.11890310794115067, 0.11996866017580032, -0.16054651141166687, 0.05625244975090027, 0.07191314548254013, 0.16793225705623627, 0.1022748053073883, 0.16251729428768158, -0.05787486955523491, 0.1238119900226593, 0.14379039406776428], [-0.13701942563056946, 0.07601659744977951, 0.23461009562015533, 0.09652675688266754, -0.08782497048377991, 0.21013681590557098, 0.19297179579734802, 0.04474353790283203, -0.09499087929725647, 0.3239172101020813, 0.11755815893411636, 0.07009198516607285, 0.0017125107115134597, 0.0004904839443042874, 0.05676577612757683, 0.377336710691452, 0.2461872696876526, -0.03312646597623825, 0.35760176181793213, 0.1245482787489891, 0.13957297801971436, 0.012069487012922764, -0.13461701571941376, 0.22248415648937225, -0.11993865668773651, 0.21429745852947235, 0.016936542466282845, 0.02446955442428589, 0.04815729707479477, 0.034527577459812164, 0.271919310092926, 0.34630343317985535], [-0.15686675906181335, 0.06547706574201584, -0.1301291286945343, 0.011082366108894348, 0.16446556150913239, 0.13410618901252747, -0.1292484700679779, 0.1093490868806839, 0.09233350306749344, -0.00027115174452774227, 0.17124831676483154, -0.07021131366491318, -0.04113873839378357, -0.08934544026851654, 0.025437602773308754, 0.04680811986327171, 0.014085602946579456, -0.09946112334728241, -0.0795789361000061, 0.06013103574514389, -0.15500247478485107, -0.027530236169695854, -0.003915884532034397, -0.0716235339641571, 0.06433223187923431, 0.011393915861845016, 0.12410866469144821, -0.015699805691838264, -0.1115705668926239, 0.12490189075469971, 0.024686651304364204, -0.05062852054834366], [-0.082774817943573, 0.26549291610717773, 0.04713737219572067, 0.04655905440449715, 0.08740630000829697, 0.042375821620225906, 0.08715462684631348, -0.12708933651447296, 0.14858196675777435, 0.384588360786438, 0.011066371574997902, 0.3569193482398987, -0.05909715220332146, -0.1716187447309494, 0.061747197061777115, 0.2897283136844635, 0.3707830309867859, 0.011515998281538486, 0.3407818675041199, 0.3036160469055176, 0.32374000549316406, -0.17542119324207306, 0.14556817710399628, 0.06291067600250244, 0.15848226845264435, 0.1940106898546219, -0.15666252374649048, 0.049160316586494446, 0.1585283875465393, 0.049568962305784225, 0.13334982097148895, 0.21976396441459656], [0.13768193125724792, -0.05434640124440193, 0.10499968379735947, 0.022137483581900597, 0.005958763416856527, 0.033825330436229706, -0.11601301282644272, -0.14693647623062134, -0.05554528906941414, -0.16473007202148438, -0.08243990689516068, 0.008132761344313622, -0.11642676591873169, -0.07332626730203629, -0.03176437318325043, -0.020365271717309952, -0.09758331626653671, 0.008494297042489052, -0.02481245994567871, 0.05055735632777214, 0.007984551601111889, -0.0882769301533699, -0.06086137518286705, -0.0020374839659780264, -0.11030605435371399, 0.013838959857821465, -0.012481451965868473, 0.06858556717634201, 0.04183698445558548, 0.13229677081108093, -0.005827518180012703, -0.13062120974063873], [0.07902076840400696, -0.11947238445281982, -0.024298373609781265, -0.05724077299237251, -0.06707693636417389, -0.06540453433990479, 0.16244372725486755, 0.1011970266699791, 0.04899143427610397, 0.16598564386367798, -0.16019892692565918, 0.02852601930499077, 0.11316826939582825, 0.11743097752332687, -0.14068838953971863, 0.06291297823190689, -0.10070719569921494, -0.006907341536134481, -0.036888036876916885, -0.14760226011276245, -0.16862984001636505, -0.1163010224699974, 0.08021605014801025, 0.08086393028497696, -0.15375395119190216, -0.0663871243596077, 0.0028875437565147877, -0.15283803641796112, 0.09960562735795975, 0.1601123809814453, 0.03126503899693489, -0.13134770095348358], [0.04122191295027733, 0.06417234987020493, 0.13997939229011536, -0.09405755996704102, -0.15837596356868744, 0.07766694575548172, 0.011005469597876072, -0.05759851261973381, -0.07407338172197342, -0.09114886075258255, 0.14310020208358765, -0.03050089441239834, 0.12749259173870087, 0.1577996462583542, 0.022393379360437393, 0.03765654191374779, -0.01203933171927929, 0.12141294777393341, -0.1592913419008255, 0.07030109316110611, -0.028802018612623215, 0.08071911334991455, -0.0007873663562349975, -0.06545441597700119, -0.019083039835095406, 0.09545814245939255, -0.12277669459581375, -0.11174039542675018, -0.039597343653440475, -0.06412124633789062, 0.06944481283426285, 0.11896537989377975], [-0.018932532519102097, 0.14556239545345306, -0.09558074921369553, -0.09919989854097366, -0.07914187759160995, -0.14144138991832733, -0.14430680871009827, -0.15751077234745026, -0.15667350590229034, 0.02387779951095581, 0.10780797153711319, 0.14608775079250336, 0.15057791769504547, -0.010181223973631859, 0.03430292010307312, -0.12691360712051392, 0.048447135835886, -0.16950075328350067, 0.06288517266511917, 0.01251264289021492, 0.034512147307395935, 0.06472649425268173, -0.08115902543067932, 0.1309075504541397, 0.08436711877584457, 0.09496431052684784, 0.023348405957221985, 0.11101338267326355, 0.09859231114387512, 0.057545922696590424, 0.11369513720273972, -0.05207091569900513], [0.10594240576028824, 0.0910024642944336, 0.1565672755241394, 0.17218023538589478, 0.04002879932522774, -0.016906997188925743, 0.029982706531882286, 0.04976767301559448, 0.029806187376379967, 0.00838525127619505, 0.13850779831409454, 0.15385422110557556, -0.10980550199747086, -0.014404022134840488, -0.016969459131360054, -0.058228712528944016, 0.07475358247756958, -0.06231047585606575, -0.040180452167987823, -0.007380564231425524, -0.015124470926821232, 0.16911165416240692, 0.06780658662319183, 0.22358152270317078, 0.04847138375043869, 0.08842700719833374, 0.07267176359891891, 0.030340630561113358, -0.08582932502031326, -0.04757571220397949, 0.006007072981446981, 0.05151291564106941], [0.06659433990716934, 0.06806755810976028, 0.14023931324481964, 0.035986918956041336, -0.060332685708999634, -0.13294072449207306, -0.12947313487529755, -0.10559534281492233, 0.05331647768616676, 0.09550751745700836, 0.15466415882110596, -0.05591654032468796, -0.013944664038717747, -0.05249621719121933, -0.0006459425785578787, 0.05674556642770767, -0.0038840428460389376, 0.008183843456208706, 0.022395338863134384, 0.06583487242460251, -0.05363428592681885, -0.10541152209043503, 0.04170596972107887, -0.020931346341967583, -0.08008478581905365, 0.07423967123031616, 0.0016032028943300247, -0.025714760646224022, -0.08557473123073578, -0.023257790133357048, -0.15031765401363373, 0.040214985609054565]], "bias": [0.0026528278831392527, 0.27296948432922363, 0.13531464338302612, 0.1656232625246048, 0.1985524594783783, 0.34925708174705505, -0.08353718370199203, 0.08645623922348022, 0.04323278367519379, -0.14131955802440643, 0.19943855702877045, -0.10601890087127686, -0.055645912885665894, -0.08426394313573837, -0.12026368826627731, 0.3362445533275604, -0.1580066978931427, 0.21324127912521362, -0.15910112857818604, -0.021514786407351494, 0.010543350130319595, 0.28502222895622253, -0.06397434324026108, 0.23672367632389069, 0.027383755892515182, 0.2929318845272064, 0.010509653948247433, 0.06619308143854141, -0.10678917169570923, -0.1415802240371704, 0.20376703143119812, -0.12881134450435638]}], "blocks": [{"conv1": {"in_channels": 1, "out_channels": 32, "kernel_size": 13, "dilation": 1, "groups": 1, "weight": [[[-0.0472634918987751, -0.030635079368948936, 0.22015465795993805, -0.048345018178224564, -0.25414884090423584, -0.09124329686164856, 0.07907578349113464, 0.2126043736934662, 0.34295767545700073, 0.3696703016757965, 0.3167552649974823, -0.22556813061237335, 0.03729339689016342]], [[0.19633598625659943, 0.27910417318344116, -0.08702509105205536, -0.00012095191777916625, 0.10889802873134613, -0.19424495100975037, -0.28486430644989014, -0.28745588660240173, -0.044374965131282806, 0.11252254247665405, 0.06765593588352203, -0.10174742341041565, -0.006373437121510506]], [[-0.0498787984251976, 0.10137764364480972, -0.0057428921572864056, -0.074630968272686, 0.31595489382743835, -0.15652738511562347, -0.05142189562320709, -0.3326868414878845, -0.1619289666414261, -0.3401056230068207, -0.09558576345443726, -0.23721764981746674, 0.195161372423172]], [[-0.19342602789402008, 0.25989532470703125, -0.14598329365253448, 0.15832369029521942, -0.06242387369275093, 0.06049717962741852, 0.030899927020072937, 0.2356594353914261, 0.07339858263731003, -0.40454402565956116, -0.11967923492193222, -0.4321840703487396, 0.12610028684139252]], [[0.10039772093296051, -0.05193581059575081, -0.11668575555086136, 0.04167821258306503, -0.22929570078849792, 0.04508961737155914, 0.2332925945520401, 0.19214218854904175, 0.14295664429664612, -0.20426249504089355, 0.0932047963142395, -0.09175898879766464, -0.06584731489419937]], [[-0.12662921845912933, 0.14457330107688904, 0.17295017838478088, 0.0755891352891922, 0.23165391385555267, -0.13351385295391083, -0.02321578934788704, -0.2713063955307007, 0.00869499146938324, -0.30954065918922424, -0.1401735246181488, 0.21507878601551056, 0.2644301950931549]], [[-0.21732409298419952, -0.18232817947864532, 0.0004712582740467042, 0.09018558263778687, -0.08100315183401108, -0.11651334166526794, -0.19972115755081177, 0.12041910737752914, 0.2757319509983063, -0.10468144714832306, 0.13623479008674622, 0.16645334661006927, 0.2177848219871521]], [[-0.17996007204055786, -0.21386852860450745, 0.0013978456845507026, -0.04450339823961258, 0.18391260504722595, -0.10097014904022217, 0.10839046537876129, 0.21935014426708221, -0.09262732416391373, 0.19856400787830353, -0.030228322371840477, 0.2724109888076782, -0.05928577110171318]], [[-0.11023890227079391, 0.007376276887953281, -0.309943288564682, -0.25048837065696716, -0.1420350968837738, 0.17833131551742554, 0.23174279928207397, -0.11551205068826675, 0.13823503255844116, -0.036110248416662216, -0.04495743662118912, 0.291506290435791, 0.2211156040430069]], [[-0.1687498241662979, -0.049742452800273895, -0.007675109896808863, 0.00784916989505291, -0.12403124570846558, -0.18858686089515686, 0.17942415177822113, 0.05503898486495018, 0.21316741406917572, 0.1265348345041275, 0.4840839207172394, 0.4480401575565338, 0.14234432578086853]], [[0.12736402451992035, 0.32468003034591675, 0.045531049370765686, 0.10986137390136719, 0.2600409686565399, 0.2621844708919525, -0.16461949050426483, 0.2014150172472, 0.025736819952726364, -0.10247816145420074, 0.17124059796333313, -0.21399851143360138, 0.10835856944322586]], [[0.3036208152770996, -0.1771194487810135, -0.1564442664384842, -0.27413520216941833, -0.050330907106399536, -0.2577399015426636, -0.09391047805547714, 0.09250756353139877, 0.20979741215705872, 0.1708366870880127, 0.16897183656692505, 0.12776482105255127, -0.15668904781341553]], [[-0.11952123790979385, 0.17267711460590363, 0.3514096438884735, 0.06307075917720795, 0.041910506784915924, -0.044366709887981415, -0.006758099887520075, -0.10424260050058365, 0.06544975191354752, -0.274514764547348, -0.4125710725784302, -0.09426504373550415, -0.15007968246936798]], [[0.0815691128373146, 0.17329585552215576, 0.1732441782951355, -0.1848161816596985, -0.21297386288642883, -0.18101631104946136, -0.4850456118583679, -0.19150933623313904, 0.46155861020088196, 0.13638538122177124, 0.0228747371584177, 0.016730574890971184, -0.1557912677526474]], [[0.1956920474767685, -0.02077847719192505, -0.11593561619520187, -0.20739692449569702, 0.27647921442985535, -0.02092447504401207, -0.15295818448066711, -0.11444296687841415, -0.21936550736427307, 0.059727367013692856, 0.2356671690940857, -0.1222582533955574, -0.03002963773906231]], [[-0.2703484892845154, -0.17782986164093018, 0.19363714754581451, -0.05008881911635399, 0.2014048993587494, -0.10894026607275009, -0.18966813385486603, -0.1498032957315445, 0.2790204882621765, -0.10675430297851562, 0.2859330177307129, 0.20136629045009613, 0.23929980397224426]], [[0.20734910666942596, 0.007909324020147324, 0.23657715320587158, -0.15647511184215546, -0.0741734579205513, 0.24608607590198517, 0.10491704940795898, -0.022582245990633965, -0.056930866092443466, -0.15093211829662323, 0.193238765001297, 0.001188698224723339, -0.0062850178219377995]], [[0.06139232963323593, 0.16591192781925201, -0.15638130903244019, -0.1274595856666565, 0.19495616853237152, 0.14905290305614471, -0.1515749841928482, -0.3118683397769928, 0.042342402040958405, 0.11470309644937515, 0.06331587582826614, 0.16515779495239258, -0.21576258540153503]], [[0.16881389915943146, -0.1562100201845169, 0.16479560732841492, 0.22032415866851807, 0.09576913714408875, 0.22306028008460999, -0.18762706220149994, -0.25676479935646057, -0.27877697348594666, 0.15474015474319458, 0.07547762244939804, -0.24739117920398712, 0.09467390924692154]], [[0.01591222733259201, -0.46108055114746094, 0.068006731569767, -0.098319873213768, -0.0324772484600544, 0.3512129485607147, 0.42206594347953796, 0.11566131561994553, 0.11461441218852997, 0.038018614053726196, -0.051871106028556824, -0.3113711476325989, 0.006631307769566774]], [[-0.22549329698085785, 0.012204928323626518, 0.0051169306971132755, 0.027249515056610107, -0.23584747314453125, -0.20171010494232178, 0.13222119212150574, 0.17186743021011353, 0.1849135011434555, 0.08234233409166336, 0.07675739377737045, 0.05370473489165306, 0.31678253412246704]], [[-0.10361918061971664, 0.18377919495105743, 0.20628415048122406, -0.25931698083877563, 0.015985257923603058, -0.05925163999199867, -0.16909930109977722, 0.12140649557113647, -0.01880999282002449, 0.23476402461528778, -0.23068484663963318, -0.05733238905668259, -0.46457889676094055]], [[-0.0009755142382346094, 0.11452702432870865, 0.3136894702911377, 0.21503137052059174, -0.15608465671539307, 0.07403188198804855, -0.11823458969593048, 0.03731514886021614, -0.20242074131965637, -0.054137736558914185, 0.2122388333082199, -0.29604771733283997, -0.29733285307884216]], [[0.11118096858263016, 0.05237669497728348, -0.035576965659856796, 0.2745024561882019, -0.1486353576183319, -0.15861675143241882, -0.2686046361923218, -0.14906245470046997, -0.1894916296005249, 0.024531889706850052, -0.06864463537931442, 0.1222442090511322, 0.002560053253546357]], [[0.13170406222343445, 0.14813046157360077, -0.3255229890346527, -0.11236116290092468, -0.3080879747867584, 0.05258984491229057, -0.2749003469944, -0.12927643954753876, 0.3434576094150543, -0.12661169469356537, 0.319855272769928, 0.1358443796634674, 0.28223270177841187]], [[-0.031054290011525154, 0.17071908712387085, 0.10641635954380035, -0.04838215559720993, 0.23130401968955994, -0.39873480796813965, -0.28435218334198, -0.006026688497513533, -0.15418843924999237, -0.030301455408334732, 0.04725184291601181, 0.08920085430145264, -0.011773556470870972]], [[-0.10313203930854797, 0.11474505811929703, -0.1968749612569809, 0.013684244826436043, 0.19521822035312653, 0.017511142417788506, 0.03808113560080528, -0.06215503439307213, -0.16821277141571045, -0.3122459053993225, -0.3854113221168518, -0.30304884910583496, -0.12686298787593842]], [[0.3445187211036682, -0.03344250097870827, 0.12215503305196762, 0.23526598513126373, 0.017743468284606934, -0.1382260024547577, -0.17901714146137238, -0.08540807664394379, 0.11588509380817413, -0.2306586354970932, -0.03242844343185425, 0.07479439675807953, 0.1864217221736908]], [[-0.07560233026742935, -0.060521792620420456, 0.038009658455848694, 0.07439007610082626, 0.01419566385447979, -0.0901046097278595, -0.2944276034832001, 0.017434271052479744, 0.0058409892953932285, 0.2218194454908371, 0.1553075611591339, 0.33267390727996826, 0.23224316537380219]], [[-0.012134323827922344, -0.22254809737205505, -0.2364395409822464, -0.07352961599826813, 0.025048796087503433, -0.3984948992729187, -0.21601000428199768, 0.012829695828258991, -0.013597691431641579, 0.2700650990009308, 0.036452703177928925, 0.11548250913619995, -0.1078098714351654]], [[-0.04672708734869957, 0.03144335746765137, 0.018370844423770905, -0.10103487968444824, 0.23951831459999084, 0.0767986923456192, -0.01280407328158617, -0.17792879045009613, -0.12830087542533875, -0.6345841288566589, 0.23789647221565247, -0.010191654786467552, 0.07638448476791382]], [[0.03734033182263374, 0.050883762538433075, -0.04576179012656212, 0.21793217957019806, -0.18043377995491028, 0.08162076771259308, -0.06775802373886108, -0.2814708948135376, -0.16258303821086884, 0.06855890154838562, 0.06699032336473465, 0.2900387942790985, 0.07916893810033798]]], "bias": null}, "bn": {"num_features": 32, "affine": false, "eps": 1e-05, "running_mean": [5.379792469284439e-07, -3.1775576303516573e-07, -5.723953790948144e-07, -3.1814016665521194e-07, 5.0898250947284396e-08, -9.197386852122236e-09, 3.523988993947569e-07, 3.4132463611058483e-07, 3.2771936275821645e-07, 8.827763053886883e-07, 3.116454934115609e-07, 6.893699833199207e-08, -5.230085662333295e-07, -2.332616588773817e-07, -1.8080105235185329e-07, 4.307811991566268e-07, 1.3936303844275244e-07, -6.186398593399645e-08, -1.3886743488455977e-07, 1.902790103258667e-07, 4.689787260758749e-07, -4.678466041241336e-07, -3.738510088169278e-07, -2.8878235980300815e-07, 2.49511231231736e-07, -2.345383052215766e-07, -8.149290238179674e-07, 1.618554534843497e-08, 4.923929850519926e-07, -2.237218126310836e-07, -2.4800388587209454e-07, 1.0045385323564915e-07], "running_var": [0.006974245887249708, 0.0011400104267522693, 0.00717992102727294, 0.0017046115826815367, 0.0001237471296917647, 0.00018755935889203101, 0.0015366342850029469, 0.001377738080918789, 0.0016039268812164664, 0.01293252781033516, 0.011133242398500443, 0.0006005465984344482, 0.0038875292520970106, 0.0012611523270606995, 0.0005729775875806808, 0.0022930738050490618, 0.002256812760606408, 3.548105451045558e-05, 0.000506388139910996, 0.0008022437687031925, 0.002637891098856926, 0.0032069217413663864, 0.0016255625523626804, 0.00198324304074049, 0.0014656228013336658, 0.001140246051363647, 0.013783715665340424, 0.001360062276944518, 0.0035688604693859816, 0.0062506431713700294, 0.0017323229694738984, 0.0002631060779094696]}, "adaptor": {"in_features": 32, "out_features": 64, "weight": [[-0.09641803801059723, 0.054017722606658936, 0.08924822509288788, 0.005535781849175692, 0.07271137833595276, -0.030449945479631424, 0.06723562628030777, 0.15324832499027252, 0.013996547088027, -0.10328971594572067, -0.0210778396576643, -0.06881901621818542, 0.051416099071502686, 0.0043119387701153755, 0.03214188292622566, 0.2756175100803375, 0.08210252225399017, 0.14811718463897705, -0.035765793174505234, 0.08362402766942978, 0.0646720826625824, -0.031552862375974655, -0.10442357510328293, 0.12902382016181946, 0.06707656383514404, 0.20296795666217804, -0.1052313819527626, -0.17538268864154816, -0.00920858047902584, -0.06097044423222542, 0.1254146695137024, -0.04861472547054291], [0.13514980673789978, -0.09563768655061722, 0.014756489545106888, -0.24066388607025146, -0.037607964128255844, -0.08813456445932388, -0.08841456472873688, 0.06166057661175728, -0.17395170032978058, 0.11974089592695236, -0.08990724384784698, 0.017068251967430115, 0.08174960315227509, 0.014674647711217403, 0.07577560842037201, 0.0050739324651658535, -0.13796685636043549, 0.012452024966478348, -0.026470327749848366, -0.04110925644636154, 0.035581886768341064, 0.026511816307902336, -0.09609849750995636, -0.2312428206205368, 0.10970889776945114, -0.19088923931121826, 0.05691327154636383, -0.02604382298886776, 0.048658303916454315, 0.12511931359767914, -0.16928496956825256, -0.08578329533338547], [0.08673030883073807, 0.1400897353887558, 0.10244645923376083, -0.02365439012646675, 0.2635869085788727, 0.12134768068790436, -0.032560043036937714, -0.06094742938876152, -0.034884799271821976, 0.06278720498085022, 0.11539163440465927, 0.1511809527873993, -0.01020615454763174, -0.0253599900752306, 0.09978188574314117, 0.12246768176555634, -0.03528338298201561, 0.18180282413959503, 0.1394115686416626, 0.04411453753709793, 0.12309282273054123, 0.234052836894989, 0.04999206215143204, 0.1901545375585556, 0.05704303830862045, 0.14143095910549164, 0.1503903567790985, 0.16318972408771515, 0.06293049454689026, -0.014563429169356823, 0.2643354833126068, -0.13758893311023712], [0.12989266216754913, 0.2352645844221115, 0.24190181493759155, 0.1226389929652214, -0.003135738894343376, 0.2501112222671509, -0.07729659974575043, 0.053338807076215744, 0.10015197098255157, -0.1419645994901657, 0.12995609641075134, -0.06279575079679489, 0.1254681944847107, -0.11255397647619247, 0.1073334589600563, 0.23655568063259125, 0.09753033518791199, 0.28497517108917236, 0.02677302621304989, -0.16022706031799316, 0.12619468569755554, 0.15727393329143524, 0.003508134977892041, -0.02932908572256565, -0.03973166644573212, 0.04023301228880882, 0.17313703894615173, 0.12587010860443115, 0.13187333941459656, 0.13777808845043182, -0.0022679362446069717, -0.0759202092885971], [-0.06918160617351532, 0.06321970373392105, 0.25467830896377563, 0.18143056333065033, 0.2552286982536316, 0.11792337149381638, -0.157583549618721, -0.04140378534793854, 0.12423771619796753, 0.08509263396263123, 0.16947990655899048, -0.05185350030660629, -0.16499824821949005, -0.09498683363199234, 0.09216790646314621, 0.05962585285305977, 0.0845591127872467, 0.1728687435388565, -0.06789768487215042, 0.1076708436012268, -0.056804109364748, 0.11795532703399658, -0.0673365443944931, -0.035239748656749725, 0.02850315533578396, 0.17410925030708313, -0.08900377154350281, 0.10844310373067856, -0.15857850015163422, -0.15497836470603943, -0.006570680998265743, -0.06109489127993584], [-0.019632486626505852, -0.08383619040250778, 0.020538199692964554, -0.20858588814735413, -0.03307344764471054, -0.053431570529937744, 0.04669206961989403, 0.18017512559890747, 0.10879694670438766, -0.12067431211471558, -0.199278324842453, -0.04279780760407448, -0.08867595344781876, 0.061749011278152466, 0.0016205041902139783, 0.08172893524169922, 0.06943897902965546, -0.09175363928079605, 0.006075805053114891, 0.04233554005622864, -0.021935727447271347, 0.07933201640844345, -0.13822174072265625, 0.02897314913570881, -0.11268522590398788, -0.2110786885023117, -0.036291658878326416, 0.08614414930343628, 0.12490367889404297, 0.07616130262613297, -0.06795728951692581, -0.00990998838096857], [-0.07166197150945663, -0.22308067977428436, -0.19842566549777985, -0.05530570447444916, -0.07645326852798462, -0.3334908187389374, 0.000731268897652626, -0.1459634155035019, -0.02806168794631958, -0.11718494445085526, -0.1367974430322647, -0.12746979296207428, 0.1745176613330841, 0.13350220024585724, -0.12168581038713455, -0.3611380159854889, 0.006897415965795517, -0.23948559165000916, 0.05189575254917145, -0.11966263502836227, 0.07236198335886002, -0.33811864256858826, -0.09329744428396225, -0.29010772705078125, 0.08554071187973022, -0.19492238759994507, -0.1698874533176422, -0.10096070915460587, -0.0818081721663475, -0.16160525381565094, -0.1368403285741806, 0.06299223750829697], [-0.03243457153439522, -0.16298185288906097, -0.08372297137975693, -0.22412630915641785, -0.19072963297367096, -0.08123461902141571, 0.1570443958044052, -0.0665956363081932, 0.0876210406422615, -0.09275159239768982, -0.12296225875616074, -0.16828159987926483, 0.14645683765411377, 0.17213234305381775, -0.003712884383276105, 0.02910623326897621, 0.1445930153131485, 0.011563806794583797, 0.09104340523481369, -0.16828975081443787, -0.16611187160015106, -0.22819308936595917, 0.055293209850788116, -0.2396598905324936, -0.13494154810905457, -0.1675037294626236, -0.16293248534202576, 0.000238192908000201, 0.0255032479763031, -0.1230979710817337, 0.043349117040634155, -0.06711236387491226], [-0.04976741969585419, -0.06186928227543831, -0.033692918717861176, -0.20592154562473297, -0.3062521517276764, -0.2644030749797821, 0.02251061052083969, 0.08573392033576965, 0.08800733834505081, -0.10081666707992554, -0.33750393986701965, -0.15470558404922485, -0.05624260753393173, 0.002217514207586646, -0.07940377295017242, -0.32105979323387146, 0.01863008737564087, -0.3124925494194031, -0.13575109839439392, -0.14370989799499512, -0.04790179058909416, -0.0391974002122879, 0.06910542398691177, -0.21095624566078186, 0.036382634192705154, -0.11045055836439133, 0.0010299425339326262, -0.14258354902267456, -0.1089143455028534, -0.1301538646221161, -0.1555412858724594, -0.16182167828083038], [-0.032141733914613724, 0.06624047458171844, 0.2942560613155365, 0.2706398069858551, 0.22237242758274078, 0.12751056253910065, -0.0572354830801487, 0.04698115587234497, -0.12214025855064392, -0.05340006202459335, 0.07793883979320526, -0.04153451696038246, -0.16746094822883606, 0.070274218916893, 0.14557242393493652, 0.023363245651125908, 0.047653038054704666, 0.09310917556285858, -0.006447477266192436, 0.010304314084351063, 0.15319159626960754, 0.15165774524211884, -0.1118425577878952, 0.06544546782970428, 0.08636023849248886, 0.17292560636997223, 0.003435768885537982, -0.0233304500579834, -0.06877971440553665, -0.07237369567155838, 0.011075750924646854, 0.028966939076781273], [0.04964633285999298, 0.08579669147729874, -0.07794766128063202, -0.029232118278741837, 0.0805002823472023, 0.03661553934216499, 0.02271363139152527, 0.04812760278582573, 0.009175853803753853, -0.12926997244358063, -0.02691606618463993, -0.03863966092467308, 0.15952537953853607, 0.15956354141235352, 0.03507083281874657, 0.1153407096862793, -0.09104334563016891, 0.1171497255563736, 0.15220211446285248, -0.006756582297384739, -0.14186495542526245, -0.09737750887870789, -0.04727491736412048, -0.04157859459519386, -0.16027480363845825, -0.0070699830539524555, -0.07351995259523392, -0.045262109488248825, -0.09130378812551498, 0.03015357255935669, -0.18752045929431915, -0.09372133761644363], [0.016285542398691177, 0.14940831065177917, 0.19368135929107666, -0.0980406105518341, 0.10345126688480377, -0.07151800394058228, -0.1366761326789856, -0.0028996416367590427, -0.10140735656023026, -0.13145168125629425, -0.13987773656845093, -0.11832518875598907, 0.14526373147964478, 0.09858977794647217, -0.06997653841972351, -0.08833137154579163, -0.13598401844501495, -0.07792127877473831, -0.07274331152439117, 0.1061701849102974, 0.057851310819387436, -0.034529101103544235, 0.12169862538576126, -0.07667530328035355, -0.14401784539222717, 0.0666426345705986, -0.0974748283624649, 0.050289154052734375, 0.1497715413570404, -0.03544645011425018, -0.10538667440414429, 0.06653876602649689], [-0.15965536236763, -0.06722383201122284, -0.3051358461380005, -0.13764610886573792, -0.3533126711845398, -0.3314300775527954, 0.019472770392894745, 0.04732923209667206, 0.13707178831100464, 0.1246463805437088, -0.21281903982162476, -0.022727686911821365, 0.02922150492668152, -0.04106363281607628, 0.006017621606588364, -0.38250604271888733, -0.14511731266975403, -0.08711788058280945, -0.10330063849687576, 0.1392090767621994, 0.019400130957365036, -0.18591955304145813, 0.16066837310791016, -0.323598712682724, -0.027905596420168877, -0.18517182767391205, 0.06039430573582649, -0.17204159498214722, 0.06282971799373627, -0.09750794619321823, -0.146331325173378, 0.11959820985794067], [-0.017609648406505585, -0.0805421844124794, -0.07957308739423752, 0.07111124694347382, 0.03321751952171326, -0.030843626707792282, -0.10638690739870071, -0.10278423130512238, 0.14081232249736786, 0.10857674479484558, 0.04282723367214203, -0.13783584535121918, 0.13767240941524506, -0.016898419708013535, 0.13024146854877472, 0.09118692576885223, 0.01937667652964592, -0.1275709867477417, 0.16628514230251312, -0.09212188422679901, 0.11550849676132202, -0.24147647619247437, -0.05559854209423065, -0.22501669824123383, -0.07929781824350357, 0.01145456824451685, -0.12666545808315277, -0.15287719666957855, 0.12640157341957092, 0.0750243216753006, -0.04382462427020073, -0.12462063878774643], [-0.046834588050842285, -0.16772952675819397, -0.013037964701652527, -0.1767052859067917, -0.16671141982078552, -0.23889216780662537, -0.08325964212417603, 0.0970090925693512, 0.11389467120170593, 0.00285473489202559, -0.17513296008110046, 0.16979236900806427, 0.03489217534661293, -0.06823518127202988, -0.06127030402421951, -0.1400577872991562, 0.08380940556526184, -0.04929351806640625, 0.1281561255455017, -0.00796501711010933, 0.14621073007583618, -0.18975378572940826, -0.08141506463289261, -0.1826178878545761, -0.16585330665111542, -0.23014789819717407, -0.1599607765674591, -0.01044708676636219, 0.0016665495932102203, -0.058680444955825806, -0.2116590291261673, 0.16038747131824493], [-0.058573223650455475, -0.11906265467405319, -0.07270854711532593, -0.31936970353126526, -0.20570090413093567, -0.08920080214738846, 0.1713600903749466, -0.06532473117113113, 0.12809649109840393, -0.11556312441825867, -0.29601648449897766, 0.14536967873573303, -0.01673714630305767, 0.1746416836977005, 0.01285470463335514, -0.26509568095207214, 0.16788756847381592, -0.03666695952415466, 0.01640593446791172, -0.1071629747748375, -0.007653888780623674, -0.27215877175331116, 0.12881384789943695, -0.1862393021583557, 0.03721528872847557, -0.0835237205028534, 0.05855577439069748, -0.11035574972629547, 0.14685268700122833, 0.11702299118041992, -0.2609395682811737, 0.13366137444972992], [0.05015215650200844, -0.0771900862455368, -0.1597120761871338, -0.07557064294815063, -0.20302735269069672, 0.06671115010976791, 0.1280311495065689, -0.05760618671774864, 0.16388076543807983, -0.043690282851457596, -0.0008162729209288955, -0.1231946274638176, -0.0074738371185958385, 0.07145842164754868, 0.07614382356405258, -0.036547981202602386, -0.08914182335138321, 0.09317072480916977, 0.1170378103852272, 0.02836921252310276, -0.08129534870386124, 0.006740390323102474, 0.0004726979823317379, 0.12315342575311661, 0.026197027415037155, -0.01981206052005291, 0.012084364891052246, 0.09404681622982025, -0.0021842182613909245, 0.1410149335861206, 0.0672113448381424, -0.13357724249362946], [-2.0230486370564904e-06, -0.0011600395664572716, -0.015393191948533058, 0.17666593194007874, 0.15905502438545227, 0.11106528341770172, 0.1680196076631546, -0.06914389878511429, -0.07408458739519119, -0.0512675866484642, 0.12177284806966782, -0.014973404817283154, 0.15916776657104492, -0.07466099411249161, -0.09246746450662613, 0.14449533820152283, 0.13277381658554077, 0.16968341171741486, 0.09523535519838333, 0.03422136604785919, 0.15066473186016083, 0.2258501648902893, 0.12649588286876678, 0.10764086991548538, -0.1463526338338852, 0.040924813598394394, 0.06022221967577934, 0.12401709705591202, -0.06906743347644806, 0.15112802386283875, 0.1300983875989914, 0.0007021664641797543], [0.0068915365263819695, 0.00958376843482256, 0.19229130446910858, 0.04061760753393173, 0.13716264069080353, -0.11582669615745544, -0.09107906371355057, 0.008464569225907326, 0.1411561369895935, 0.061468370258808136, 0.06742717325687408, -0.17465388774871826, 0.003323320997878909, -0.11669058352708817, -0.15094465017318726, 0.06026683747768402, -0.11184755712747574, 0.1934095323085785, -0.09608551859855652, 0.05696949362754822, 0.10376134514808655, -0.10630162060260773, 0.09047078341245651, 0.011068922467529774, 0.09159909188747406, 0.2031501829624176, -0.07533612102270126, -0.07656268030405045, 0.14045777916908264, 0.055825162678956985, 0.024882152676582336, 0.13411487638950348], [-0.08540860563516617, 0.06847609579563141, 0.19575536251068115, 0.14605137705802917, -0.04013596475124359, 0.1141030341386795, -0.13478104770183563, -0.09161615371704102, 0.1136694997549057, -0.026401495561003685, -0.023160720244050026, 0.012530341744422913, 0.04319898039102554, -0.10988736897706985, -0.11921172589063644, -0.10016259551048279, 0.045676182955503464, -0.050670769065618515, 0.013471860438585281, -0.03953755646944046, -0.11558720469474792, 0.02438175491988659, -0.13588647544384003, -0.01528539415448904, -0.0055103423073887825, -0.07855795323848724, -0.15503905713558197, 0.13241644203662872, 0.016634348779916763, -0.08047256618738174, 0.043760091066360474, 0.1310914307832718], [-0.14747871458530426, -0.31434598565101624, -0.3250884711742401, -0.21487873792648315, -0.20108751952648163, -0.33214396238327026, 0.1226978600025177, -0.18333406746387482, 0.16504503786563873, -0.14479295909404755, -0.21001680195331573, 0.03305492922663689, -0.07857324928045273, 0.1625712662935257, -0.12187591195106506, -0.20791731774806976, -0.1298002302646637, -0.13470205664634705, 0.15071752667427063, 0.16397559642791748, 0.02098582126200199, -0.30483096837997437, 0.17179955542087555, -0.2016465812921524, 0.11960303783416748, -0.28811001777648926, -0.08204088360071182, -0.14674821496009827, 0.16265682876110077, 0.04211027920246124, -0.29092881083488464, 0.01518314890563488], [-0.0758204311132431, 0.0955510139465332, 0.12817378342151642, -0.010204351507127285, 0.10311339050531387, -0.042476486414670944, 0.03406411409378052, -0.15748059749603271, 0.028169624507427216, 0.19874151051044464, 0.22793015837669373, 0.06448480486869812, 0.13007749617099762, 0.17187252640724182, 0.050093088299036026, 0.1287243664264679, 0.022986996918916702, 0.2186332792043686, 0.1518583595752716, -0.08313107490539551, -0.0072672124952077866, -0.005061590578407049, 0.06343284249305725, -0.0874020978808403, 0.06255565583705902, 0.02149007096886635, 0.06410843133926392, 0.055173110216856, -0.0879674032330513, 0.09808801114559174, 0.13796502351760864, -0.15026739239692688], [0.17637929320335388, 0.030797557905316353, 0.007787162903696299, -0.12623903155326843, -0.038856275379657745, -0.20290429890155792, -0.06006857380270958, 0.08901944011449814, 0.07869532704353333, 0.09313035756349564, -0.27164506912231445, 0.146491140127182, -0.0738372951745987, 0.15298540890216827, 0.14565534889698029, -0.0459018237888813, 0.1761208474636078, -0.0058714766055345535, 0.10367701202630997, -0.060028448700904846, 0.16395781934261322, -0.05961940065026283, 0.10444597899913788, -0.1517033874988556, 0.1280253678560257, 0.05091188848018646, -0.13545536994934082, 0.14492227137088776, -0.11682987958192825, -0.13985563814640045, -0.2501559555530548, 0.051081348210573196], [-0.13272877037525177, -0.18409626185894012, -0.1934158056974411, -0.0658397525548935, -0.27678996324539185, -0.1871742308139801, 0.0012932127574458718, 0.002227107295766473, -0.07983666658401489, 0.08630585670471191, -0.22032618522644043, -0.14971037209033966, -0.025131449103355408, -0.0955740287899971, 0.11142821609973907, -0.2327374666929245, -0.014840811491012573, -0.035589899867773056, -0.15481023490428925, 0.13684634864330292, -0.08032293617725372, -0.156036376953125, -0.10813673585653305, -0.17641252279281616, -0.06816325336694717, -0.2641778290271759, 0.06040593609213829, -0.0005663061165250838, 0.17292839288711548, 0.13714195787906647, 0.037896063178777695, 0.05201241374015808], [0.09288893640041351, 0.11571964621543884, 0.09238655120134354, -0.18360242247581482, -0.09234166890382767, -0.21402421593666077, 0.006687609013170004, -0.058604490011930466, 0.15342742204666138, 0.0048114098608493805, -0.042810529470443726, -0.12787185609340668, -0.13872213661670685, 0.027828868478536606, -0.08783716708421707, -0.12810412049293518, 0.1239972710609436, -0.1312079280614853, -0.07868415862321854, 0.13573049008846283, 0.06906644254922867, -0.15877991914749146, 0.05353652685880661, 0.03775031492114067, -0.1570131778717041, -0.014656447805464268, 0.04038816690444946, -0.006884940434247255, 0.1694936752319336, -0.11447099596261978, 0.04832307994365692, -0.0939066931605339], [-0.15133963525295258, -0.145137220621109, -0.31977325677871704, -0.24113829433918, -0.13778983056545258, -0.38684767484664917, -0.15131890773773193, 0.03836466744542122, 0.15413616597652435, 0.004462295677512884, -0.1038474515080452, 0.062119439244270325, 0.05043487623333931, -0.11270785331726074, 0.16824163496494293, -0.1677628606557846, 0.027333833277225494, -0.10767089575529099, -0.15189136564731598, 0.03809253126382828, -0.08321385085582733, -0.25940170884132385, 0.05791788175702095, -0.17688632011413574, 0.04055371880531311, -0.3755577504634857, -0.11063260585069656, 0.0030866244342178106, -0.030616186559200287, -0.16716080904006958, -0.04351671040058136, 0.022235538810491562], [-0.12560871243476868, -0.041879791766405106, -0.022140013054013252, -0.19484296441078186, -0.010021133348345757, -0.21781903505325317, 0.06124980002641678, 0.16339299082756042, 0.11669576913118362, 0.11045375466346741, -0.13832660019397736, 0.033187124878168106, 0.06168901175260544, 0.043177150189876556, -0.03581356629729271, -0.08778414130210876, -0.0716000571846962, -0.20496264100074768, -0.16313594579696655, -0.14412759244441986, -0.11096542328596115, 0.06604764610528946, 0.0353756844997406, -0.2718961238861084, -0.09036275744438171, -0.06342769414186478, -0.052910372614860535, -0.05003846436738968, -0.0663822740316391, -0.060658492147922516, -0.0867517814040184, 0.010468391701579094], [0.11357583105564117, 0.05368802323937416, 0.09962478280067444, -0.06008876487612724, -0.11726946383714676, -0.05035873129963875, -0.11706405133008957, 0.07228181511163712, -0.02132818102836609, -0.03380274400115013, -0.19437018036842346, 0.08519159257411957, 0.09867241233587265, 0.1612604558467865, -0.06262669712305069, 0.004156383220106363, 0.006663522217422724, -0.15902115404605865, -0.11051173508167267, 0.09052468836307526, -0.10152699053287506, 0.08782609552145004, 0.06175859645009041, 0.007156688719987869, 0.11642080545425415, 0.039778128266334534, 0.07624069601297379, 0.0917191281914711, -0.07501816749572754, -0.09744322299957275, -0.06537327915430069, 0.09814081341028214], [0.12371315807104111, 0.16382229328155518, -0.015930166468024254, 0.01811227761209011, -0.08126046508550644, 0.14016850292682648, -0.11722538620233536, -0.06806866824626923, 0.14597609639167786, 0.06607933342456818, -0.04042752832174301, -0.11903643608093262, -0.12156474590301514, 0.14266332983970642, -0.16157466173171997, 0.17920421063899994, 0.14141520857810974, 0.03828345239162445, -0.01416951697319746, 0.1374831199645996, 0.07795441150665283, 0.20973436534404755, 0.1428023874759674, -0.0799713134765625, 0.1090923324227333, 0.12204498052597046, -0.12551362812519073, 0.084900863468647, -0.09181994199752808, -0.13508446514606476, 0.018014848232269287, -0.021722570061683655], [-0.04753199219703674, -0.1592312902212143, 0.057642754167318344, 0.13631626963615417, -0.07879037410020828, -0.15195170044898987, -0.009115351364016533, -0.14822417497634888, -0.14355254173278809, -0.07973868399858475, 0.07920446246862411, -0.13543112576007843, -0.028210613876581192, -0.09179486334323883, -0.16277407109737396, -0.07542412728071213, -0.010297423228621483, -0.058131445199251175, 0.12924769520759583, 0.07081007957458496, 0.11006025224924088, 0.023188091814517975, 0.018546972423791885, 0.05452142283320427, -0.11277461796998978, 0.05175377428531647, 0.08420116454362869, -0.07502522319555283, -0.0060670808888971806, -0.11611553281545639, -0.17187803983688354, -0.00019528741540852934], [0.03165280818939209, -0.15786461532115936, -0.0629090890288353, -0.2555358111858368, -0.20930181443691254, 0.010116485878825188, -0.1720341444015503, 0.01676550693809986, 0.13609552383422852, 0.11080276221036911, -0.04701706022024155, -0.1610260158777237, 0.022757695987820625, -0.062164999544620514, -0.04969364032149315, 0.02515552006661892, -0.06007622182369232, -0.23238465189933777, -0.14190538227558136, 0.1116139367222786, 0.008529932238161564, 0.050375279039144516, 0.03615143895149231, -0.28148937225341797, 0.04373591020703316, 0.047362953424453735, 0.1096421405673027, 0.05304884538054466, -0.13281303644180298, -0.11001214385032654, 0.04149555787444115, -0.11820313334465027], [0.040328674018383026, 0.017081499099731445, 0.10563187301158905, 0.055897269397974014, -0.09356096386909485, -0.03012874722480774, 0.15418307483196259, 0.0313524529337883, 0.08963551372289658, -0.06611894071102142, 0.1786419004201889, -0.03784150630235672, -0.05958501994609833, 0.03585994988679886, -0.06334144622087479, -0.035207632929086685, -0.025295905768871307, 0.02840796858072281, -0.10054240375757217, 0.060424670577049255, -0.1713288575410843, 0.1517852246761322, 0.163953959941864, 0.07023780792951584, -0.04130534455180168, -0.12188263237476349, 0.08301477134227753, 0.1448473334312439, 0.15113089978694916, 0.03475034609436989, 0.07642818987369537, 0.16938911378383636], [0.02638556994497776, -0.005022438243031502, -0.09780275821685791, 0.14982107281684875, 0.14198662340641022, 0.2281460165977478, -0.08999795466661453, 0.09442268311977386, -0.05848732963204384, -0.02087676152586937, 0.17327678203582764, -0.16204729676246643, 0.13030867278575897, 0.08221857249736786, -0.10506180673837662, 0.15849176049232483, -0.04446505010128021, 0.08141947537660599, -0.04731578007340431, -0.17308439314365387, -0.018308401107788086, 0.16896764934062958, -0.020567409694194794, -0.0044881198555231094, 0.005601273849606514, 0.10038796067237854, -0.049323465675115585, -0.13708750903606415, -0.09477762132883072, -0.007156324107199907, 0.1269989162683487, 0.1572028249502182], [0.0032807737588882446, 0.0768062025308609, 0.11250924319028854, -0.07174558937549591, -0.041581351310014725, 0.12581735849380493, 0.12657001614570618, 0.03710313141345978, -0.13660992681980133, 0.12338472157716751, -0.13282333314418793, 0.08835694938898087, 0.020950565114617348, 0.057101476937532425, -0.17231270670890808, -0.0498259961605072, 0.07507645338773727, 0.1427421122789383, -0.050609491765499115, 0.15764057636260986, -0.03944928199052811, -0.08323369175195694, -0.07655199617147446, 0.024274131283164024, -0.03141910582780838, 0.0974622592329979, -0.0978320837020874, -0.05028776451945305, -0.17518800497055054, 0.17073142528533936, -0.012455329298973083, -0.13935519754886627], [-0.0085302060469985, -0.005202924367040396, 0.042052336037158966, -0.017879093065857887, 0.10044562071561813, -0.05955817922949791, -0.05291113257408142, -0.04394535347819328, 0.03155994042754173, 0.11866390705108643, -0.01098577305674553, 0.1360171139240265, 0.13886630535125732, -0.09203876554965973, -0.015188691206276417, -0.08615832030773163, 0.0735345110297203, -0.06271795928478241, 0.053925711661577225, 0.010561452247202396, -0.11604778468608856, -0.13152174651622772, -0.1726621836423874, -0.10098005086183548, 0.04938333481550217, 0.004800618160516024, 0.13295410573482513, -0.15544229745864868, -0.005165728274732828, -0.18532657623291016, -8.009131124708802e-05, 0.06440622359514236], [-0.1585763543844223, 0.1958458423614502, -0.008750961162149906, 0.19849909842014313, 0.015972888097167015, 0.1323251873254776, 0.16070355474948883, -0.04323165863752365, -0.04297206178307533, 0.10032667964696884, -0.11504826694726944, 0.10463907569646835, -0.1110357865691185, 0.16418372094631195, -0.11585331708192825, -0.042882177978754044, 0.13190819323062897, -0.044578853994607925, 0.1515243649482727, 0.12162581086158752, 0.16157592833042145, -0.12107650190591812, 0.0019812812097370625, -0.017739268019795418, 0.04210885241627693, -0.09534577280282974, 0.07248798757791519, -0.008374578319489956, -0.08356034010648727, -0.1632542610168457, 0.10296428948640823, -0.06397640705108643], [0.13043932616710663, 0.0130568016320467, 0.038343265652656555, -0.04925278201699257, -0.038997452706098557, -0.07651831209659576, -0.1530710905790329, 0.09405490010976791, -0.1113235205411911, 0.08123543858528137, -0.07529144734144211, 0.11074511706829071, 0.15150153636932373, -0.10811770707368851, 0.14596903324127197, -0.009609230794012547, -0.13504520058631897, 0.0526680052280426, 0.1000979021191597, 0.1558307260274887, -0.1682773232460022, 0.1475887894630432, 0.13401567935943604, 0.1543099731206894, 0.09634438902139664, -0.09654197096824646, 0.1341048628091812, 0.16155920922756195, -0.06759408116340637, 0.007180336397141218, 0.10416561365127563, 0.14230215549468994], [0.11677630990743637, 0.14061594009399414, -0.0746581181883812, -0.025730300694704056, -0.05785499885678291, 0.10325508564710617, 0.04405494034290314, -0.13175290822982788, -0.022205214947462082, -0.12164401262998581, -0.1574021577835083, 0.16115456819534302, -0.08892238885164261, 0.07890068739652634, -0.03936437517404556, -0.023651666939258575, -0.00011417581117711961, 0.15003398060798645, -0.024454591795802116, 0.14627663791179657, 0.10343342274427414, 0.1374138742685318, -0.16032591462135315, -0.07131737470626831, -0.14402426779270172, -0.022747507318854332, -0.03661433607339859, 0.035921696573495865, 0.1583867371082306, 0.1029893308877945, -0.11753915250301361, -0.11086433380842209], [0.13348504900932312, 0.002622892614454031, 0.027225924655795097, -0.10023736953735352, -0.042091965675354004, 0.03909642621874809, -0.11600533872842789, 0.08516575396060944, 0.08809561282396317, -0.12637178599834442, -0.08281358331441879, -0.041560374200344086, 0.027511080726981163, -0.06484521925449371, 0.1691083312034607, -0.18001851439476013, -0.09991409629583359, -0.1119757667183876, 0.04779694974422455, 0.025085845962166786, -0.05037359520792961, 0.12231574207544327, -0.15260303020477295, 0.045485395938158035, -0.09727165848016739, -0.05553494021296501, -0.1702360212802887, -0.1319650411605835, -0.14998604357242584, 0.060764163732528687, -0.06905617564916611, 0.09247201681137085], [-0.09580393880605698, -0.035003505647182465, 0.040556009858846664, 0.16030803322792053, -0.031698234379291534, 0.1126709133386612, 0.04876771569252014, 0.13202248513698578, 0.11167129874229431, 0.09493304044008255, -0.04308447614312172, -0.0496152900159359, 0.06881939619779587, 0.09635081142187119, -0.009435183368623257, 0.09672106802463531, -0.10635223984718323, 0.10984919965267181, -0.02169313095510006, -0.1216527447104454, -0.08589297533035278, -0.11706417798995972, 0.035658929497003555, -0.09333594888448715, -0.05062238872051239, 0.0019912761636078358, -0.107862189412117, 0.004539215471595526, -0.02243518829345703, 0.07121149450540543, 0.11785607039928436, -0.1067146360874176], [0.09665199369192123, 0.051876869052648544, -0.042220234870910645, -0.021960541605949402, 0.10287217050790787, 0.08851001411676407, -0.005709928460419178, -0.062003713101148605, 0.08914772421121597, 0.04939659684896469, -0.11896336823701859, -0.0312411617487669, -0.04796172305941582, -0.07543230056762695, -0.09805763512849808, -0.0858614519238472, 0.17410805821418762, -0.10267696529626846, 0.16432760655879974, -0.13896483182907104, -0.04288911819458008, -0.007081938907504082, -0.09461971372365952, 0.11818280816078186, 0.10245884209871292, -0.0581946037709713, -0.08233367651700974, 0.09023159742355347, -0.02136807329952717, 0.03308713436126709, 0.11729477345943451, -0.0653422623872757], [-0.09810645878314972, -0.02591857500374317, -0.15766951441764832, -0.20946575701236725, -0.180750772356987, -0.17390355467796326, 0.1760198026895523, 0.04097045212984085, 0.0761328861117363, 0.03791217878460884, -0.20880696177482605, 0.12756876647472382, -0.02747972309589386, -0.04577295109629631, 0.14406536519527435, -0.1831514835357666, 0.03589598461985588, -0.24113641679286957, 0.09058442711830139, 0.07021768391132355, -0.14536280930042267, 0.0069994842633605, 0.019454142078757286, -0.18407860398292542, 0.15072572231292725, -0.017037350684404373, 0.062122199684381485, -0.06565939635038376, -0.09693026542663574, -0.13058054447174072, -0.014931457117199898, 0.047621216624975204], [-0.10580044984817505, 0.14089138805866241, 0.08921270072460175, -0.07226867228746414, 0.08194593340158463, -0.09086465835571289, 0.055477432906627655, 0.14935635030269623, -0.15636463463306427, -0.07305701076984406, -0.01768367551267147, 0.026361925527453423, -0.1453765332698822, -0.11630167812108994, -0.01693142205476761, -0.04752429947257042, 0.0381297692656517, 0.006427119020372629, 0.0362643264234066, 0.011719142086803913, 0.02031821571290493, -0.033733025193214417, 0.06348451226949692, 0.10426019877195358, -0.08822045475244522, -0.11326240748167038, 0.0775899663567543, -0.12783318758010864, 0.11487974971532822, 0.10533181577920914, 0.013184425421059132, -0.07674597203731537], [0.0053007458336651325, -0.1304752081632614, -0.15499509871006012, 0.17654168605804443, -0.1564074456691742, -0.14722813665866852, -0.0686684250831604, 0.017220376059412956, 0.04048788547515869, -0.07593497633934021, -0.017026567831635475, -0.03947595879435539, 0.14791356027126312, 0.15343403816223145, 0.07265682518482208, -0.001024193363264203, 0.1325707584619522, -0.14105238020420074, 0.07386034727096558, -0.10275283455848694, 0.13786134123802185, -0.15662334859371185, 0.06568185985088348, -0.14403890073299408, 0.10317540168762207, 0.034208621829748154, 0.15168125927448273, -0.13332805037498474, 0.11377508193254471, -0.09238073229789734, -0.0942845568060875, 0.0672382116317749], [-0.02975563146173954, -0.14291176199913025, -0.14824147522449493, -0.05613698810338974, 0.040087033063173294, 0.1382884383201599, 0.13001160323619843, -0.0037474464625120163, -0.10843374580144882, -0.13433551788330078, 0.13871613144874573, -0.09856090694665909, -0.03109014965593815, -0.1426437497138977, -0.12218999117612839, 0.020526520907878876, -0.04370290786027908, 0.0052840313874185085, -0.0013519444037228823, 0.009006507694721222, -0.035027340054512024, -0.007207916118204594, 0.07683916389942169, 0.11066276580095291, 0.14941687881946564, -0.14659231901168823, -0.1494310200214386, -0.02641998417675495, -0.013485684990882874, 0.09898082911968231, 0.12072209268808365, 0.04539582133293152], [-0.12555721402168274, -0.17567609250545502, -0.043952953070402145, -0.09582503885030746, -0.2791663110256195, -0.14155030250549316, -0.1706894487142563, -0.07409584522247314, 0.12363822013139725, -0.07527241110801697, -0.038412898778915405, -0.14419220387935638, 0.15628904104232788, 0.084323450922966, 0.1145530492067337, -0.10776309669017792, 0.012524041347205639, -0.2383837252855301, -0.0975441187620163, -0.12139599025249481, 0.14609625935554504, -0.2172463834285736, 0.004306691233068705, -0.32421448826789856, 0.04744472727179527, -0.21212473511695862, -0.14139102399349213, 0.021878408268094063, -0.16284921765327454, 0.011773514561355114, -0.2779898941516876, 0.11175885796546936], [-0.14038971066474915, -0.004900992847979069, 0.061987075954675674, -0.17804363369941711, 0.08689066022634506, 0.11156275868415833, -0.1083635687828064, -0.00132569984998554, 0.05360632389783859, 0.1693689227104187, 0.10562831163406372, -0.14828239381313324, -0.1440848559141159, -0.15630917251110077, -0.0786198228597641, -0.06284202635288239, -0.06342801451683044, 0.08556198328733444, -0.12182961404323578, -0.14109013974666595, -0.13818927109241486, -0.11951296776533127, 0.17314651608467102, -0.0107055539265275, -0.030951233580708504, -0.0739889070391655, -0.1353975236415863, -0.059977009892463684, 0.09313026815652847, 0.13252127170562744, 0.07572701573371887, 0.012585427612066269], [-0.09637854248285294, -0.18499912321567535, 0.09539560228586197, -0.23523029685020447, -0.03936588019132614, -0.0887138843536377, 0.16413171589374542, 0.09925563633441925, -0.04466056823730469, -0.16951417922973633, -0.05456859990954399, -0.12364470958709717, -0.018644079566001892, 0.04426141828298569, 0.08632500469684601, -0.12489458173513412, -0.11933020502328873, -0.22012171149253845, -0.1674424558877945, 0.022173603996634483, -0.10759323090314865, -0.07782290875911713, -0.08374863117933273, -0.19814564287662506, 0.1191992312669754, 0.025804655626416206, 0.1241220235824585, 0.16957411170005798, -0.12790480256080627, -0.09885746240615845, -0.22284568846225739, 0.1187014952301979], [0.10415802896022797, 0.11078831553459167, -0.15368779003620148, -0.11730886995792389, 0.1422780305147171, -0.16718026995658875, -0.117734394967556, 0.04929794743657112, -0.15453000366687775, -0.07115308195352554, 0.048375971615314484, 0.14482153952121735, -0.020058823749423027, -0.15643687546253204, 0.10007143020629883, 0.14551445841789246, -0.13123516738414764, -0.033532582223415375, -0.1278761476278305, -0.09026558697223663, 0.05949002131819725, 0.04575863108038902, 0.07309932261705399, -0.19547905027866364, -0.04285537824034691, 0.045234549790620804, -0.01640869490802288, -0.0546509325504303, -0.09131453931331635, 0.1432425081729889, -0.16206885874271393, -0.13925014436244965], [0.12881973385810852, -0.09782035648822784, 0.09854134172201157, -0.08761599659919739, -0.02750476263463497, -0.08508814871311188, 0.14605562388896942, 0.10442442446947098, 0.008494317531585693, -0.019007563591003418, -0.06367623060941696, -0.09449083358049393, -0.06686568260192871, 0.05788587033748627, -0.03179636225104332, 0.11934767663478851, 0.025452185422182083, 0.006550571881234646, -0.10985415428876877, 0.07131390273571014, -0.1635197103023529, 0.025731438770890236, 0.06342862546443939, 0.027478789910674095, 0.1244107335805893, 0.039192263036966324, -0.048822127282619476, -0.12370036542415619, -0.16406725347042084, 0.10789398103952408, 0.1015203595161438, -0.13484124839305878], [0.047327835112810135, -0.05715020373463631, 0.140966534614563, -0.05625362694263458, 0.14067938923835754, 0.1208474189043045, 0.0977739617228508, 0.10691842436790466, 0.055133156478405, 0.03684348613023758, -0.14872202277183533, -0.04035773500800133, -0.020039035007357597, 0.0857732817530632, -0.06850150227546692, 0.07669170200824738, 0.12002697587013245, 0.07180409878492355, 0.09098578989505768, -0.023561984300613403, 0.0846807062625885, -0.07126013934612274, 0.15313367545604706, -0.008077854290604591, -0.010311732068657875, -0.1594676524400711, 0.16349762678146362, -0.024733245372772217, 0.13166487216949463, -0.09766000509262085, -0.13754944503307343, -0.028295455500483513], [-0.1413506716489792, -0.12484832108020782, -0.15333496034145355, -0.22072014212608337, -0.040898993611335754, -0.037677664309740067, -0.1560850590467453, -0.14509034156799316, 0.10341846197843552, -0.12740755081176758, -0.11021877825260162, -0.04708005115389824, 0.03161163255572319, -0.09755104780197144, 0.0005648941732943058, -0.2208302617073059, -0.07963478565216064, -0.23797866702079773, 0.039485737681388855, 0.11438748985528946, -0.00435640336945653, -0.16224896907806396, 0.14585287868976593, -0.01791382022202015, -0.025662604719400406, -0.29746881127357483, 0.04148389771580696, 0.05278174206614494, -0.13988260924816132, -0.10463783144950867, -0.11271532624959946, 0.17262105643749237], [-0.1581178456544876, -0.08940643072128296, -0.05941349267959595, -0.15323488414287567, -0.10690168291330338, 0.1273193210363388, 0.13520504534244537, -0.10966639965772629, 0.003789633745327592, -0.12072095274925232, 0.0647611916065216, -0.12074071168899536, -0.09008821099996567, -0.08193789422512054, 0.026057224720716476, 0.10372019559144974, -0.07398668676614761, 0.025040509179234505, 0.1407533586025238, -0.010711431503295898, 0.018253441900014877, 0.016314847394824028, -0.002258249092847109, 0.09625502675771713, 0.09565256536006927, -0.09788629412651062, 0.1687973439693451, 0.10171819478273392, -0.02766025997698307, 0.1490459442138672, -0.009197100065648556, 0.11170779913663864], [-0.15009988844394684, 0.19125208258628845, 0.20557929575443268, -0.09454558044672012, -0.12058817595243454, -0.019475864246487617, -0.10868456214666367, 0.05527510121464729, 0.0786890909075737, -0.0020927360747009516, 0.15510143339633942, 0.006698714569211006, -0.05195673555135727, -0.15089142322540283, 0.05618339031934738, -0.13565059006214142, -0.0006045122281648219, 0.054911695420742035, -0.09900347143411636, 0.053107284009456635, 0.0343637578189373, 0.160297691822052, 0.11056454479694366, -0.10647905617952347, -0.13116511702537537, -0.02988370694220066, -0.12717308104038239, 0.055426180362701416, -0.11582227796316147, -0.1112140417098999, 0.05536540225148201, 0.10668796300888062], [-0.05139293894171715, -0.17346544563770294, 0.008950055576860905, 0.08713121712207794, 0.12036911398172379, -0.00016954218153841794, 0.12272350490093231, -0.1682186871767044, 0.16911840438842773, -0.13712608814239502, -0.135783389210701, 0.12686793506145477, -0.03928189352154732, 0.10909507423639297, -0.12381867319345474, 0.11728079617023468, 0.16765417158603668, 0.03604384511709213, 0.14260470867156982, -0.12624087929725647, -0.03903457522392273, 0.026289843022823334, 0.09989475458860397, -0.11093197017908096, 0.11248911172151566, -0.07562678307294846, -0.09435545653104782, 0.0345798023045063, -0.1408039927482605, -0.1515061855316162, 0.04702157899737358, 0.06021227315068245], [0.06797928363084793, -0.0700785294175148, -0.1815064698457718, -0.19618651270866394, 0.1198773980140686, -0.1993485391139984, 0.05327926203608513, 0.127921462059021, 0.13505306839942932, -0.1334437131881714, -0.1023019328713417, -0.1413387656211853, 0.11088652163743973, -0.16589418053627014, -0.16273830831050873, -0.16186824440956116, 0.1441965103149414, 0.07012762874364853, 0.11844842880964279, 0.1356385052204132, -0.08244527876377106, -0.14520905911922455, -0.10860011726617813, 0.01158616878092289, 0.06876363605260849, -0.009486193768680096, -0.1359977275133133, 0.015703536570072174, -0.09380493313074112, -0.07488889247179031, -0.05093853920698166, 0.008787154220044613], [-0.1550011932849884, 0.1484013795852661, -0.0669303759932518, 0.05865190923213959, 0.1291394829750061, 0.0677255392074585, 0.12380018830299377, 0.10814570635557175, 0.1294432282447815, 0.020792895928025246, 0.1134164109826088, -0.07684025913476944, -0.09525516629219055, 0.08441181480884552, 0.046383533626794815, -0.010757221840322018, -0.14911270141601562, 0.05412046238780022, 0.11450767517089844, -0.02040967345237732, 0.04061280936002731, 0.08448739349842072, -0.17458094656467438, -0.028967007994651794, -0.06557796895503998, -0.08924170583486557, 0.10804738849401474, 0.1752718836069107, 0.028206482529640198, 0.11048264801502228, -0.14705407619476318, 0.031143400818109512], [-0.02286287397146225, -0.09055688232183456, 0.039082929491996765, 0.06213558465242386, -0.002356767887249589, 0.08754951506853104, 0.08487207442522049, 0.14419963955879211, 0.010247479192912579, -0.0168476365506649, 0.010824955999851227, 0.02439575456082821, -0.1146252453327179, -0.02175930142402649, -0.14948810636997223, -0.10623974353075027, -0.15057623386383057, 0.13896618783473969, -0.10159356147050858, -0.014266160316765308, 0.018898984417319298, 0.15657354891300201, 0.08022831380367279, -0.10844544321298599, 0.1729009747505188, -0.15494027733802795, 0.022984109818935394, 0.1615217924118042, 0.15330994129180908, -0.017602860927581787, -0.09065985679626465, 0.07762277871370316], [0.13627049326896667, -0.07903485000133514, -0.026600807905197144, -0.09624307602643967, 0.069374218583107, 0.04587632045149803, 0.08762706816196442, -0.06301894038915634, -0.1706443727016449, -0.09763840585947037, -0.12957598268985748, -0.042587198317050934, 0.06424429267644882, -0.14706623554229736, -0.0082516148686409, -0.16369961202144623, -0.1252726912498474, -0.11490821838378906, -0.0601898729801178, -0.0895688384771347, 0.027210215106606483, 0.10271409153938293, 0.13329452276229858, 0.06134232506155968, -0.0011697435984387994, -0.02605902962386608, 0.12003186345100403, -0.10124538838863373, 0.12777581810951233, -0.16925381124019623, -0.11448831111192703, 0.04689254239201546], [-0.07280897349119186, -0.009859520941972733, 0.10915626585483551, 0.04452669247984886, 0.1264246702194214, -0.1139228418469429, -0.0844162181019783, -0.027524562552571297, -0.035602789372205734, -0.10000578314065933, -0.04874100536108017, 0.1597035974264145, -0.09690150618553162, 0.09927476942539215, 0.0821208581328392, 0.05848865211009979, 0.04769103229045868, -0.1049102321267128, 0.07295813411474228, -0.08326105773448944, -0.10850857943296432, 0.10981356352567673, 0.14652800559997559, -0.16951973736286163, 0.14358748495578766, -0.007129360921680927, 0.045312583446502686, 0.17038913071155548, -0.009282168932259083, -0.08652787655591965, 0.07489221543073654, -0.045663874596357346], [-0.04243730381131172, -0.05281197279691696, 0.19764895737171173, 0.10760938376188278, -0.000312621530611068, 0.012473838403820992, 0.012372206896543503, -0.09764621406793594, 0.0501912496984005, -0.11438322812318802, 0.012266855686903, -0.03316948562860489, -0.072180837392807, 0.16349872946739197, 0.04950813204050064, 0.10425084829330444, -0.11636430770158768, 0.042362309992313385, 0.047371771186590195, 0.09176812320947647, -0.052162837237119675, -0.008951039053499699, -0.14352348446846008, 0.12448344379663467, 0.11800847947597504, 0.10249986499547958, 0.08984072506427765, 0.10588036477565765, 0.16663053631782532, 0.07547912746667862, 0.10108987987041473, 0.05560242012143135], [-0.09982946515083313, -0.06901592016220093, -0.06016019731760025, -0.25408869981765747, -0.16837096214294434, -0.2227468341588974, -0.1129530668258667, 0.11879812180995941, 0.13906779885292053, -0.04017744958400726, -0.05980173870921135, -0.041401881724596024, 0.037479907274246216, -0.029593640938401222, -0.09196178615093231, -0.186515673995018, 0.17559444904327393, -0.08343299478292465, -0.09667134284973145, 0.020067082718014717, -0.1763620674610138, -0.11577194929122925, 0.1357032209634781, -0.09767536073923111, 0.04211883991956711, -0.27410799264907837, -0.033249709755182266, 0.10431306809186935, -0.12961316108703613, -0.09043043106794357, 0.009597227908670902, 0.050766490399837494], [0.08263839781284332, -0.1565333902835846, 0.12879690527915955, -0.027930481359362602, 0.05901327729225159, 0.1480414867401123, -0.1629103124141693, 0.03810055926442146, -0.15981020033359528, 0.13657627999782562, 0.06785023212432861, 0.019669849425554276, -0.07081878185272217, 0.06665104627609253, -0.09175672382116318, 0.04192524775862694, 0.14845412969589233, -0.12425434589385986, -0.050438690930604935, 0.04128937050700188, 0.030684612691402435, 0.017785722389817238, 0.15208451449871063, -0.04082892835140228, 0.04559991881251335, 0.10305702686309814, -0.034275542944669724, 0.11551167815923691, 0.11545281857252121, 0.09231726080179214, -0.009928089566528797, 0.153549924492836], [-0.10214552283287048, 0.05143493413925171, 0.025722555816173553, 0.11696790903806686, -0.14759622514247894, 0.02526172809302807, -0.10180400311946869, 0.09341743588447571, 0.060703955590724945, -0.11452420800924301, -0.012859991751611233, 0.04945051670074463, 0.07530514150857925, 0.15726716816425323, 0.07938896119594574, 0.02410574071109295, 0.09429872781038284, -0.1739666908979416, 0.11786197125911713, -0.02078437991440296, 0.10004917532205582, 0.04950451850891113, -0.009322376921772957, 0.12319692224264145, -0.1030532568693161, 0.03919321671128273, 0.07749458402395248, -0.06291167438030243, 0.06404034048318863, -0.1453283727169037, -0.09538109600543976, 0.08594972640275955]], "bias": [0.1800958812236786, -0.24928541481494904, 0.16124020516872406, 0.1095195859670639, 0.2579308748245239, -0.21765680611133575, -0.19502486288547516, -0.16293872892856598, -0.24769259989261627, 0.06410826742649078, -0.18495170772075653, 0.156092569231987, -0.2184966802597046, 0.019470203667879105, -0.19055789709091187, -0.15863242745399475, -0.14948174357414246, 0.24261297285556793, 0.17563658952713013, 0.18732285499572754, -0.21508225798606873, 0.16158629953861237, -0.2336539924144745, -0.012072776444256306, -0.05828351154923439, -0.33056074380874634, -0.22828559577465057, -0.197122260928154, 0.05802605673670769, -0.08351869881153107, -0.16886654496192932, 0.1968660205602646, -0.001297247246839106, 0.06930942088365555, -0.031683217734098434, 0.13415242731571198, 0.038915060460567474, 0.11791165173053741, 0.03448570892214775, -0.03156457096338272, 0.20006148517131805, -0.09035330265760422, -0.10840270668268204, 0.05795200541615486, -0.02849637344479561, -0.25009119510650635, 0.0002024455607170239, -0.10606753081083298, -0.09426191449165344, -0.08225324749946594, -0.07630565017461777, -0.18542248010635376, 0.013157887384295464, 0.19410638511180878, -0.11834127455949783, -0.11850326508283615, -0.11872369796037674, 0.0023238835856318474, 0.023203169927001, -0.15364834666252136, 0.09657635539770126, -0.25820526480674744, 0.17870134115219116, 0.029313456267118454]}, "prelu": {"num_parameters": 32, "weight": [-0.25171181559562683, -0.07021433860063553, -0.09562651067972183, -0.16693638265132904, -0.1595911830663681, 0.08474687486886978, -0.236245796084404, -0.16865669190883636, -0.37638697028160095, -0.04906242713332176, 0.08296472579240799, 0.09530957043170929, -0.13456998765468597, 0.09403285384178162, -0.16617451608181, -0.15391774475574493, 0.14886687695980072, -0.02515079639852047, 0.07853925228118896, 0.044416170567274094, -0.1739117056131363, -0.17736504971981049, -0.08081068843603134, -0.023967424407601357, -0.07148948311805725, -0.24530167877674103, -0.06185564398765564, 0.19464273750782013, -0.24937328696250916, 0.12912364304065704, -0.1475774645805359, -0.11025121808052063]}, "res": {"in_channels": 1, "out_channels": 32, "kernel_size": 1, "dilation": 1, "groups": 1, "weight": [[[-0.5346832275390625]], [[-0.9394078254699707]], [[0.15107601881027222]], [[1.3623175621032715]], [[-1.1977663040161133]], [[-0.1381882131099701]], [[0.40382468700408936]], [[0.40867188572883606]], [[-0.5038167238235474]], [[-0.7442024350166321]], [[-0.16762976348400116]], [[-0.6048498153686523]], [[-1.1715937852859497]], [[-1.1213089227676392]], [[-0.1083802729845047]], [[0.6073692440986633]], [[1.3466541767120361]], [[-0.29017674922943115]], [[0.666098952293396]], [[-1.2867763042449951]], [[0.956702470779419]], [[1.5641528367996216]], [[0.9134902358055115]], [[-0.09070849418640137]], [[1.3806145191192627]], [[-0.6682710647583008]], [[0.15639427304267883]], [[-0.6020101308822632]], [[-1.587897539138794]], [[-1.0196974277496338]], [[-1.3205130100250244]], [[-0.07458481192588806]]], "bias": null}, "causal": true}, {"conv1": {"in_channels": 32, "out_channels": 32, "kernel_size": 13, "dilation": 10, "groups": 1, "weight": [[[0.008696308359503746, -0.014704695902764797, -0.010729564353823662, 0.013423698954284191, 0.01174111943691969, 0.03392975404858589, 0.06139722838997841, 0.022063875570893288, 0.03258020803332329, 0.047104768455028534, 0.06392019987106323, 0.015006926842033863, 0.059467997401952744], [-0.006582038477063179, -0.0012953452533110976, -0.002575661987066269, 0.013420701958239079, -0.0001412927231285721, -0.0010584088740870357, 0.07150176167488098, 0.02009987272322178, 6.399976700777188e-05, -0.003497870871797204, -0.08167397230863571, -0.16874179244041443, 0.16188232600688934], [-0.047029830515384674, -0.027626782655715942, -0.04131080582737923, -0.03225050866603851, -0.0823725014925003, -0.026528647169470787, -0.03178497776389122, -0.017863718792796135, -0.05106521397829056, -0.054099515080451965, -0.05280441418290138, -0.07052487134933472, 0.4845483601093292], [-0.0031317665707319975, 0.022644057869911194, -0.05597332492470741, -0.02539035677909851, -0.059252094477415085, -0.10691523551940918, -0.07522201538085938, -0.025100497528910637, 0.010350641794502735, -0.042255863547325134, 0.010703054256737232, -0.03723575919866562, -0.29044193029403687], [-0.060411009937524796, -0.09361807256937027, 0.003105152165517211, -0.04170725867152214, -0.0437108613550663, -0.034269124269485474, -0.009753244929015636, -0.009857936762273312, -0.0038960000965744257, -0.0324970968067646, -0.03068494237959385, -0.2880573868751526, 0.12232520431280136], [-0.0018362978007644415, 0.03069949708878994, 0.017186656594276428, -0.014179730787873268, -0.06330171227455139, 0.0010050951968878508, -0.03874482959508896, 0.04277798905968666, 0.016049066558480263, 0.06465953588485718, -0.02404545620083809, 0.0016315806424245238, 0.2267104685306549], [-0.007892822846770287, -0.05078114569187164, -0.0545719750225544, -0.04064922407269478, -0.031049346551299095, 0.03489101678133011, 0.02234078198671341, -0.017279768362641335, -0.03525478020310402, -0.07060907036066055, -0.07219113409519196, 0.08261726051568985, 0.41936543583869934], [-0.04599834233522415, -0.052852705121040344, -0.02266436442732811, -0.02251306362450123, -0.0344524160027504, -0.027411606162786484, -0.06220218911767006, -0.03286297991871834, -0.022059811279177666, 0.05636204779148102, -0.016472456976771355, 0.03309075906872749, -0.21726834774017334], [-0.01533905602991581, 0.029849424958229065, 0.055356305092573166, 0.06236182898283005, 0.11625919491052628, 0.051884375512599945, 0.06927860528230667, 0.06593389064073563, 0.09693840146064758, 0.04517344385385513, -0.004914464429020882, -0.13832952082157135, -0.26537689566612244], [0.006980770733207464, 0.016669142991304398, -0.044236160814762115, 0.016204509884119034, 0.040019068866968155, 0.019503377377986908, 0.07989054918289185, 0.05025136098265648, -0.04884021729230881, -0.04013272374868393, -0.07727564871311188, -0.03042597323656082, 0.09138428419828415], [-0.02317715249955654, 0.014487486332654953, 0.07065951824188232, -0.023527763783931732, 0.013827587477862835, 0.013562432490289211, -0.008379938080906868, -0.023068979382514954, -0.13712729513645172, -0.1205996721982956, -0.12860500812530518, 0.03131243214011192, 0.14790058135986328], [-0.030379867181181908, 0.10407298803329468, 0.11848936975002289, 0.18638823926448822, 0.22336460649967194, 0.11255615949630737, 0.11589673906564713, -0.08438326418399811, -0.21179835498332977, -0.23232918977737427, -0.23912787437438965, 0.06276633590459824, 0.26877695322036743], [0.04031550511717796, 0.07712266594171524, 0.05926356092095375, -0.008550011552870274, -0.03912647068500519, -0.06795962154865265, -0.07757880538702011, -0.07460074871778488, -0.14812712371349335, -0.1637541651725769, -0.1391163319349289, 0.18185508251190186, 0.2663293778896332], [0.01850929483771324, 0.04480045288801193, 0.12010370939970016, 0.11324593424797058, 0.22758419811725616, 0.14028337597846985, 0.08755504339933395, -0.09615056216716766, -0.19840970635414124, -0.2879534363746643, -0.28965479135513306, 0.06389234215021133, 0.2997237741947174], [0.03912031650543213, 0.011441897600889206, 0.017105117440223694, 0.008909547701478004, -7.190195901785046e-05, -0.007565632462501526, -0.06125946342945099, -0.08184279501438141, -0.07527651637792587, -0.11737064272165298, -0.13192516565322876, -0.06177617982029915, 0.0850517749786377], [-0.008912859484553337, -0.09433811157941818, -0.03444935008883476, -0.09116071462631226, -0.0018363671842962503, -0.008499553427100182, -0.034066494554281235, -0.008164411410689354, 0.0017615918768569827, 0.06272591650485992, 0.08260414749383926, 0.09142149239778519, 0.4277040362358093], [-0.05294371396303177, -0.10996612906455994, -0.07794994860887527, -0.18043109774589539, -0.1773206889629364, -0.11206526309251785, -0.08414692431688309, 0.007924400269985199, 0.18026408553123474, 0.0968935415148735, 0.10745584219694138, -0.09238029271364212, -0.21725645661354065], [-0.04320632293820381, -0.03273017704486847, -0.05747564509510994, -0.09949665516614914, -0.04358765482902527, -0.04008796438574791, 0.006363158579915762, -0.03525853157043457, -0.05267574265599251, -0.07301895320415497, -0.05364971607923508, 0.0543995164334774, 0.34274378418922424], [-0.007623977493494749, -0.01076907105743885, -0.032956305891275406, 0.013922052457928658, 0.006068447604775429, -0.03791716694831848, -0.005002898629754782, -0.029583264142274857, 0.03395355865359306, 0.11348775029182434, 0.07648959010839462, 0.015917398035526276, -0.07688248157501221], [0.0676610916852951, 0.15498951077461243, 0.13408608734607697, 0.18981486558914185, 0.18688608705997467, 0.18372152745723724, 0.10458046197891235, -0.1170995682477951, -0.17751182615756989, -0.2936041057109833, -0.28686296939849854, 0.010572939179837704, 0.3291538655757904], [0.05735180899500847, 0.05992353707551956, 0.11248590052127838, 0.11282192915678024, 0.035299357026815414, 0.07998281717300415, 0.04461812227964401, 0.03760770708322525, 0.02524976059794426, 0.019662750884890556, 0.06485829502344131, -0.08203550428152084, -0.4357821047306061], [-0.04435773566365242, -0.0704476460814476, -0.0496036559343338, -0.10270436108112335, -0.06965912878513336, -0.050602253526449203, -0.03026035614311695, 0.03040972352027893, 0.055484432727098465, 0.08160640299320221, -0.011533220298588276, -0.05686045438051224, 0.06696397811174393], [-0.03475472331047058, -0.07240816205739975, -0.061680328100919724, -0.03927319124341011, -0.04216117039322853, 0.020591050386428833, 0.062385112047195435, 0.01581527292728424, 0.08953634649515152, 0.06487422436475754, 0.15456993877887726, -0.14197349548339844, -0.29870495200157166], [0.014698411338031292, -0.08243737369775772, -0.1154467910528183, -0.06715621799230576, -0.04221701994538307, 0.07173636555671692, 0.009535322897136211, 0.09376934915781021, 0.09396772086620331, 0.1354282945394516, 0.14040793478488922, 0.09130597859621048, -0.2568003833293915],