{"version": 1, "arch": "direct", "config": {"nblocks": 4, "kernel_size": 13, "dilation_growth": 10, "channel_width": 32, "causal": true, "nparams": 0, "sample_rate": 48000, "receptive_field": 13333}, "gen": [{"in_features": 0, "out_features": 16, "weight": [[], [], [], [], [], [], [], [], [], [], [], [], [], [], [], []], "bias": [0.0, 0.0, 0.0, 0.0, 0.0, 0.0, 0.0, 0.0, 0.0, 0.0, 0.0, 0.0, 0.0, 0.0, 0.0, 0.0]}, {"in_features": 16, "out_features": 32, "weight": [[0.19272145628929138, 0.03695222735404968, -0.11670997738838196, 0.0637245774269104, -0.11518415808677673, -0.02931821346282959, -0.10153958201408386, 0.16584274172782898, -0.19734254479408264, -0.11525258421897888, -0.0705936849117279, -0.15031811594963074, 0.02359578013420105, -0.24691978096961975, 0.225777268409729, -0.21236705780029297], [0.19300684332847595, 0.04160478711128235, -0.08117613196372986, 0.1544874906539917, 0.03896269202232361, 0.20199084281921387, 0.02732992172241211, -0.07884329557418823, 0.06717091798782349, -0.06779485940933228, 0.10521438717842102, 0.2232055366039276, 0.14451488852500916, -0.109293133020401, 0.144316166639328, 0.04473155736923218], [0.12695875763893127, -0.15237626433372498, -0.24747711420059204, -0.09659013152122498, -0.19175571203231812, 0.20513471961021423, 0.07200783491134644, 0.10355338454246521, 0.07906529307365417, -0.0043489933013916016, 0.1956520676612854, -0.17762839794158936, 0.015740931034088135, -0.17063504457473755, 0.07708799839019775, -0.08609557151794434], [0.07660406827926636, -0.05208536982536316, 0.20734795928001404, -0.14817547798156738, -0.14909949898719788, -0.14910849928855896, 0.22486069798469543, 0.08331277966499329, 0.24056267738342285, -0.20631906390190125, -0.24796903133392334, -0.19559094309806824, -0.16817227005958557, 0.10126003623008728, 0.0895189642906189, 0.20773109793663025], [-0.129106342792511, -0.17042794823646545, 0.13264453411102295, -0.10105112195014954, 0.1517309546470642, -0.05932515859603882, 0.14301148056983948, -0.19424200057983398, -0.12616243958473206, 0.0762191116809845, 0.05285188555717468, -0.06373968720436096, 0.1490173637866974, 0.16995230317115784, -0.1812933385372162, -0.13346704840660095], [0.2289154827594757, -0.08435812592506409, -0.0886290967464447, -0.24189865589141846, -0.14316755533218384, 0.062450915575027466, -0.03299829363822937, -0.18147149682044983, 0.005864173173904419, -0.17077037692070007, -0.21209916472434998, -0.13766565918922424, -0.2188030183315277, -0.1591845154762268, 0.24990221858024597, 0.04721873998641968], [0.0770399272441864, -0.23317107558250427, -0.16419345140457153, -0.08321395516395569, 0.0390927791595459, -0.21998032927513123, -0.10771825909614563, -0.1496671438217163, 0.0006928145885467529, -0.093025803565979, -0.017323940992355347, -0.1694074273109436, -0.17159879207611084, -0.14585044980049133, -0.08557435870170593, -0.19732022285461426], [0.2096174657344818, -0.0496160089969635, 0.21509918570518494, 0.07789552211761475, -0.2116992473602295, 0.17300879955291748, -0.06878620386123657, -0.09583151340484619, -0.2075176239013672, -0.24854016304016113, 0.07152765989303589, -0.0546109676361084, 0.09733077883720398, -0.20516586303710938, 0.18560728430747986, -0.18351343274116516], [-0.043168336153030396, 0.05221742391586304, 0.1290629506111145, 0.20182758569717407, 0.22773981094360352, -0.1982305347919464, 0.0629168152809143, -0.10753148794174194, -0.027396202087402344, -0.18712252378463745, 0.2277146577835083, -0.18348762392997742, 0.13361281156539917, 0.08785989880561829, 0.08123898506164551, -0.13516154885292053], [0.22723788022994995, 0.05493760108947754, 0.032160013914108276, -0.22031369805335999, 0.10494711995124817, -0.037505149841308594, -0.11453106999397278, 0.21473664045333862, 0.055737197399139404, -0.13831910490989685, -0.12653473019599915, -0.011938929557800293, 0.139590322971344, -0.0638834536075592, -0.14264371991157532, -0.08561071753501892], [-0.18676871061325073, 0.08915811777114868, 0.1935100555419922, -0.23536008596420288, 0.05806267261505127, 0.1291479468345642, 0.04533234238624573, -0.0890311598777771, 0.13048553466796875, 0.13137829303741455, 0.09348180890083313, -0.04393035173416138, -0.06620031595230103, 0.026745229959487915, -0.044163525104522705, -0.07450026273727417], [0.15980172157287598, 0.21484988927841187, -0.024749338626861572, -0.055974215269088745, 0.0036480724811553955, -0.014927059412002563, 0.06010282039642334, 0.07005840539932251, -0.22706419229507446, -0.09225943684577942, 0.21053236722946167, 0.09738874435424805, -0.012434393167495728, -0.15072643756866455, -0.15295127034187317, -0.22394171357154846], [-0.08149060606956482, 0.08442604541778564, 0.1594054102897644, 0.11542433500289917, -0.220986008644104, -0.15034061670303345, -0.03945416212081909, 0.24183738231658936, 0.03616437315940857, -0.06474268436431885, 0.10342881083488464, -0.09522038698196411, -0.1618139147758484, 0.18247181177139282, -0.11367544531822205, -0.05011668801307678], [-0.2487010657787323, 0.16731765866279602, 0.18940865993499756, 0.09111204743385315, -0.17431855201721191, -0.24673497676849365, -0.20304474234580994, 0.18642506003379822, 0.12002643942832947, 0.21037611365318298, 0.13096746802330017, 0.06327304244041443, -0.002448171377182007, -0.19012650847434998, -0.21419304609298706, -0.23383715748786926], [0.10234048962593079, -0.12274199724197388, -0.05031314492225647, -0.143876314163208, -0.04555588960647583, -0.17595872282981873, -0.16335391998291016, 0.08292770385742188, -0.07429909706115723, 0.15433579683303833, -0.08020219206809998, -0.18339180946350098, -0.044109731912612915, -0.12118685245513916, -0.07648539543151855, -0.23799890279769897], [0.1398727297782898, -0.17405113577842712, 0.1256544291973114, 0.11344605684280396, 0.17860817909240723, -0.1917630136013031, 0.17979919910430908, -0.11818790435791016, 0.09276729822158813, 0.23477867245674133, -0.035257965326309204, -0.001933366060256958, -0.057557642459869385, -0.20874613523483276, 0.11997571587562561, -0.24817946553230286], [0.15519997477531433, 0.1870562732219696, 0.23642659187316895, -0.0589698851108551, -0.20541048049926758, 0.0562075674533844, 0.1381068229675293, -0.24882718920707703, -0.05674591660499573, -0.14986386895179749, -0.021865934133529663, -0.12305337190628052, -0.10219189524650574, -0.07936471700668335, -0.23757600784301758, 0.20512688159942627], [0.20958280563354492, -0.0392172634601593, -0.028470516204833984, -0.10202997922897339, -0.22576570510864258, -0.2432861030101776, 0.09291461110115051, -0.1372615396976471, -0.16071924567222595, -0.019505798816680908, -0.08325278759002686, -0.08088019490242004, 0.008032798767089844, -0.053028106689453125, -0.08607810735702515, -0.11970147490501404], [-0.203456848859787, 0.20962679386138916, -0.1000467836856842, 0.06624487042427063, -0.08674147725105286, 0.020315319299697876, 0.2330751121044159, 0.11518067121505737, -0.21664991974830627, 0.09922569990158081, 0.23731070756912231, 0.06577083468437195, 0.1676061749458313, 0.24647188186645508, -0.038307249546051025, 0.051888614892959595], [-0.17375877499580383, -0.05151927471160889, 0.18514594435691833, 0.1281614601612091, -0.15819725394248962, -0.20047125220298767, -0.17084091901779175, -0.24671941995620728, -0.19290974736213684, -0.06182435154914856, 0.16871929168701172, 0.04184556007385254, -0.1901513636112213, -0.2005559802055359, 0.124368816614151, -0.1859603226184845], [-0.030781865119934082, 0.11992651224136353, -0.11570301651954651, -0.02725997567176819, -0.02176111936569214, -0.059145838022232056, -0.12675803899765015, -0.22285959124565125, -0.20208925008773804, -0.13386541604995728, 0.2414594292640686, -0.12075367569923401, -0.16788199543952942, 0.060598552227020264, 0.06890258193016052, 0.1369774341583252], [0.19003009796142578, 0.1392185389995575, -0.24787524342536926, 0.022172152996063232, 0.15143826603889465, -0.023106366395950317, -0.14731979370117188, 0.23833495378494263, -0.09350696206092834, -0.14233613014221191, -0.225388765335083, 0.011167079210281372, 0.11078327894210815, 0.055340707302093506, 0.04943743348121643, -0.18959686160087585], [-0.2334718108177185, 0.004402339458465576, 0.2279585301876068, 0.14423033595085144, -0.14555856585502625, -0.032452136278152466, -0.1842958927154541, -0.12060585618019104, 0.045274585485458374, 0.13613462448120117, 0.2070923149585724, -0.22952651977539062, 0.16715380549430847, -0.1763230264186859, 0.09361681342124939, 0.21156132221221924], [0.003510594367980957, 0.22745224833488464, -0.21301287412643433, -0.09548979997634888, 0.1458132266998291, -0.054466962814331055, -0.051175057888031006, -0.1041979193687439, 0.17232653498649597, 0.12262579798698425, 0.0801125168800354, -0.14049091935157776, -0.20293739438056946, 0.027040153741836548, 0.07406970858573914, -0.11542797088623047], [-0.06994941830635071, 0.16884192824363708, 0.01991492509841919, 0.011279582977294922, -0.0615251362323761, -0.22639742493629456, -0.23506435751914978, -0.11950376629829407, -0.12708035111427307, 0.07788839936256409, -0.07277768850326538, -0.09780552983283997, 0.23835745453834534, 0.08708071708679199, 0.178225576877594, -0.12102818489074707], [-0.10211670398712158, 0.09188511967658997, -0.166568785905838, -0.163426011800766, -0.012074917554855347, -0.09144017100334167, -0.1874144971370697, 0.1482897400856018, 0.20104071497917175, 0.04055583477020264, -0.04352831840515137, -0.23156824707984924, -0.09105968475341797, 0.06364640593528748, 0.11788272857666016, -0.031604379415512085], [-0.098838210105896, 0.13930651545524597, -0.19909992814064026, 0.158004492521286, -0.09698870778083801, 0.003826349973678589, -0.04940396547317505, 0.030309736728668213, -0.07554960250854492, 0.18178173899650574, -0.006499290466308594, 0.19514986872673035, 0.24037012457847595, -0.12179774045944214, -0.18237727880477905, 0.20057550072669983], [0.195903480052948, -0.19088682532310486, -0.019325822591781616, -0.24653157591819763, -0.20464977622032166, 0.04828563332557678, 0.06650865077972412, 0.052995264530181885, -0.06804117560386658, 0.23064443469047546, 0.03574448823928833, -0.14752119779586792, -0.014153450727462769, 0.060036301612854004, 0.087548166513443, -0.17677021026611328], [0.09369739890098572, -0.1277204155921936, -0.2077350914478302, -0.1365518569946289, 0.24110233783721924, 0.21371445059776306, 0.223871111869812, 0.14675280451774597, 0.1888623833656311, -0.03346243500709534, -0.13755697011947632, 0.12491413950920105, -0.1295456886291504, -0.1687164604663849, -0.0798335075378418, 0.052464812994003296], [0.1286991536617279, -0.09710225462913513, -0.14714157581329346, 0.033723264932632446, -0.14735829830169678, -0.16276535391807556, 0.130312979221344, -0.041996151208877563, 0.22844624519348145, 0.24319565296173096, 0.07477638125419617, 0.08603942394256592, 0.0575709342956543, 0.003915220499038696, -0.018183112144470215, 0.0034360289573669434], [0.093356192111969, 0.232442706823349, -0.0647897720336914, -0.10567894577980042, -0.06054121255874634, -0.1207810640335083, 0.04250967502593994, 0.1866120994091034, 0.19549435377120972, 0.11478137969970703, -0.18398287892341614, -0.13417619466781616, -0.05492785573005676, -0.04608103632926941, 0.020561933517456055, -0.22949287295341492], [0.07781118154525757, -0.19071802496910095, -0.1581861674785614, -0.20784562826156616, 0.21782991290092468, -0.23673495650291443, 0.18859168887138367, -0.00840422511100769, -0.02907469868659973, 0.1563696265220642, -0.023106902837753296, 0.15678852796554565, 0.18075373768806458, -0.21705251932144165, 0.0961959958076477, 0.04719474911689758]], "bias": [0.07411985844373703, 0.0047882855869829655, 0.01612660102546215, -0.12026670575141907, -0.03198528289794922, 0.21273401379585266, 0.16312290728092194, -0.009392112493515015, -0.23513272404670715, -0.0006154814036563039, -0.17024338245391846, 0.19321583211421967, -0.15177184343338013, -0.018050402402877808, -0.055485665798187256, 0.016970057040452957, 0.22805632650852203, 0.061553165316581726, 0.10766059160232544, 0.1721537709236145, 0.18507598340511322, -0.0863378643989563, -0.05591416358947754, 0.008184109814465046, -0.06821691989898682, 0.09535404294729233, -0.05461692810058594, -0.16956308484077454, 0.1027851477265358, 0.03376924246549606, 0.081417016685009, 0.16381613910198212]}, {"in_features": 32, "out_features": 32, "weight": [[0.12069126963615417, 0.1675809621810913, 0.009461588226258755, -0.15206553041934967, -0.12401366233825684, -0.1098090410232544, -0.15578417479991913, -0.08860887587070465, -0.16273492574691772, -0.16309687495231628, -0.10563372075557709, -0.17427244782447815, -0.10850773751735687, 0.06740648299455643, 0.1474410891532898, -0.05258449539542198, -0.05142058804631233, 0.09439049661159515, -0.08721647411584854, -0.08358577638864517, 0.10891734063625336, -0.1540258228778839, 0.021615326404571533, 0.1561613380908966, 0.030314816161990166, 0.04807332530617714, -0.10295318067073822, -0.0024389117024838924, 0.0097199697047472, 0.04338705912232399, 0.0686858743429184, 0.15360619127750397], [-0.17280316352844238, -0.016988743096590042, -0.10995489358901978, -0.13984166085720062, -0.014155861921608448, -0.18839514255523682, 0.08937554806470871, 0.020473357290029526, -0.09527522325515747, 0.08081492781639099, -0.16730640828609467, -0.10220777243375778, -0.034439411014318466, -0.15021604299545288, -0.11241023987531662, -0.04646163806319237, 0.100156769156456, 0.13225746154785156, 0.08072639256715775, -0.1378968060016632, -0.14867888391017914, 0.15427181124687195, 0.06252899765968323, -0.013640117831528187, 0.023923562839627266, -0.17413900792598724, -0.059023160487413406, 0.1701684445142746, -0.07797802239656448, -0.04151191562414169, -0.17492228746414185, -0.12942315638065338], [-0.014643823727965355, -0.12137443572282791, -0.032587699592113495, 0.07194089889526367, -0.17291894555091858, 0.04104097932577133, -0.12786251306533813, -0.08627605438232422, 0.06786628812551498, 0.12482038140296936, -0.048314597457647324, -0.08511923998594284, -0.15984782576560974, -0.0911562591791153, -0.1547922044992447, -0.05246352031826973, 0.02357524260878563, -0.17797896265983582, 0.1428595632314682, 0.09852231293916702, -0.1850106567144394, -0.0844343826174736, 0.05765663459897041, -0.04724115505814552, -0.019264502450823784, -0.0920635536313057, 0.14199049770832062, -0.0988178551197052, 0.13482147455215454, 0.0027000843547284603, 0.022999772801995277, 0.12609027326107025], [-0.03847077116370201, -0.10574130713939667, -0.029382403939962387, 0.14337533712387085, -0.13116607069969177, 0.03335276246070862, -0.17978507280349731, 0.09268439561128616, 0.06531328707933426, -0.003981340676546097, 0.07587134093046188, -0.009881678968667984, 0.09781988710165024, -0.1399400532245636, -0.025960097089409828, 0.07028757780790329, 0.165423184633255, 0.0776311457157135, -0.1353224515914917, 0.12612086534500122, -0.04839766398072243, -0.03774437680840492, -0.160674050450325, -0.030413515865802765, 0.12503889203071594, 0.01402189675718546, -0.10296428203582764, 0.05441400408744812, -0.06244722008705139, 0.15842649340629578, -0.15887317061424255, -0.06282910704612732], [-0.1982070505619049, -0.0949137806892395, 0.027267903089523315, 0.17016783356666565, 0.0296889990568161, 0.1439880132675171, 0.005694435443729162, 0.10209490358829498, 0.14171519875526428, 0.12384644150733948, -0.09894610941410065, 0.13416576385498047, 0.1070852130651474, -0.08265706896781921, -0.08435843139886856, -0.1754438728094101, 0.016059814020991325, -0.17310164868831635, 0.04756029695272446, 0.02717575803399086, -0.1820848435163498, 0.04817180335521698, -0.014377343468368053, 0.055204976350069046, 0.10143262892961502, -0.20302611589431763, 0.1621217131614685, 0.14825235307216644, 0.04048057645559311, -0.18943741917610168, -0.09229487925767899, -0.0796256735920906], [-0.09713999181985855, 0.0495489127933979, 0.023132093250751495, 0.14003880321979523, -0.06620696932077408, 0.010066438466310501, 0.014198613353073597, -0.1471826583147049, -0.17147690057754517, -0.15719537436962128, 0.12101206928491592, -0.21974791586399078, -0.15387241542339325, 0.09903040528297424, 0.0953761488199234, 0.09669673442840576, -0.18690158426761627, -0.17826715111732483, 0.03938087075948715, 0.10069885849952698, 0.05289248004555702, 0.027692439034581184, 0.05826112627983093, 0.12535344064235687, -0.11405708640813828, -0.1317627876996994, 0.12364945560693741, -0.1209576204419136, -0.1437670886516571, 0.0952879786491394, 0.009464411996304989, 0.008352537639439106], [-0.07492510229349136, -0.0024396071676164865, 0.1617918163537979, -0.10610491782426834, 0.001389855518937111, 0.08407491445541382, -0.12203889340162277, 0.17168143391609192, -0.08831950277090073, -0.04245045408606529, -0.04783051833510399, -0.11519810557365417, -0.17346471548080444, 0.09967581927776337, 0.046964991837739944, -0.16556918621063232, -0.11377821862697601, 0.17472043633460999, 0.06757024675607681, 0.07093069702386856, -0.10576515644788742, -0.07749821245670319, -0.026685170829296112, -0.032328907400369644, -0.12113594263792038, 0.01456373743712902, 0.01756948232650757, -0.022383643314242363, 0.02450687438249588, -0.07006555050611496, 0.0460064671933651, 0.06666963547468185], [-0.12338235974311829, -0.18291443586349487, 0.0755348801612854, 0.04216773062944412, -0.08990649878978729, 0.14305587112903595, -0.10623806715011597, 0.11945628374814987, 0.08968385308980942, -0.1448424905538559, 0.11401059478521347, -0.19138050079345703, -0.09793688356876373, -0.02947130985558033, -0.11915571242570877, 0.1509418934583664, -0.06501351296901703, 0.03513910993933678, -0.1798619031906128, 0.07352764904499054, -0.0829821228981018, -0.1344689428806305, 0.025848809629678726, 0.0717141255736351, 0.15298204123973846, -0.135310098528862, -0.08699256926774979, 0.03398759663105011, 0.020786207169294357, 0.047247596085071564, 0.07257164269685745, -0.06326659023761749], [0.09821176528930664, 0.1303359717130661, -0.046177878975868225, 0.12576906383037567, 0.08636946976184845, 0.15592637658119202, -0.1004575788974762, -0.08729391545057297, -0.05111302062869072, 0.00896722637116909, 0.10610119253396988, -0.10091520845890045, 0.08850395679473877, -0.06335347890853882, 0.10679244250059128, -0.008392870426177979, -0.15487174689769745, -0.09727064520120621, -0.12794248759746552, 0.08767461031675339, -0.1185372918844223, -0.014728722162544727, 0.03814059868454933, -0.09694340080022812, 0.05099477618932724, -0.1726088970899582, -0.126485213637352, -0.16018149256706238, -0.05347094684839249, -0.06439928710460663, 0.025313248857855797, -0.03268856927752495], [0.08309955149888992, 0.16206805408000946, 0.06342590600252151, -0.0696442723274231, -0.16553115844726562, 0.06402885913848877, -0.08758540451526642, 0.08995747566223145, 0.1181725561618805, 0.06818639487028122, 0.16587147116661072, 0.167901873588562, 0.03743067756295204, -0.1288059949874878, 0.1579395979642868, -0.08387979120016098, -0.08350110054016113, 0.14792296290397644, 0.13696840405464172, 0.05341331288218498, 0.011081038042902946, -0.14869852364063263, -0.01835014671087265, 0.16955117881298065, 0.04501774534583092, 0.015135270543396473, -0.036707859486341476, -0.06165658310055733, 0.10536292940378189, 0.010901556350290775, 0.11500635743141174, -0.0312892310321331], [0.02971290424466133, 0.031052906066179276, -0.012695299461483955, 0.11108170449733734, 0.1107763946056366, 0.11908011138439178, 0.0916721299290657, -0.04520120844244957, -0.14966271817684174, -0.010538694448769093, -0.0015429540071636438, -0.09145718067884445, -0.029602091759443283, 0.00831430871039629, 0.1289815604686737, 0.009266132488846779, -0.10828597843647003, -0.12136142700910568, -0.08703143894672394, -0.1141529455780983, 0.11278433352708817, 0.09362895041704178, 0.15962505340576172, -0.03846541792154312, 0.03565071150660515, 0.01616903394460678, -0.16732852160930634, 0.01578555442392826, -0.054580289870500565, -0.1370040327310562, -0.1796800047159195, 0.1135282963514328], [0.14373111724853516, 0.08193045854568481, 0.16868911683559418, -0.0717373713850975, -0.03053334727883339, 0.06693094223737717, -0.02920820750296116, -0.03468974307179451, -0.14611679315567017, 0.04749304801225662, -0.10683096200227737, 0.0064287008717656136, 0.17235295474529266, -0.054414574056863785, -0.0557185560464859, 0.10665164887905121, -0.0649925246834755, -0.015181126073002815, 0.16506320238113403, -0.07247380167245865, -0.12646785378456116, -0.09893196821212769, -0.049010567367076874, -0.08388032019138336, -0.09173503518104553, 0.0714079737663269, 0.030041029676795006, -0.05657942593097687, -0.13733983039855957, -0.055659886449575424, -0.07460668683052063, -0.05752648413181305], [-0.15947431325912476, 0.03808283805847168, -0.12988200783729553, -0.1376735419034958, -0.1444324254989624, 0.07378370314836502, -0.10642428696155548, -0.07296472787857056, 0.13856476545333862, 0.09386210143566132, 0.1013621985912323, -0.16785062849521637, -0.12676653265953064, -0.0667351484298706, 0.14603480696678162, 0.01808432675898075, -0.13221079111099243, 0.0011069448664784431, -0.13729730248451233, -0.0387316457927227, -0.048609182238578796, 0.15302880108356476, 0.05475423485040665, -0.030824750661849976, 0.0298626646399498, -0.05102933943271637, 0.06945562362670898, 0.06992647051811218, 0.047472693026065826, -0.06890347599983215, 0.1508171558380127, -0.02552124485373497], [-0.06882211565971375, 0.11071772873401642, 0.14408302307128906, 0.17592105269432068, 0.052371568977832794, -0.06026209145784378, 0.08978346735239029, 0.15166635811328888, -0.17338861525058746, -0.021900324150919914, -0.12055560201406479, 0.03294406086206436, 0.07311215996742249, -0.03651992604136467, -0.014788633212447166, 0.07956909388303757, -0.029710808768868446, -0.14845344424247742, 0.14144538342952728, -0.08897427469491959, -0.019420424476265907, 0.01667470484972, -0.010623724199831486, -0.16629135608673096, 0.08110513538122177, -0.0802975445985794, -0.0916869267821312, 0.04223468154668808, -0.09225304424762726, -0.08169905096292496, -0.059564895927906036, -0.06641104072332382], [-0.0738285705447197, -0.04767417535185814, 0.04593997821211815, -0.14305086433887482, -0.10699944943189621, 0.0025794291868805885, 0.024584002792835236, 0.09763243794441223, -0.12417571991682053, 0.056426580995321274, 0.10047806054353714, 0.09815705567598343, -0.16465361416339874, -0.06745872646570206, -0.1519511640071869, -0.1118663102388382, 0.0984615907073021, -0.0263961274176836, 0.0750790685415268, -0.10376903414726257, 0.026862967759370804, -0.10692477971315384, 0.08836925029754639, -0.07731841504573822, -0.044328369200229645, -0.1533769965171814, 0.0005839867517352104, 0.1678459644317627, 0.0858035460114479, -0.09431760758161545, 0.0023774194996804, -0.019383292645215988], [-0.17760248482227325, 0.09767578542232513, -0.030007949098944664, 0.037228647619485855, -0.07138755172491074, -0.11934493482112885, -0.006826408673077822, 0.06535627692937851, 0.03965066000819206, -0.11787072569131851, 0.1716320961713791, -0.06550367921590805, -0.10826071351766586, -0.08268069475889206, 0.1740226447582245, -0.03729161620140076, -0.06389711797237396, -0.11973163485527039, -0.08393143117427826, -0.18859219551086426, -0.17897552251815796, 0.10346553474664688, 0.15122352540493011, 0.1333550363779068, -0.1276225745677948, 0.05603334307670593, -0.10941886156797409, 0.10545794665813446, 0.09069538861513138, 0.10308121889829636, 0.08992364257574081, 0.07084677368402481], [0.0034407211933285, 0.08122578263282776, -0.06324555724859238, 0.07697472721338272, -0.05681637302041054, -0.0029683182947337627, -0.15386269986629486, -0.046222615987062454, -0.09296207875013351, -0.05963045731186867, -0.11288721114397049, -0.15900076925754547, 0.01151108369231224, 0.11472439765930176, 0.16099926829338074, 0.10315877199172974, -0.09162996709346771, -0.17483386397361755, 0.06705384701490402, 0.09905044734477997, -0.151764914393425, 0.06338965892791748, 0.14946067333221436, 0.010708523914217949, -0.10650067776441574, 0.1449350267648697, 0.07548645883798599, 0.11706173419952393, -0.11955151706933975, 0.10287440568208694, -0.12075150012969971, 0.17491953074932098], [-0.09591608494520187, 0.07418674975633621, 0.022743646055459976, 0.04684767499566078, -0.02710958942770958, 0.05100800842046738, -0.09380654245615005, -0.16662605106830597, -0.06791815161705017, 0.09023144096136093, -0.04653993993997574, 0.02700403332710266, -0.06535901129245758, 0.13260890543460846, 0.1057991236448288, 0.040536750108003616, -0.11795604228973389, -0.16147351264953613, -0.018280504271388054, -0.12971052527427673, 0.11835230141878128, -0.16987811028957367, 0.07899589836597443, 0.15593315660953522, 0.08853478729724884, 0.0330958366394043, -0.1700851023197174, 0.1700402945280075, -0.046985723078250885, -0.15912102162837982, 0.1531141847372055, -0.09344883263111115], [-0.01250652875751257, 0.1618000864982605, -0.12254172563552856, -0.12506774067878723, 0.0287469532340765, -0.023662252351641655, 0.040719058364629745, -0.14826354384422302, 0.00528679508715868, -0.07862315326929092, -0.08690498769283295, -0.1618632674217224, 0.09373024851083755, 0.03405364230275154, -0.14945466816425323, 0.14028148353099823, 0.0533195361495018, 0.0328032486140728, -0.10379202663898468, 0.02665872499346733, 0.1703314483165741, 0.12124838680028915, -0.1376861035823822, 0.16136550903320312, 0.013701919466257095, 0.0850234255194664, 0.13729827105998993, 0.15070374310016632, -0.1378035843372345, 0.15479695796966553, -0.12006229162216187, 0.013252254575490952], [-0.12352512031793594, -0.03875533491373062, -0.008033210411667824, -0.021148739382624626, -0.027926459908485413, 0.013942472636699677, 0.17437583208084106, 0.10270930081605911, 0.09890124201774597, 0.07075442373752594, 0.13685718178749084, -0.008158070035278797, 0.014055910520255566, 0.03638012707233429, -0.15417234599590302, -0.14240367710590363, 0.021673068404197693, -0.06916392594575882, -0.003243810962885618, -0.04056296870112419, 0.027517549693584442, 0.11501366645097733, -0.058626558631658554, 0.1415734887123108, 0.13957610726356506, -0.13567578792572021, -0.13651159405708313, -0.14302557706832886, -0.09687720239162445, -0.0688149705529213, -0.013305886648595333, -0.04299071058630943], [-0.08931616693735123, -0.0561608225107193, -0.06394799798727036, 0.17342469096183777, -0.06551853567361832, -0.12657226622104645, 0.07348564267158508, -0.010210895910859108, 0.1353338658809662, 0.11045584827661514, 0.16240984201431274, -0.12946408987045288, 0.11364326626062393, 0.14835785329341888, -0.08729790151119232, 0.16248957812786102, 0.1325194090604782, 0.001935910084284842, 0.08523331582546234, -0.061804939061403275, -0.15418176352977753, 0.04468562453985214, 0.05270159989595413, -0.1155339926481247, 0.08573663234710693, -0.15100665390491486, 0.15213827788829803, 0.1711888462305069, 0.04812894016504288, -0.11091478168964386, 0.08603212982416153, 0.030125534161925316], [0.007272297982126474, 0.029710182920098305, 0.10528560727834702, -0.07598496973514557, -0.039765045046806335, 0.011574054136872292, -0.017384245991706848, 0.14254876971244812, -0.09284992516040802, -0.030033422634005547, 0.03303128480911255, -0.08492779731750488, 0.12051162123680115, 0.01933610998094082, -0.16338232159614563, -0.04993245750665665, -0.11836318671703339, -0.029583774507045746, -0.05439480021595955, -0.21234552562236786, -0.0696774423122406, -0.016931548714637756, -0.052127644419670105, 0.13641506433486938, -0.0385725200176239, 0.07602827996015549, 0.043790724128484726, -0.14922305941581726, 0.0046071805991232395, 0.11126937717199326, -0.1506798416376114, -0.1469966024160385], [0.17303769290447235, 0.14204183220863342, -0.09862265735864639, 0.10637449473142624, -0.022615408524870872, -0.17428933084011078, 0.01328184176236391, 0.05711549147963524, -0.05302608758211136, 0.06149768829345703, -0.15116190910339355, 0.12250906229019165, 0.15070819854736328, 0.0974864587187767, 0.02996210940182209, 0.05822121351957321, -0.12790639698505402, -0.04417179152369499, -0.01687644049525261, -0.09837377816438675, -0.13057081401348114, 0.11890310794115067, 0.11996866017580032, -0.16054651141166687, 0.05625244975090027, 0.07191314548254013, 0.16793225705623627, 0.1022748053073883, 0.16251729428768158, -0.05787486955523491, 0.1238119900226593, 0.14379039406776428], [-0.18610374629497528, -0.16314485669136047, 0.01712019369006157, 0.09652675688266754, -0.08782497048377991, -0.0002350236172787845, -0.019388185814023018, 0.04474353790283203, -0.09499087929725647, 0.07323624938726425, 0.11755815893411636, -0.14362359046936035, 0.0017125107115134597, 0.0004904839443042874, 0.05676577612757683, 0.1424279808998108, 0.03083685413002968, -0.06499634683132172, 0.13874371349811554, -0.0883704125881195, -0.07192350178956985, 0.012069487012922764, -0.13461701571941376, 8.003699622349814e-05, -0.11993865668773651, -0.0027704453095793724, 0.016936542466282845, 0.02446955442428589, -0.1683017760515213, -0.18479007482528687, 0.060240283608436584, 0.1320318728685379], [-0.15686675906181335, 0.06547706574201584, -0.1301291286945343, 0.011082366108894348, 0.16446556150913239, 0.13410618901252747, -0.1292484700679779, 0.1093490868806839, 0.09233350306749344, -0.00027115174452774227, 0.17124831676483154, -0.07021131366491318, -0.04113873839378357, -0.08934544026851654, 0.025437602773308754, 0.04680811986327171, 0.014085602946579456, -0.09946112334728241, -0.0795789361000061, 0.06013103574514389, -0.15500247478485107, -0.027530236169695854, -0.003915884532034397, -0.0716235339641571, 0.06433223187923431, 0.011393915861845016, 0.12410866469144821, -0.015699805691838264, -0.1115705668926239, 0.12490189075469971, 0.024686651304364204, -0.05062852054834366], [-0.13068850338459015, 0.01162979006767273, -0.1655343919992447, 0.04655905440449715, 0.08740630000829697, -0.1663864552974701, -0.1262088567018509, -0.12708933651447296, 0.14858196675777435, 0.1100507378578186, 0.011066371574997902, 0.14443999528884888, -0.05909715220332146, -0.1716187447309494, 0.061747197061777115, 0.059473831206560135, 0.1531049758195877, -0.004724550526589155, 0.11612380295991898, 0.08976741135120392, 0.10916316509246826, -0.17542119324207306, 0.14556817710399628, -0.1617758572101593, 0.15848226845264435, -0.027236519381403923, -0.15666252374649048, 0.049160316586494446, -0.040964275598526, -0.1352727860212326, -0.06947436928749084, 0.0024335773196071386], [0.13768193125724792, -0.05434640124440193, 0.10499968379735947, 0.022137483581900597, 0.005958763416856527, 0.033825330436229706, -0.11601301282644272, -0.14693647623062134, -0.05554528906941414, -0.16473007202148438, -0.08243990689516068, 0.008132761344313622, -0.11642676591873169, -0.07332626730203629, -0.03176437318325043, -0.020365271717309952, -0.09758331626653671, 0.008494297042489052, -0.02481245994567871, 0.05055735632777214, 0.007984551601111889, -0.0882769301533699, -0.06086137518286705, -0.0020374839659780264, -0.11030605435371399, 0.013838959857821465, -0.012481451965868473, 0.06858556717634201, 0.04183698445558548, 0.13229677081108093, -0.005827518180012703, -0.13062120974063873], [0.07902076840400696, -0.11947238445281982, -0.024298373609781265, -0.05724077299237251, -0.06707693636417389, -0.06540453433990479, 0.16244372725486755, 0.1011970266699791, 0.04899143427610397, 0.16598564386367798, -0.16019892692565918, 0.02852601930499077, 0.11316826939582825, 0.11743097752332687, -0.14068838953971863, 0.06291297823190689, -0.10070719569921494, -0.006907341536134481, -0.036888036876916885, -0.14760226011276245, -0.16862984001636505, -0.1163010224699974, 0.08021605014801025, 0.08086393028497696, -0.15375395119190216, -0.0663871243596077, 0.0028875437565147877, -0.15283803641796112, 0.09960562735795975, 0.1601123809814453, 0.03126503899693489, -0.13134770095348358], [0.04122191295027733, 0.06417234987020493, 0.13997939229011536, -0.09405755996704102, -0.15837596356868744, 0.07766694575548172, 0.011005469597876072, -0.05759851261973381, -0.07407338172197342, -0.09114886075258255, 0.14310020208358765, -0.03050089441239834, 0.12749259173870087, 0.1577996462583542, 0.022393379360437393, 0.03765654191374779, -0.01203933171927929, 0.12141294777393341, -0.1592913419008255, 0.07030109316110611, -0.028802018612623215, 0.08071911334991455, -0.0007873663562349975, -0.06545441597700119, -0.019083039835095406, 0.09545814245939255, -0.12277669459581375, -0.11174039542675018, -0.039597343653440475, -0.06412124633789062, 0.06944481283426285, 0.11896537989377975], [-0.018932532519102097, 0.1671554148197174, -0.07386083155870438, -0.09919989854097366, -0.07914187759160995, -0.12179425358772278, -0.12390875816345215, -0.15751077234745026, -0.15667350590229034, 0.046138469129800797, 0.10780797153711319, 0.16596631705760956, 0.15057791769504547, -0.010181223973631859, 0.03430292010307312, -0.10576898604631424, 0.06832791864871979, -0.16950075328350067, 0.08338077366352081, 0.03242358937859535, 0.054324232041835785, 0.06472649425268173, -0.08115902543067932, 0.1516932100057602, 0.08436711877584457, 0.11612366884946823, 0.023348405957221985, 0.11101338267326355, 0.11897090077400208, 0.08012136816978455, 0.1346629559993744, -0.03206338360905647], [0.1041286438703537, 0.008384541608393192, 0.11327605694532394, 0.17218023538589478, 0.04002879932522774, -0.07197972387075424, -0.02309011109173298, 0.04976767301559448, 0.029806187376379967, -0.08888304233551025, 0.13850779831409454, 0.08774831146001816, -0.10980550199747086, -0.014404022134840488, -0.016969459131360054, -0.1060730442404747, 0.008846884593367577, -0.054897062480449677, -0.10674968361854553, -0.07141117006540298, -0.07757296413183212, 0.16911165416240692, 0.06780658662319183, 0.16256316006183624, 0.04847138375043869, 0.022878404706716537, 0.07267176359891891, 0.030340630561113358, -0.13746002316474915, -0.06774001568555832, -0.04334654286503792, -0.010299532674252987], [0.06659433990716934, 0.06806755810976028, 0.14023931324481964, 0.035986918956041336, -0.060332685708999634, -0.13294072449207306, -0.12947313487529755, -0.10559534281492233, 0.05331647768616676, 0.09550751745700836, 0.15466415882110596, -0.05591654032468796, -0.013944664038717747, -0.05249621719121933, -0.0006459425785578787, 0.05674556642770767, -0.0038840428460389376, 0.008183843456208706, 0.022395338863134384, 0.06583487242460251, -0.05363428592681885, -0.10541152209043503, 0.04170596972107887, -0.020931346341967583, -0.08008478581905365, 0.07423967123031616, 0.0016032028943300247, -0.025714760646224022, -0.08557473123073578, -0.023257790133357048, -0.15031765401363373, 0.040214985609054565]], "bias": [0.0026528278831392527, 0.0731062963604927, -0.0004241361457388848, 0.005178161431103945, 0.019643332809209824, 0.0825248435139656, -0.08353718370199203, 0.07656824588775635, 0.04323278367519379, -0.11793069541454315, 0.01625238172709942, -0.10601890087127686, -0.055645912885665894, -0.08426394313573837, -0.12026368826627731, 0.10148103535175323, -0.1580066978931427, 0.06323729455471039, -0.15910112857818604, -0.021514786407351494, 0.010543350130319595, 0.08762019872665405, -0.06397434324026108, 0.030681433156132698, 0.027383755892515182, 0.08722192049026489, 0.010509653948247433, 0.06619308143854141, -0.10678917169570923, -0.12284407019615173, 0.1449752300977707, -0.12881134450435638]}], "blocks": [{"conv1": {"in_channels": 1, "out_channels": 32, "kernel_size": 13, "dilation": 1, "groups": 1, "weight": [[[-0.04112769290804863, 0.020289363339543343, 0.1998147815465927, -0.07789930701255798, -0.1592804342508316, -0.004088663030415773, 0.08505962789058685, 0.07568573206663132, 0.16248950362205505, -0.004155396483838558, 0.039993517100811005, -0.15056467056274414, 0.04133432358503342]], [[0.06355611234903336, 0.09423861652612686, -0.019786201417446136, 0.04118139669299126, 0.014073719270527363, -0.1602773666381836, -0.21147078275680542, -0.21238762140274048, -0.041230592876672745, 0.17005224525928497, 0.17131078243255615, 0.06937123090028763, 0.009028999134898186]], [[-0.1934189796447754, 0.009187066927552223, -0.09488260746002197, -0.16374532878398895, 0.16957546770572662, -0.25240787863731384, -0.030303064733743668, -0.27297794818878174, -0.07241920381784439, -0.15678605437278748, 0.061133142560720444, -0.17416411638259888, 0.1518414467573166]], [[-0.17341871559619904, 0.24339675903320312, -0.15041834115982056, 0.16150905191898346, -0.04828726872801781, 0.03666548803448677, -0.013532866723835468, 0.21190951764583588, 0.131290003657341, -0.22504714131355286, 0.04690201207995415, -0.12956468760967255, 0.2208615392446518]], [[0.03610287234187126, -0.0866856798529625, -0.17555677890777588, 0.04072446748614311, -0.1353486180305481, 0.14840659499168396, 0.1846592128276825, 0.1637333780527115, 0.05871732160449028, -0.22158484160900116, 0.17797395586967468, -0.06166268140077591, -0.0732412338256836]], [[-0.036936283111572266, 0.20032677054405212, 0.1964450627565384, 0.04357617720961571, 0.1390276849269867, -0.2129388302564621, 0.042760107666254044, -0.19650977849960327, 0.14776957035064697, -0.12923504412174225, -0.07119712233543396, 0.21057957410812378, 0.2541360557079315]], [[-0.1127631887793541, -0.08770450204610825, 0.08985228836536407, 0.1682397723197937, 0.013655981048941612, -0.015846509486436844, -0.08885043114423752, 0.17352910339832306, 0.3509937524795532, -0.0522264763712883, 0.1791807860136032, 0.20119674503803253, 0.2701478600502014]], [[0.04657933488488197, 0.08197207748889923, 0.22997744381427765, 0.21302376687526703, 0.3028307259082794, -0.028577206656336784, 0.1786634624004364, 0.2223336547613144, -0.0874975174665451, 0.11773063242435455, -0.019436269998550415, 0.18344825506210327, -0.10865945369005203]], [[0.06513109803199768, 0.11536265909671783, -0.157877579331398, -0.11345677077770233, -0.10068783909082413, 0.13754071295261383, 0.1383146047592163, -0.1783817857503891, -0.05363146960735321, -0.17503738403320312, -0.07093166559934616, 0.18634220957756042, 0.1222950667142868]], [[-0.16576771438121796, -0.08055926859378815, -0.053361453115940094, -0.006134864408522844, -0.1872861534357071, -0.207005575299263, 0.11012350022792816, 0.012710043229162693, 0.06278498470783234, -0.10012951493263245, 0.0888902097940445, 0.09752683341503143, 0.09091898053884506]], [[0.22485151886940002, 0.3954908549785614, 0.13990572094917297, 0.19022557139396667, 0.3977252244949341, 0.4024883806705475, 0.05890876054763794, 0.40016427636146545, 0.28092482686042786, 0.16553233563899994, 0.39264413714408875, 0.04402097687125206, 0.3223918378353119]], [[0.1473764181137085, -0.13948772847652435, -0.07836393266916275, -0.14967714250087738, -0.04244795814156532, -0.19433002173900604, -0.10094785690307617, 0.05072224885225296, 0.11711759120225906, 0.11363065987825394, 0.1590406596660614, 0.16127115488052368, -0.11593422293663025]], [[-0.2018646001815796, -0.021128684282302856, 0.28122541308403015, 0.09937102347612381, -0.05308255925774574, -0.1637568175792694, -0.13737909495830536, -0.13141347467899323, 0.14542998373508453, -0.017049403861165047, -0.10877864807844162, 0.06150374561548233, 0.11317875981330872]], [[-0.02832367829978466, 0.10705933719873428, 0.16126753389835358, -0.2624560296535492, -0.21087446808815002, -0.021665029227733612, -0.26409703493118286, -0.2652282118797302, 0.23419752717018127, -0.035355161875486374, -0.13960139453411102, -0.0939100906252861, -0.21784870326519012]], [[0.2025245875120163, -0.04887183755636215, -0.15347015857696533, -0.2038174867630005, 0.09631669521331787, -0.051975857466459274, -0.07140763103961945, -0.0840579941868782, -0.14954088628292084, 0.041710738092660904, 0.20342978835105896, -0.15005920827388763, 0.005270157475024462]], [[-0.17402127385139465, -0.16737841069698334, 0.19940443336963654, 0.00642111012712121, 0.2306966930627823, -0.05544084683060646, -0.1507050096988678, -0.13371124863624573, 0.22908885776996613, -0.16699615120887756, 0.17677752673625946, 0.008226613514125347, 0.08089818805456161]], [[0.1309221088886261, -0.11442170292139053, 0.142416313290596, -0.23499003052711487, -0.12426471710205078, 0.18794122338294983, 0.07714679837226868, -0.040932681411504745, -0.06739863008260727, -0.15975020825862885, 0.1794644147157669, -0.017035072669386864, -0.013031250797212124]], [[0.09051409363746643, 0.22747313976287842, -0.1244872584939003, -0.06558295339345932, 0.19207000732421875, 0.1693752110004425, -0.1192004531621933, -0.23754699528217316, 0.06801427155733109, 0.17389336228370667, 0.0811019241809845, 0.20781533420085907, -0.22067362070083618]], [[0.13288816809654236, -0.17962636053562164, 0.1374148726463318, 0.1952410191297531, 0.05881063640117645, 0.19841735064983368, -0.18803291022777557, -0.2460305392742157, -0.26290836930274963, 0.1706472784280777, 0.08433274179697037, -0.22927497327327728, 0.10459963232278824]], [[0.20643214881420135, -0.2545633614063263, 0.16070431470870972, -0.021226774901151657, 0.009289855137467384, 0.20219005644321442, 0.1993442177772522, 0.0660439282655716, 0.1679975390434265, 0.07040201872587204, -0.008813276886940002, -0.20176637172698975, 0.028965966776013374]], [[-0.1136612519621849, 0.13737913966178894, 0.07125336676836014, 0.02513410709798336, -0.14472022652626038, -0.13094256818294525, 0.17366382479667664, 0.12041294574737549, 0.13834582269191742, -0.05674949288368225, -0.08144224435091019, -0.05368552356958389, 0.12573786079883575]], [[-0.12480933964252472, 0.14775724709033966, 0.17817139625549316, -0.25289568305015564, -0.04134085774421692, -0.07382390648126602, -0.18053849041461945, 0.09480655938386917, -0.06320688128471375, 0.21713970601558685, -0.18239083886146545, 0.10083505511283875, -0.24565868079662323]], [[-0.13933633267879486, 0.013266576454043388, 0.22511155903339386, 0.1356477439403534, -0.2440747767686844, 0.01527965534478426, -0.16827750205993652, -0.013254043646156788, -0.23342281579971313, -0.09446623921394348, 0.18196816742420197, -0.2621254026889801, -0.2677275240421295]], [[0.028876105323433876, -0.039151228964328766, 0.012601712718605995, 0.17935317754745483, -0.04367461055517197, -0.16331350803375244, -0.13036571443080902, -0.05236067250370979, -0.03566652163863182, 0.05061817169189453, 0.019619451835751534, 0.09546276926994324, 0.000866170390509069]], [[0.22148345410823822, 0.20621657371520996, -0.26215898990631104, -0.07098071277141571, -0.2531683146953583, 0.11182326823472977, -0.24106542766094208, -0.13272646069526672, 0.2727356553077698, -0.2615587115287781, 0.20375694334506989, -0.005437464453279972, 0.20511633157730103]], [[-0.17859497666358948, 0.12727056443691254, -0.019102152436971664, -0.03734639659523964, 0.10762929171323776, -0.3321177065372467, -0.29520657658576965, 0.17963209748268127, -0.23626995086669922, -0.25640371441841125, -0.07892388850450516, -0.15070375800132751, -0.09695494174957275]], [[-0.24022479355335236, -0.001732271397486329, -0.3071778118610382, -0.10469710826873779, 0.008781558834016323, -0.09997773915529251, -0.10758144408464432, -0.10939907282590866, -0.2049010545015335, -0.16813917458057404, -0.20797815918922424, -0.28209561109542847, -0.23334498703479767]], [[0.2729877233505249, -0.03388257324695587, 0.08931342512369156, 0.18591909110546112, -0.03478703275322914, -0.13827767968177795, -0.18915319442749023, -0.06256990134716034, 0.12226780503988266, -0.16591471433639526, -0.029372967779636383, 0.047007545828819275, 0.11180564016103745]], [[0.08562058955430984, 0.017963599413633347, 0.15885859727859497, 0.12051212787628174, 0.05510488152503967, -0.10188114643096924, -0.22578346729278564, -0.06368198990821838, -0.051312245428562164, 0.01451073121279478, -0.03519343584775925, 0.03186994418501854, 0.154536172747612]], [[-0.11147558689117432, -0.27217796444892883, -0.15571065247058868, -0.14543989300727844, 0.11370561271905899, -0.1995995193719864, -0.05166247859597206, -0.08031118661165237, -0.18948738276958466, 0.11091236770153046, -0.13208211958408356, -0.034563228487968445, -0.21124303340911865]], [[-0.021549798548221588, 0.004460499621927738, -0.007279265206307173, -0.050447072833776474, 0.07517814636230469, -0.024748630821704865, -0.10811056196689606, -0.13189558684825897, -0.012080286629498005, -0.19021932780742645, 0.28090721368789673, -0.12905192375183105, -0.07016465812921524]], [[0.051587220281362534, 0.09476950019598007, -0.0315234549343586, 0.12949833273887634, -0.11950957030057907, 0.09422409534454346, 0.0172867551445961, -0.22325044870376587, -0.07193215191364288, 0.03607043996453285, -0.0352221243083477, 0.15921813249588013, 0.09020626544952393]]], "bias": null}, "bn": {"num_features": 32, "affine": false, "eps": 1e-05, "running_mean": [-1.436259680076546e-07, -1.427572948742295e-09, 5.371146016841521e-07, -5.410734615907131e-07, -1.828434079698127e-07, -4.7500620325990894e-07, -2.2172866920300294e-06, -5.475977218338812e-07, -8.818732766258108e-08, -7.328805509132508e-07, -2.6770608201331925e-06, -6.204469968906778e-07, -1.7378894767716702e-07, 1.5406269540108042e-06, 2.9423881642287597e-07, -5.636975970446656e-07, 7.765168419382462e-08, -9.13493991561154e-09, 5.558562747864926e-07, -2.320141732070624e-07, -2.918067707469163e-07, 6.041383358024177e-07, 1.5461788507309393e-06, -1.7081902115023695e-08, -1.820632320459481e-07, 1.6463383190057357e-06, 2.35127231462684e-06, 4.973834393240395e-07, 2.1986363663017983e-07, 7.490118605346652e-07, 5.700444489775691e-07, -1.1382206110965853e-07], "running_var": [0.0004621091648004949, 1.3575230696005747e-05, 0.012479881756007671, 0.0013083593221381307, 4.6931603719713166e-05, 0.003952098079025745, 0.014093716628849506, 0.02070579119026661, 0.0001746598572935909, 0.0016640200046822429, 0.1363905817270279, 0.00020263524493202567, 0.000274749007076025, 0.012684600427746773, 0.0016155823832377791, 0.00016845445497892797, 5.161765875527635e-05, 0.002313824836164713, 6.737085641361773e-05, 0.004881774075329304, 0.0005508901667781174, 0.0022122508380562067, 0.008570964448153973, 0.00016393288387916982, 3.191050564055331e-05, 0.01920819841325283, 0.049930132925510406, 0.0005064932629466057, 0.0003176024474669248, 0.02184695564210415, 0.0020813869778066874, 0.0004356236313469708]}, "adaptor": {"in_features": 32, "out_features": 64, "weight": [[-0.09641803801059723, -0.08665838092565536, -0.042448531836271286, -0.07378079742193222, -0.0493021123111248, -0.13619443774223328, 0.06723562628030777, 0.19958001375198364, 0.013996547088027, -0.12655101716518402, -0.12309546768665314, -0.06881901621818542, 0.051416099071502686, 0.0043119387701153755, 0.03214188292622566, 0.15527138113975525, 0.08210252225399017, 0.09873367846012115, -0.035765793174505234, 0.08362402766942978, 0.0646720826625824, -0.15826764702796936, -0.10442357510328293, -0.004562666639685631, 0.06707656383514404, 0.22051241993904114, -0.1052313819527626, -0.17538268864154816, -0.00920858047902584, -0.020208634436130524, 0.18045125901699066, -0.04861472547054291], [0.13514980673789978, 0.012028033845126629, 0.12441809475421906, -0.17097263038158417, 0.06511136889457703, 0.004917572718113661, -0.08841456472873688, 0.031119011342525482, -0.17395170032978058, 0.14291812479496002, 0.0015107797225937247, 0.017068251967430115, 0.08174960315227509, 0.014674647711217403, 0.07577560842037201, 0.10283651202917099, -0.13796685636043549, 0.05947943776845932, -0.026470327749848366, -0.04110925644636154, 0.035581886768341064, 0.13585542142391205, -0.09609849750995636, -0.11898759752511978, 0.10970889776945114, -0.2168198823928833, 0.05691327154636383, -0.02604382298886776, 0.048658303916454315, 0.13490095734596252, -0.22050057351589203, -0.08578329533338547], [0.08673030883073807, 0.03060060925781727, 0.0012924702605232596, -0.14396418631076813, 0.15790027379989624, 0.005642419680953026, -0.032560043036937714, -0.06268815696239471, -0.034884799271821976, 0.08591952919960022, 0.003926549106836319, 0.1511809527873993, -0.01020615454763174, -0.0253599900752306, 0.09978188574314117, 0.003333041211590171, -0.03528338298201561, 0.06412894278764725, 0.1394115686416626, 0.04411453753709793, 0.12309282273054123, 0.14033327996730804, 0.04999206215143204, 0.08775626868009567, 0.05704303830862045, 0.020862579345703125, 0.1503903567790985, 0.16318972408771515, 0.06293049454689026, -0.008827973157167435, 0.16087351739406586, -0.13758893311023712], [0.12989266216754913, 0.08014429360628128, 0.08651787042617798, -0.023180656135082245, -0.14477789402008057, 0.1165277436375618, -0.07729659974575043, 0.03417148068547249, 0.10015197098255157, -0.16520234942436218, 0.003333483822643757, -0.06279575079679489, 0.1254681944847107, -0.11255397647619247, 0.1073334589600563, 0.09664619714021683, 0.09753033518791199, 0.15092113614082336, 0.02677302621304989, -0.16022706031799316, 0.12619468569755554, 0.007001792546361685, 0.003508134977892041, -0.17977304756641388, -0.03973166644573212, -0.10987388342618942, 0.17313703894615173, 0.12587010860443115, 0.13187333941459656, 0.12106315046548843, -0.13443338871002197, -0.0759202092885971], [-0.06918160617351532, -0.10503771901130676, 0.12384849786758423, 0.016063151881098747, 0.11255650222301483, -0.038017649203538895, -0.157583549618721, -0.07894612848758698, 0.12423771619796753, 0.10762263089418411, 0.030047541484236717, -0.05185350030660629, -0.16499824821949005, -0.09498683363199234, 0.09216790646314621, -0.0930061936378479, 0.0845591127872467, 0.038376275449991226, -0.06789768487215042, 0.1076708436012268, -0.056804109364748, -0.027841901406645775, -0.0673365443944931, -0.1855792999267578, 0.02850315533578396, 0.07458377629518509, -0.08900377154350281, 0.10844310373067856, -0.15857850015163422, -0.17040859162807465, -0.08928880840539932, -0.06109489127993584], [-0.019632486626505852, -0.0043806033208966255, 0.09705513715744019, -0.11416309326887131, 0.048117369413375854, 0.02765672281384468, 0.04669206961989403, 0.2121620923280716, 0.10879694670438766, -0.09788206964731216, -0.12178457528352737, -0.04279780760407448, -0.08867595344781876, 0.061749011278152466, 0.0016205041902139783, 0.16571375727653503, 0.06943897902965546, -0.0080564608797431, 0.006075805053114891, 0.04233554005622864, -0.021935727447271347, 0.16630256175994873, -0.13822174072265625, 0.10412618517875671, -0.11268522590398788, -0.1334412544965744, -0.036291658878326416, 0.08614414930343628, 0.12490367889404297, 0.04436077922582626, 0.0065238079987466335, -0.00990998838096857], [-0.07166197150945663, -0.029318172484636307, -0.023609381169080734, 0.1287631094455719, 0.08912496268749237, -0.16234484314918518, 0.000731268897652626, -0.12411975115537643, -0.02806168794631958, -0.14049647748470306, 0.03220430761575699, -0.12746979296207428, 0.1745176613330841, 0.13350220024585724, -0.12168581038713455, -0.17232465744018555, 0.006897415965795517, -0.09827620536088943, 0.05189575254917145, -0.11966263502836227, 0.07236198335886002, -0.16407093405723572, -0.09329744428396225, -0.10524025559425354, 0.08554071187973022, -0.09099496901035309, -0.1698874533176422, -0.10096070915460587, -0.0818081721663475, -0.1640186458826065, -0.06038229539990425, 0.06299223750829697], [-0.03243457153439522, -0.10503904521465302, -0.022559918463230133, -0.21379870176315308, -0.13144037127494812, -0.04648103192448616, 0.1570443958044052, -0.12157800048589706, 0.0876210406422615, -0.06957053393125534, -0.08035135269165039, -0.16828159987926483, 0.14645683765411377, 0.17213234305381775, -0.003712884383276105, 0.09064701199531555, 0.1445930153131485, 0.01038674172013998, 0.09104340523481369, -0.16828975081443787, -0.16611187160015106, -0.16154572367668152, 0.055293209850788116, -0.1730705350637436, -0.13494154810905457, -0.2244766801595688, -0.16293248534202576, 0.000238192908000201, 0.0255032479763031, -0.10344979912042618, -0.019480831921100616, -0.06711236387491226], [-0.04976741969585419, 0.14699584245681763, 0.1490146815776825, -0.10924801975488663, -0.13398735225200653, -0.12464602291584015, 0.02251061052083969, -0.01967497728765011, 0.08800733834505081, -0.07806148380041122, -0.1955452263355255, -0.15470558404922485, -0.05624260753393173, 0.002217514207586646, -0.07940377295017242, -0.15054461359977722, 0.01863008737564087, -0.29127028584480286, -0.13575109839439392, -0.14370989799499512, -0.04790179058909416, 0.1455075591802597, 0.06910542398691177, -0.019217653200030327, 0.036382634192705154, -0.2637128233909607, 0.0010299425339326262, -0.14258354902267456, -0.1089143455028534, -0.12009373307228088, -0.32878822088241577, -0.16182167828083038], [-0.032141733914613724, -0.05976897478103638, 0.17540886998176575, 0.12447922676801682, 0.10012242197990417, 0.008094954304397106, -0.0572354830801487, 0.03899705037474632, -0.12214025855064392, -0.07539597153663635, -0.037362053990364075, -0.04153451696038246, -0.16746094822883606, 0.070274218916893, 0.14557242393493652, -0.08211739361286163, 0.047653038054704666, -0.012842386029660702, -0.006447477266192436, 0.010304314084351063, 0.15319159626960754, 0.024971289560198784, -0.1118425577878952, -0.059219323098659515, 0.08636023849248886, 0.053501807153224945, 0.003435768885537982, -0.0233304500579834, -0.06877971440553665, -0.06274285167455673, -0.09353425353765488, 0.028966939076781273], [0.04964633285999298, 0.1018303707242012, -0.06786826997995377, -0.05602892115712166, 0.05973881855607033, 0.017974019050598145, 0.02271363139152527, -0.01106000691652298, 0.009175853803753853, -0.15163759887218475, -0.04297938942909241, -0.03863966092467308, 0.15952537953853607, 0.15956354141235352, 0.03507083281874657, 0.10230863094329834, -0.09104334563016891, 0.07129224389791489, 0.15220211446285248, -0.006756582297384739, -0.14186495542526245, -0.09313661605119705, -0.04727491736412048, -0.024755435064435005, -0.16027480363845825, -0.07124199718236923, -0.07351995259523392, -0.045262109488248825, -0.09130378812551498, -0.037323564291000366, -0.26916152238845825, -0.09372133761644363], [0.016285542398691177, 0.11435460299253464, 0.15938477218151093, -0.1271485537290573, 0.05471201613545418, -0.111546091735363, -0.1366761326789856, -0.013983807526528835, -0.10140735656023026, -0.15224827826023102, -0.17078378796577454, -0.11832518875598907, 0.14526373147964478, 0.09858977794647217, -0.06997653841972351, -0.12167513370513916, -0.13598401844501495, -0.11631458252668381, -0.07274331152439117, 0.1061701849102974, 0.057851310819387436, -0.07558051496744156, 0.12169862538576126, -0.11508345603942871, -0.14401784539222717, 0.018072029575705528, -0.0974748283624649, 0.050289154052734375, 0.1497715413570404, -0.08359865099191666, -0.1402921825647354, 0.06653876602649689], [-0.15965536236763, 0.1437789648771286, -0.07783084362745285, 0.019154362380504608, -0.14523915946483612, -0.14058776199817657, 0.019472770392894745, -0.009757890366017818, 0.13707178831100464, 0.14784468710422516, -0.030546627938747406, -0.022727686911821365, 0.02922150492668152, -0.04106363281607628, 0.006017621606588364, -0.1780993640422821, -0.14511731266975403, 0.050089046359062195, -0.10330063849687576, 0.1392090767621994, 0.019400130957365036, 0.029796136543154716, 0.16066837310791016, -0.09956280887126923, -0.027905596420168877, -0.15986789762973785, 0.06039430573582649, -0.17204159498214722, 0.06282971799373627, -0.10424980521202087, -0.15901659429073334, 0.11959820985794067], [-0.017609648406505585, -0.01050537545233965, -0.01643754541873932, 0.13683903217315674, 0.096137136220932, 0.0223641786724329, -0.10638690739870071, -0.1146538108587265, 0.14081232249736786, 0.12717680633068085, 0.09682270139455795, -0.13783584535121918, 0.13767240941524506, -0.016898419708013535, 0.13024146854877472, 0.14994367957115173, 0.01937667652964592, -0.0884808823466301, 0.16628514230251312, -0.09212188422679901, 0.11550849676132202, -0.17167770862579346, -0.05559854209423065, -0.1561441421508789, -0.07929781824350357, 0.04646875336766243, -0.12666545808315277, -0.15287719666957855, 0.12640157341957092, 0.09436702728271484, -0.030090248212218285, -0.12462063878774643], [-0.046834588050842285, -0.04643939062952995, 0.12451238930225372, -0.05984047055244446, -0.037619274109601974, -0.11534278839826584, -0.08325964212417603, 0.09522207826375961, 0.11389467120170593, 0.025683404877781868, -0.05652795732021332, 0.16979236900806427, 0.03489217534661293, -0.06823518127202988, -0.06127030402421951, -0.01528133638203144, 0.08380940556526184, 0.06397261470556259, 0.1281561255455017, -0.00796501711010933, 0.14621073007583618, -0.058964360505342484, -0.08141506463289261, -0.050621241331100464, -0.16585330665111542, -0.1305721253156662, -0.1599607765674591, -0.01044708676636219, 0.0016665495932102203, -0.0458809956908226, -0.1352117508649826, 0.16038747131824493], [-0.058573223650455475, 0.12614527344703674, 0.17676351964473724, -0.03633520007133484, 0.03185800462961197, 0.15389353036880493, 0.1713600903749466, 0.049240078777074814, 0.12809649109840393, -0.13874605298042297, -0.06662749499082565, 0.14536967873573303, -0.01673714630305767, 0.1746416836977005, 0.01285470463335514, -0.02586480788886547, 0.16788756847381592, 0.21436238288879395, 0.01640593446791172, -0.1071629747748375, -0.007653888780623674, -0.043714217841625214, 0.12881384789943695, 0.04738711193203926, 0.03721528872847557, 0.1754687875509262, 0.05855577439069748, -0.11035574972629547, 0.14685268700122833, 0.10860180854797363, -0.03558998554944992, 0.13366137444972992], [0.05015215650200844, 0.008740234188735485, -0.08521455526351929, 0.09042181074619293, -0.131240114569664, 0.15804557502269745, 0.1280311495065689, 0.035760339349508286, 0.16388076543807983, -0.06545887887477875, 0.07627611607313156, -0.1231946274638176, -0.0074738371185958385, 0.07145842164754868, 0.07614382356405258, 0.04468318074941635, -0.08914182335138321, 0.19361022114753723, 0.1170378103852272, 0.02836921252310276, -0.08129534870386124, 0.07270611822605133, 0.0004726979823317379, 0.19124266505241394, 0.026197027415037155, 0.10725805908441544, 0.012084364891052246, 0.09404681622982025, -0.0021842182613909245, 0.1515231430530548, 0.18642152845859528, -0.13357724249362946], [-2.0230486370564904e-06, -0.16451983153820038, -0.14547811448574066, 0.020074961706995964, 0.029131852090358734, -0.029127376154065132, 0.1680196076631546, -0.11435329169034958, -0.07408458739519119, -0.02831001579761505, -0.007744380738586187, -0.014973404817283154, 0.15916776657104492, -0.07466099411249161, -0.09246746450662613, 0.006397634744644165, 0.13277381658554077, 0.02679375745356083, 0.09523535519838333, 0.03422136604785919, 0.15066473186016083, 0.09357744455337524, 0.12649588286876678, -0.03474007919430733, -0.1463526338338852, -0.09508875012397766, 0.06022221967577934, 0.12401709705591202, -0.06906743347644806, 0.14626839756965637, 0.009330100379884243, 0.0007021664641797543], [0.0068915365263819695, -0.03071490302681923, 0.16816604137420654, 0.008788040839135647, 0.11040610820055008, -0.15035822987556458, -0.09107906371355057, 0.023260239511728287, 0.1411561369895935, 0.08416114002466202, 0.03288966417312622, -0.17465388774871826, 0.003323320997878909, -0.11669058352708817, -0.15094465017318726, 0.01985231786966324, -0.11184755712747574, 0.16483481228351593, -0.09608551859855652, 0.05696949362754822, 0.10376134514808655, -0.13877840340137482, 0.09047078341245651, -0.02360145002603531, 0.09159909188747406, 0.1914583444595337, -0.07533612102270126, -0.07656268030405045, 0.14045777916908264, 0.019657647237181664, 0.003774635260924697, 0.13411487638950348], [-0.08540860563516617, -0.015377557836472988, 0.1147812157869339, 0.07835425436496735, -0.12449697405099869, 0.046187374740839005, -0.13478104770183563, -0.10012052953243256, 0.1136694997549057, -0.04711315780878067, -0.09472629427909851, 0.012530341744422913, 0.04319898039102554, -0.10988736897706985, -0.11921172589063644, -0.19797205924987793, 0.045676182955503464, -0.11745703965425491, 0.013471860438585281, -0.03953755646944046, -0.11558720469474792, -0.06336963176727295, -0.13588647544384003, -0.09563147276639938, -0.0055103423073887825, -0.17186981439590454, -0.15503905713558197, 0.13241644203662872, 0.016634348779916763, -0.07818017154932022, -0.027787884697318077, 0.1310914307832718], [-0.14747871458530426, -0.08257940411567688, -0.11187393218278885, 0.09317810833454132, 0.01511575747281313, -0.0904906690120697, 0.1226978600025177, 0.01166109461337328, 0.16504503786563873, -0.12168759852647781, 0.014437386766076088, 0.03305492922663689, -0.07857324928045273, 0.1625712662935257, -0.12187591195106506, 0.01679270528256893, -0.1298002302646637, 0.13962721824645996, 0.15071752667427063, 0.16397559642791748, 0.02098582126200199, -0.05719238892197609, 0.17179955542087555, 0.02590150758624077, 0.11960303783416748, 0.08302087336778641, -0.08204088360071182, -0.14674821496009827, 0.16265682876110077, 0.029324470087885857, 0.04634031653404236, 0.01518314890563488], [-0.0758204311132431, -0.01843678019940853, 0.0374346561729908, -0.1237349808216095, 0.0073525384068489075, -0.1369871199131012, 0.03406411409378052, -0.20331574976444244, 0.028169624507427216, 0.17563103139400482, 0.1426485925912857, 0.06448480486869812, 0.13007749617099762, 0.17187252640724182, 0.050093088299036026, 0.0364818200469017, 0.022986996918916702, 0.13345278799533844, 0.1518583595752716, -0.08313107490539551, -0.0072672124952077866, -0.11013122648000717, 0.06343284249305725, -0.1863328218460083, 0.06255565583705902, -0.06651528924703598, 0.06410843133926392, 0.055173110216856, -0.0879674032330513, 0.09171362966299057, 0.053935639560222626, -0.15026739239692688], [0.17637929320335388, 0.1393779069185257, 0.10683225095272064, -0.029291773214936256, 0.053067173808813095, -0.10215023905038834, -0.06006857380270958, 0.07491587102413177, 0.07869532704353333, 0.07000096142292023, -0.17544561624526978, 0.146491140127182, -0.0738372951745987, 0.15298540890216827, 0.14565534889698029, 0.058030836284160614, 0.1761208474636078, 0.09613712877035141, 0.10367701202630997, -0.060028448700904846, 0.16395781934261322, 0.03984374552965164, 0.10444597899913788, -0.04590559005737305, 0.1280253678560257, 0.15945276618003845, -0.13545536994934082, 0.14492227137088776, -0.11682987958192825, -0.1217060387134552, -0.1455904245376587, 0.051081348210573196], [-0.13272877037525177, -0.0525968000292778, -0.05680713430047035, 0.19393590092658997, -0.13264769315719604, 0.00537654384970665, 0.0012932127574458718, 0.18828627467155457, -0.07983666658401489, 0.06333267688751221, -0.039259109646081924, -0.14971037209033966, -0.025131449103355408, -0.0955740287899971, 0.11142821609973907, -0.07959438115358353, -0.014840811491012573, 0.25176846981048584, -0.15481023490428925, 0.13684634864330292, -0.08032293617725372, -0.006578803062438965, -0.10813673585653305, -0.0452439971268177, -0.06816325336694717, 0.11142261326313019, 0.06040593609213829, -0.0005663061165250838, 0.17292839288711548, 0.1192670464515686, 0.42161259055137634, 0.05201241374015808], [0.09288893640041351, 0.21496722102165222, 0.17428867518901825, -0.06271766126155853, -0.0106691038236022, -0.1388532966375351, 0.006687609013170004, -0.01891234889626503, 0.15342742204666138, 0.027949323877692223, 0.022264188155531883, -0.12787185609340668, -0.13872213661670685, 0.027828868478536606, -0.08783716708421707, -0.04741491377353668, 0.1239972710609436, -0.0695066824555397, -0.07868415862321854, 0.13573049008846283, 0.06906644254922867, -0.07351454347372055, 0.05353652685880661, 0.11262694746255875, -0.1570131778717041, 0.04552870988845825, 0.04038816690444946, -0.006884940434247255, 0.1694936752319336, -0.11684513837099075, 0.11128779500722885, -0.0939066931605339], [-0.15133963525295258, 0.08772807568311691, -0.09295042604207993, -0.02692391537129879, 0.0776515081524849, -0.16259527206420898, -0.15131890773773193, 0.03872068598866463, 0.15413616597652435, -0.018705783411860466, 0.1121402233839035, 0.062119439244270325, 0.05043487623333931, -0.11270785331726074, 0.16824163496494293, 0.061569418758153915, 0.027333833277225494, 0.10775245726108551, -0.15189136564731598, 0.03809253126382828, -0.08321385085582733, -0.0340319462120533, 0.05791788175702095, 0.06396432220935822, 0.04055371880531311, -0.14386507868766785, -0.11063260585069656, 0.0030866244342178106, -0.030616186559200287, -0.14796462655067444, 0.16518615186214447, 0.022235538810491562], [-0.12560871243476868, 0.05188845098018646, 0.0568753182888031, -0.14731906354427338, 0.06701555103063583, -0.13409020006656647, 0.06124980002641678, 0.11456871777772903, 0.11669576913118362, 0.08727269619703293, -0.053637921810150146, 0.033187124878168106, 0.06168901175260544, 0.043177150189876556, -0.03581356629729271, -0.015041248872876167, -0.0716000571846962, -0.14881812036037445, -0.16313594579696655, -0.14412759244441986, -0.11096542328596115, 0.14816060662269592, 0.0353756844997406, -0.17770303785800934, -0.09036275744438171, -0.016088780015707016, -0.052910372614860535, -0.05003846436738968, -0.0663822740316391, -0.04317590594291687, -0.04073613882064819, 0.010468391701579094], [0.11357583105564117, 0.09924478083848953, 0.13789525628089905, -0.06680087745189667, -0.07575896382331848, -0.016011981293559074, -0.11706405133008957, 0.011513598263263702, -0.02132818102836609, -0.05661742016673088, -0.16656117141246796, 0.08519159257411957, 0.09867241233587265, 0.1612604558467865, -0.06262669712305069, 0.04489832744002342, 0.006663522217422724, -0.16559353470802307, -0.11051173508167267, 0.09052468836307526, -0.10152699053287506, 0.12376146018505096, 0.06175859645009041, 0.06041373312473297, 0.11642080545425415, -0.014799381606280804, 0.07624069601297379, 0.0917191281914711, -0.07501816749572754, -0.09374139457941055, -0.13139145076274872, 0.09814081341028214], [0.12371315807104111, 0.11838679760694504, -0.06613031774759293, -0.08057529479265213, -0.1355203241109848, 0.08137258887290955, -0.11722538620233536, -0.13276709616184235, 0.14597609639167786, 0.04295901581645012, -0.09519606828689575, -0.11903643608093262, -0.12156474590301514, 0.14266332983970642, -0.16157466173171997, 0.1345185488462448, 0.14141520857810974, -0.03668789938092232, -0.01416951697319746, 0.1374831199645996, 0.07795441150665283, 0.14929035305976868, 0.1428023874759674, -0.12416426837444305, 0.1090923324227333, 0.008535082451999187, -0.12551362812519073, 0.084900863468647, -0.09181994199752808, -0.10532215237617493, -0.0766119584441185, -0.021722570061683655], [-0.04753199219703674, -0.12502536177635193, 0.09337431937456131, 0.18158410489559174, -0.0432417169213295, -0.11962927877902985, -0.009115351364016533, -0.14377239346504211, -0.14355254173278809, -0.05888824909925461, 0.10926772654056549, -0.13543112576007843, -0.028210613876581192, -0.09179486334323883, -0.16277407109737396, -0.04031144827604294, -0.010297423228621483, -0.024715648964047432, 0.12924769520759583, 0.07081007957458496, 0.11006025224924088, 0.06652700901031494, 0.018546972423791885, 0.09100581705570221, -0.11277461796998978, 0.10329931974411011, 0.08420116454362869, -0.07502522319555283, -0.0060670808888971806, -0.13372741639614105, -0.14183349907398224, -0.00019528741540852934], [0.03165280818939209, -0.03888072818517685, 0.06832574307918549, -0.1125260442495346, -0.08622557669878006, 0.13018399477005005, -0.1720341444015503, 0.04589030146598816, 0.13609552383422852, 0.13252724707126617, 0.06431029736995697, -0.1610260158777237, 0.022757695987820625, -0.062164999544620514, -0.04969364032149315, 0.1512877494096756, -0.06007622182369232, -0.11627590656280518, -0.14190538227558136, 0.1116139367222786, 0.008529932238161564, 0.18198426067829132, 0.03615143895149231, -0.1622471660375595, 0.04373591020703316, 0.17141295969486237, 0.1096421405673027, 0.05304884538054466, -0.13281303644180298, -0.10600140690803528, 0.13158747553825378, -0.11820313334465027], [0.040328674018383026, -0.028369955718517303, 0.05086912959814072, 0.02667720429599285, -0.13816024363040924, -0.07384586334228516, 0.15418307483196259, 0.04107610508799553, 0.08963551372289658, -0.08918432891368866, 0.14042769372463226, -0.03784150630235672, -0.05958501994609833, 0.03585994988679886, -0.06334144622087479, -0.07166177034378052, -0.025295905768871307, 0.012880089692771435, -0.10054240375757217, 0.060424670577049255, -0.1713288575410843, 0.10350067913532257, 0.163953959941864, 0.02222597971558571, -0.04130534455180168, -0.07860559970140457, 0.08301477134227753, 0.1448473334312439, 0.15113089978694916, 0.015763195231556892, 0.13689717650413513, 0.16938911378383636], [0.02638556994497776, -0.07062885165214539, -0.17035119235515594, 0.07936165481805801, 0.08862467855215073, 0.163095161318779, -0.08999795466661453, 0.09440924227237701, -0.05848732963204384, -0.043935202062129974, 0.1151050254702568, -0.16204729676246643, 0.13030867278575897, 0.08221857249736786, -0.10506180673837662, 0.0905480682849884, -0.04446505010128021, 0.012607540935277939, -0.04731578007340431, -0.17308439314365387, -0.018308401107788086, 0.10000304132699966, -0.020567409694194794, -0.08210533857345581, 0.005601273849606514, 0.020331665873527527, -0.049323465675115585, -0.13708750903606415, -0.09477762132883072, -0.02882043644785881, 0.05241772532463074, 0.1572028249502182], [0.0032807737588882446, 0.08065885305404663, 0.09510904550552368, -0.057801324874162674, -0.04901515692472458, 0.12705256044864655, 0.12657001614570618, 0.06606779247522354, -0.13660992681980133, 0.10033605247735977, -0.12451241165399551, 0.08835694938898087, 0.020950565114617348, 0.057101476937532425, -0.17231270670890808, -0.059917744249105453, 0.07507645338773727, 0.11045794934034348, -0.050609491765499115, 0.15764057636260986, -0.03944928199052811, -0.0829976424574852, -0.07655199617147446, 0.013283763080835342, -0.03141910582780838, 0.062103722244501114, -0.0978320837020874, -0.05028776451945305, -0.17518800497055054, 0.14429278671741486, -0.05496428534388542, -0.13935519754886627], [-0.0085302060469985, 0.027878297492861748, 0.07471789419651031, 0.027285007759928703, 0.1474132388830185, -0.019038764759898186, -0.05291113257408142, 0.005194833502173424, 0.03155994042754173, 0.14163707196712494, 0.030831288546323776, 0.1360171139240265, 0.13886630535125732, -0.09203876554965973, -0.015188691206276417, -0.04948648810386658, 0.0735345110297203, -0.019430439919233322, 0.053925711661577225, 0.010561452247202396, -0.11604778468608856, -0.07750597596168518, -0.1726621836423874, -0.0612097904086113, 0.04938333481550217, 0.05675200745463371, 0.13295410573482513, -0.15544229745864868, -0.005165728274732828, -0.15850679576396942, 0.04805390536785126, 0.06440622359514236], [-0.1585763543844223, 0.14092110097408295, -0.05482843518257141, 0.1403772234916687, -0.046729203313589096, 0.08838485181331635, 0.16070355474948883, -0.0916297510266304, -0.04297206178307533, 0.09272458404302597, -0.1687605381011963, 0.10463907569646835, -0.1110357865691185, 0.16418372094631195, -0.11585331708192825, -0.08114462345838547, 0.13190819323062897, -0.08713331818580627, 0.1515243649482727, 0.12162581086158752, 0.16157592833042145, -0.1842852085828781, 0.0019812812097370625, -0.06381809711456299, 0.04210885241627693, -0.15242744982242584, 0.07248798757791519, -0.008374578319489956, -0.08356034010648727, -0.15902894735336304, 0.07189884036779404, -0.06397640705108643], [0.13043932616710663, -0.006246305536478758, 0.05007694289088249, -0.06451296806335449, -0.03743436560034752, -0.07600570470094681, -0.1530710905790329, 0.11196713894605637, -0.1113235205411911, 0.10303209722042084, -0.07448726892471313, 0.11074511706829071, 0.15150153636932373, -0.10811770707368851, 0.14596903324127197, -0.002058818470686674, -0.13504520058631897, 0.08058321475982666, 0.1000979021191597, 0.1558307260274887, -0.1682773232460022, 0.14826339483261108, 0.13401567935943604, 0.16336728632450104, 0.09634438902139664, -0.04550260305404663, 0.1341048628091812, 0.16155920922756195, -0.06759408116340637, -0.02889598347246647, 0.17402733862400055, 0.14230215549468994], [0.11677630990743637, 0.07755614072084427, -0.12212229520082474, -0.11409611999988556, -0.11096163094043732, 0.04111778363585472, 0.04405494034290314, -0.20960915088653564, -0.022205214947462082, -0.1441534459590912, -0.21542803943157196, 0.16115456819534302, -0.08892238885164261, 0.07890068739652634, -0.03936437517404556, -0.07598085701465607, -0.00011417581117711961, 0.07263249158859253, -0.024454591795802116, 0.14627663791179657, 0.10343342274427414, 0.07395967841148376, -0.16032591462135315, -0.11993075907230377, -0.14402426779270172, -0.11536857485771179, -0.03661433607339859, 0.035921696573495865, 0.1583867371082306, 0.07935596257448196, -0.20100590586662292, -0.11086433380842209], [0.13348504900932312, -7.87537865107879e-05, 0.04233197867870331, -0.11905388534069061, -0.03470582142472267, 0.03135709464550018, -0.11600533872842789, 0.0861561968922615, 0.08809561282396317, -0.10309125483036041, -0.08883949369192123, -0.041560374200344086, 0.027511080726981163, -0.06484521925449371, 0.1691083312034607, -0.18266887962818146, -0.09991409629583359, -0.12181104719638824, 0.04779694974422455, 0.025085845962166786, -0.05037359520792961, 0.1332131326198578, -0.15260303020477295, 0.051090847700834274, -0.09727165848016739, -0.05393819138407707, -0.1702360212802887, -0.1319650411605835, -0.14998604357242584, 0.07712306082248688, -0.08103000372648239, 0.09247201681137085], [-0.09580393880605698, -0.07291874289512634, 0.026573678478598595, 0.11546839773654938, -0.069169782102108, 0.08197004348039627, 0.04876771569252014, 0.07786618173122406, 0.11167129874229431, 0.07173880189657211, -0.07398169487714767, -0.0496152900159359, 0.06881939619779587, 0.09635081142187119, -0.009435183368623257, 0.06148666515946388, -0.10635223984718323, 0.09170135110616684, -0.02169313095510006, -0.1216527447104454, -0.08589297533035278, -0.14862596988677979, 0.035658929497003555, -0.11057709157466888, -0.05062238872051239, 0.0028745648451149464, -0.107862189412117, 0.004539215471595526, -0.02243518829345703, 0.05599261447787285, 0.13945011794567108, -0.1067146360874176], [0.09665199369192123, 0.011549137532711029, -0.10342863202095032, -0.0820397138595581, 0.06155525520443916, 0.04262534901499748, -0.005709928460419178, -0.08010485768318176, 0.08914772421121597, 0.026228509843349457, -0.15693722665309906, -0.0312411617487669, -0.04796172305941582, -0.07543230056762695, -0.09805763512849808, -0.14176702499389648, 0.17410805821418762, -0.18291617929935455, 0.16432760655879974, -0.13896483182907104, -0.04288911819458008, -0.05888218432664871, -0.09461971372365952, 0.06779623031616211, 0.10245884209871292, -0.145832821726799, -0.08233367651700974, 0.09023159742355347, -0.02136807329952717, 0.04305378347635269, 0.0651487484574318, -0.0653422623872757], [-0.09810645878314972, 0.07854469120502472, -0.06447801738977432, -0.13462604582309723, -0.07493824511766434, -0.08042360097169876, 0.1760198026895523, 0.04198047146201134, 0.0761328861117363, 0.023745492100715637, -0.11062273383140564, 0.12756876647472382, -0.02747972309589386, -0.04577295109629631, 0.14406536519527435, -0.06281988322734833, 0.03589598461985588, -0.14827334880828857, 0.09058442711830139, 0.07021768391132355, -0.14536280930042267, 0.10803502798080444, 0.019454142078757286, -0.08619053661823273, 0.15072572231292725, 0.0955623909831047, 0.062122199684381485, -0.06565939635038376, -0.09693026542663574, -0.09511907398700714, 0.0896703377366066, 0.047621216624975204], [-0.10580044984817505, 0.20328289270401, 0.12230074405670166, -0.02308395691215992, 0.13416405022144318, -0.03560596704483032, 0.055477432906627655, 0.1724768579006195, -0.15636463463306427, -0.08789461851119995, 0.015091141685843468, 0.026361925527453423, -0.1453765332698822, -0.11630167812108994, -0.01693142205476761, 0.026243723928928375, 0.0381297692656517, 0.06313809007406235, 0.0362643264234066, 0.011719142086803913, 0.02031821571290493, 0.011484771966934204, 0.06348451226949692, 0.14929649233818054, -0.08822045475244522, -0.05422220379114151, 0.0775899663567543, -0.12783318758010864, 0.11487974971532822, 0.08166705816984177, 0.0629434809088707, -0.07674597203731537], [0.0053007458336651325, -0.15042248368263245, -0.16612018644809723, 0.14765411615371704, -0.1454031765460968, -0.15240395069122314, -0.0686684250831604, -0.0065854378044605255, 0.04048788547515869, -0.08711245656013489, -0.015851251780986786, -0.03947595879435539, 0.14791356027126312, 0.15343403816223145, 0.07265682518482208, 0.00033573232940398157, 0.1325707584619522, -0.16319574415683746, 0.07386034727096558, -0.10275283455848694, 0.13786134123802185, -0.1550426036119461, 0.06568185985088348, -0.14922471344470978, 0.10317540168762207, 0.01912025921046734, 0.15168125927448273, -0.13332805037498474, 0.11377508193254471, -0.11797429621219635, -0.10850772261619568, 0.0672382116317749], [-0.02975563146173954, -0.12417744845151901, -0.15214672684669495, -0.03519754484295845, 0.06695479154586792, 0.16669069230556488, 0.13001160323619843, 0.02117486484348774, -0.10843374580144882, -0.15760596096515656, 0.17563177645206451, -0.09856090694665909, -0.03109014965593815, -0.1426437497138977, -0.12218999117612839, 0.03613835945725441, -0.04370290786027908, 0.016715090721845627, -0.0013519444037228823, 0.009006507694721222, -0.035027340054512024, 0.006711072288453579, 0.07683916389942169, 0.13467195630073547, 0.14941687881946564, -0.1472778022289276, -0.1494310200214386, -0.02641998417675495, -0.013485684990882874, 0.09756969660520554, 0.16516117751598358, 0.04539582133293152], [-0.12555721402168274, -0.019298389554023743, 0.10844191908836365, 0.056580811738967896, -0.12189805507659912, 0.006059625186026096, -0.1706894487142563, -0.07343645393848419, 0.12363822013139725, -0.07668285816907883, 0.10659345239400864, -0.14419220387935638, 0.15628904104232788, 0.084323450922966, 0.1145530492067337, 0.046573445200920105, 0.012524041347205639, -0.09605337679386139, -0.0975441187620163, -0.12139599025249481, 0.14609625935554504, -0.062349945306777954, 0.004306691233068705, -0.16927705705165863, 0.04744472727179527, -0.07125552743673325, -0.14139102399349213, 0.021878408268094063, -0.16284921765327454, -0.01741701550781727, -0.15590493381023407, 0.11175885796546936], [-0.14038971066474915, -0.0015159083995968103, 0.08946789056062698, -0.16453151404857635, 0.09726908802986145, 0.1272219717502594, -0.1083635687828064, -0.0053871069103479385, 0.05360632389783859, 0.1464073359966278, 0.12008555978536606, -0.14828239381313324, -0.1440848559141159, -0.15630917251110077, -0.0786198228597641, -0.04195588454604149, -0.06342801451683044, 0.10864615440368652, -0.12182961404323578, -0.14109013974666595, -0.13818927109241486, -0.12311719357967377, 0.17314651608467102, 0.009446739219129086, -0.030951233580708504, -0.06432421505451202, -0.1353975236415863, -0.059977009892463684, 0.09313026815652847, 0.1194748729467392, 0.11550654470920563, 0.012585427612066269], [-0.09637854248285294, -0.1029779240489006, 0.20569130778312683, -0.18831515312194824, 0.04201692342758179, -0.041846439242362976, 0.16413171589374542, 0.06853233277797699, -0.04466056823730469, -0.14668215811252594, -0.0044730608351528645, -0.12364470958709717, -0.018644079566001892, 0.04426141828298569, 0.08632500469684601, -0.06542445719242096, -0.11933020502328873, -0.20156893134117126, -0.1674424558877945, 0.022173603996634483, -0.10759323090314865, -0.01759084314107895, -0.08374863117933273, -0.11173011362552643, 0.1191992312669754, 0.00836181826889515, 0.1241220235824585, 0.16957411170005798, -0.12790480256080627, -0.09410087019205093, -0.22097192704677582, 0.1187014952301979], [0.10415802896022797, 0.1357886791229248, -0.13058389723300934, -0.1191771849989891, 0.16946499049663544, -0.14795523881912231, -0.117734394967556, 0.057819075882434845, -0.15453000366687775, -0.049980975687503815, 0.06790541857481003, 0.14482153952121735, -0.020058823749423027, -0.15643687546253204, 0.10007143020629883, 0.1701466143131256, -0.13123516738414764, -0.020132148638367653, -0.1278761476278305, -0.09026558697223663, 0.05949002131819725, 0.07666521519422531, 0.07309932261705399, -0.17267978191375732, -0.04285537824034691, 0.054557301104068756, -0.01640869490802288, -0.0546509325504303, -0.09131453931331635, 0.16761569678783417, -0.16254104673862457, -0.13925014436244965], [0.12881973385810852, -0.12200351059436798, 0.10436610877513885, -0.11455676704645157, -0.03104914166033268, -0.09468450397253036, 0.14605562388896942, 0.1008184552192688, 0.008494317531585693, 0.004238687455654144, -0.07301540672779083, -0.09449083358049393, -0.06686568260192871, 0.05788587033748627, -0.03179636225104332, 0.11704499274492264, 0.025452185422182083, -0.02297499030828476, -0.10985415428876877, 0.07131390273571014, -0.1635197103023529, 0.03497074916958809, 0.06342862546443939, 0.027866927906870842, 0.1244107335805893, -0.01219615712761879, -0.048822127282619476, -0.12370036542415619, -0.16406725347042084, 0.08921609073877335, 0.04043549299240112, -0.13484124839305878], [0.047327835112810135, -0.06349890679121017, 0.1524011641740799, -0.07146281749010086, 0.15147851407527924, 0.12616334855556488, 0.0977739617228508, 0.10698707401752472, 0.055133156478405, 0.05992409214377403, -0.14857622981071472, -0.04035773500800133, -0.020039035007357597, 0.0857732817530632, -0.06850150227546692, 0.07887306809425354, 0.12002697587013245, 0.05142074450850487, 0.09098578989505768, -0.023561984300613403, 0.0846807062625885, -0.05846824496984482, 0.15313367545604706, -0.0005037646624259651, -0.010311732068657875, -0.24183960258960724, 0.16349762678146362, -0.024733245372772217, 0.13166487216949463, -0.11564823240041733, -0.23005375266075134, -0.028295455500483513], [-0.1413506716489792, 0.04348348081111908, 0.012658254243433475, 0.0015127145452424884, 0.11594726145267487, 0.12365763634443283, -0.1560850590467453, -0.10139155387878418, 0.10341846197843552, -0.10736705362796783, 0.029865315183997154, -0.04708005115389824, 0.03161163255572319, -0.09755104780197144, 0.0005648941732943058, -0.07237309217453003, -0.07963478565216064, -0.07983968406915665, 0.039485737681388855, 0.11438748985528946, -0.00435640336945653, 0.018801862373948097, 0.14585287868976593, 0.15258607268333435, -0.025662604719400406, -0.12808182835578918, 0.04148389771580696, 0.05278174206614494, -0.13988260924816132, -0.15858183801174164, 0.03551039099693298, 0.17262105643749237], [-0.1581178456544876, -0.07678583264350891, -0.06435339897871017, -0.17629729211330414, -0.09729404747486115, 0.13621187210083008, 0.13520504534244537, -0.13901592791080475, 0.003789633745327592, -0.14397552609443665, 0.07965710014104843, -0.12074071168899536, -0.09008821099996567, -0.08193789422512054, 0.026057224720716476, 0.10655559599399567, -0.07398668676614761, -0.0002892012125812471, 0.1407533586025238, -0.010711431503295898, 0.018253441900014877, 0.02019449882209301, -0.002258249092847109, 0.10930807888507843, 0.09565256536006927, -0.13674931228160858, 0.1687973439693451, 0.10171819478273392, -0.02766025997698307, 0.1539081335067749, -0.030072754248976707, 0.11170779913663864], [-0.15009988844394684, 0.15066851675510406, 0.16572649776935577, -0.18342632055282593, -0.16755694150924683, -0.06362608820199966, -0.10868456214666367, 0.023433903232216835, 0.0786890909075737, -0.02252420224249363, 0.11327158659696579, 0.006698714569211006, -0.05195673555135727, -0.15089142322540283, 0.05618339031934738, -0.1681668609380722, -0.0006045122281648219, 0.027172144502401352, -0.09900347143411636, 0.053107284009456635, 0.0343637578189373, 0.11252143234014511, 0.11056454479694366, -0.1473509967327118, -0.13116511702537537, -0.07196726649999619, -0.12717308104038239, 0.055426180362701416, -0.11582227796316147, -0.13496455550193787, 0.043437227606773376, 0.10668796300888062], [-0.05139293894171715, -0.17315763235092163, 0.02783469296991825, 0.08917901664972305, 0.14136719703674316, 0.020791254937648773, 0.12272350490093231, -0.1609828919172287, 0.16911840438842773, -0.11415104568004608, -0.116358682513237, 0.12686793506145477, -0.03928189352154732, 0.10909507423639297, -0.12381867319345474, 0.1342170387506485, 0.16765417158603668, 0.05247499421238899, 0.14260470867156982, -0.12624087929725647, -0.03903457522392273, 0.05826497822999954, 0.09989475458860397, -0.08975068479776382, 0.11248911172151566, -0.07681381702423096, -0.09435545653104782, 0.0345798023045063, -0.1408039927482605, -0.16224539279937744, 0.04086645692586899, 0.06021227315068245], [0.06797928363084793, -0.03859012946486473, -0.1277635395526886, -0.15226240456104279, 0.1510055661201477, -0.16216154396533966, 0.05327926203608513, 0.11707855761051178, 0.13505306839942932, -0.11145845800638199, -0.07407714426517487, -0.1413387656211853, 0.11088652163743973, -0.16589418053627014, -0.16273830831050873, -0.12303326278924942, 0.1441965103149414, 0.10939858108758926, 0.11844842880964279, 0.1356385052204132, -0.08244527876377106, -0.11346161365509033, -0.10860011726617813, 0.05309613421559334, 0.06876363605260849, 0.02478465437889099, -0.1359977275133133, 0.015703536570072174, -0.09380493313074112, -0.03476261347532272, -0.04175397753715515, 0.008787154220044613], [-0.1550011932849884, 0.1412837952375412, -0.08260755985975266, 0.0022471609991043806, 0.11631506681442261, 0.05855957046151161, 0.12380018830299377, 0.0738472044467926, 0.1294432282447815, 0.03731017932295799, 0.1018548235297203, -0.07684025913476944, -0.09525516629219055, 0.08441181480884552, 0.046383533626794815, -0.017226407304406166, -0.14911270141601562, 0.0433037094771862, 0.11450767517089844, -0.02040967345237732, 0.04061280936002731, 0.06963108479976654, -0.17458094656467438, -0.034846484661102295, -0.06557796895503998, -0.12620671093463898, 0.10804738849401474, 0.1752718836069107, 0.028206482529640198, 0.11002295464277267, -0.16732200980186462, 0.031143400818109512], [-0.02286287397146225, -0.10987453162670135, 0.039011601358652115, 0.05003630742430687, -0.018165186047554016, 0.06505367159843445, 0.08487207442522049, 0.15170149505138397, 0.010247479192912579, 0.006298235151916742, -0.014153282158076763, 0.02439575456082821, -0.1146252453327179, -0.02175930142402649, -0.14948810636997223, -0.12535181641578674, -0.15057623386383057, 0.12179883569478989, -0.10159356147050858, -0.014266160316765308, 0.018898984417319298, 0.15533694624900818, 0.08022831380367279, -0.1266053467988968, 0.1729009747505188, -0.1747301071882248, 0.022984109818935394, 0.1615217924118042, 0.15330994129180908, -0.0409722775220871, -0.1269957721233368, 0.07762277871370316], [0.13627049326896667, -0.05675792321562767, -0.024943791329860687, -0.052591755986213684, 0.056944817304611206, 0.05129576474428177, 0.08762706816196442, -0.028804101049900055, -0.1706443727016449, -0.07444582879543304, -0.12631286680698395, -0.042587198317050934, 0.06424429267644882, -0.14706623554229736, -0.0082516148686409, -0.1485111117362976, -0.1252726912498474, -0.11464741080999374, -0.0601898729801178, -0.0895688384771347, 0.027210215106606483, 0.11633598059415817, 0.13329452276229858, 0.06594112515449524, -0.0011697435984387994, -0.033294372260570526, 0.12003186345100403, -0.10124538838863373, 0.12777581810951233, -0.17020273208618164, -0.13016019761562347, 0.04689254239201546], [-0.07280897349119186, 0.03391852229833603, 0.1596076339483261, 0.12954650819301605, 0.14338180422782898, -0.06742669641971588, -0.0844162181019783, 0.026152994483709335, -0.035602789372205734, -0.07775872200727463, -0.005860069300979376, 0.1597035974264145, -0.09690150618553162, 0.09927476942539215, 0.0821208581328392, 0.10939013957977295, 0.04769103229045868, -0.02356831170618534, 0.07295813411474228, -0.08326105773448944, -0.10850857943296432, 0.16279417276382446, 0.14652800559997559, -0.1298559159040451, 0.14358748495578766, 0.09981182217597961, 0.045312583446502686, 0.17038913071155548, -0.009282168932259083, -0.056223515421152115, 0.1707572191953659, -0.045663874596357346], [-0.04243730381131172, -0.08862179517745972, 0.173654705286026, 0.0802198201417923, -0.04133434221148491, -0.011240984313189983, 0.012372206896543503, -0.11719661206007004, 0.0501912496984005, -0.13720141351222992, -0.021118929609656334, -0.03316948562860489, -0.072180837392807, 0.16349872946739197, 0.04950813204050064, 0.07655558735132217, -0.11636430770158768, 0.03139762952923775, 0.047371771186590195, 0.09176812320947647, -0.052162837237119675, -0.046457406133413315, -0.14352348446846008, 0.10113809257745743, 0.11800847947597504, 0.09004543721675873, 0.08984072506427765, 0.10588036477565765, 0.16663053631782532, 0.05789240449666977, 0.06946124136447906, 0.05560242012143135], [-0.09982946515083313, 0.030792996287345886, 0.05326399207115173, -0.16088204085826874, -0.06895726174116135, -0.12220875918865204, -0.1129530668258667, 0.09806915372610092, 0.13906779885292053, -0.024369223043322563, 0.03821086511015892, -0.041401881724596024, 0.037479907274246216, -0.029593640938401222, -0.09196178615093231, -0.08129142224788666, 0.17559444904327393, 0.030671818181872368, -0.09667134284973145, 0.020067082718014717, -0.1763620674610138, -0.010249167680740356, 0.1357032209634781, 0.015487785451114178, 0.04211883991956711, -0.15670739114284515, -0.033249709755182266, 0.10431306809186935, -0.12961316108703613, -0.08269768208265305, 0.12795224785804749, 0.050766490399837494], [0.08263839781284332, -0.14930735528469086, 0.11101912707090378, -0.0385558158159256, 0.05375836789608002, 0.1482471227645874, -0.1629103124141693, 0.056904420256614685, -0.15981020033359528, 0.1308746039867401, 0.06556767970323563, 0.019669849425554276, -0.07081878185272217, 0.06665104627609253, -0.09175672382116318, 0.0353139229118824, 0.14845412969589233, -0.15578442811965942, -0.050438690930604935, 0.04128937050700188, 0.030684612691402435, 0.014964012429118156, 0.15208451449871063, -0.04039021208882332, 0.04559991881251335, 0.059447772800922394, -0.034275542944669724, 0.11551167815923691, 0.11545281857252121, 0.07871859520673752, -0.07469180226325989, 0.153549924492836], [-0.10214552283287048, 0.06618577241897583, 0.030198780819773674, 0.11871740967035294, -0.12943467497825623, 0.03577166423201561, -0.10180400311946869, 0.09945894032716751, 0.060703955590724945, -0.13751192390918732, 0.003258730983361602, 0.04945051670074463, 0.07530514150857925, 0.15726716816425323, 0.07938896119594574, 0.03227425739169121, 0.09429872781038284, -0.18607313930988312, 0.11786197125911713, -0.02078437991440296, 0.10004917532205582, 0.06312435120344162, -0.009322376921772957, 0.12705117464065552, -0.1030532568693161, 0.02728872373700142, 0.07749458402395248, -0.06291167438030243, 0.06404034048318863, -0.17485888302326202, -0.10963644832372665, 0.08594972640275955]], "bias": [0.26730647683143616, -0.30843687057495117, 0.060783132910728455, -0.01168112177401781, 0.20160867273807526, -0.15103311836719513, -0.11339007318019867, -0.2263679951429367, -0.48629167675971985, -0.0381944514811039, -0.27008700370788574, 0.11803372949361801, -0.3045397400856018, 0.0336592011153698, -0.1246316209435463, 0.06851451843976974, -0.03645245358347893, 0.13688607513904572, 0.17209184169769287, 0.11977508664131165, 0.14582446217536926, 0.09157400578260422, -0.145498588681221, 0.33518123626708984, -0.018000109121203423, -0.14403606951236725, -0.19715294241905212, -0.26847803592681885, -0.047398168593645096, -0.05368475243449211, -0.0763445720076561, 0.2878206670284271, -0.04019840061664581, 0.06561145186424255, 0.016774367541074753, 0.06157404184341431, 0.11044704914093018, 0.025572657585144043, 0.020512567833065987, -0.03272686153650284, 0.1562894731760025, 0.013453860767185688, -0.07111866772174835, 0.05032886564731598, 0.0024310064036399126, -0.1418137103319168, 0.022938014939427376, -0.14077560603618622, -0.09217804670333862, -0.1426718384027481, -0.17596794664859772, -0.05839359015226364, 0.004319570027291775, 0.17241749167442322, -0.12696856260299683, -0.13220736384391785, -0.1602638065814972, -0.02656383253633976, 0.004125749692320824, -0.08581598103046417, 0.06632617861032486, -0.1714070588350296, 0.15651673078536987, 0.04029436782002449]}, "prelu": {"num_parameters": 32, "weight": [0.27737846970558167, 0.628344714641571, 0.19906997680664062, 0.22406233847141266, -0.14983762800693512, 0.14937718212604523, 0.18817009031772614, 0.21035975217819214, 0.7904461026191711, 0.2241220325231552, 0.10410523414611816, 0.23242925107479095, 0.5655333399772644, 0.23050346970558167, 0.022570904344320297, 0.2099301815032959, 0.1996828317642212, 0.18116271495819092, 0.17891427874565125, 0.1593119502067566, 0.3588431775569916, -0.43608298897743225, 0.23372291028499603, 0.36650896072387695, 0.17555372416973114, 0.2571900188922882, 0.23181386291980743, 0.21784710884094238, -0.07630811631679535, 0.24526095390319824, 0.19510430097579956, 0.41938239336013794]}, "res": {"in_channels": 1, "out_channels": 32, "kernel_size": 1, "dilation": 1, "groups": 1, "weight": [[[1.3987114429473877]], [[0.015215354971587658]], [[0.6332630515098572]], [[0.8480634689331055]], [[-0.6852203011512756]], [[-0.32971805334091187]], [[0.20853263139724731]], [[-1.3427250385284424]], [[0.6570425629615784]], [[-0.42344149947166443]], [[0.38686642050743103]], [[-0.45447540283203125]], [[0.6766431927680969]], [[-0.5413597822189331]], [[0.4225921332836151]], [[1.599584698677063]], [[1.374011516571045]], [[-0.0735355019569397]], [[0.53985595703125]], [[-1.1105096340179443]], [[2.560540199279785]], [[1.1558663845062256]], [[0.5700988173484802]], [[-2.6795616149902344]], [[1.1804662942886353]], [[-1.6788467168807983]], [[-0.26825961470603943]], [[-0.5686271786689758]], [[-1.6026098728179932]], [[-1.3729623556137085]], [[-0.8196901679039001]], [[1.2362686395645142]]], "bias": null}, "causal": true}, {"conv1": {"in_channels": 32, "out_channels": 32, "kernel_size": 13, "dilation": 10, "groups": 1, "weight": [[[0.04241744428873062, 0.048967115581035614, 0.0197160467505455, 0.0775756910443306, 0.04447367042303085, 0.07048589736223221, 0.04501239210367203, -0.033240366727113724, -0.026064855977892876, 0.030630121007561684, 0.06631852686405182, -0.019744237884879112, -0.001057889312505722], [0.03715743497014046, 0.04815056547522545, 0.02875799871981144, 0.029817597940564156, 0.027425533160567284, -0.005675695836544037, 0.04560091719031334, -0.025114573538303375, 0.006475210189819336, -0.007536047603935003, -0.03618275374174118, -0.00615753885358572, -0.13783371448516846], [0.03698360174894333, -0.029070449993014336, -0.026898963376879692, -0.030254939571022987, -0.09206398576498032, -0.026010071858763695, -0.07179051637649536, 0.003900042036548257, -0.011849677190184593, -0.013401162810623646, 0.020783400163054466, 0.04060781002044678, 0.024225907400250435], [0.039662230759859085, 0.03231080248951912, -0.033674150705337524, -0.016251524910330772, -0.02275502309203148, -0.10046368837356567, -0.07097187638282776, 0.029916852712631226, 0.03499723598361015, 0.011236161924898624, 0.01918397843837738, 0.12672962248325348, 0.06128556281328201], [-0.0068207657895982265, -0.046458899974823, 0.03801446408033371, -0.0009829045739024878, 0.04403923824429512, -0.010079972445964813, 0.03766026720404625, 0.034080859273672104, 0.022486431524157524, 0.01217071246355772, 0.025420915335416794, -0.021829424425959587, -0.0014013383770361543], [0.004764948971569538, -0.01793195679783821, 0.018726246431469917, -0.01518748514354229, -0.052162278443574905, 0.013336497358977795, -0.03471091762185097, 0.04832009598612785, -0.0008153885137289762, 0.0549621544778347, 0.03910421207547188, -0.0070286039263010025, 0.016600772738456726], [-0.004854593891650438, -0.04278624802827835, -0.014041216112673283, -0.031135791912674904, -0.07028479129076004, -0.015043356455862522, -0.0225539430975914, -0.016337944194674492, 0.00763922231271863, 0.0732046514749527, 0.0067374492064118385, 0.032161518931388855, -0.066277876496315], [0.00765401404350996, -0.042118530720472336, -0.015488388016819954, -0.004589289426803589, -0.029093755409121513, -0.07406875491142273, -0.08327504247426987, -0.026753563433885574, -0.005575256887823343, 0.06763817369937897, -0.008212458342313766, 0.03614680841565132, 0.020807787775993347], [0.02102026343345642, -0.04212301969528198, 0.007315219379961491, -0.005310416221618652, 0.03842627629637718, -0.0012332297628745437, 0.015399571508169174, 0.045550450682640076, 0.016578329727053642, 0.015450374223291874, -0.03331949934363365, 0.04328124597668648, 0.035145316272974014], [-0.038609012961387634, -0.016411451622843742, -0.04275308549404144, -0.008149088360369205, 0.031561944633722305, -0.020838459953665733, -0.0035887339618057013, 0.053383853286504745, 0.012032927013933659, 0.0007135053165256977, -0.04352053999900818, -0.057612452656030655, -0.03986480459570885], [0.0018654759041965008, -0.0548616461455822, -0.058883242309093475, -0.1269368827342987, -0.12762634456157684, -0.11664282530546188, -0.08543188124895096, 0.008597563952207565, -0.03943457081913948, -0.017794551327824593, -0.025356076657772064, 0.005297916010022163, -0.022402765229344368], [-0.06091044843196869, 0.002314306329935789, -0.026842178776860237, 0.02216893993318081, -0.011288191191852093, -0.05549531430006027, -0.020816132426261902, -0.029911315068602562, -0.027292879298329353, 0.03455495834350586, 0.08464128524065018, -0.01123129017651081, 0.05805159732699394], [-0.020390687510371208, 0.058313991874456406, -0.0019418119918555021, 0.00043571798596531153, -0.00675618089735508, 0.010878536850214005, -0.005787373520433903, 0.00991945993155241, 0.00034187512937933207, 0.02037440799176693, -0.003376516979187727, -0.022544944658875465, -0.013237990438938141], [0.03598947823047638, -0.04650646448135376, 0.017530295997858047, -0.03935065492987633, 0.03089471161365509, -0.0201200433075428, 0.018807314336299896, 0.011586707085371017, 0.03552628308534622, 0.017506226897239685, -0.03743455186486244, -0.007980654016137123, 0.011617730371654034], [-0.03080364689230919, -0.012494038790464401, -0.007765746675431728, 0.003866090439260006, 0.024494757875800133, 0.032692037522792816, 0.010499316267669201, -0.022546518594026566, 0.015035737305879593, -0.012328719720244408, -0.03689567744731903, 0.0029782294295728207, -0.015926435589790344], [0.05402806028723717, 0.0031483443453907967, 0.06413035839796066, -0.052251096814870834, -0.019146094098687172, 0.0016483657527714968, -0.020792599767446518, 0.019604742527008057, 0.04299282655119896, 0.1167563796043396, 0.12968313694000244, 0.11760237067937851, 0.16735270619392395], [0.03687204420566559, -0.048069633543491364, -0.025437006726861, -0.10895642638206482, -0.14606404304504395, -0.1305621862411499, -0.07987909018993378, -0.03149257227778435, 0.11682379245758057, 0.13407282531261444, 0.16812731325626373, 0.24432501196861267, 0.18926917016506195], [0.03460387885570526, -0.010583015158772469, 0.033922046422958374, -0.03215397894382477, 0.0007459157495759428, -0.006919182371348143, 0.007166649214923382, -0.03833502158522606, -0.006059935316443443, 0.006096702069044113, 0.008690111339092255, -0.03611963987350464, 0.02844485454261303], [-0.018009478226304054, 0.033154696226119995, 0.06592042744159698, 0.0239910576492548, 0.035547833889722824, -0.039741117507219315, 0.0022743293084204197, -0.05365066975355148, -0.01908821053802967, 0.031214039772748947, 0.005355932749807835, 0.07725509256124496, 0.10290401428937912], [0.0037652291357517242, 0.012097189202904701, 0.024960724636912346, 0.05366852879524231, 0.008615448139607906, 0.005554657895117998, -0.004796280059963465, -0.04981094226241112, 0.012371392920613289, -0.04372810944914818, -0.06111567094922066, -0.1040865033864975, -0.05758180841803551], [0.012403201311826706, -0.022829951718449593, 0.03291447088122368, 0.03645828738808632, -0.04215262830257416, 0.0030943448655307293, -0.006234573666006327, 0.01311274990439415, 0.03284747526049614, 0.018033800646662712, 0.06103644520044327, 0.029417501762509346, -0.023424435406923294], [0.006348556838929653, -0.02474459819495678, 0.01670701801776886, -0.05209386721253395, -0.06490540504455566, -0.0611918643116951, -0.06130237877368927, -0.021533401682972908, 0.057660650461912155, 0.05482914298772812, 0.08473017811775208, 0.001111827907152474, 0.0031613484025001526], [-0.017179761081933975, 0.015457522124052048, -0.011232479475438595, 0.0233108289539814, -0.014316199347376823, 0.021660055965185165, 0.03672037646174431, -0.008725829422473907, 0.012402943335473537, -0.053613774478435516, -0.017028283327817917, -0.016386548057198524, -0.007660726085305214], [-0.011051111854612827, 