{"version": 1, "arch": "direct", "config": {"nblocks": 4, "kernel_size": 13, "dilation_growth": 10, "channel_width": 32, "causal": true, "nparams": 0, "sample_rate": 48000, "receptive_field": 13333}, "gen": [{"in_features": 0, "out_features": 16, "weight": [[], [], [], [], [], [], [], [], [], [], [], [], [], [], [], []], "bias": [0.0, 0.0, 0.0, 0.0, 0.0, 0.0, 0.0, 0.0, 0.0, 0.0, 0.0, 0.0, 0.0, 0.0, 0.0, 0.0]}, {"in_features": 16, "out_features": 32, "weight": [[0.19272145628929138, 0.03695222735404968, -0.11670997738838196, 0.0637245774269104, -0.11518415808677673, -0.02931821346282959, -0.10153958201408386, 0.16584274172782898, -0.19734254479408264, -0.11525258421897888, -0.0705936849117279, -0.15031811594963074, 0.02359578013420105, -0.24691978096961975, 0.225777268409729, -0.21236705780029297], [0.19300684332847595, 0.04160478711128235, -0.08117613196372986, 0.1544874906539917, 0.03896269202232361, 0.20199084281921387, 0.02732992172241211, -0.07884329557418823, 0.06717091798782349, -0.06779485940933228, 0.10521438717842102, 0.2232055366039276, 0.14451488852500916, -0.109293133020401, 0.144316166639328, 0.04473155736923218], [0.12695875763893127, -0.15237626433372498, -0.24747711420059204, -0.09659013152122498, -0.19175571203231812, 0.20513471961021423, 0.07200783491134644, 0.10355338454246521, 0.07906529307365417, -0.0043489933013916016, 0.1956520676612854, -0.17762839794158936, 0.015740931034088135, -0.17063504457473755, 0.07708799839019775, -0.08609557151794434], [0.07660406827926636, -0.05208536982536316, 0.20734795928001404, -0.14817547798156738, -0.14909949898719788, -0.14910849928855896, 0.22486069798469543, 0.08331277966499329, 0.24056267738342285, -0.20631906390190125, -0.24796903133392334, -0.19559094309806824, -0.16817227005958557, 0.10126003623008728, 0.0895189642906189, 0.20773109793663025], [-0.129106342792511, -0.17042794823646545, 0.13264453411102295, -0.10105112195014954, 0.1517309546470642, -0.05932515859603882, 0.14301148056983948, -0.19424200057983398, -0.12616243958473206, 0.0762191116809845, 0.05285188555717468, -0.06373968720436096, 0.1490173637866974, 0.16995230317115784, -0.1812933385372162, -0.13346704840660095], [0.2289154827594757, -0.08435812592506409, -0.0886290967464447, -0.24189865589141846, -0.14316755533218384, 0.062450915575027466, -0.03299829363822937, -0.18147149682044983, 0.005864173173904419, -0.17077037692070007, -0.21209916472434998, -0.13766565918922424, -0.2188030183315277, -0.1591845154762268, 0.24990221858024597, 0.04721873998641968], [0.0770399272441864, -0.23317107558250427, -0.16419345140457153, -0.08321395516395569, 0.0390927791595459, -0.21998032927513123, -0.10771825909614563, -0.1496671438217163, 0.0006928145885467529, -0.093025803565979, -0.017323940992355347, -0.1694074273109436, -0.17159879207611084, -0.14585044980049133, -0.08557435870170593, -0.19732022285461426], [0.2096174657344818, -0.0496160089969635, 0.21509918570518494, 0.07789552211761475, -0.2116992473602295, 0.17300879955291748, -0.06878620386123657, -0.09583151340484619, -0.2075176239013672, -0.24854016304016113, 0.07152765989303589, -0.0546109676361084, 0.09733077883720398, -0.20516586303710938, 0.18560728430747986, -0.18351343274116516], [-0.043168336153030396, 0.05221742391586304, 0.1290629506111145, 0.20182758569717407, 0.22773981094360352, -0.1982305347919464, 0.0629168152809143, -0.10753148794174194, -0.027396202087402344, -0.18712252378463745, 0.2277146577835083, -0.18348762392997742, 0.13361281156539917, 0.08785989880561829, 0.08123898506164551, -0.13516154885292053], [0.22723788022994995, 0.05493760108947754, 0.032160013914108276, -0.22031369805335999, 0.10494711995124817, -0.037505149841308594, -0.11453106999397278, 0.21473664045333862, 0.055737197399139404, -0.13831910490989685, -0.12653473019599915, -0.011938929557800293, 0.139590322971344, -0.0638834536075592, -0.14264371991157532, -0.08561071753501892], [-0.18676871061325073, 0.08915811777114868, 0.1935100555419922, -0.23536008596420288, 0.05806267261505127, 0.1291479468345642, 0.04533234238624573, -0.0890311598777771, 0.13048553466796875, 0.13137829303741455, 0.09348180890083313, -0.04393035173416138, -0.06620031595230103, 0.026745229959487915, -0.044163525104522705, -0.07450026273727417], [0.15980172157287598, 0.21484988927841187, -0.024749338626861572, -0.055974215269088745, 0.0036480724811553955, -0.014927059412002563, 0.06010282039642334, 0.07005840539932251, -0.22706419229507446, -0.09225943684577942, 0.21053236722946167, 0.09738874435424805, -0.012434393167495728, -0.15072643756866455, -0.15295127034187317, -0.22394171357154846], [-0.08149060606956482, 0.08442604541778564, 0.1594054102897644, 0.11542433500289917, -0.220986008644104, -0.15034061670303345, -0.03945416212081909, 0.24183738231658936, 0.03616437315940857, -0.06474268436431885, 0.10342881083488464, -0.09522038698196411, -0.1618139147758484, 0.18247181177139282, -0.11367544531822205, -0.05011668801307678], [-0.2487010657787323, 0.16731765866279602, 0.18940865993499756, 0.09111204743385315, -0.17431855201721191, -0.24673497676849365, -0.20304474234580994, 0.18642506003379822, 0.12002643942832947, 0.21037611365318298, 0.13096746802330017, 0.06327304244041443, -0.002448171377182007, -0.19012650847434998, -0.21419304609298706, -0.23383715748786926], [0.10234048962593079, -0.12274199724197388, -0.05031314492225647, -0.143876314163208, -0.04555588960647583, -0.17595872282981873, -0.16335391998291016, 0.08292770385742188, -0.07429909706115723, 0.15433579683303833, -0.08020219206809998, -0.18339180946350098, -0.044109731912612915, -0.12118685245513916, -0.07648539543151855, -0.23799890279769897], [0.1398727297782898, -0.17405113577842712, 0.1256544291973114, 0.11344605684280396, 0.17860817909240723, -0.1917630136013031, 0.17979919910430908, -0.11818790435791016, 0.09276729822158813, 0.23477867245674133, -0.035257965326309204, -0.001933366060256958, -0.057557642459869385, -0.20874613523483276, 0.11997571587562561, -0.24817946553230286], [0.15519997477531433, 0.1870562732219696, 0.23642659187316895, -0.0589698851108551, -0.20541048049926758, 0.0562075674533844, 0.1381068229675293, -0.24882718920707703, -0.05674591660499573, -0.14986386895179749, -0.021865934133529663, -0.12305337190628052, -0.10219189524650574, -0.07936471700668335, -0.23757600784301758, 0.20512688159942627], [0.20958280563354492, -0.0392172634601593, -0.028470516204833984, -0.10202997922897339, -0.22576570510864258, -0.2432861030101776, 0.09291461110115051, -0.1372615396976471, -0.16071924567222595, -0.019505798816680908, -0.08325278759002686, -0.08088019490242004, 0.008032798767089844, -0.053028106689453125, -0.08607810735702515, -0.11970147490501404], [-0.203456848859787, 0.20962679386138916, -0.1000467836856842, 0.06624487042427063, -0.08674147725105286, 0.020315319299697876, 0.2330751121044159, 0.11518067121505737, -0.21664991974830627, 0.09922569990158081, 0.23731070756912231, 0.06577083468437195, 0.1676061749458313, 0.24647188186645508, -0.038307249546051025, 0.051888614892959595], [-0.17375877499580383, -0.05151927471160889, 0.18514594435691833, 0.1281614601612091, -0.15819725394248962, -0.20047125220298767, -0.17084091901779175, -0.24671941995620728, -0.19290974736213684, -0.06182435154914856, 0.16871929168701172, 0.04184556007385254, -0.1901513636112213, -0.2005559802055359, 0.124368816614151, -0.1859603226184845], [-0.030781865119934082, 0.11992651224136353, -0.11570301651954651, -0.02725997567176819, -0.02176111936569214, -0.059145838022232056, -0.12675803899765015, -0.22285959124565125, -0.20208925008773804, -0.13386541604995728, 0.2414594292640686, -0.12075367569923401, -0.16788199543952942, 0.060598552227020264, 0.06890258193016052, 0.1369774341583252], [0.19003009796142578, 0.1392185389995575, -0.24787524342536926, 0.022172152996063232, 0.15143826603889465, -0.023106366395950317, -0.14731979370117188, 0.23833495378494263, -0.09350696206092834, -0.14233613014221191, -0.225388765335083, 0.011167079210281372, 0.11078327894210815, 0.055340707302093506, 0.04943743348121643, -0.18959686160087585], [-0.2334718108177185, 0.004402339458465576, 0.2279585301876068, 0.14423033595085144, -0.14555856585502625, -0.032452136278152466, -0.1842958927154541, -0.12060585618019104, 0.045274585485458374, 0.13613462448120117, 0.2070923149585724, -0.22952651977539062, 0.16715380549430847, -0.1763230264186859, 0.09361681342124939, 0.21156132221221924], [0.003510594367980957, 0.22745224833488464, -0.21301287412643433, -0.09548979997634888, 0.1458132266998291, -0.054466962814331055, -0.051175057888031006, -0.1041979193687439, 0.17232653498649597, 0.12262579798698425, 0.0801125168800354, -0.14049091935157776, -0.20293739438056946, 0.027040153741836548, 0.07406970858573914, -0.11542797088623047], [-0.06994941830635071, 0.16884192824363708, 0.01991492509841919, 0.011279582977294922, -0.0615251362323761, -0.22639742493629456, -0.23506435751914978, -0.11950376629829407, -0.12708035111427307, 0.07788839936256409, -0.07277768850326538, -0.09780552983283997, 0.23835745453834534, 0.08708071708679199, 0.178225576877594, -0.12102818489074707], [-0.10211670398712158, 0.09188511967658997, -0.166568785905838, -0.163426011800766, -0.012074917554855347, -0.09144017100334167, -0.1874144971370697, 0.1482897400856018, 0.20104071497917175, 0.04055583477020264, -0.04352831840515137, -0.23156824707984924, -0.09105968475341797, 0.06364640593528748, 0.11788272857666016, -0.031604379415512085], [-0.098838210105896, 0.13930651545524597, -0.19909992814064026, 0.158004492521286, -0.09698870778083801, 0.003826349973678589, -0.04940396547317505, 0.030309736728668213, -0.07554960250854492, 0.18178173899650574, -0.006499290466308594, 0.19514986872673035, 0.24037012457847595, -0.12179774045944214, -0.18237727880477905, 0.20057550072669983], [0.195903480052948, -0.19088682532310486, -0.019325822591781616, -0.24653157591819763, -0.20464977622032166, 0.04828563332557678, 0.06650865077972412, 0.052995264530181885, -0.06804117560386658, 0.23064443469047546, 0.03574448823928833, -0.14752119779586792, -0.014153450727462769, 0.060036301612854004, 0.087548166513443, -0.17677021026611328], [0.09369739890098572, -0.1277204155921936, -0.2077350914478302, -0.1365518569946289, 0.24110233783721924, 0.21371445059776306, 0.223871111869812, 0.14675280451774597, 0.1888623833656311, -0.03346243500709534, -0.13755697011947632, 0.12491413950920105, -0.1295456886291504, -0.1687164604663849, -0.0798335075378418, 0.052464812994003296], [0.1286991536617279, -0.09710225462913513, -0.14714157581329346, 0.033723264932632446, -0.14735829830169678, -0.16276535391807556, 0.130312979221344, -0.041996151208877563, 0.22844624519348145, 0.24319565296173096, 0.07477638125419617, 0.08603942394256592, 0.0575709342956543, 0.003915220499038696, -0.018183112144470215, 0.0034360289573669434], [0.093356192111969, 0.232442706823349, -0.0647897720336914, -0.10567894577980042, -0.06054121255874634, -0.1207810640335083, 0.04250967502593994, 0.1866120994091034, 0.19549435377120972, 0.11478137969970703, -0.18398287892341614, -0.13417619466781616, -0.05492785573005676, -0.04608103632926941, 0.020561933517456055, -0.22949287295341492], [0.07781118154525757, -0.19071802496910095, -0.1581861674785614, -0.20784562826156616, 0.21782991290092468, -0.23673495650291443, 0.18859168887138367, -0.00840422511100769, -0.02907469868659973, 0.1563696265220642, -0.023106902837753296, 0.15678852796554565, 0.18075373768806458, -0.21705251932144165, 0.0961959958076477, 0.04719474911689758]], "bias": [0.3220130503177643, 0.49487993121147156, 0.5219604969024658, -0.12026670575141907, -0.03198528289794922, 0.6425805687904358, 0.547561764717102, -0.009392112493515015, -0.23513272404670715, 0.5218273997306824, -0.17024338245391846, 0.6369608640670776, -0.15177184343338013, -0.018050402402877808, -0.055485665798187256, 0.4881013035774231, 0.684934675693512, 0.4279484152793884, 0.6564670205116272, 0.6509174704551697, 0.5575100779533386, -0.0863378643989563, -0.05591416358947754, 0.6156958937644958, -0.06821691989898682, 0.5888208150863647, -0.05461692810058594, -0.16956308484077454, 0.5391989946365356, 0.46488165855407715, 0.546367347240448, 0.7838336229324341]}, {"in_features": 32, "out_features": 32, "weight": [[0.10455279052257538, 0.15143851935863495, -0.006681147031486034, -0.15206553041934967, -0.12401366233825684, -0.1259525716304779, -0.17192699015140533, -0.08860887587070465, -0.16273492574691772, -0.17923952639102936, -0.10563372075557709, -0.1904158890247345, -0.10850773751735687, 0.06740648299455643, 0.1474410891532898, -0.06872696429491043, -0.06756430864334106, 0.0782487764954567, -0.10336003452539444, -0.09972935914993286, 0.09277436882257462, -0.1540258228778839, 0.021615326404571533, 0.14001797139644623, 0.030314816161990166, 0.031930096447467804, -0.10295318067073822, -0.0024389117024838924, -0.006422949489206076, 0.027244746685028076, 0.052542950958013535, 0.13746215403079987], [0.23041760921478271, 0.44278690218925476, 0.34111925959587097, -0.13984166085720062, -0.014155861921608448, 0.22940592467784882, 0.508567214012146, 0.020473357290029526, -0.09527522325515747, 0.5599150657653809, -0.16730640828609467, 0.31876441836357117, -0.034439411014318466, -0.15021604299545288, -0.11241023987531662, 0.3998914957046509, 0.5219569206237793, 0.6070547103881836, 0.519058346748352, 0.2868063151836395, 0.2630515396595001, 0.15427181124687195, 0.06252899765968323, 0.41885289549827576, 0.023923562839627266, 0.26452741026878357, -0.059023160487413406, 0.1701684445142746, 0.3683818578720093, 0.4468863904476166, 0.2512563467025757, 0.2961910665035248], [0.41033515334129333, 0.5032612085342407, 0.5635238289833069, 0.07194089889526367, -0.17291894555091858, 0.5561307668685913, 0.380346417427063, -0.08627605438232422, 0.06786628812551498, 0.8204295039176941, -0.048314597457647324, 0.4368956685066223, -0.15984782576560974, -0.0911562591791153, -0.1547922044992447, 0.5593776106834412, 0.5522269606590271, 0.4638664722442627, 0.703755795955658, 0.6357693672180176, 0.32081955671310425, -0.0844343826174736, 0.05765663459897041, 0.5268421173095703, -0.019264502450823784, 0.47059059143066406, 0.14199049770832062, -0.0988178551197052, 0.6973909139633179, 0.6504549384117126, 0.567050576210022, 0.6659538149833679], [0.26967328786849976, 0.2905699610710144, 0.35015976428985596, 0.14337533712387085, -0.13116607069969177, 0.3751627504825592, 0.1568792462348938, 0.09268439561128616, 0.06531328707933426, 0.44467830657958984, 0.07587134093046188, 0.3383882939815521, 0.09781988710165024, -0.1399400532245636, -0.025960097089409828, 0.46276870369911194, 0.5173731446266174, 0.47371816635131836, 0.23148098587989807, 0.481312096118927, 0.2895021140575409, -0.03774437680840492, -0.160674050450325, 0.34171220660209656, 0.12503889203071594, 0.3820820748806, -0.10296428203582764, 0.05441400408744812, 0.3003397583961487, 0.574746310710907, 0.19047249853610992, 0.29258981347084045], [0.14267130196094513, 0.3191329836845398, 0.4251408576965332, 0.17016783356666565, 0.0296889990568161, 0.4961113929748535, 0.3610951006412506, 0.10209490358829498, 0.14171519875526428, 0.5668007731437683, -0.09894610941410065, 0.4901290535926819, 0.1070852130651474, -0.08265706896781921, -0.08435843139886856, 0.23332525789737701, 0.37249109148979187, 0.25352728366851807, 0.4227234125137329, 0.3899717330932617, 0.16730526089668274, 0.04817180335521698, -0.014377343468368053, 0.43631047010421753, 0.10143262892961502, 0.175294429063797, 0.1621217131614685, 0.14825235307216644, 0.42035973072052, 0.2335667610168457, 0.2812744975090027, 0.28229400515556335], [0.2535407841205597, 0.4532425105571747, 0.4105355739593506, 0.14003880321979523, -0.06620696932077408, 0.37418559193611145, 0.3788779377937317, -0.1471826583147049, -0.17147690057754517, 0.2863290309906006, 0.12101206928491592, 0.15040338039398193, -0.15387241542339325, 0.09903040528297424, 0.0953761488199234, 0.49294787645339966, 0.18318293988704681, 0.22691971063613892, 0.42134058475494385, 0.4740847647190094, 0.41467148065567017, 0.027692439034581184, 0.05826112627983093, 0.5039569735527039, -0.11405708640813828, 0.25070589780807495, 0.12364945560693741, -0.1209576204419136, 0.23779261112213135, 0.49227017164230347, 0.381509393453598, 0.37872210144996643], [-0.07492510229349136, -0.0024396071676164865, 0.1617918163537979, -0.10610491782426834, 0.001389855518937111, 0.08407491445541382, -0.12203889340162277, 0.17168143391609192, -0.08831950277090073, -0.04245045408606529, -0.04783051833510399, -0.11519810557365417, -0.17346471548080444, 0.09967581927776337, 0.046964991837739944, -0.16556918621063232, -0.11377821862697601, 0.17472043633460999, 0.06757024675607681, 0.07093069702386856, -0.10576515644788742, -0.07749821245670319, -0.026685170829296112, -0.032328907400369644, -0.12113594263792038, 0.01456373743712902, 0.01756948232650757, -0.022383643314242363, 0.02450687438249588, -0.07006555050611496, 0.0460064671933651, 0.06666963547468185], [0.18038803339004517, 0.15649192035198212, 0.4183664619922638, 0.04216773062944412, -0.08990649878978729, 0.4633612632751465, 0.21258500218391418, 0.11945628374814987, 0.08968385308980942, 0.20503592491149902, 0.11401059478521347, 0.1319015622138977, -0.09793688356876373, -0.02947130985558033, -0.11915571242570877, 0.4979706108570099, 0.2604159712791443, 0.40717554092407227, 0.15092815458774567, 0.4003336429595947, 0.23269471526145935, -0.1344689428806305, 0.025848809629678726, 0.3996118903160095, 0.15298204123973846, 0.2020501345396042, -0.08699256926774979, 0.03398759663105011, 0.3613249361515045, 0.41612038016319275, 0.40039244294166565, 0.26097580790519714], [0.09821176528930664, 0.1303359717130661, -0.046177878975868225, 0.12576906383037567, 0.08636946976184845, 0.15592637658119202, -0.1004575788974762, -0.08729391545057297, -0.05111302062869072, 0.00896722637116909, 0.10610119253396988, -0.10091520845890045, 0.08850395679473877, -0.06335347890853882, 0.10679244250059128, -0.008392870426177979, -0.15487174689769745, -0.09727064520120621, -0.12794248759746552, 0.08767461031675339, -0.1185372918844223, -0.014728722162544727, 0.03814059868454933, -0.09694340080022812, 0.05099477618932724, -0.1726088970899582, -0.126485213637352, -0.16018149256706238, -0.05347094684839249, -0.06439928710460663, 0.025313248857855797, -0.03268856927752495], [0.03389906510710716, 0.10927379876375198, 0.0105851786211133, -0.0696442723274231, -0.16553115844726562, 0.012641627341508865, -0.1393255740404129, 0.08995747566223145, 0.1181725561618805, 0.015226844698190689, 0.16587147116661072, 0.11674822866916656, 0.03743067756295204, -0.1288059949874878, 0.1579395979642868, -0.1364375799894333, -0.13466782867908478, 0.09481316059827805, 0.08495355397462845, 0.0019671497866511345, -0.03942546993494034, -0.14869852364063263, -0.01835014671087265, 0.11742575466632843, 0.04501774534583092, -0.03708774968981743, -0.036707859486341476, -0.06165658310055733, 0.052612315863370895, -0.04214206710457802, 0.06265230476856232, -0.08299623429775238], [0.42124325037002563, 0.4939490854740143, 0.43630069494247437, 0.11108170449733734, 0.1107763946056366, 0.5236621499061584, 0.5000966787338257, -0.04520120844244957, -0.14966271817684174, 0.4723357856273651, -0.0015429540071636438, 0.31705132126808167, -0.029602091759443283, 0.00831430871039629, 0.1289815604686737, 0.46764451265335083, 0.30059516429901123, 0.3649102747440338, 0.33965757489204407, 0.3008808195590973, 0.5146488547325134, 0.09362895041704178, 0.15962505340576172, 0.39078208804130554, 0.03565071150660515, 0.44825148582458496, -0.16732852160930634, 0.01578555442392826, 0.3810051381587982, 0.3338639438152313, 0.24706168472766876, 0.5263857841491699], [0.14373111724853516, 0.08193045854568481, 0.16868911683559418, -0.0717373713850975, -0.03053334727883339, 0.06693094223737717, -0.02920820750296116, -0.03468974307179451, -0.14611679315567017, 0.04749304801225662, -0.10683096200227737, 0.0064287008717656136, 0.17235295474529266, -0.054414574056863785, -0.0557185560464859, 0.10665164887905121, -0.0649925246834755, -0.015181126073002815, 0.16506320238113403, -0.07247380167245865, -0.12646785378456116, -0.09893196821212769, -0.049010567367076874, -0.08388032019138336, -0.09173503518104553, 0.0714079737663269, 0.030041029676795006, -0.05657942593097687, -0.13733983039855957, -0.055659886449575424, -0.07460668683052063, -0.05752648413181305], [-0.15947431325912476, 0.03808283805847168, -0.12988200783729553, -0.1376735419034958, -0.1444324254989624, 0.07378370314836502, -0.10642428696155548, -0.07296472787857056, 0.13856476545333862, 0.09386210143566132, 0.1013621985912323, -0.16785062849521637, -0.12676653265953064, -0.0667351484298706, 0.14603480696678162, 0.01808432675898075, -0.13221079111099243, 0.0011069448664784431, -0.13729730248451233, -0.0387316457927227, -0.048609182238578796, 0.15302880108356476, 0.05475423485040665, -0.030824750661849976, 0.0298626646399498, -0.05102933943271637, 0.06945562362670898, 0.06992647051811218, 0.047472693026065826, -0.06890347599983215, 0.1508171558380127, -0.02552124485373497], [-0.06882211565971375, 0.11071772873401642, 0.14408302307128906, 0.17592105269432068, 0.052371568977832794, -0.06026209145784378, 0.08978346735239029, 0.15166635811328888, -0.17338861525058746, -0.021900324150919914, -0.12055560201406479, 0.03294406086206436, 0.07311215996742249, -0.03651992604136467, -0.014788633212447166, 0.07956909388303757, -0.029710808768868446, -0.14845344424247742, 0.14144538342952728, -0.08897427469491959, -0.019420424476265907, 0.01667470484972, -0.010623724199831486, -0.16629135608673096, 0.08110513538122177, -0.0802975445985794, -0.0916869267821312, 0.04223468154668808, -0.09225304424762726, -0.08169905096292496, -0.059564895927906036, -0.06641104072332382], [-0.0738285705447197, -0.04767417535185814, 0.04593997821211815, -0.14305086433887482, -0.10699944943189621, 0.0025794291868805885, 0.024584002792835236, 0.09763243794441223, -0.12417571991682053, 0.056426580995321274, 0.10047806054353714, 0.09815705567598343, -0.16465361416339874, -0.06745872646570206, -0.1519511640071869, -0.1118663102388382, 0.0984615907073021, -0.0263961274176836, 0.0750790685415268, -0.10376903414726257, 0.026862967759370804, -0.10692477971315384, 0.08836925029754639, -0.07731841504573822, -0.044328369200229645, -0.1533769965171814, 0.0005839867517352104, 0.1678459644317627, 0.0858035460114479, -0.09431760758161545, 0.0023774194996804, -0.019383292645215988], [0.22091522812843323, 0.5869928002357483, 0.4441245198249817, 0.037228647619485855, -0.07138755172491074, 0.3075857162475586, 0.4223495125770569, 0.06535627692937851, 0.03965066000819206, 0.39260390400886536, 0.1716320961713791, 0.36508384346961975, -0.10826071351766586, -0.08268069475889206, 0.1740226447582245, 0.43786942958831787, 0.36788004636764526, 0.38175153732299805, 0.36746951937675476, 0.24872006475925446, 0.2405467927455902, 0.10346553474664688, 0.15122352540493011, 0.5886989831924438, -0.1276225745677948, 0.5102819204330444, -0.10941886156797409, 0.10545794665813446, 0.5520697832107544, 0.6035420298576355, 0.5357329249382019, 0.5118756890296936], [0.0034407211933285, 0.08122578263282776, -0.06324555724859238, 0.07697472721338272, -0.05681637302041054, -0.0029683182947337627, -0.15386269986629486, -0.046222615987062454, -0.09296207875013351, -0.05963045731186867, -0.11288721114397049, -0.15900076925754547, 0.01151108369231224, 0.11472439765930176, 0.16099926829338074, 0.10315877199172974, -0.09162996709346771, -0.17483386397361755, 0.06705384701490402, 0.09905044734477997, -0.151764914393425, 0.06338965892791748, 0.14946067333221436, 0.010708523914217949, -0.10650067776441574, 0.1449350267648697, 0.07548645883798599, 0.11706173419952393, -0.11955151706933975, 0.10287440568208694, -0.12075150012969971, 0.17491953074932098], [0.23543889820575714, 0.4653817415237427, 0.3873741626739502, 0.04684767499566078, -0.02710958942770958, 0.38503044843673706, 0.2427310198545456, -0.16662605106830597, -0.06791815161705017, 0.5164788961410522, -0.04653993993997574, 0.3697611093521118, -0.06535901129245758, 0.13260890543460846, 0.1057991236448288, 0.4136732220649719, 0.22360780835151672, 0.2251855880022049, 0.3371460735797882, 0.21462790668010712, 0.4524109363555908, -0.16987811028957367, 0.07899589836597443, 0.5118725895881653, 0.08853478729724884, 0.39309701323509216, -0.1700851023197174, 0.1700402945280075, 0.30869022011756897, 0.2079998105764389, 0.5024446249008179, 0.2482910305261612], [-0.01250652875751257, 0.1618000864982605, -0.12254172563552856, -0.12506774067878723, 0.0287469532340765, -0.023662252351641655, 0.040719058364629745, -0.14826354384422302, 0.00528679508715868, -0.07862315326929092, -0.08690498769283295, -0.1618632674217224, 0.09373024851083755, 0.03405364230275154, -0.14945466816425323, 0.14028148353099823, 0.0533195361495018, 0.0328032486140728, -0.10379202663898468, 0.02665872499346733, 0.1703314483165741, 0.12124838680028915, -0.1376861035823822, 0.16136550903320312, 0.013701919466257095, 0.0850234255194664, 0.13729827105998993, 0.15070374310016632, -0.1378035843372345, 0.15479695796966553, -0.12006229162216187, 0.013252254575490952], [-0.12352512031793594, -0.03875533491373062, -0.008033210411667824, -0.021148739382624626, -0.027926459908485413, 0.013942472636699677, 0.17437583208084106, 0.10270930081605911, 0.09890124201774597, 0.07075442373752594, 0.13685718178749084, -0.008158070035278797, 0.014055910520255566, 0.03638012707233429, -0.15417234599590302, -0.14240367710590363, 0.021673068404197693, -0.06916392594575882, -0.003243810962885618, -0.04056296870112419, 0.027517549693584442, 0.11501366645097733, -0.058626558631658554, 0.1415734887123108, 0.13957610726356506, -0.13567578792572021, -0.13651159405708313, -0.14302557706832886, -0.09687720239162445, -0.0688149705529213, -0.013305886648595333, -0.04299071058630943], [-0.08931616693735123, -0.0561608225107193, -0.06394799798727036, 0.17342469096183777, -0.06551853567361832, -0.12657226622104645, 0.07348564267158508, -0.010210895910859108, 0.1353338658809662, 0.11045584827661514, 0.16240984201431274, -0.12946408987045288, 0.11364326626062393, 0.14835785329341888, -0.08729790151119232, 0.16248957812786102, 0.1325194090604782, 0.001935910084284842, 0.08523331582546234, -0.061804939061403275, -0.15418176352977753, 0.04468562453985214, 0.05270159989595413, -0.1155339926481247, 0.08573663234710693, -0.15100665390491486, 0.15213827788829803, 0.1711888462305069, 0.04812894016504288, -0.11091478168964386, 0.08603212982416153, 0.030125534161925316], [0.3094229996204376, 0.4068533778190613, 0.46625232696533203, -0.07598496973514557, -0.039765045046806335, 0.34502503275871277, 0.3147667646408081, 0.14254876971244812, -0.09284992516040802, 0.3812136650085449, 0.03303128480911255, 0.25452521443367004, 0.12051162123680115, 0.01933610998094082, -0.16338232159614563, 0.3245430886745453, 0.2219705581665039, 0.36086490750312805, 0.2984025180339813, 0.1315496265888214, 0.26091834902763367, -0.016931548714637756, -0.052127644419670105, 0.4866587519645691, -0.0385725200176239, 0.430846631526947, 0.043790724128484726, -0.14922305941581726, 0.35950279235839844, 0.4931783974170685, 0.1973300278186798, 0.1926404982805252], [0.17303769290447235, 0.14204183220863342, -0.09862265735864639, 0.10637449473142624, -0.022615408524870872, -0.17428933084011078, 0.01328184176236391, 0.05711549147963524, -0.05302608758211136, 0.06149768829345703, -0.15116190910339355, 0.12250906229019165, 0.15070819854736328, 0.0974864587187767, 0.02996210940182209, 0.05822121351957321, -0.12790639698505402, -0.04417179152369499, -0.01687644049525261, -0.09837377816438675, -0.13057081401348114, 0.11890310794115067, 0.11996866017580032, -0.16054651141166687, 0.05625244975090027, 0.07191314548254013, 0.16793225705623627, 0.1022748053073883, 0.16251729428768158, -0.05787486955523491, 0.1238119900226593, 0.14379039406776428], [0.27216216921806335, 0.34885531663894653, 0.5101082921028137, 0.09652675688266754, -0.08782497048377991, 0.45286932587623596, 0.4382381737232208, 0.04474353790283203, -0.09499087929725647, 0.6163690686225891, 0.11755815893411636, 0.3168712854385376, 0.0017125107115134597, 0.0004904839443042874, 0.05676577612757683, 0.6466180682182312, 0.4878406822681427, 0.4516471028327942, 0.6130782961845398, 0.37463921308517456, 0.3800255358219147, 0.012069487012922764, -0.13461701571941376, 0.4788207411766052, -0.11993865668773651, 0.47490331530570984, 0.016936542466282845, 0.02446955442428589, 0.31132766604423523, 0.3221469521522522, 0.5357233881950378, 0.5918907523155212], [-0.15686675906181335, 0.06547706574201584, -0.1301291286945343, 0.011082366108894348, 0.16446556150913239, 0.13410618901252747, -0.1292484700679779, 0.1093490868806839, 0.09233350306749344, -0.00027115174452774227, 0.17124831676483154, -0.07021131366491318, -0.04113873839378357, -0.08934544026851654, 0.025437602773308754, 0.04680811986327171, 0.014085602946579456, -0.09946112334728241, -0.0795789361000061, 0.06013103574514389, -0.15500247478485107, -0.027530236169695854, -0.003915884532034397, -0.0716235339641571, 0.06433223187923431, 0.011393915861845016, 0.12410866469144821, -0.015699805691838264, -0.1115705668926239, 0.12490189075469971, 0.024686651304364204, -0.05062852054834366], [0.10333292186260223, 0.31641292572021484, 0.09251415729522705, 0.04655905440449715, 0.08740630000829697, 0.07237998396158218, 0.11362743377685547, -0.12708933651447296, 0.14858196675777435, 0.45614033937454224, 0.011066371574997902, 0.39746615290641785, -0.05909715220332146, -0.1716187447309494, 0.061747197061777115, 0.3330966830253601, 0.40490221977233887, 0.27873092889785767, 0.3821501135826111, 0.34459131956100464, 0.35193076729774475, -0.17542119324207306, 0.14556817710399628, 0.10165895521640778, 0.15848226845264435, 0.24080102145671844, -0.15666252374649048, 0.049160316586494446, 0.2121778428554535, 0.11973871290683746, 0.17869378626346588, 0.25373151898384094], [0.13768193125724792, -0.05434640124440193, 0.10499968379735947, 0.022137483581900597, 0.005958763416856527, 0.033825330436229706, -0.11601301282644272, -0.14693647623062134, -0.05554528906941414, -0.16473007202148438, -0.08243990689516068, 0.008132761344313622, -0.11642676591873169, -0.07332626730203629, -0.03176437318325043, -0.020365271717309952, -0.09758331626653671, 0.008494297042489052, -0.02481245994567871, 0.05055735632777214, 0.007984551601111889, -0.0882769301533699, -0.06086137518286705, -0.0020374839659780264, -0.11030605435371399, 0.013838959857821465, -0.012481451965868473, 0.06858556717634201, 0.04183698445558548, 0.13229677081108093, -0.005827518180012703, -0.13062120974063873], [0.07902076840400696, -0.11947238445281982, -0.024298373609781265, -0.05724077299237251, -0.06707693636417389, -0.06540453433990479, 0.16244372725486755, 0.1011970266699791, 0.04899143427610397, 0.16598564386367798, -0.16019892692565918, 0.02852601930499077, 0.11316826939582825, 0.11743097752332687, -0.14068838953971863, 0.06291297823190689, -0.10070719569921494, -0.006907341536134481, -0.036888036876916885, -0.14760226011276245, -0.16862984001636505, -0.1163010224699974, 0.08021605014801025, 0.08086393028497696, -0.15375395119190216, -0.0663871243596077, 0.0028875437565147877, -0.15283803641796112, 0.09960562735795975, 0.1601123809814453, 0.03126503899693489, -0.13134770095348358], [0.017370479181408882, 0.040311068296432495, 0.11611786484718323, -0.09405755996704102, -0.15837596356868744, 0.05380462855100632, -0.012856206856667995, -0.05759851261973381, -0.07407338172197342, -0.11501037329435349, 0.14310020208358765, -0.05436306819319725, 0.12749259173870087, 0.1577996462583542, 0.022393379360437393, 0.013795142993330956, -0.03590182587504387, 0.09755230695009232, -0.18315358459949493, 0.04643869772553444, -0.05266379565000534, 0.08071911334991455, -0.0007873663562349975, -0.08931664377450943, -0.019083039835095406, 0.07159611582756042, -0.12277669459581375, -0.11174039542675018, -0.0634591206908226, -0.08798255026340485, 0.0455830879509449, 0.09510266035795212], [-0.042491573840379715, 0.1406431943178177, -0.10038374364376068, -0.09919989854097366, -0.07914187759160995, -0.14260762929916382, -0.1467514932155609, -0.15751077234745026, -0.15667350590229034, 0.019228558987379074, 0.10780797153711319, 0.1454281359910965, 0.15057791769504547, -0.010181223973631859, 0.03430292010307312, -0.13026034832000732, 0.04829217866063118, -0.20168428122997284, 0.06124555692076683, 0.011534313671290874, 0.034773871302604675, 0.06472649425268173, -0.08115902543067932, 0.1294708549976349, 0.08436711877584457, 0.09303019940853119, 0.023348405957221985, 0.11101338267326355, 0.0924326479434967, 0.05185532942414284, 0.10992243885993958, -0.05333564803004265], [0.5486782193183899, 0.6114878058433533, 0.6450448632240295, 0.17218023538589478, 0.04002879932522774, 0.4038078188896179, 0.4505934715270996, 0.04976767301559448, 0.029806187376379967, 0.6027652621269226, 0.13850779831409454, 0.5828807353973389, -0.10980550199747086, -0.014404022134840488, -0.016969459131360054, 0.45094597339630127, 0.5054617524147034, 0.5166758298873901, 0.41965344548225403, 0.4320577383041382, 0.4001544415950775, 0.16911165416240692, 0.06780658662319183, 0.697489857673645, 0.04847138375043869, 0.5499003529548645, 0.07267176359891891, 0.030340630561113358, 0.3699831962585449, 0.47906598448753357, 0.4536750018596649, 0.4907238185405731], [0.06659433990716934, 0.06806755810976028, 0.14023931324481964, 0.035986918956041336, -0.060332685708999634, -0.13294072449207306, -0.12947313487529755, -0.10559534281492233, 0.05331647768616676, 0.09550751745700836, 0.15466415882110596, -0.05591654032468796, -0.013944664038717747, -0.05249621719121933, -0.0006459425785578787, 0.05674556642770767, -0.0038840428460389376, 0.008183843456208706, 0.022395338863134384, 0.06583487242460251, -0.05363428592681885, -0.10541152209043503, 0.04170596972107887, -0.020931346341967583, -0.08008478581905365, 0.07423967123031616, 0.0016032028943300247, -0.025714760646224022, -0.08557473123073578, -0.023257790133357048, -0.15031765401363373, 0.040214985609054565]], "bias": [-0.013491957448422909, 0.46072766184806824, 0.4725399613380432, 0.3256186842918396, 0.33188968896865845, 0.42302536964416504, -0.08353718370199203, 0.37716448307037354, 0.04323278367519379, -0.16691215336322784, 0.380545973777771, -0.10601890087127686, -0.055645912885665894, -0.08426394313573837, -0.12026368826627731, 0.49237895011901855, -0.1580066978931427, 0.367355614900589, -0.15910112857818604, -0.021514786407351494, 0.010543350130319595, 0.3948090970516205, -0.06397434324026108, 0.44220924377441406, 0.027383755892515182, 0.30249854922294617, 0.010509653948247433, 0.06619308143854141, -0.13065244257450104, -0.13998067378997803, 0.5772240161895752, -0.12881134450435638]}], "blocks": [{"conv1": {"in_channels": 1, "out_channels": 32, "kernel_size": 13, "dilation": 1, "groups": 1, "weight": [[[-0.14093127846717834, 0.08924076706171036, 0.3158625364303589, -0.10895872861146927, -0.19704262912273407, 0.09842132776975632, -0.028706412762403488, 0.0319962352514267, 0.3213270902633667, -0.046691909432411194, 0.20782354474067688, -0.2600492238998413, -0.11691160500049591]], [[0.016774766147136688, 0.17964999377727509, -0.1098056361079216, 0.011295048519968987, 0.1723869889974594, -0.1528845727443695, -0.28870436549186707, -0.3200051486492157, 0.028986115008592606, 0.21785877645015717, 0.07772176712751389, 0.009217868559062481, 0.12526339292526245]], [[-0.3117150068283081, -0.16588027775287628, -0.2046828716993332, -0.20384199917316437, 0.16168524324893951, -0.23068252205848694, 0.04077650606632233, -0.24420173466205597, 0.020750582218170166, -0.07652890682220459, 0.16907143592834473, -0.07733981311321259, 0.27968236804008484]], [[-0.05709647014737129, 0.17916366457939148, -0.2355842888355255, 0.15623842179775238, -0.07884455472230911, -0.032880574464797974, -0.1438063681125641, 0.2664133906364441, 0.09017638117074966, -0.20491738617420197, 0.1365204006433487, -0.25677990913391113, 0.16415154933929443]], [[0.08765159547328949, -0.024869704619050026, -0.11632122099399567, 0.10236743837594986, -0.160103902220726, 0.1364428699016571, 0.14763998985290527, 0.17096368968486786, 0.059210434556007385, -0.264131635427475, 0.1653026044368744, -0.12630720436573029, -0.1333257108926773]], [[0.07917096465826035, 0.296493798494339, 0.23647232353687286, 0.025996675714850426, 0.2209041267633438, -0.31412872672080994, -0.08402292430400848, -0.21227705478668213, 0.08175630867481232, -0.26445242762565613, -0.1534218043088913, 0.1385577917098999, 0.1623443365097046]], [[-0.19870685040950775, -0.18278440833091736, 0.006184734404087067, 0.08301624655723572, -0.07146374881267548, -0.10970968008041382, -0.20453546941280365, 0.09529583156108856, 0.24861657619476318, -0.15651586651802063, 0.10670784115791321, 0.1154196485877037, 0.1995069980621338]], [[-0.0035033461172133684, 0.22159381210803986, -0.020429588854312897, 0.18765364587306976, 0.6333880424499512, 0.006880324333906174, 0.028915079310536385, 0.16253267228603363, -0.1561882197856903, 0.10479144006967545, -0.17747515439987183, 0.015131845138967037, -0.3032049834728241]], [[-0.17187194526195526, -0.12727715075016022, -0.39323967695236206, -0.2874433398246765, -0.263230562210083, 0.19711384177207947, 0.20283293724060059, -0.2078591138124466, 0.07087846845388412, -0.10039061307907104, -0.017889415845274925, 0.3074972927570343, 0.17366622388362885]], [[-0.0007576114148832858, 0.034950509667396545, 0.05770803615450859, 0.023170828819274902, -0.15016163885593414, -0.21273471415042877, 0.055467817932367325, -0.12128683924674988, 0.2448449730873108, 0.5392465591430664, 0.857096254825592, 0.00016717622929718345, 0.3224676847457886]], [[-0.037051476538181305, 0.1352635622024536, -0.20564663410186768, -0.23513580858707428, 0.1227942630648613, 0.09082091599702835, -0.38861966133117676, 0.3379480540752411, 0.12797388434410095, -0.02685202658176422, 0.35275375843048096, -0.13646316528320312, 0.18505850434303284]], [[0.05812111869454384, -0.49311476945877075, -0.27585721015930176, -0.25944870710372925, -0.10298468917608261, -0.28327763080596924, 0.06259343028068542, 0.12060567736625671, 0.18571574985980988, 0.16226443648338318, 0.16386738419532776, 0.18182900547981262, -0.15309153497219086]], [[-0.3344532251358032, -0.291423499584198, 0.11334417015314102, -0.11535625904798508, -0.23349736630916595, -0.31496021151542664, -0.07007532566785812, -0.059464581310749054, 0.3700179159641266, 0.11411357671022415, -0.10463451594114304, 0.14304247498512268, 0.13164615631103516]], [[0.12670540809631348, 0.28128454089164734, 0.31571969389915466, -0.10377345234155655, -0.06768614053726196, 0.09542489796876907, -0.1662278175354004, -0.20886196196079254, 0.2329513132572174, -0.04443836212158203, -0.13908828794956207, 0.0011579549172893167, -0.1322638988494873]], [[0.1298539787530899, -0.13338465988636017, -0.1141570657491684, -0.10524536669254303, 0.3426245450973511, -0.08084677159786224, -0.15493211150169373, 0.07353035360574722, -0.16241559386253357, 0.16260497272014618, 0.1929994374513626, -0.22743527591228485, 0.05407712981104851]], [[-0.2171480804681778, -0.16099926829338074, 0.22761155664920807, 0.01142839528620243, 0.2775231897830963, 0.013891072012484074, -0.06820811331272125, -0.04963430017232895, 0.41801485419273376, -0.1236269474029541, 0.37301158905029297, 0.12532509863376617, 0.13207195699214935]], [[0.25683537125587463, 0.05280077084898949, 0.23761634528636932, -0.21020254492759705, -0.08619299530982971, 0.19418591260910034, 0.05409718677401543, -0.0645877793431282, -0.11114049702882767, -0.23004363477230072, 0.09574853628873825, -0.06275737285614014, -0.07540213316679001]], [[0.06192642077803612, 0.28272247314453125, 0.01500786654651165, 0.06781834363937378, 0.36377066373825073, 0.3564084768295288, -0.017821017652750015, -0.2333492487668991, 0.09414668381214142, 0.15657110512256622, 0.060957495123147964, 0.15244972705841064, -0.26345294713974]], [[0.3671327829360962, 0.02013932727277279, 0.3335281014442444, 0.24712462723255157, 0.1218365877866745, 0.36676639318466187, -0.07432503253221512, -0.09287706017494202, -0.23158299922943115, 0.13703173398971558, 0.08520889282226562, -0.2424386739730835, 0.0754370242357254]], [[0.28961819410324097, -0.1770508587360382, 0.2451394498348236, 0.025800149887800217, -0.028902443125844002, 0.10625740140676498, 0.013955130241811275, -0.09376390278339386, 0.02246583253145218, -0.09663702547550201, -0.1440815031528473, -0.38049551844596863, -0.11110562831163406]], [[-0.20748557150363922, -0.001877787639386952, 0.004841317888349295, 0.030318427830934525, -0.20077118277549744, -0.22092929482460022, 0.28232184052467346, 0.12668322026729584, 0.09369641542434692, -0.05862587317824364, -0.039234377443790436, -0.09489936381578445, 0.11116530001163483]], [[-0.29990145564079285, 0.014965246431529522, 0.08164632320404053, -0.3443072736263275, -0.08136913180351257, -0.010855309665203094, -0.06391296535730362, 0.04395511746406555, -0.03177247568964958, 0.16603565216064453, -0.29223063588142395, 0.052176669239997864, -0.29483386874198914]], [[-0.12883970141410828, 0.00919504463672638, 0.18380096554756165, 0.08803991228342056, -0.30820557475090027, -0.16645115613937378, -0.3376445770263672, -0.19295093417167664, -0.4676853120326996, -0.1070823147892952, 0.12514404952526093, -0.1137753576040268, -0.18298831582069397]], [[0.010501254349946976, -0.018649127334356308, -0.08218903839588165, 0.2752506136894226, -0.12570974230766296, -0.14879390597343445, -0.21538181602954865, 0.034908685833215714, -0.009137842804193497, 0.24519352614879608, 0.021102316677570343, 0.0798834040760994, -0.1372252255678177]], [[0.21166467666625977, 0.2270350158214569, -0.2587662935256958, -0.0832722932100296, -0.2468508929014206, 0.10791049152612686, -0.2504330277442932, -0.13501781225204468, 0.27506715059280396, -0.26353344321250916, 0.2079745978116989, 0.04002789780497551, 0.2388196438550949]], [[-0.08238674700260162, 0.2380731701850891, 0.09402374178171158, 0.08856331557035446, 0.26626113057136536, -0.19340044260025024, -0.1639280915260315, 0.306630402803421, -0.16219079494476318, -0.14034360647201538, -0.03901820629835129, -0.12056024372577667, -0.039636313915252686]], [[-0.0023821659851819277, 0.23084846138954163, -0.13272389769554138, 0.09929342567920685, 0.18366247415542603, 0.03741038218140602, -0.015295806340873241, -0.18885263800621033, -0.3934469521045685, -0.3088522255420685, -0.3637745976448059, -0.37757474184036255, -0.20696592330932617]], [[0.42028528451919556, 0.1104782372713089, 0.3035145699977875, 0.34322401881217957, 0.06968352198600769, -0.04947250336408615, -0.0889039933681488, -0.021895574405789375, 0.14419277012348175, -0.22285820543766022, -0.03499213978648186, 0.08239065855741501, 0.19374585151672363]], [[0.028779616579413414, 0.005270305089652538, 0.1241515651345253, 0.059969838708639145, 0.0300355963408947, -0.18797443807125092, -0.3288947641849518, -0.10578210651874542, -0.0876840353012085, -0.0011721034534275532, -0.05182504281401634, 0.10142979770898819, 0.18740054965019226]], [[-0.05097322165966034, -0.22750607132911682, -0.009926981292665005, 0.07594504207372665, 0.40206262469291687, 0.06785053759813309, 0.15609581768512726, 0.008524092845618725, -0.14979398250579834, 0.14948317408561707, -0.11541622132062912, -0.0765385851264, -0.24739442765712738]], [[-0.1167108491063118, -0.19531777501106262, -0.14111223816871643, -0.18362200260162354, 0.009335088543593884, -0.0269422959536314, 0.06224369257688522, 0.032856833189725876, 0.1715334951877594, -0.02325979247689247, 0.40992897748947144, -0.04600006341934204, -0.018138235434889793]], [[0.05206078663468361, 0.36993250250816345, 0.09359697252511978, 0.24548430740833282, -0.081056609749794, 0.23320125043392181, -0.07837633043527603, -0.27862074971199036, -0.037931956350803375, 0.05285928025841713, 0.025337856262922287, 0.018946614116430283, 0.014982950873672962]]], "bias": null}, "bn": {"num_features": 32, "affine": false, "eps": 1e-05, "running_mean": [-1.540871267025068e-06, 3.3114326924987836e-07, 7.597267540404573e-06, 1.5228717131776648e-07, -4.310770407300879e-07, -1.9039783865082427e-06, 6.380233230629528e-07, -6.317565294011729e-06, 5.552220045501599e-06, -1.4698047380079515e-05, -2.852150373655604e-06, 5.647685611620545e-06, 5.821718332299497e-06, -1.7537090570840519e-06, 2.1234586711216252e-07, -8.563435585529078e-06, -4.768734243043582e-07, -9.796406629902776e-06, -9.967417099687736e-06, 2.8881481739517767e-06, 1.5528567018918693e-06, 9.473324098507874e-06, 1.4329141777125187e-05, 6.361052555803326e-07, -6.079142167436657e-07, -4.82534062484774e-07, 1.2783574675268028e-05, -1.115578652388649e-05, 2.0575866983563174e-06, 9.936545808386654e-08, 5.865698540219455e-07, -5.62687591809663e-06], "running_var": [0.00043196388287469745, 0.00016395807324443012, 0.009167342446744442, 5.4923066272749566e-06, 0.00015570713730994612, 0.0010070448042824864, 0.0010680333944037557, 0.007214686367660761, 0.0064320992678403854, 0.03109106980264187, 0.0016338357236236334, 0.0064295073971152306, 0.006561968941241503, 0.0013345583574846387, 1.2691599295067135e-05, 0.010741839185357094, 0.0006842779112048447, 0.013576898723840714, 0.014570916071534157, 0.002715623239055276, 0.0004883872461505234, 0.011369170621037483, 0.028056304901838303, 7.778373401379213e-05, 0.0002870761090889573, 0.0006132690468803048, 0.025112353265285492, 0.01665492355823517, 0.0008500291733071208, 0.00034811589284799993, 0.0012004865566268563, 0.0045809997245669365]}, "adaptor": {"in_features": 32, "out_features": 64, "weight": [[-0.1017036959528923, 0.2763903737068176, 0.27768585085868835, 0.22732144594192505, 0.21472950279712677, 0.11936413496732712, 0.06723562628030777, 0.41186776757240295, 0.013996547088027, -0.1325058788061142, 0.12165175378322601, -0.06881901621818542, 0.051416099071502686, 0.0043119387701153755, 0.03214188292622566, 0.443945050239563, 0.08210252225399017, 0.3078787326812744, -0.035765793174505234, 0.08362402766942978, 0.0646720826625824, 0.1244477704167366, -0.10442357510328293, 0.3016389310359955, 0.06707656383514404, 0.33612877130508423, -0.1052313819527626, -0.17538268864154816, -0.0031501813791692257, -0.014794470742344856, 0.32865262031555176, -0.04861472547054291], [0.13499021530151367, -0.1291164755821228, 0.0009232184966094792, -0.2676316201686859, -0.04225024953484535, -0.09835170209407806, -0.08841456472873688, -0.04073432460427284, -0.17395170032978058, 0.15042205154895782, -0.10881805419921875, 0.017068251967430115, 0.08174960315227509, 0.014674647711217403, 0.07577560842037201, -0.012784585356712341, -0.13796685636043549, -0.003944214899092913, -0.026470327749848366, -0.04110925644636154, 0.035581886768341064, 0.0022865093778818846, -0.09609849750995636, -0.25306132435798645, 0.10970889776945114, -0.19738121330738068, 0.05691327154636383, -0.02604382298886776, 0.04337243363261223, 0.13092517852783203, -0.21184584498405457, -0.08578329533338547], [0.1016215905547142, 0.018889667466282845, -0.004063047468662262, -0.15053293108940125, 0.14291881024837494, 0.00190661009401083, -0.032560043036937714, -0.060395825654268265, -0.034884799271821976, 0.09510556608438492, -0.0024174845311790705, 0.1511809527873993, -0.01020615454763174, -0.0253599900752306, 0.09978188574314117, 0.005043770652264357, -0.03528338298201561, 0.06172444298863411, 0.1394115686416626, 0.04411453753709793, 0.12309282273054123, 0.13961248099803925, 0.04999206215143204, 0.08100555837154388, 0.05704303830862045, 0.02105017937719822, 0.1503903567790985, 0.16318972408771515, 0.04885781556367874, -0.009551212191581726, 0.1598563939332962, -0.13758893311023712], [0.12164685130119324, 0.5157637000083923, 0.5430607199668884, 0.3920867145061493, 0.2088000774383545, 0.4529263973236084, -0.07729659974575043, 0.39496898651123047, 0.10015197098255157, -0.1726810485124588, 0.318560391664505, -0.06279575079679489, 0.1254681944847107, -0.11255397647619247, 0.1073334589600563, 0.45860010385513306, 0.09753033518791199, 0.49647393822669983, 0.02677302621304989, -0.16022706031799316, 0.12619468569755554, 0.3947567343711853, 0.003508134977892041, 0.21693530678749084, -0.03973166644573212, 0.21337656676769257, 0.17313703894615173, 0.12587010860443115, 0.11750363558530807, 0.1512717306613922, 0.23066644370555878, -0.0759202092885971], [-0.06328930705785751, -0.07670950144529343, 0.13377295434474945, 0.044259265065193176, 0.1285826712846756, -0.006932258605957031, -0.157583549618721, -0.049127247184515, 0.12423771619796753, 0.10802257806062698, 0.05556543171405792, -0.05185350030660629, -0.16499824821949005, -0.09498683363199234, 0.09216790646314621, -0.06995091587305069, 0.0845591127872467, 0.04515623673796654, -0.06789768487215042, 0.1076708436012268, -0.056804109364748, 0.007891387678682804, -0.0673365443944931, -0.15629138052463531, 0.02850315533578396, 0.04905807599425316, -0.08900377154350281, 0.10844310373067856, -0.1585376262664795, -0.17481489479541779, -0.11153603345155716, -0.06109489127993584], [-0.020791413262486458, -0.3137850761413574, -0.21089059114456177, -0.4201618432998657, -0.17804957926273346, -0.2069363296031952, 0.04669206961989403, -0.04135206714272499, 0.10879694670438766, -0.09370443224906921, -0.338462233543396, -0.04279780760407448, -0.08867595344781876, 0.061749011278152466, 0.0016205041902139783, -0.07134099304676056, 0.06943897902965546, -0.23762086033821106, 0.006075805053114891, 0.04233554005622864, -0.021935727447271347, -0.09272493422031403, -0.13822174072265625, -0.14574526250362396, -0.11268522590398788, -0.34771713614463806, -0.036291658878326416, 0.08614414930343628, 0.12904077768325806, 0.04256182909011841, -0.23231932520866394, -0.00990998838096857], [-0.07303202152252197, 0.029722359031438828, 0.015219150111079216, 0.2085096687078476, 0.12353145331144333, -0.10913931578397751, 0.000731268897652626, -0.07371701300144196, -0.02806168794631958, -0.13652990758419037, 0.07060842216014862, -0.12746979296207428, 0.1745176613330841, 0.13350220024585724, -0.12168581038713455, -0.13377457857131958, 0.006897415965795517, -0.014194346033036709, 0.05189575254917145, -0.11966263502836227, 0.07236198335886002, -0.13457584381103516, -0.09329744428396225, -0.0704864114522934, 0.08554071187973022, 0.03433210030198097, -0.1698874533176422, -0.10096070915460587, -0.08173785358667374, -0.137991264462471, 0.05856059864163399, 0.06299223750829697], [-0.0366496741771698, -0.3854745030403137, -0.29930755496025085, -0.4505442678928375, -0.3057090938091278, -0.2300751656293869, 0.1570443958044052, -0.2924632430076599, 0.0876210406422615, -0.07495329529047012, -0.2415694147348404, -0.16828159987926483, 0.14645683765411377, 0.17213234305381775, -0.003712884383276105, -0.1181686520576477, 0.1445930153131485, -0.13768285512924194, 0.09104340523481369, -0.16828975081443787, -0.16611187160015106, -0.373585045337677, 0.055293209850788116, -0.39316433668136597, -0.13494154810905457, -0.3041454553604126, -0.16293248534202576, 0.000238192908000201, 0.027455506846308708, -0.11056230217218399, -0.11813010275363922, -0.06711236387491226], [-0.05544532090425491, -0.38177794218063354, -0.36567673087120056, -0.514862596988678, -0.5177662968635559, -0.4859384596347809, 0.02251061052083969, -0.31001511216163635, 0.08800733834505081, -0.09078918397426605, -0.5320277214050293, -0.15470558404922485, -0.05624260753393173, 0.002217514207586646, -0.07940377295017242, -0.5540084838867188, 0.01863008737564087, -0.5346933603286743, -0.13575109839439392, -0.14370989799499512, -0.04790179058909416, -0.28914275765419006, 0.06910542398691177, -0.47014376521110535, 0.036382634192705154, -0.3001946806907654, 0.0010299425339326262, -0.14258354902267456, -0.11438914388418198, -0.1654437631368637, -0.4121647775173187, -0.16182167828083038], [-0.03950568288564682, -0.2024003267288208, 0.03258096054196358, 0.010155498050153255, 0.0011519428808242083, -0.08868632465600967, -0.0572354830801487, -0.061227813363075256, -0.12214025855064392, -0.08852579444646835, -0.1230076476931572, -0.04153451696038246, -0.16746094822883606, 0.070274218916893, 0.14557242393493652, -0.19985711574554443, 0.047653038054704666, -0.11567818373441696, -0.006447477266192436, 0.010304314084351063, 0.15319159626960754, -0.0886155292391777, -0.1118425577878952, -0.17251889407634735, 0.08636023849248886, -0.03373453766107559, 0.003435768885537982, -0.0233304500579834, -0.0585453063249588, -0.023614374920725822, -0.19472122192382812, 0.028966939076781273], [0.039453379809856415, 0.06879043579101562, -0.0932019054889679, -0.055483970791101456, 0.07586356997489929, 0.025533625856041908, 0.02271363139152527, -0.004153677262365818, 0.009175853803753853, -0.14695970714092255, -0.0387609489262104, -0.03863966092467308, 0.15952537953853607, 0.15956354141235352, 0.03507083281874657, 0.10445977002382278, -0.09104334563016891, 0.10428531467914581, 0.15220211446285248, -0.006756582297384739, -0.14186495542526245, -0.1192266047000885, -0.04727491736412048, -0.05600999668240547, -0.16027480363845825, -0.014420374296605587, -0.07351995259523392, -0.045262109488248825, -0.08536310493946075, -0.034011755138635635, -0.21280474960803986, -0.09372133761644363], [0.01997438631951809, 0.5574203729629517, 0.616912305355072, 0.27872639894485474, 0.43106845021247864, 0.2209307849407196, -0.1366761326789856, 0.33383116126060486, -0.10140735656023026, -0.14236892759799957, 0.14029236137866974, -0.11832518875598907, 0.14526373147964478, 0.09858977794647217, -0.06997653841972351, 0.22994734346866608, -0.13598401844501495, 0.2102275937795639, -0.07274331152439117, 0.1061701849102974, 0.057851310819387436, 0.32389554381370544, 0.12169862538576126, 0.2893243134021759, -0.14401784539222717, 0.3178192377090454, -0.0974748283624649, 0.050289154052734375, 0.14712642133235931, -0.03449500352144241, 0.20409756898880005, 0.06653876602649689], [-0.16889233887195587, -0.03988507017493248, -0.23256829380989075, -0.1333804875612259, -0.23356901109218597, -0.250792920589447, 0.019472770392894745, -0.08549416810274124, 0.13707178831100464, 0.1455424576997757, -0.11594521254301071, -0.022727686911821365, 0.02922150492668152, -0.04106363281607628, 0.006017621606588364, -0.30177441239356995, -0.14511731266975403, -0.011374073103070259, -0.10330063849687576, 0.1392090767621994, 0.019400130957365036, -0.08728158473968506, 0.16066837310791016, -0.23085379600524902, -0.027905596420168877, -0.09904443472623825, 0.06039430573582649, -0.17204159498214722, 0.06118413805961609, -0.10473746806383133, -0.1133679449558258, 0.11959820985794067], [-0.022916696965694427, -0.023007160052657127, -0.026915274560451508, 0.13791701197624207, 0.10835229605436325, 0.022714080289006233, -0.10638690739870071, -0.10298982262611389, 0.14081232249736786, 0.1295335590839386, 0.09955146908760071, -0.13783584535121918, 0.13767240941524506, -0.016898419708013535, 0.13024146854877472, 0.1474204957485199, 0.01937667652964592, -0.07858795672655106, 0.16628514230251312, -0.09212188422679901, 0.11550849676132202, -0.1833951771259308, -0.05559854209423065, -0.16826026141643524, -0.07929781824350357, 0.07018863409757614, -0.12666545808315277, -0.15287719666957855, 0.12755875289440155, 0.09674924612045288, -0.008804438635706902, -0.12462063878774643], [-0.042542438954114914, -0.38875100016593933, -0.20949722826480865, -0.3724748194217682, -0.3046998083591461, -0.37024471163749695, -0.08325964212417603, -0.1637992411851883, 0.11389467120170593, 0.027144748717546463, -0.3081097900867462, 0.16979236900806427, 0.03489217534661293, -0.06823518127202988, -0.06127030402421951, -0.28277817368507385, 0.08380940556526184, -0.1835254728794098, 0.1281561255455017, -0.00796501711010933, 0.14621073007583618, -0.3417723774909973, -0.08141506463289261, -0.34845757484436035, -0.16585330665111542, -0.34206870198249817, -0.1599607765674591, -0.01044708676636219, 0.0016767983324825764, -0.04246685281395912, -0.3805012106895447, 0.16038747131824493], [-0.04913428798317909, 0.15036128461360931, 0.1777401715517044, -0.04825955256819725, 0.03205354884266853, 0.1503773033618927, 0.1713600903749466, 0.033622100949287415, 0.12809649109840393, -0.12357800453901291, -0.06795055419206619, 0.14536967873573303, -0.01673714630305767, 0.1746416836977005, 0.01285470463335514, -0.021528175100684166, 0.16788756847381592, 0.20422051846981049, 0.01640593446791172, -0.1071629747748375, -0.007653888780623674, -0.03661317750811577, 0.12881384789943695, 0.05814266577363014, 0.03721528872847557, 0.15499328076839447, 0.05855577439069748, -0.11035574972629547, 0.13910169899463654, 0.09001553803682327, -0.06138626113533974, 0.13366137444972992], [0.04583454504609108, -0.04734230786561966, -0.13607996702194214, -0.04369585961103439, -0.16270510852336884, 0.09060380607843399, 0.1280311495065689, -0.0632048174738884, 0.16388076543807983, -0.06217766925692558, 0.02534656412899494, -0.1231946274638176, -0.0074738371185958385, 0.07145842164754868, 0.07614382356405258, -0.015301933512091637, -0.08914182335138321, 0.11577744036912918, 0.1170378103852272, 0.02836921252310276, -0.08129534870386124, 0.018619664013385773, 0.0004726979823317379, 0.14681726694107056, 0.026197027415037155, 0.0037337092217057943, 0.012084364891052246, 0.09404681622982025, -0.005421159323304892, 0.15532131493091583, 0.08347701281309128, -0.13357724249362946], [-0.012053807266056538, -0.18442867696285248, -0.1632893681526184, -0.005938731133937836, 0.02438998781144619, -0.04176907241344452, 0.1680196076631546, -0.1247166320681572, -0.07408458739519119, -0.035283442586660385, -0.020363464951515198, -0.014973404817283154, 0.15916776657104492, -0.07466099411249161, -0.09246746450662613, -0.010600665584206581, 0.13277381658554077, 0.01667001284658909, 0.09523535519838333, 0.03422136604785919, 0.15066473186016083, 0.07982420921325684, 0.12649588286876678, -0.050934843719005585, -0.1463526338338852, -0.11048556864261627, 0.06022221967577934, 0.12401709705591202, -0.06055622547864914, 0.1260349303483963, 0.00192952249199152, 0.0007021664641797543], [0.004207606893032789, -0.03530123829841614, 0.16749761998653412, 0.000533823505975306, 0.10577468574047089, -0.1541692167520523, -0.09107906371355057, 0.01755710318684578, 0.1411561369895935, 0.07986625283956528, 0.02696746587753296, -0.17465388774871826, 0.003323320997878909, -0.11669058352708817, -0.15094465017318726, 0.02051415853202343, -0.11184755712747574, 0.15376244485378265, -0.09608551859855652, 0.05696949362754822, 0.10376134514808655, -0.1276741325855255, 0.09047078341245651, -0.025063157081604004, 0.09159909188747406, 0.16256330907344818, -0.07533612102270126, -0.07656268030405045, 0.14419227838516235, -0.017643824219703674, -0.02478364296257496, 0.13411487638950348], [-0.09309625625610352, 0.017640093341469765, 0.1485803723335266, 0.0949043333530426, -0.1080266535282135, 0.07044637948274612, -0.13478104770183563, -0.0690293237566948, 0.1136694997549057, -0.060744088143110275, -0.06905201077461243, 0.012530341744422913, 0.04319898039102554, -0.10988736897706985, -0.11921172589063644, -0.1468242108821869, 0.045676182955503464, -0.09298031032085419, 0.013471860438585281, -0.03953755646944046, -0.11558720469474792, -0.023571904748678207, -0.13588647544384003, -0.06434265524148941, -0.0055103423073887825, -0.13051365315914154, -0.15503905713558197, 0.13241644203662872, 0.01647574082016945, -0.08279544115066528, 0.01813000999391079, 0.1310914307832718], [-0.1452542245388031, -0.4723161458969116, -0.5320243239402771, -0.3730686604976654, -0.31651297211647034, -0.4320351481437683, 0.1226978600025177, -0.4368712604045868, 0.16504503786563873, -0.1254892498254776, -0.30590254068374634, 0.03305492922663689, -0.07857324928045273, 0.1625712662935257, -0.12187591195106506, -0.3141535520553589, -0.1298002302646637, -0.2451057732105255, 0.15071752667427063, 0.16397559642791748, 0.02098582126200199, -0.42127400636672974, 0.17179955542087555, -0.3182118237018585, 0.11960303783416748, -0.3673107922077179, -0.08204088360071182, -0.14674821496009827, 0.1639557033777237, -0.03507057577371597, -0.43637746572494507, 0.01518314890563488], [-0.06267216056585312, 0.046841032803058624, 0.08727645874023438, -0.043789342045784, 0.03692695125937462, -0.08164708316326141, 0.03406411409378052, -0.13475783169269562, 0.028169624507427216, 0.1784680038690567, 0.1832684725522995, 0.06448480486869812, 0.13007749617099762, 0.17187252640724182, 0.050093088299036026, 0.08933829516172409, 0.022986996918916702, 0.18318966031074524, 0.1518583595752716, -0.08313107490539551, -0.0072672124952077866, -0.04906083270907402, 0.06343284249305725, -0.13519272208213806, 0.06255565583705902, -0.020402973517775536, 0.06410843133926392, 0.055173110216856, -0.09529264271259308, 0.08691299706697464, 0.10104355216026306, -0.15026739239692688], [0.17225541174411774, 0.07347793877124786, 0.02876318246126175, -0.08831585198640823, 0.019615991041064262, -0.13852234184741974, -0.06006857380270958, 0.031224263831973076, 0.07869532704353333, 0.06033363565802574, -0.20186108350753784, 0.146491140127182, -0.0738372951745987, 0.15298540890216827, 0.14565534889698029, 0.017519857734441757, 0.1761208474636078, 0.058667346835136414, 0.10367701202630997, -0.060028448700904846, 0.16395781934261322, -0.007981205359101295, 0.10444597899913788, -0.09091563522815704, 0.1280253678560257, 0.11991231888532639, -0.13545536994934082, 0.14492227137088776, -0.11305806785821915, -0.09782835096120834, -0.19252833724021912, 0.051081348210573196], [-0.13370707631111145, 0.09862314164638519, 0.07571402937173843, 0.20885217189788818, -0.0660555511713028, 0.02870178408920765, 0.0012932127574458718, 0.13270039856433868, -0.07983666658401489, 0.07565193623304367, -0.02820056676864624, -0.14971037209033966, -0.025131449103355408, -0.0955740287899971, 0.11142821609973907, -0.005118551664054394, -0.014840811491012573, 0.18191727995872498, -0.15481023490428925, 0.13684634864330292, -0.08032293617725372, 0.07715582102537155, -0.10813673585653305, 0.060683492571115494, -0.06816325336694717, -0.0533834770321846, 0.06040593609213829, -0.0005663061165250838, 0.1672075092792511, 0.178773432970047, 0.26629525423049927, 0.05201241374015808], [0.09281459450721741, 0.17092297971248627, 0.13550730049610138, -0.125025674700737, -0.04880150407552719, -0.17339488863945007, 0.006687609013170004, -0.06352134793996811, 0.15342742204666138, 0.027171285822987556, -0.0005228694062680006, -0.12787185609340668, -0.13872213661670685, 0.027828868478536606, -0.08783716708421707, -0.08312919735908508, 0.1239972710609436, -0.09424459934234619, -0.07868415862321854, 0.13573049008846283, 0.06906644254922867, -0.10329674184322357, 0.05353652685880661, 0.08552848547697067, -0.1570131778717041, 0.03089054301381111, 0.04038816690444946, -0.006884940434247255, 0.16966412961483002, -0.11500658094882965, 0.09426252543926239, -0.0939066931605339], [-0.1507578045129776, 0.08182968944311142, -0.12634655833244324, -0.021154575049877167, 0.06155379116535187, -0.1813577562570572, -0.15131890773773193, 0.02111276052892208, 0.15413616597652435, -0.01018128264695406, 0.084897480905056, 0.062119439244270325, 0.05043487623333931, -0.11270785331726074, 0.16824163496494293, 0.04349178820848465, 0.027333833277225494, 0.09142358601093292, -0.15189136564731598, 0.03809253126382828, -0.08321385085582733, -0.07029847800731659, 0.05791788175702095, 0.026363873854279518, 0.04055371880531311, -0.16747809946537018, -0.11063260585069656, 0.0030866244342178106, -0.02843761444091797, -0.1377650499343872, 0.14026419818401337, 0.022235538810491562], [-0.13740156590938568, 0.021326858550310135, 0.016041245311498642, -0.13693134486675262, 0.05347853899002075, -0.15361465513706207, 0.06124980002641678, 0.1176091805100441, 0.11669576913118362, 0.08037153631448746, -0.07089202105998993, 0.033187124878168106, 0.06168901175260544, 0.043177150189876556, -0.03581356629729271, -0.024203598499298096, -0.0716000571846962, -0.13873545825481415, -0.16313594579696655, -0.14412759244441986, -0.11096542328596115, 0.10227612406015396, 0.0353756844997406, -0.22043949365615845, -0.09036275744438171, 0.0048749553970992565, -0.052910372614860535, -0.05003846436738968, -0.05801732838153839, -0.024993570521473885, -0.018036922439932823, 0.010468391701579094], [0.10482105612754822, 0.03661932796239853, 0.06764909625053406, -0.07866793870925903, -0.12857064604759216, -0.05207379162311554, -0.11706405133008957, 0.014757134951651096, -0.02132818102836609, -0.04835788533091545, -0.1964857280254364, 0.08519159257411957, 0.09867241233587265, 0.1612604558467865, -0.06262669712305069, -0.0003782001440413296, 0.006663522217422724, -0.1648281365633011, -0.11051173508167267, 0.09052468836307526, -0.10152699053287506, 0.06496752053499222, 0.06175859645009041, 0.0048395004123449326, 0.11642080545425415, 0.03762407600879669, 0.07624069601297379, 0.0917191281914711, -0.06958501785993576, -0.07931701093912125, -0.08776465058326721, 0.09814081341028214], [0.11253257840871811, 0.15843220055103302, -0.0011606873013079166, -0.0024709696881473064, -0.07291574031114578, 0.12470933794975281, -0.11722538620233536, -0.05768346041440964, 0.14597609639167786, 0.04351362958550453, -0.05004077032208443, -0.11903643608093262, -0.12156474590301514, 0.14266332983970642, -0.16157466173171997, 0.17036184668540955, 0.14141520857810974, 0.029436662793159485, -0.01416951697319746, 0.1374831199645996, 0.07795441150665283, 0.18894508481025696, 0.1428023874759674, -0.09489598870277405, 0.1090923324227333, 0.10129666328430176, -0.12551362812519073, 0.084900863468647, -0.09242955595254898, -0.09073396772146225, 0.023848561570048332, -0.021722570061683655], [-0.046832866966724396, -0.11402404308319092, 0.09532114863395691, 0.17906548082828522, -0.03176118806004524, -0.11933212727308273, -0.009115351364016533, -0.15633918344974518, -0.14355254173278809, -0.0466390959918499, 0.10886756330728531, -0.13543112576007843, -0.028210613876581192, -0.09179486334323883, -0.16277407109737396, -0.040694672614336014, -0.010297423228621483, -0.028307434171438217, 0.12924769520759583, 0.07081007957458496, 0.11006025224924088, 0.05683497339487076, 0.018546972423791885, 0.08800111711025238, -0.11277461796998978, 0.09093479067087173, 0.08420116454362869, -0.07502522319555283, -0.005341715179383755, -0.1289452314376831, -0.15377570688724518, -0.00019528741540852934], [0.02477668970823288, -0.06666644662618637, 0.03444509953260422, -0.17279942333698273, -0.09314695745706558, 0.10113533586263657, -0.1720341444015503, 0.005112398881465197, 0.13609552383422852, 0.1393454223871231, 0.0483805388212204, -0.1610260158777237, 0.022757695987820625, -0.062164999544620514, -0.04969364032149315, 0.11593511700630188, -0.06007622182369232, -0.14508716762065887, -0.14190538227558136, 0.1116139367222786, 0.008529932238161564, 0.15114542841911316, 0.03615143895149231, -0.18501204252243042, 0.04373591020703316, 0.13987810909748077, 0.1096421405673027, 0.05304884538054466, -0.1425749659538269, -0.10824909806251526, 0.09761928021907806, -0.11820313334465027], [0.0446968637406826, 0.29897448420524597, 0.3438677191734314, 0.33264756202697754, 0.046153564006090164, 0.1351952999830246, 0.15418307483196259, 0.24932758510112762, 0.08963551372289658, -0.08682495355606079, 0.3110337257385254, -0.03784150630235672, -0.05958501994609833, 0.03585994988679886, -0.06334144622087479, 0.14480060338974, -0.025295905768871307, 0.19748292863368988, -0.10054240375757217, 0.060424670577049255, -0.1713288575410843, 0.325001984834671, 0.163953959941864, 0.24967162311077118, -0.04130534455180168, 0.033298637717962265, 0.08301477134227753, 0.1448473334312439, 0.1527688205242157, 0.007107618730515242, 0.27586936950683594, 0.16938911378383636], [0.02939072996377945, 0.020615428686141968, -0.06835297495126724, 0.19007550179958344, 0.15396542847156525, 0.23673269152641296, -0.08999795466661453, 0.16238407790660858, -0.05848732963204384, -0.05549668148159981, 0.18337969481945038, -0.16204729676246643, 0.13030867278575897, 0.08221857249736786, -0.10506180673837662, 0.17493921518325806, -0.04446505010128021, 0.09878664463758469, -0.04731578007340431, -0.17308439314365387, -0.018308401107788086, 0.16581018269062042, -0.020567409694194794, -0.004012728109955788, 0.005601273849606514, 0.11234214156866074, -0.049323465675115585, -0.13708750903606415, -0.10223624110221863, -0.056085918098688126, 0.15345601737499237, 0.1572028249502182], [0.0027182232588529587, 0.26683756709098816, 0.28841742873191833, 0.12007977068424225, 0.16222642362117767, 0.30431389808654785, 0.12657001614570618, 0.23957912623882294, -0.13660992681980133, 0.09320322424173355, 0.07229682803153992, 0.08835694938898087, 0.020950565114617348, 0.057101476937532425, -0.17231270670890808, 0.13991667330265045, 0.07507645338773727, 0.32973986864089966, -0.050609491765499115, 0.15764057636260986, -0.03944928199052811, 0.09346208721399307, -0.07655199617147446, 0.22612132132053375, -0.03141910582780838, 0.26002436876296997, -0.0978320837020874, -0.05028776451945305, -0.17905861139297485, 0.14035579562187195, 0.1646956503391266, -0.13935519754886627], [0.0017887253779917955, -0.20498408377170563, -0.15073159337043762, -0.21942470967769623, -0.08921859413385391, -0.24187533557415009, -0.05291113257408142, -0.22332917153835297, 0.03155994042754173, 0.14369916915893555, -0.19573718309402466, 0.1360171139240265, 0.13886630535125732, -0.09203876554965973, -0.015188691206276417, -0.26793503761291504, 0.0735345110297203, -0.24885503947734833, 0.053925711661577225, 0.010561452247202396, -0.11604778468608856, -0.29592448472976685, -0.1726621836423874, -0.2853764295578003, 0.04938333481550217, -0.16729924082756042, 0.13295410573482513, -0.15544229745864868, -0.009815399535000324, -0.16185082495212555, -0.1904599517583847, 0.06440622359514236], [-0.16456317901611328, 0.30997931957244873, 0.08886979520320892, 0.2994426488876343, 0.07530557364225388, 0.2088180035352707, 0.16070355474948883, 0.051008716225624084, -0.04297206178307533, 0.10716363787651062, -0.0649443045258522, 0.10463907569646835, -0.1110357865691185, 0.16418372094631195, -0.11585331708192825, 0.04047179967164993, 0.13190819323062897, 0.03749797120690346, 0.1515243649482727, 0.12162581086158752, 0.16157592833042145, -0.06935185194015503, 0.0019812812097370625, 0.05920769274234772, 0.04210885241627693, -0.025736989453434944, 0.07248798757791519, -0.008374578319489956, -0.07384747266769409, -0.14324893057346344, 0.20247019827365875, -0.06397640705108643], [0.13056914508342743, -0.03288579359650612, -0.016640126705169678, -0.09489455074071884, -0.10432957857847214, -0.12015929073095322, -0.1530710905790329, 0.04636567085981369, -0.1113235205411911, 0.10519500076770782, -0.12645044922828674, 0.11074511706829071, 0.15150153636932373, -0.10811770707368851, 0.14596903324127197, -0.06376837939023972, -0.13504520058631897, 0.008657991886138916, 0.1000979021191597, 0.1558307260274887, -0.1682773232460022, 0.08995408564805984, 0.13401567935943604, 0.10015096515417099, 0.09634438902139664, -0.14154435694217682, 0.1341048628091812, 0.16155920922756195, -0.06765922158956528, -0.06000138074159622, 0.07292833924293518, 0.14230215549468994], [0.11484833061695099, 0.24338464438915253, 0.012274905107915401, 0.06805043667554855, 0.01901739090681076, 0.1697142869234085, 0.04405494034290314, -0.05250537768006325, -0.022205214947462082, -0.1401333212852478, -0.09512795507907867, 0.16115456819534302, -0.08892238885164261, 0.07890068739652634, -0.03936437517404556, 0.0495670810341835, -0.00011417581117711961, 0.21881137788295746, -0.024454591795802116, 0.14627663791179657, 0.10343342274427414, 0.2017214447259903, -0.16032591462135315, 0.011883704923093319, -0.14402426779270172, 0.03176537901163101, -0.03661433607339859, 0.035921696573495865, 0.1610041707754135, 0.1080002561211586, -0.04506015405058861, -0.11086433380842209], [0.13345390558242798, -0.07468472421169281, -0.03494291752576828, -0.19367700815200806, -0.07581911981105804, -0.004193822853267193, -0.11600533872842789, 0.04741230979561806, 0.08809561282396317, -0.10173632949590683, -0.11753465980291367, -0.041560374200344086, 0.027511080726981163, -0.06484521925449371, 0.1691083312034607, -0.23494264483451843, -0.09991409629583359, -0.1631258726119995, 0.04779694974422455, 0.025085845962166786, -0.05037359520792961, 0.08560208976268768, -0.15260303020477295, -0.009612745605409145, -0.09727165848016739, -0.08412221074104309, -0.1702360212802887, -0.1319650411605835, -0.14997945725917816, 0.068515844643116, -0.12915176153182983, 0.09247201681137085], [-0.10146191716194153, 0.03145259991288185, 0.08513320237398148, 0.21909478306770325, 0.0020512256305664778, 0.15832434594631195, 0.04876771569252014, 0.1623840630054474, 0.11167129874229431, 0.07731976360082626, -0.007969175465404987, -0.0496152900159359, 0.06881939619779587, 0.09635081142187119, -0.009435183368623257, 0.14328104257583618, -0.10635223984718323, 0.1596253216266632, -0.02169313095510006, -0.1216527447104454, -0.08589297533035278, -0.09837089478969574, 0.035658929497003555, -0.05647630989551544, -0.05062238872051239, 0.04853671416640282, -0.107862189412117, 0.004539215471595526, -0.014219272881746292, 0.04995633661746979, 0.18490596115589142, -0.1067146360874176], [0.1021682620048523, 0.11084204167127609, -0.008414196781814098, 0.044508371502161026, 0.045360151678323746, 0.06804195046424866, -0.005709928460419178, -0.04656022787094116, 0.08914772421121597, 0.016460509970784187, -0.16791784763336182, -0.0312411617487669, -0.04796172305941582, -0.07543230056762695, -0.09805763512849808, -0.11237744987010956, 0.17410805821418762, -0.12954288721084595, 0.16432760655879974, -0.13896483182907104, -0.04288911819458008, -0.057008445262908936, -0.09461971372365952, 0.07674963027238846, 0.10245884209871292, -0.08273445814847946, -0.08233367651700974, 0.09023159742355347, -0.030274447053670883, 0.05015994608402252, 0.13745442032814026, -0.0653422623872757], [-0.08977098762989044, 0.08887994289398193, -0.03794913366436958, -0.08351500332355499, -0.06515409052371979, -0.05878187716007233, 0.1760198026895523, 0.057823583483695984, 0.0761328861117363, 0.03072572872042656, -0.09163756668567657, 0.12756876647472382, -0.02747972309589386, -0.04577295109629631, 0.14406536519527435, -0.06804671883583069, 0.03589598461985588, -0.12920992076396942, 0.09058442711830139, 0.07021768391132355, -0.14536280930042267, 0.12783183157444, 0.019454142078757286, -0.07033488899469376, 0.15072572231292725, 0.09782806783914566, 0.062122199684381485, -0.06565939635038376, -0.1053832620382309, -0.09191633015871048, 0.08979859948158264, 0.047621216624975204], [-0.1022830531001091, -0.05069838464260101, -0.10402130335569382, -0.2675626277923584, -0.09069240838289261, -0.24210906028747559, 0.055477432906627655, -0.030808649957180023, -0.15636463463306427, -0.09388508647680283, -0.17418739199638367, 0.026361925527453423, -0.1453765332698822, -0.11630167812108994, -0.01693142205476761, -0.2020094245672226, 0.0381297692656517, -0.1507321298122406, 0.0362643264234066, 0.011719142086803913, 0.02031821571290493, -0.18055322766304016, 0.06348451226949692, -0.06601446121931076, -0.08822045475244522, -0.24944166839122772, 0.0775899663567543, -0.12783318758010864, 0.11172159761190414, 0.07736220955848694, -0.15003998577594757, -0.07674597203731537], [0.0012826912570744753, 0.06667567044496536, 0.045990586280822754, 0.3691822588443756, 0.004788041114807129, 0.014338803477585316, -0.0686684250831604, 0.17735260725021362, 0.04048788547515869, -0.08279363065958023, 0.1279437094926834, -0.03947595879435539, 0.14791356027126312, 0.15343403816223145, 0.07265682518482208, 0.16701151430606842, 0.1325707584619522, 0.021020524203777313, 0.07386034727096558, -0.10275283455848694, 0.13786134123802185, 0.006894940510392189, 0.06568185985088348, 0.028447700664401054, 0.10317540168762207, 0.18509112298488617, 0.15168125927448273, -0.13332805037498474, 0.12142980843782425, -0.09295080602169037, 0.06940712034702301, 0.0672382116317749], [-0.02551473304629326, -0.05147205665707588, -0.08074931055307388, 0.05198248103260994, 0.05852615833282471, 0.19007235765457153, 0.13001160323619843, 0.04431510716676712, -0.10843374580144882, -0.17160743474960327, 0.17449338734149933, -0.09856090694665909, -0.03109014965593815, -0.1426437497138977, -0.12218999117612839, 0.06811020523309708, -0.04370290786027908, 0.05496060103178024, -0.0013519444037228823, 0.009006507694721222, -0.035027340054512024, 0.01549743115901947, 0.07683916389942169, 0.1508462280035019, 0.14941687881946564, -0.10561318695545197, -0.1494310200214386, -0.02641998417675495, -0.02233685553073883, 0.1016814187169075, 0.2106093168258667, 0.04539582133293152], [-0.12476922571659088, -0.13067933917045593, -0.004450666718184948, -0.02730601094663143, -0.17948292195796967, -0.049817875027656555, -0.1706894487142563, -0.13872045278549194, 0.12363822013139725, -0.07823965698480606, 0.06937429308891296, -0.14419220387935638, 0.15628904104232788, 0.084323450922966, 0.1145530492067337, -0.01676391251385212, 0.012524041347205639, -0.1415991485118866, -0.0975441187620163, -0.12139599025249481, 0.14609625935554504, -0.13584285974502563, 0.004306691233068705, -0.24199561774730682, 0.04744472727179527, -0.10708454996347427, -0.14139102399349213, 0.021878408268094063, -0.1627827286720276, -0.03547297418117523, -0.20746593177318573, 0.11175885796546936], [-0.1381039321422577, 0.3069477081298828, 0.35973748564720154, 0.12862861156463623, 0.3390445411205292, 0.3559035062789917, -0.1083635687828064, 0.23905639350414276, 0.05360632389783859, 0.13691186904907227, 0.3439585268497467, -0.14828239381313324, -0.1440848559141159, -0.15630917251110077, -0.0786198228597641, 0.1883430927991867, -0.06342801451683044, 0.3293832838535309, -0.12182961404323578, -0.14109013974666595, -0.13818927109241486, 0.12912406027317047, 0.17314651608467102, 0.2564394772052765, -0.030951233580708504, 0.14567653834819794, -0.1353975236415863, -0.059977009892463684, 0.08788692951202393, 0.1337803453207016, 0.354096919298172, 0.012585427612066269], [-0.09115751832723618, -0.33674392104148865, -0.06263498216867447, -0.3974990248680115, -0.1784522384405136, -0.22847719490528107, 0.16413171589374542, -0.10826760530471802, -0.04466056823730469, -0.1399359554052353, -0.18748006224632263, -0.12364470958709717, -0.018644079566001892, 0.04426141828298569, 0.08632500469684601, -0.26333415508270264, -0.11933020502328873, -0.367745965719223, -0.1674424558877945, 0.022173603996634483, -0.10759323090314865, -0.19925208389759064, -0.08374863117933273, -0.33308520913124084, 0.1191992312669754, -0.10914584249258041, 0.1241220235824585, 0.16957411170005798, -0.13028380274772644, -0.14260172843933105, -0.3569931983947754, 0.1187014952301979], [0.10395067930221558, 0.07056980580091476, -0.19751347601413727, -0.15779605507850647, 0.08005718141794205, -0.1987047642469406, -0.117734394967556, 0.002355266595259309, -0.15453000366687775, -0.058570194989442825, -0.003794894553720951, 0.14482153952121735, -0.020058823749423027, -0.15643687546253204, 0.10007143020629883, 0.10982304066419601, -0.13123516738414764, -0.07066608965396881, -0.1278761476278305, -0.09026558697223663, 0.05949002131819725, 0.018619084730744362, 0.07309932261705399, -0.24214284121990204, -0.04285537824034691, 0.022452296689152718, -0.01640869490802288, -0.0546509325504303, -0.0912613570690155, 0.16932567954063416, -0.20417127013206482, -0.13925014436244965], [0.13497252762317657, -0.36007291078567505, -0.14981454610824585, -0.3392998278141022, -0.23425383865833282, -0.2816973924636841, 0.14605562388896942, -0.07989688962697983, 0.008494317531585693, 0.008651983924210072, -0.2551552355289459, -0.09449083358049393, -0.06686568260192871, 0.05788587033748627, -0.03179636225104332, -0.08595803380012512, 0.025452185422182083, -0.19752280414104462, -0.10985415428876877, 0.07131390273571014, -0.1635197103023529, -0.16736331582069397, 0.06342862546443939, -0.18658635020256042, 0.1244107335805893, -0.14062176644802094, -0.048822127282619476, -0.12370036542415619, -0.16599728167057037, 0.06780534237623215, -0.11308325082063675, -0.13484124839305878], [0.040498778223991394, -0.08239057660102844, 0.13769441843032837, -0.07707349956035614, 0.13999243080615997, 0.1259278655052185, 0.0977739617228508, 0.11660146713256836, 0.055133156478405, 0.05256158858537674, -0.1429314911365509, -0.04035773500800133, -0.020039035007357597, 0.0857732817530632, -0.06850150227546692, 0.07904393970966339, 0.12002697587013245, 0.07375849038362503, 0.09098578989505768, -0.023561984300613403, 0.0846807062625885, -0.05239531770348549, 0.15313367545604706, -0.0031545390374958515, -0.010311732068657875, -0.15578998625278473, 0.16349762678146362, -0.024733245372772217, 0.1352488100528717, -0.12162090837955475, -0.1485787034034729, -0.028295455500483513], [-0.13890975713729858, -0.09264344722032547, -0.1254948079586029, -0.17664837837219238, -0.010640626773238182, 0.011656174436211586, -0.1560850590467453, -0.24966967105865479, 0.10341846197843552, -0.11568959802389145, -0.06993094086647034, -0.04708005115389824, 0.03161163255572319, -0.09755104780197144, 0.0005648941732943058, -0.17411236464977264, -0.07963478565216064, -0.18987803161144257, 0.039485737681388855, 0.11438748985528946, -0.00435640336945653, -0.11774078756570816, 0.14585287868976593, 0.015650328248739243, -0.025662604719400406, -0.24202558398246765, 0.04148389771580696, 0.05278174206614494, -0.13986898958683014, -0.16136622428894043, -0.08484984189271927, 0.17262105643749237], [-0.15522339940071106, 0.029799945652484894, 0.04051046818494797, -0.02809939533472061, -0.056296125054359436, 0.2124253362417221, 0.13520504534244537, -0.05281722545623779, 0.003789633745327592, -0.15585649013519287, 0.1314283013343811, -0.12074071168899536, -0.09008821099996567, -0.08193789422512054, 0.026057224720716476, 0.1893879771232605, -0.07398668676614761, 0.10936704277992249, 0.1407533586025238, -0.010711431503295898, 0.018253441900014877, 0.06804312020540237, -0.002258249092847109, 0.16020897030830383, 0.09565256536006927, -0.012618176639080048, 0.1687973439693451, 0.10171819478273392, -0.03622918203473091, 0.14454230666160583, 0.09566410630941391, 0.11170779913663864], [-0.13995888829231262, 0.19418489933013916, 0.18941491842269897, -0.10017648339271545, -0.1594950258731842, -0.02922704443335533, -0.10868456214666367, 0.07162003219127655, 0.0786890909075737, -0.01436398271471262, 0.13301818072795868, 0.006698714569211006, -0.05195673555135727, -0.15089142322540283, 0.05618339031934738, -0.14537814259529114, -0.0006045122281648219, 0.04523878172039986, -0.09900347143411636, 0.053107284009456635, 0.0343637578189373, 0.13746319711208344, 0.11056454479694366, -0.11998824775218964, -0.13116511702537537, -0.04258740693330765, -0.12717308104038239, 0.055426180362701416, -0.1214822381734848, -0.13805650174617767, 0.06998571008443832, 0.10668796300888062], [-0.04778921604156494, -0.3861822783946991, -0.1812087446451187, -0.11501047015190125, -0.018606828525662422, -0.13697735965251923, 0.12272350490093231, -0.3174729645252228, 0.16911840438842773, -0.10859623551368713, -0.26250743865966797, 0.12686793506145477, -0.03928189352154732, 0.10909507423639297, -0.12381867319345474, -0.024333951994776726, 0.16765417158603668, -0.10490553826093674, 0.14260470867156982, -0.12624087929725647, -0.03903457522392273, -0.09387201070785522, 0.09989475458860397, -0.2545088231563568, 0.11248911172151566, -0.20628754794597626, -0.09435545653104782, 0.0345798023045063, -0.14229682087898254, -0.20085136592388153, -0.10812253504991531, 0.06021227315068245], [0.06689725816249847, -0.2049049586057663, -0.3000039756298065, -0.32670605182647705, 0.0716305524110794, -0.26316720247268677, 0.05327926203608513, 0.019309863448143005, 0.13505306839942932, -0.09414520114660263, -0.14519374072551727, -0.1413387656211853, 0.11088652163743973, -0.16589418053627014, -0.16273830831050873, -0.23677116632461548, 0.1441965103149414, 0.0036858757957816124, 0.11844842880964279, 0.1356385052204132, -0.08244527876377106, -0.21495336294174194, -0.10860011726617813, -0.0584922656416893, 0.06876363605260849, -0.06380454450845718, -0.1359977275133133, 0.015703536570072174, -0.08973975479602814, -0.04894936829805374, -0.15212708711624146, 0.008787154220044613], [-0.1550023853778839, 0.10595588386058807, -0.10835451632738113, -0.0027488372288644314, 0.0799756795167923, 0.023695657029747963, 0.12380018830299377, 0.050674233585596085, 0.1294432282447815, 0.03678654506802559, 0.06999588757753372, -0.07684025913476944, -0.09525516629219055, 0.08441181480884552, 0.046383533626794815, -0.054634734988212585, -0.14911270141601562, 0.007343181408941746, 0.11450767517089844, -0.02040967345237732, 0.04061280936002731, 0.042356912046670914, -0.17458094656467438, -0.06729495525360107, -0.06557796895503998, -0.14305830001831055, 0.10804738849401474, 0.1752718836069107, 0.028221236541867256, 0.12515881657600403, -0.17935281991958618, 0.031143400818109512], [-0.022867238149046898, -0.1984790414571762, -0.050457458943128586, -0.033309243619441986, -0.05560692399740219, 0.026444191113114357, 0.08487207442522049, 0.1038486510515213, 0.010247479192912579, 0.0021062714513391256, -0.04078713059425354, 0.02439575456082821, -0.1146252453327179, -0.02175930142402649, -0.14948810636997223, -0.17969971895217896, -0.15057623386383057, 0.08307161182165146, -0.10159356147050858, -0.014266160316765308, 0.018898984417319298, 0.09836394339799881, 0.08022831380367279, -0.18810313940048218, 0.1729009747505188, -0.2092413455247879, 0.022984109818935394, 0.1615217924118042, 0.15347395837306976, -0.050362009555101395, -0.1713225245475769, 0.07762277871370316], [0.14113330841064453, -0.2950160503387451, -0.22428759932518005, -0.3047672212123871, -0.10295924544334412, -0.12313877046108246, 0.08762706816196442, -0.2245168834924698, -0.1706443727016449, -0.07343273609876633, -0.29819589853286743, -0.042587198317050934, 0.06424429267644882, -0.14706623554229736, -0.0082516148686409, -0.33711761236190796, -0.1252726912498474, -0.2896485924720764, -0.0601898729801178, -0.0895688384771347, 0.027210215106606483, -0.049394965171813965, 0.13329452276229858, -0.11096233874559402, -0.0011697435984387994, -0.1873515397310257, 0.12003186345100403, -0.10124538838863373, 0.12606969475746155, -0.19804799556732178, -0.30484405159950256, 0.04689254239201546], [-0.06864578276872635, -0.16679558157920837, -0.04621129482984543, -0.11242923140525818, -0.0042757815681397915, -0.24002498388290405, -0.0844162181019783, -0.1915236860513687, -0.035602789372205734, -0.08136507123708725, -0.1719447672367096, 0.1597035974264145, -0.09690150618553162, 0.09927476942539215, 0.0821208581328392, -0.07093007117509842, 0.04769103229045868, -0.2332543432712555, 0.07295813411474228, -0.08326105773448944, -0.10850857943296432, -0.0035168714821338654, 0.14652800559997559, -0.30754920840263367, 0.14358748495578766, -0.12040373682975769, 0.045312583446502686, 0.17038913071155548, -0.010056787170469761, -0.10023663938045502, -0.06334473192691803, -0.045663874596357346], [-0.04948192834854126, 0.032688550651073456, 0.2967526614665985, 0.1664169430732727, 0.09898828715085983, 0.09397167712450027, 0.012372206896543503, -0.005756757687777281, 0.0501912496984005, -0.12797750532627106, 0.09764894098043442, -0.03316948562860489, -0.072180837392807, 0.16349872946739197, 0.04950813204050064, 0.19135786592960358, -0.11636430770158768, 0.1295296847820282, 0.047371771186590195, 0.09176812320947647, -0.052162837237119675, 0.07169946283102036, -0.14352348446846008, 0.22679735720157623, 0.11800847947597504, 0.17030908167362213, 0.08984072506427765, 0.10588036477565765, 0.17195865511894226, 0.05892711877822876, 0.16384465992450714, 0.05560242012143135], [-0.09988581389188766, -0.013163582421839237, -0.0006707200082018971, -0.19982188940048218, -0.050412800163030624, -0.1280132234096527, -0.1129530668258667, 0.1015147864818573, 0.13906779885292053, -0.023466434329748154, 0.05850164592266083, -0.041401881724596024, 0.037479907274246216, -0.029593640938401222, -0.09196178615093231, -0.09179843962192535, 0.17559444904327393, 0.013950785622000694, -0.09667134284973145, 0.020067082718014717, -0.1763620674610138, -0.012233048677444458, 0.1357032209634781, 0.010689983144402504, 0.04211883991956711, -0.1852640062570572, -0.033249709755182266, 0.10431306809186935, -0.1285434514284134, -0.08892174065113068, 0.09562898427248001, 0.050766490399837494], [0.08299003541469574, -0.24274073541164398, 0.01724475435912609, -0.0962749794125557, -0.05684364214539528, 0.06573609262704849, -0.1629103124141693, -0.029652388766407967, -0.15981020033359528, 0.13773111999034882, -0.027403252199292183, 0.019669849425554276, -0.07081878185272217, 0.06665104627609253, -0.09175672382116318, -0.05086403340101242, 0.14845412969589233, -0.20876263082027435, -0.050438690930604935, 0.04128937050700188, 0.030684612691402435, -0.08901867270469666, 0.15208451449871063, -0.14407959580421448, 0.04559991881251335, 0.028616921976208687, -0.034275542944669724, 0.11551167815923691, 0.11549074947834015, 0.0695682242512703, -0.11956817656755447, 0.153549924492836], [-0.10019922256469727, 0.07577741146087646, 0.05901246517896652, 0.15908057987689972, -0.12345733493566513, 0.050794005393981934, -0.10180400311946869, 0.1124066486954689, 0.060703955590724945, -0.15104323625564575, 0.009343155659735203, 0.04945051670074463, 0.07530514150857925, 0.15726716816425323, 0.07938896119594574, 0.05370265990495682, 0.09429872781038284, -0.146466925740242, 0.11786197125911713, -0.02078437991440296, 0.10004917532205582, 0.06507093459367752, -0.009322376921772957, 0.1372743546962738, -0.1030532568693161, 0.07039397209882736, 0.07749458402395248, -0.06291167438030243, 0.05233890935778618, -0.18595393002033234, -0.06260617077350616, 0.08594972640275955]], "bias": [0.25736960768699646, -0.24345946311950684, 0.0584120936691761, 0.2441292107105255, 0.1682872772216797, -0.30797281861305237, -0.006464641075581312, -0.26301446557044983, -0.38202497363090515, -0.09363384544849396, -0.1947409063577652, 0.33135148882865906, -0.1600673645734787, 0.06447568535804749, -0.25037282705307007, 0.033375222235918045, -0.1312156766653061, 0.12750650942325592, 0.14254692196846008, 0.1593090444803238, -0.2660967707633972, 0.13087593019008636, -0.16427095234394073, 0.17022588849067688, -0.025974152609705925, -0.15931272506713867, -0.1637861132621765, -0.1990659534931183, 0.03864119574427605, -0.06158234551548958, -0.10166346281766891, 0.3001345098018646, 0.009969827719032764, 0.16425246000289917, -0.18177378177642822, 0.17988331615924835, 0.008094249293208122, 0.15659499168395996, 0.02442101575434208, 0.007023741956800222, 0.19082221388816833, 0.006157267838716507, -0.21076612174510956, 0.17062856256961823, 0.018384549766778946, -0.17438122630119324, 0.16846466064453125, -0.2282928228378296, -0.10127413272857666, -0.22426067292690277, -0.067019984126091, -0.1481410562992096, 0.09070328623056412, 0.18431609869003296, -0.21955502033233643, -0.15775543451309204, -0.17523983120918274, -0.039168037474155426, -0.11389709264039993, -0.24785594642162323, 0.1395256370306015, -0.18892163038253784, 0.12106458842754364, 0.059478286653757095]}, "prelu": {"num_parameters": 32, "weight": [0.8186108469963074, 0.6492622494697571, -0.0033871172927320004, 0.8185933828353882, 0.021306108683347702, 0.7829592227935791, -0.0009557985467836261, 0.6247425079345703, 0.9990537166595459, 0.3639109134674072, 0.1921200305223465, 0.7294104695320129, 0.6752983927726746, 0.0004543208924587816, 0.9463942050933838, 0.1414526253938675, 0.03992081061005592, 0.192769393324852, 0.3263351023197174, -0.015546971000730991, 0.7128971219062805, 0.16701999306678772, 0.2052980214357376, 0.3878834843635559, -0.0024866892490535975, -0.00025718696997500956, 0.06517545878887177, 0.25806522369384766, 0.13174493610858917, -0.001609650207683444, 0.21771438419818878, 0.4903099536895752]}, "res": {"in_channels": 1, "out_channels": 32, "kernel_size": 1, "dilation": 1, "groups": 1, "weight": [[[0.30208495259284973]], [[-0.5546271204948425]], [[1.2279047966003418]], [[0.3192683160305023]], [[-1.3352142572402954]], [[-0.24534086883068085]], [[1.4445793628692627]], [[-0.39249512553215027]], [[-0.760568380355835]], [[-0.9844942092895508]], [[0.5183640122413635]], [[-0.3270116150379181]], [[-1.0950788259506226]], [[-1.361006736755371]], [[0.3674437701702118]], [[1.3425228595733643]], [[1.6531513929367065]], [[-0.573632001876831]], [[0.9379553198814392]], [[-1.5453332662582397]], [[0.9772343039512634]], [[1.5411664247512817]], [[1.070926547050476]], [[-0.8836228847503662]], [[1.5600720643997192]], [[-1.6871600151062012]], [[-0.5952790379524231]], [[-0.8023520112037659]], [[-1.5856602191925049]], [[-1.3194786310195923]], [[-1.3944706916809082]], [[0.6508916020393372]]], "bias": null}, "causal": true}, {"conv1": {"in_channels": 32, "out_channels": 32, "kernel_size": 13, "dilation": 10, "groups": 1, "weight": [[[0.022039588540792465, 0.09012041240930557, 0.05823642387986183, 0.10722768306732178, 0.07620696723461151, 0.10689819604158401, 0.0851532369852066, -0.06252306699752808, -0.0695987343788147, -0.008690301328897476, 0.1327938735485077, 0.20863433182239532, 0.15180081129074097], [0.03652685135602951, 0.10143030434846878, 0.10354441404342651, 0.11929811537265778, 0.07384752482175827, 0.08259039372205734, 0.09215925633907318, -0.033941492438316345, -0.006295105442404747, -0.0691661462187767, 0.02221640571951866, 0.18753479421138763, 0.09668130427598953], [-0.3856697976589203, -0.5408452749252319, -0.6588504910469055, -0.7073741555213928, -0.7446773648262024, -0.6565737724304199, -0.42501384019851685, 0.11866118758916855, 0.38584959506988525, 0.4907941222190857, 0.6322457790374756, 0.6352342963218689, 0.09609037637710571], [0.04192914813756943, -0.017474278807640076, 0.0012738596415147185, 0.018353600054979324, 0.05034143105149269, 0.013193531893193722, 0.04560747742652893, 0.057961758226156235, 0.053959134966135025, 0.03346977010369301, 0.0353025458753109, -0.010608850046992302, -0.11630839854478836], [0.2073102742433548, 0.2320346236228943, 0.36839771270751953, 0.2878147065639496, 0.32760074734687805, 0.22917993366718292, 0.12433397769927979, -0.10026119649410248, -0.31352269649505615, -0.4426324665546417, -0.5490083694458008, -0.6396209001541138, -0.37279605865478516], [0.019254984334111214, 0.022028077393770218, -0.009294782765209675, -0.010384260676801205, -0.04933375120162964, 0.0015583534259349108, -0.0991358608007431, -0.0007132452446967363, 0.010701430961489677, -0.0052120196633040905, 0.07219918817281723, -0.0398603230714798, -0.17866797745227814], [-0.2651580572128296, -0.3429582715034485, -0.35280776023864746, -0.3465203642845154, -0.3862614631652832, -0.2939321994781494, -0.18793335556983948, 0.10365691035985947, 0.3188801407814026, 0.4597601294517517, 0.6284279823303223, 0.9199938774108887, 0.42828643321990967], [0.02017246000468731, -0.049057312309741974, -0.030343135818839073, -0.030333533883094788, -0.05733834207057953, -0.07412561774253845, -0.09760472178459167, -0.0033532921224832535, 0.05526871979236603, 0.07301890850067139, -0.06989195942878723, -0.15128052234649658, -0.2052105814218521], [-0.0019583688117563725, 0.004846222698688507, 0.06117864325642586, 0.07411207258701324, 0.09201563894748688, 0.09271550923585892, 0.09267924726009369, 0.051780205219984055, -0.03076222538948059, -0.05930858477950096, -0.03883666917681694, 0.2626171112060547, 0.2408287227153778], [-0.03818459436297417, -0.0762287974357605, -0.08543094992637634, -0.07248186320066452, -0.08705993741750717, -0.12225212901830673, -0.07565773278474808, 0.02956804446876049, 0.01669764705002308, -0.022399721667170525, -0.18879111111164093, -0.43913406133651733, -0.10884522646665573], [-0.12039915472269058, -0.17632247507572174, -0.16837236285209656, -0.19319625198841095, -0.158062145113945, -0.1420602947473526, -0.0982074961066246, 0.0249482374638319, -0.026288246735930443, -0.052984289824962616, -0.1581786721944809, -0.1210571825504303, -0.06810788065195084], [-0.0026390112470835447, 0.03762634098529816, -0.0079005416482687, -0.028196822851896286, -0.025760594755411148, -0.0772562026977539, -0.06647166609764099, 0.0012211032444611192, -0.014278808608651161, 0.042566247284412384, 0.05125858262181282, -0.10735108703374863, -0.218867689371109], [0.026960251852869987, 0.10278092324733734, 0.09352832287549973, 0.10343196988105774, 0.08184082061052322, 0.08551216125488281, 0.07493084669113159, 0.0098257502540946, -0.05255560576915741, -0.03150322660803795, 0.018005670979619026, 0.14760646224021912, 0.237344890832901], [0.19929441809654236, 0.1924915611743927, 0.3183808922767639, 0.2542864680290222, 0.3365536630153656, 0.25278934836387634, 0.15764343738555908, -0.0926944762468338, -0.22449252009391785, -0.2884659469127655, -0.5054450631141663, -0.604245662689209, -0.33902132511138916], [-0.022603880614042282, -0.003535544965416193, -0.009957957081496716, 0.003965060226619244, -0.038911353796720505, -0.042079076170921326, 0.018818316981196404, 0.011126683093607426, 0.025769511237740517, 0.03308934345841408, 0.029689181596040726, 0.14043638110160828, 0.10605217516422272], [-0.17150680720806122, -0.16477128863334656, -0.08766008913516998, -0.11336886882781982, -0.0629090890288353, -0.06930596381425858, -0.16940881311893463, -0.17946964502334595, -0.10955944657325745, -0.04004530981183052, 0.12436285614967346, 0.11807586252689362, 0.07258894294500351], [-0.22261357307434082, -0.4134710729122162, -0.4476519525051117, -0.47763070464134216, -0.46310099959373474, -0.37450575828552246, -0.22798945009708405, 0.07059106975793839, 0.38083645701408386, 0.4147574007511139, 0.6794727444648743, 0.8739863634109497, 0.44739994406700134], [-0.02989664487540722, -0.08141736686229706, -0.06201315298676491, -0.11994785070419312, -0.09545287489891052, -0.13150548934936523, -0.11194822937250137, -0.1154971569776535, -0.07747456431388855, -0.04243145138025284, -0.13849596679210663, -0.3016277253627777, -0.2066778987646103], [-0.04864993318915367, -0.007050144486129284, 0.051729969680309296, 0.038124602288007736, 0.0445922389626503, 0.018069973215460777, 0.0827372819185257, 0.020100872963666916, 0.026804637163877487, 0.046424493193626404, 0.03821449354290962, 0.158411905169487, 0.24548082053661346], [0.3139898478984833, 0.363531231880188, 0.3950648009777069, 0.39849913120269775, 0.3585585653781891, 0.28614258766174316, 0.1111680418252945, -0.22738006711006165, -0.33190688490867615, -0.4350994825363159, -0.6264783143997192, -0.9189192652702332, -0.5062129497528076], [-0.012619679793715477, -0.04557589069008827, 0.02432512678205967, 0.05526379868388176, 0.02374381758272648, 0.05736042559146881, 0.0461341068148613, 0.05369870737195015, 0.03366054594516754, 0.026959162205457687, 0.04916434735059738, 0.13153387606143951, 0.2260989099740982], [-0.18241259455680847, -0.23102343082427979, -0.2510240077972412, -0.22308120131492615, -0.20156186819076538, -0.164880633354187, -0.10347235947847366, 0.11805227398872375, 0.20824290812015533, 0.14426109194755554, 0.018455244600772858, -0.16027280688285828, -0.16693992912769318], [-0.10841323435306549, -0.06638584285974503, -0.09992522746324539, -0.044601548463106155, -0.08031726628541946, -0.036336906254291534, -0.014550515450537205, -0.08470173180103302, -0.04864586889743805, -0.09033187478780746, 0.05967390164732933, 0.11716625094413757, 0.05785539746284485], [-0.027896231040358543, -0.02835499867796898, -0.014895018190145493, -0.06205598637461662, -0.044242776930332184, -0.06792959570884705, -0.13192079961299896, 0.00395083986222744, -0.008056137710809708, -0.04653222858905792, -0.08910102397203445, -0.09403778612613678, -0.2574692368507385], [-0.30014321208000183, -0.29168733954429626, -0.3811814486980438, -0.36161378026008606, -0.40504053235054016, -0.3365391194820404, -0.17701180279254913, 0.10790444910526276, 0.31334662437438965, 0.36508908867836, 0.6337793469429016, 0.9068456888198853, 0.40713533759117126], [0.2939569056034088, 0.3930412530899048, 0.40280553698539734, 0.38596177101135254, 